108 128
8 0.02028747 0.038677912 0.06128842 0.016571628 0.009631857 -0.009760203 0.14929856 -0.004269755 -0.14434142 -0.00022663486 -0.0767106 0.037638754 0.12020674 -0.21436691 0.22169021 -0.10586225 -0.12788433 0.026617354 -0.037512794 0.064744405 -0.07940464 -0.11647493 0.10964542 -0.02709861 -0.036427896 -0.023528509 -0.006053922 0.14063255 0.051305946 -0.011993083 -0.025445826 0.019266265 -0.061062813 -0.08820341 0.0568631 0.1162259 0.05790209 0.10211536 0.086033255 -0.054698475 0.19726424 0.043552253 0.22375391 -0.08483408 -0.030496836 0.24204324 0.020694142 0.058886316 0.13835421 0.12883241 0.10884059 -0.031658098 0.08863372 0.13335148 -0.11467595 -0.08183017 0.01706563 0.09014709 -0.23449084 0.053432215 0.023903739 0.06580985 -0.08995942 -0.001244283 -0.008004612 -0.029465385 0.030653458 -0.095605865 0.008969558 -0.0919355 -0.03981814 -0.25241074 -0.048958883 0.01515817 -0.08106506 0.15079974 -0.18301977 -0.04212202 0.013124833 -0.14029546 0.004298345 0.18421124 -0.016831048 -0.1632096 0.08017324 -0.10351926 0.102134764 0.19459012 -0.012709133 0.068554744 -0.0023727966 -0.079410605 -0.22721781 -0.03508408 0.0003296899 0.007953721 -0.027825179 0.06707462 0.022001658 0.0116353305 0.13379595 -0.1275924 -0.019322984 0.008089467 0.15920709 0.24221052 -0.033388462 -0.06759538 -0.10171677 0.021186542 0.03287844 -0.3989072 0.14148606 0.14871599 -0.03615213 0.07069052 -0.16169702 -0.043547414 0.04208597 0.05968381 0.09186163 0.109203495 0.112870045 -0.07841354 0.22723952 0.09591988 0.07719276 0.029178238
5 -0.14677103 0.089763924 -0.19315778 0.27400458 -0.20250644 -0.06412871 -0.11610889 0.092686616 -0.22024766 -0.059462167 0.0125741735 0.034547493 0.22725438 -0.06860692 0.19279735 0.08036514 -0.21581784 0.12304003 0.019350525 0.13514175 -0.3477188 0.003908875 0.05179145 -0.064141005 -0.2606186 -0.020885943 -0.016253492 0.023238147 0.081431374 -0.009568464 -0.17533858 0.36145693 0.12182109 -0.14703976 0.22603317 -0.086047076 -0.16991904 0.07333232 -0.046542674 -0.14531378 0.09150147 -0.1243553 0.24171698 0.027753193 -0.1465185 0.38204288 0.03060195 0.21780804 0.020430423 0.26660386 0.1502101 0.23814254 0.25672406 0.3869604 -0.0694067 -0.1895522 -0.13348891 -0.007879606 0.060133882 0.15323354 0.0069706757 -0.07251398 -0.18764219 -0.22633852 0.22514656 -0.26299533 -0.07192695 -0.08640805 -0.18747038 -0.22079074 -0.16743152 -0.02468065 -0.19989043 0.16530088 -0.13996667 0.22204152 -0.0592527 -0.012333182 0.12276227 0.07626105 -0.02293555 0.33728543 0.1346247 -0.17911935 -0.1026956 -0.26656926 -0.15328225 0.31928396 0.032034986 0.122463696 -0.030240402 -0.2582943 -0.09278926 0.10415114 -0.017990667 -0.08719905 -0.18162797 0.097041674 0.17208987 0.075469404 -0.11346484 -0.1462838 -0.03209437 0.06267645 -0.1789394 0.1481218 0.11943497 -0.19389777 0.104465246 -0.10361706 0.19799758 -0.5503589 0.22464073 0.11016722 0.12572719 0.1528266 -0.52673656 0.055857766 0.04105607 0.13148457 0.15870905 -0.13156539 0.06390994 -0.2098182 0.25498545 -0.010674468 -0.003403593 -0.07211796
12 0.098816134 -0.12452722 -0.08545677 0.14769833 -0.07342872 0.001994596 0.24117222 0.23269455 -0.3675215 0.012205505 -0.13075347 0.25875187 0.07730628 -0.07035511 0.039676473 0.05815077 -0.20009734 -0.013471798 -0.2579634 0.245784 0.12507392 -0.038868353 0.32121462 0.005480115 0.066726066 -0.14080973 0.054080047 0.24326894 0.116347164 -0.008915975 0.07929743 -0.12120152 -0.18643881 -0.14504525 0.14047086 0.16369925 -0.061754495 -0.0064206864 -0.21668546 0.02035723 0.050980207 0.09423045 0.3474698 0.037305538 0.009150705 0.0007854636 0.04372004 0.046521183 -0.035340264 -0.051016472 0.06449788 -0.12876453 0.20006616 0.2726304 -0.029059414 0.2744653 0.022717316 0.12476237 -0.3292575 -0.1554522 -0.15583935 -0.00578175 -0.15232186 -0.0095250895 -0.04478954 0.04209665 0.09362704 -0.2882322 -0.009070798 -0.21531822 0.0042217704 -0.20110595 -0.063384406 0.09376359 0.007807119 0.26729906 -0.12141074 0.053845588 0.08416057 -0.2593015 0.049865633 0.1405282 -0.07773559 -0.08970209 0.056895226 -0.057728745 0.18411292 0.40665415 0.3195387 0.17808712 0.009228841 -0.13777821 -0.18862139 -0.053200826 -0.0018393787 0.10181423 0.15339158 -0.060509518 0.18232365 0.087475896 0.06598598 -0.16856124 -0.15142116 -0.031119231 0.2119981 0.09740316 0.07268789 0.123480245 0.08809788 -0.01552061 0.21266271 -0.2601826 0.08303547 -0.023057431 -0.11825634 0.2874011 -0.21898292 -0.10773767 0.119157575 -0.04818488 0.18207787 0.26377854 0.017680902 -0.05526686 0.04556458 -0.13927217 0.19423778 -0.08128192
13 -0.019708926 0.048525438 0.17534941 0.06378933 -0.08712063 0.07833371 0.28453052 0.056904905 -0.22102426 0.03188353 -0.14405642 0.12888873 -0.06260097 -0.064374685 -0.07212774 -0.06899052 -0.3028153 0.01275363 -0.23169279 0.20010293 0.01163965 -0.024331154 0.33569187 -0.2900124 -0.07876266 0.0009840816 -0.08438069 0.06065331 0.11221487 -0.04455613 0.052622236 0.045158762 -0.052053384 -0.16226603 0.03498446 -0.06121768 -0.06946586 -0.11803301 -0.2628375 -0.10440141 -0.08011165 -0.019867089 0.32513177 0.055218488 -0.08760123 0.14222588 -0.07041629 0.021933805 -0.08954967 -0.027972186 0.071449965 -0.20718873 0.32311264 0.32211593 -0.0028376845 0.08342319 0.10355362 0.10890349 -0.08278454 -0.16636053 0.0041314624 -0.09987812 -0.11506675 0.0074749365 0.01045933 0.09139312 0.117872134 -0.3104246 -0.026422521 -0.32682356 -0.09648898 -0.05575765 0.036726482 0.102223754 -0.019335702 0.12687029 -0.048894454 0.12039591 0.022763621 -0.114115044 -0.17648765 0.14472371 -0.14034308 -0.21045336 -0.07056147 -0.10056584 -0.018002544 0.46842903 0.100353345 0.15908878 -0.08827773 -0.070558116 -0.0477451 -0.016693164 0.01158529 -0.09735405 -0.045594927 -0.058527257 0.17049347 -0.028177964 -0.0354201 0.06836097 -0.04844461 -0.12244997 0.06284582 0.072543085 0.00013402496 0.034944404 -0.13422748 -0.11865735 -0.015626403 -0.287032 0.14316678 -0.10639983 -0.2026533 0.25456753 -0.039645907 -0.093699135 0.00022726209 -0.027069226 0.21396169 0.27896452 0.08018249 0.061377548 0.07558581 -0.08878091 0.092819095 0.04281061
22 -0.019218873 0.051650442 0.101040296 0.055184398 -0.05134387 0.018778285 0.20333965 -0.014113703 -0.13386075 0.021329397 -0.086974934 0.0723912 0.036648504 -0.13497949 0.08272385 -0.08064237 -0.14290057 -0.01750555 -0.08877514 0.10027916 -0.04712233 -0.060003765 0.18018514 -0.118498966 -0.04709064 0.0051767216 -0.04588535 0.0889987 0.066577695 -0.015211004 0.01675078 0.075250626 -0.032639865 -0.14972477 0.06715484 0.03880389 0.021379873 0.0030845455 -0.050408904 -0.098285586 0.09469811 0.03898653 0.2552346 -0.03979742 -0.059436116 0.21827441 -0.019667026 0.07759648 0.060323827 0.038439162 0.10862542 -0.106422015 0.15152043 0.1818616 -0.07285106 -0.05039073 0.064958535 0.07866991 -0.11992893 -0.03363255 0.023559654 -0.010884456 -0.08731355 -0.00851027 -0.030430004 0.032445494 0.04342076 -0.20954692 0.00090530416 -0.19247143 -0.07184295 -0.13243674 -0.05036602 0.0752208 -0.08772298 0.11867968 -0.1152708 0.010218624 0.040101066 -0.101354256 -0.08623706 0.17593478 -0.046794668 -0.19043241 0.0048670806 -0.13264698 0.04741047 0.28267562 -0.00017878428 0.07958279 -0.026929202 -0.083412245 -0.15893258 -0.030077713 0.019805402 -0.06616201 -0.020624146 0.02283604 0.041903708 0.010849203 0.056621872 -0.072925925 -0.011665216 -0.059216112 0.124194816 0.1696503 -2.9439674e-05 -0.022060536 -0.12851587 -0.06527399 -0.017910386 -0.36568916 0.1548663 0.049955983 -0.12827572 0.11443211 -0.11890687 -0.034497824 0.06305928 0.036398318 0.1759279 0.17198552 0.07445337 0.0108373705 0.15850021 0.029369654 0.07324053 0.047276787
58 -0.13795672 0.045182962 -0.1557856 0.2260859 -0.21048582 -0.080200516 -0.07155066 0.15132761 -0.19359066 -0.057046685 0.011000838 0.023449333 0.1452924 -0.07539539 0.12220743 0.09780087 -0.21333759 0.12553596 0.005646871 0.12821344 -0.29579586 0.08144514 0.08658523 -0.04670307 -0.24121565 -9.9588884e-05 -0.016117113 -0.017682208 0.05006111 0.0064286557 -0.14600514 0.3166058 0.11344411 -0.16684118 0.21833797 -0.065811105 -0.22741419 -0.0050310036 -0.0994521 -0.1141697 0.045940474 -0.10546659 0.28405383 0.09348356 -0.1645515 0.39608145 0.020498952 0.21983604 0.024762066 0.26535708 0.16227037 0.21962501 0.2800303 0.40347305 -0.02578331 -0.14031763 -0.14005613 0.030092048 0.034575835 0.06603634 0.0025517158 -0.11789268 -0.20707773 -0.23297201 0.19538689 -0.20392726 -0.05265499 -0.11578921 -0.21847954 -0.2517481 -0.1530377 -0.041836202 -0.19896097 0.17318515 -0.06410614 0.24446893 -0.0800626 -0.0063165417 0.12612791 0.030576304 -0.0636601 0.319829 0.10027983 -0.16492964 -0.058970835 -0.25748345 -0.15501563 0.34695187 0.06008063 0.15418008 -0.048012655 -0.22991793 -0.106662706 0.13424136 -0.025444543 -0.10337604 -0.085635364 0.074448295 0.22025077 0.11315475 -0.11560387 -0.10724319 -0.049683742 0.086858824 -0.13425829 0.14199857 0.14692463 -0.1460378 0.09595429 -0.05270777 0.21842031 -0.50315976 0.21723382 0.073034525 0.13342874 0.15061545 -0.5178795 0.040316895 0.034119803 0.13273491 0.21419066 -0.078768395 0.09439576 -0.20226018 0.24791765 -0.030661814 0.015789328 -0.0633047
34 0.07001743 0.008406327 0.13481177 0.032377787 -0.06773345 0.05171653 0.30630893 0.11170006 -0.1822635 0.062600784 -0.13212724 0.10813155 -0.07945568 -0.0808485 -0.07251762 -0.0322069 -0.3120869 -0.01637155 -0.2624445 0.16484043 0.07553345 -0.0030423934 0.3523479 -0.22611126 -0.05154571 -0.031384062 -0.07398927 0.046440687 0.09022236 -0.007868982 0.07772097 -0.053284388 -0.07329894 -0.12872387 0.045731444 -0.019448513 -0.11706125 -0.12871243 -0.26863185 -0.08367152 -0.08534796 0.0039417013 0.31803676 0.07859657 -0.04043868 0.12720606 -0.051229432 -0.007122917 -0.049614444 -0.029252918 0.14706276 -0.21421355 0.30492815 0.30249757 0.0047084433 0.110625364 0.11317916 0.17689252 -0.2080437 -0.23578821 0.009810348 -0.112722926 -0.12563519 0.026660606 -0.027063975 0.121097036 0.105542034 -0.3270818 -0.012872907 -0.34080443 -0.09829555 -0.17333959 0.02546656 0.11469335 0.036751267 0.18512121 -0.1000161 0.077282414 -0.0005351055 -0.17155914 -0.1698856 0.15112741 -0.19342881 -0.22854257 0.051983703 -0.10298346 0.05916847 0.5070307 0.12650226 0.19382472 -0.07042146 -0.10630836 -0.15665852 -0.009816439 -0.0012012549 -0.14553618 0.02618717 -0.05648312 0.16788898 0.039095994 0.025113573 0.030528106 -0.081709616 -0.0926066 0.10305942 0.12304068 0.016440792 0.03128833 -0.14930557 -0.072761506 0.027720777 -0.29912537 0.17016228 -0.08362521 -0.17190163 0.2806888 -0.0696544 -0.11565546 0.044170488 -0.00027482238 0.2658524 0.31683257 0.11908703 0.046160415 0.1361277 -0.080276094 0.12296918 0.07139208
110 0.054801717 0.032653198 0.002741992 0.010325615 -0.03218132 -0.020823698 0.058785714 0.03752757 -0.060742076 0.05925073 -0.014342719 -0.08725513 0.11213223 -0.09010809 0.15098312 -0.07257102 -0.1481194 0.056288384 -0.019829214 0.04774688 -0.098719135 -0.08086869 0.11635222 -0.040843915 -0.055590127 -0.024574382 -0.007327667 0.1274594 0.1054025 -0.009724063 0.042954396 0.05919324 -0.008550526 -0.11034277 0.088478595 0.06841007 -0.01877946 0.071348876 -0.0077591855 -0.13411738 0.13005178 0.012070871 0.1895781 -0.060465246 0.002597765 0.28407678 0.021269847 0.05474906 0.079549104 0.087242536 0.15840182 -0.005246525 0.11150932 0.10469406 -0.075960584 -0.10689223 0.0290198 0.0988743 -0.19054542 0.017170042 0.06115643 0.017940143 -0.085673355 -0.014291375 0.06497682 -0.038369976 -0.008491463 -0.08195104 0.006158761 -0.08074077 -0.0720176 -0.20642117 -0.03982661 0.102879085 0.0054124463 0.168852 -0.13772897 -0.030468108 -0.036451597 -0.052242987 -0.009901253 0.1671862 -0.07316384 -0.1859183 0.10731356 -0.16424796 0.099981464 0.26622483 -0.040277697 0.055086456 0.010601662 -0.14251377 -0.24634843 0.03854779 -0.067472234 -0.118736625 -0.059452772 0.094858445 0.018507946 0.010362396 0.05743376 -0.11881174 0.026348054 0.008215596 0.065027654 0.2289974 -7.870593e-05 -0.15182278 -0.1095514 -0.01964349 0.070535354 -0.42856535 0.16397381 0.13940993 0.0467992 0.09437895 -0.24926786 0.0045362273 0.08411228 0.073613696 0.13407677 0.090057425 0.1186985 -0.087007426 0.26804116 0.071666725 0.032523565 0.031815305
123 -0.17504352 0.04447502 -0.16770096 0.2550773 -0.22057988 -0.1166146 -0.053820062 0.17027569 -0.26510483 -0.070046015 0.007802424 0.07158383 0.16303048 -0.07542583 0.1645324 0.114406906 -0.20568925 0.13722716 0.0012030193 0.16750751 -0.30544522 0.07482165 0.07380555 -0.018567445 -0.23479283 -0.01941984 0.015292616 0.0016230803 0.06805782 0.014545312 -0.16504964 0.3441922 0.10254848 -0.18127477 0.2534355 -0.051912464 -0.19608425 0.004515573 -0.07130126 -0.09981013 0.058137327 -0.09818315 0.28661525 0.12555906 -0.16921781 0.3558586 0.03729647 0.24681972 0.0084796315 0.2355387 0.13313276 0.23124309 0.25945085 0.434378 -0.009736717 -0.140894 -0.15968099 0.006915208 0.06857649 0.097220995 -0.012609364 -0.11676428 -0.22155988 -0.2528461 0.1957837 -0.2143337 -0.06485249 -0.13815697 -0.23207216 -0.27205586 -0.16193178 -0.02274303 -0.21508813 0.18763517 -0.0903016 0.2316181 -0.0818935 0.0019531727 0.14518122 0.019647092 -0.035608627 0.31360903 0.14825618 -0.14005207 -0.10183305 -0.28728467 -0.15929356 0.328409 0.084309764 0.14063026 -0.05444423 -0.23171626 -0.101890005 0.13443834 0.0009980388 -0.044724282 -0.08852574 0.06542703 0.2295191 0.11914396 -0.13932402 -0.15458493 -0.05159693 0.066805445 -0.124027185 0.09605615 0.16881551 -0.114292614 0.115183726 -0.083109155 0.22145239 -0.518083 0.22102068 0.0680387 0.103968546 0.14216396 -0.52743244 0.030868767 0.055398334 0.1243916 0.19907202 -0.09799949 0.041974947 -0.20788603 0.2064509 -0.04465032 0.019751817 -0.10125457
74 0.11430898 -0.13914324 -0.15820365 0.22861528 -0.102987066 0.0235706 0.19939958 0.3014887 -0.44874027 0.0047548944 -0.16446239 0.31594902 0.12613095 -0.04030511 0.03751606 0.07226908 -0.22142087 -0.0044371975 -0.27026635 0.30230865 0.13233362 -0.05331312 0.3429557 0.00030458404 0.065976515 -0.18285102 0.062017906 0.30286995 0.11692015 -0.031158883 0.050788525 -0.131159 -0.20871459 -0.12642959 0.16790853 0.17852174 -0.06427909 0.032363508 -0.24114947 0.028510747 0.06067493 0.08665551 0.3627276 0.018690962 0.015002922 -0.045675438 0.04412997 0.054918706 -0.065915324 -0.042218596 0.042080723 -0.11297771 0.22626965 0.3094935 -0.025700292 0.3191922 -0.0068454402 0.10627361 -0.3509288 -0.11662253 -0.21740527 0.023035381 -0.16648611 -0.0006733527 -0.010693733 -0.034702018 0.09481786 -0.27205646 -0.01530935 -0.19801377 0.021447014 -0.19493864 -0.07653113 0.085296616 -0.007356796 0.26980093 -0.092750765 0.052810885 0.10052491 -0.24417694 0.08805556 0.14261852 -0.06628589 -0.056469273 0.043953024 -0.0069087446 0.18811375 0.44365382 0.39809978 0.22900236 0.019547826 -0.15603872 -0.15554091 -0.07334124 -0.034719825 0.15753035 0.12801021 -0.0818683 0.21482436 0.07957794 0.0658399 -0.1517935 -0.17748532 -0.03332102 0.17640585 0.08474822 0.05790617 0.1544337 0.14903066 -0.041551866 0.27354887 -0.21721399 0.068939544 -0.032609634 -0.10667132 0.35100693 -0.2601751 -0.13385326 0.09740219 -0.076099746 0.15530758 0.24250159 0.008771171 -0.079606615 0.023731126 -0.18223669 0.21005489 -0.09787157
100 -0.055327956 0.073400535 0.12493562 0.010127029 -0.064941324 0.009292362 0.12173221 -0.08108911 -0.09285161 0.03410144 -0.028954657 -0.058692336 0.17350529 -0.15234296 0.20758545 -0.11874755 -0.046248 0.05001141 0.028191509 0.044839602 -0.15699664 -0.10614977 0.072425045 -0.042992167 -0.04934214 0.016953716 -0.006615754 0.123508714 0.11991153 0.0055144485 0.019238329 0.14593762 0.026020352 -0.18061459 0.10189247 0.07278086 0.07598441 0.08900444 0.08256163 -0.15876815 0.20397305 0.05355047 0.2012234 -0.107809566 -0.039414812 0.33304518 0.020656008 0.1184986 0.13288061 0.084099986 0.118515186 -0.028473925 0.041703604 0.09556012 -0.10343084 -0.21349213 0.05210181 0.018234283 -0.09662006 0.07876895 0.10293999 0.03567849 -0.090662405 -0.0116012525 0.0491766 0.029477676 -0.034006298 -0.118869126 0.017325906 -0.11957598 -0.06780741 -0.17759249 -0.09695676 0.10321787 -0.0942969 0.109112225 -0.1526819 -0.05366469 -0.026671395 -0.06665449 -0.031880498 0.18650764 0.010132888 -0.18251882 0.019953761 -0.2427826 0.096095905 0.17638966 -0.124649234 -0.006321774 -0.015201632 -0.12035428 -0.23676126 0.055726383 -0.011269511 -0.059060648 -0.07503623 0.14479645 -0.039942496 -0.03429186 0.041844063 -0.1995946 0.07966229 -0.06422062 0.14003026 0.20087247 0.033924278 -0.1176349 -0.13630067 -0.040862743 -0.04905317 -0.49416813 0.18986754 0.17528816 -0.041294824 0.022731435 -0.19940835 0.055291943 0.12533784 0.067568004 0.10028104 0.046958998 0.043758772 -0.016362457 0.2102527 0.14266244 -0.002447043 0.017691113
45 0.111174054 -0.1411311 -0.19042762 0.23606399 -0.07628048 0.022607345 0.21641798 0.27203572 -0.45976377 -0.013504127 -0.16099685 0.3675087 0.14592238 -0.06298249 0.07848521 0.07775564 -0.17526221 -0.03074922 -0.27117366 0.2986297 0.15344058 -0.07960832 0.32116693 0.054301254 0.08434025 -0.19353862 0.056746665 0.3144415 0.09295667 -0.03339524 0.029295875 -0.14780357 -0.2309881 -0.12041733 0.15424322 0.20759167 -0.028884621 0.06723459 -0.20617461 0.060512483 0.111046046 0.10453962 0.35292652 -0.018334756 0.016116537 -0.07152128 0.060170412 0.046688866 -0.04633934 -0.039376102 0.038688682 -0.12155593 0.18225867 0.29066575 -0.05392552 0.33774516 -0.008217675 0.09787798 -0.36790666 -0.10824292 -0.24627666 0.05922093 -0.13787779 -0.001234971 -0.05856188 -0.03452056 0.092946 -0.26494348 0.0093327975 -0.17334554 0.022929925 -0.19982961 -0.10023558 0.044278134 -0.048450474 0.26640943 -0.09587517 0.049123425 0.13994439 -0.27187034 0.10782769 0.14005043 -0.041260447 -0.027683081 0.040880755 0.019514829 0.21429132 0.38908413 0.41693684 0.2179883 0.038341362 -0.14970692 -0.14740264 -0.11039997 0.0006817201 0.20131738 0.14837511 -0.08506516 0.17951308 0.09513109 0.09475871 -0.18743639 -0.20079696 -0.01641661 0.21958156 0.1100787 0.037346277 0.16903472 0.17942512 -0.020924091 0.25081283 -0.20032898 0.036333244 -0.010733218 -0.14139368 0.33186477 -0.23998094 -0.11396107 0.09988859 -0.08703062 0.13895594 0.25042146 -0.011034465 -0.09047345 0.014400745 -0.19622351 0.23281662 -0.09559992
0 -0.043047868 -0.011769164 0.081613734 0.1051499 -0.08443161 0.032629658 0.2524533 0.067532614 -0.26419106 0.00014752655 -0.12566029 0.18975711 0.0031278934 -0.086122885 0.002922713 -0.020457748 -0.18292983 -0.0058303904 -0.19109741 0.1880897 0.024255075 -0.02547166 0.26480564 -0.13356619 -0.028811064 -0.025897559 -0.026778974 0.10343462 0.094912425 -0.02381474 0.035858624 0.024455998 -0.08763537 -0.17351356 0.07599422 0.03140748 -0.019621052 -0.06246652 -0.18262234 -0.046354964 0.0026490646 0.0378411 0.30933312 0.035293028 -0.071876824 0.09910763 -0.012053626 0.0697543 -0.038518157 -0.034115177 0.038001142 -0.15365358 0.2155905 0.27818775 -0.02006133 0.10720954 0.052560966 0.07371322 -0.11762306 -0.11683431 -0.0501562 -0.05887964 -0.117430985 -0.021441223 -0.02741309 0.08089428 0.104619175 -0.28120652 -0.028777601 -0.2745866 -0.054707743 -0.081846766 -0.023191778 0.077992834 -0.05321644 0.14080656 -0.077689946 0.081293605 0.06892062 -0.16551113 -0.08227785 0.1389479 -0.05830205 -0.13927945 -0.059660986 -0.09824482 0.034559682 0.34059605 0.13508497 0.10979609 -0.05838265 -0.06553482 -0.076858334 -0.04316793 0.048194245 0.019193957 0.02578793 -0.049157146 0.1461336 0.014075795 -0.0038559071 -0.05825743 -0.07426393 -0.07871664 0.1463952 0.060921468 0.03779139 0.08362932 -0.029656267 -0.06947341 0.026537199 -0.2700662 0.10976365 -0.04693027 -0.18327296 0.20119293 -0.0851078 -0.07146174 0.050103147 -0.025707614 0.18226913 0.23110317 0.018244054 0.017992763 0.037742388 -0.0905878 0.11118182 -0.026053097
4 -0.13872519 0.18228795 0.044742145 0.23890448 -0.03523239 0.089549206 0.1954141 -0.18860923 -0.25423512 -0.014471067 -0.10848268 0.2739925 0.1359384 -0.14070532 0.14946444 -0.07504003 -0.07341522 -0.08541878 -0.1011415 0.16568182 -0.10044606 -0.18629193 0.18237787 -0.14350429 -0.06732842 -0.02453564 -0.094643384 0.118391 0.084686585 -0.11044885 -0.059258133 0.15679096 -0.030586937 -0.17269088 0.060796205 -0.03303452 0.15362853 0.11725318 -0.022722041 -0.1272536 0.14797261 0.02569932 0.21976377 -0.18498081 -0.07379025 0.13726099 -0.009270829 0.10378029 0.008777794 0.044013128 0.040592175 -0.15640457 0.13837785 0.2329532 -0.2075957 -0.067043126 0.08240729 -0.05812906 0.033194836 0.0791859 -0.06155402 0.06275199 -0.0026802507 -0.03717019 -0.07227609 -0.004712878 0.03610957 -0.20491855 0.04662201 -0.22923343 -0.13125953 0.017384397 -0.13516766 -0.019678604 -0.3533986 0.078159146 -0.030635247 0.09102418 0.16741712 -0.029635452 -0.092668384 0.18002902 0.06130298 -0.17761579 -0.20963787 -0.11821838 0.026096085 0.1842369 -0.023316996 0.008532713 -0.07290857 -0.11040837 0.00022349207 -0.103191994 0.14387234 -0.049227644 -0.19390815 0.05410557 -0.06890476 -0.016806806 0.054368448 -0.14973982 -0.022551637 -0.13395837 0.10123366 0.16634968 -0.048131425 -0.03393059 -0.013718154 -0.1907847 -0.14707309 -0.35921082 0.11379853 0.10248512 -0.2913266 0.090562925 -0.035896342 0.082809865 0.074090704 0.021152668 0.115588315 0.12985346 -0.037045073 0.023278007 0.10097108 -0.041442852 0.047178514 0.03327748
17 -0.12184364 0.08195932 -0.040897023 0.23276293 -0.105195686 0.03450179 -0.0094438065 0.025238382 -0.23380892 -0.06388691 -0.0932654 0.13652293 0.16236873 -0.110667534 0.12161 -0.034508612 -0.1536361 0.075480714 -0.012773969 0.15548334 -0.1978129 -0.078370884 0.08960426 -0.15498707 -0.152127 -0.017035069 -0.039827053 0.08773657 0.024980977 -0.04078454 -0.13656949 0.23906404 0.016842544 -0.1217378 0.1007678 -0.035316214 -0.022024773 0.088859975 -0.019169569 -0.081633866 0.15124989 -0.06880518 0.23370804 -0.061991047 -0.17073321 0.25240874 -0.03039124 0.1549246 0.02259332 0.19396389 0.013758853 0.09631994 0.20377356 0.30544603 -0.086073585 -0.09127978 -0.07816032 -0.026616523 0.042064015 0.14187203 -0.03879742 0.0044893655 -0.13028453 -0.11979006 0.12321943 -0.20586288 0.05222245 -0.10659431 -0.10237483 -0.13525805 -0.06999006 0.021013413 -0.0915331 0.041114207 -0.19531298 0.09772466 -0.05493513 0.03133922 0.1475835 -0.00711154 -0.02117618 0.26076713 0.11215377 -0.13621381 -0.15053445 -0.08728885 -0.12281233 0.2377062 0.079349734 0.11259388 -0.039520405 -0.09890699 0.022102773 -0.0323657 0.0013180022 0.085011035 -0.15110387 0.0054693534 0.13885556 -0.02781644 -0.008879046 -0.041089628 -0.042108968 0.02035664 -0.041049063 0.124820255 -0.024409968 -0.044634998 0.044078775 -0.091711655 0.07749354 -0.36552304 0.13628307 0.05254533 -0.046415523 0.16232803 -0.2523845 -0.019570364 -0.07523635 0.011020921 0.091547795 0.0050953296 0.05174185 -0.09802928 0.1276944 -0.020937975 0.06756919 -0.039679144
97 0.08177108 -0.010585512 0.030738223 0.04909132 -0.044108726 0.024258664 0.16817164 0.045357056 -0.16684535 0.05004253 -0.08198745 0.03972155 0.15384527 -0.122789145 0.17566481 -0.0790804 -0.11528761 0.00013675749 -0.09507591 0.10820619 -0.012347429 -0.11861622 0.1727526 -0.015668945 0.031782467 -0.06904009 0.023005009 0.22259524 0.12855497 -0.010911216 0.0612539 -0.021382932 -0.0862438 -0.12326981 0.097404405 0.13966328 0.052168116 0.09773273 -0.009825468 -0.091253705 0.16408455 0.07942964 0.22931884 -0.10354204 0.033893354 0.17714344 0.03821252 0.051282793 0.08790651 0.01469739 0.11738633 -0.10193351 0.07860925 0.09530074 -0.10469593 -0.015126533 0.070627496 0.07770695 -0.2722431 -0.011041829 -0.007783941 0.074520595 -0.08968132 0.053801075 -0.006393483 0.030673796 0.0019039437 -0.14834245 0.053962518 -0.09009161 -0.013755855 -0.24497837 -0.058116056 0.084565364 -0.02365636 0.16590394 -0.1403002 -0.037282765 -0.03820493 -0.13458233 0.042996947 0.14364974 -0.06352393 -0.14099939 0.10182967 -0.1293102 0.20185825 0.26670483 0.041337747 0.072467364 0.033432003 -0.13314112 -0.26313415 -0.025688486 -0.047624726 0.0063025607 0.018970223 0.07804659 0.00019430317 -0.010541237 0.10535614 -0.19021092 -0.0069705793 -0.049194254 0.18116575 0.20650595 0.006649447 -0.04548729 -0.086058415 -0.01622384 0.06660246 -0.38198403 0.13887596 0.11919908 -0.053518612 0.13478594 -0.19021326 -0.03426219 0.12759714 0.019225476 0.089272134 0.14148013 0.062083866 -0.031789772 0.18078974 0.066319115 0.08225895 0.0031755327
10 0.07308088 -0.049250588 0.1510491 -0.02607235 -0.08011875 0.008951393 0.31419778 0.12799776 -0.1955725 0.067392096 -0.10232618 0.043347508 -0.02355409 -0.10775847 0.023467654 -0.045547 -0.22770181 0.0142286755 -0.21074389 0.15726888 0.06466523 -0.010662929 0.302366 -0.10298427 0.008531901 -0.026550068 0.013620727 0.12287323 0.15052362 0.026920721 0.12664093 -0.05962597 -0.09320067 -0.17415273 0.087438814 0.09169403 -0.06006613 -0.10174566 -0.181825 -0.07629516 -0.010025605 0.07418495 0.3213942 0.07644248 -0.0076484815 0.15685064 0.00037078775 0.029519605 0.0049169105 -0.07565117 0.13353807 -0.19081756 0.21131797 0.22120403 0.011023249 0.08881028 0.1068521 0.16795732 -0.26443276 -0.19911014 0.027631763 -0.072208025 -0.14472903 0.038915213 -0.021645067 0.17531662 0.06130125 -0.29989785 0.006849562 -0.2743794 -0.043407965 -0.23476659 0.0012331784 0.15114146 0.09823073 0.19034855 -0.15116832 0.034590114 -0.052465916 -0.21234047 -0.07792619 0.1278038 -0.15046848 -0.1795194 0.09786129 -0.16522638 0.14670171 0.43299446 0.096937224 0.13232237 -0.02709182 -0.11361128 -0.2653256 0.013233628 -0.02627104 -0.072005175 0.103225574 -0.0060916175 0.1158561 0.027124835 0.029143099 -0.08606933 -0.037346933 -0.09065166 0.20283574 0.11945172 0.070217565 0.03662405 -0.15921623 -0.02355218 0.06046797 -0.36131096 0.15947811 -0.027353417 -0.11743555 0.2019904 -0.13405211 -0.10296992 0.12397442 0.011197168 0.21254282 0.2804027 0.06878712 0.036527686 0.13077141 -0.001707926 0.10877361 0.006427474
32 0.070110895 -0.01826673 0.14486293 -0.06549968 -0.037659965 0.012851333 0.23651178 0.014718168 -0.088305116 0.06337495 -0.05508675 -0.072232254 0.09542389 -0.18092032 0.17785458 -0.09706245 -0.12971655 0.036281954 -0.07264735 0.060971178 -0.04254576 -0.08659013 0.17103247 -0.023232006 0.0017864807 -0.010369768 0.016005311 0.14089277 0.14479488 0.034833226 0.108182825 -0.025725488 -0.055438373 -0.15668315 0.08336463 0.13506337 0.015972469 0.020795291 -0.01513229 -0.11674859 0.14403701 0.09828071 0.24597663 -0.07160086 0.034399986 0.2821157 0.03624115 0.040894456 0.132531 0.011400337 0.1678476 -0.122928895 0.07922742 0.093688086 -0.07851995 -0.081858456 0.09637966 0.12837443 -0.29433408 -0.086956546 0.09769659 0.014701301 -0.11603013 0.05146851 -0.0020589714 0.14137511 0.023408268 -0.18045737 0.047446106 -0.14394158 -0.026338551 -0.31409806 -0.025122784 0.10891456 0.05370169 0.18733671 -0.19365264 -0.05369219 -0.100940436 -0.18131055 -0.010626693 0.14155479 -0.11232737 -0.20024067 0.15187329 -0.1840522 0.20148464 0.26996377 -0.04950124 0.0482245 0.0067502996 -0.12867294 -0.33366007 0.044068173 -0.038723692 -0.08355786 0.04815229 0.10759435 -0.00013797655 -0.014361777 0.10580502 -0.17183736 0.025894303 -0.044916302 0.23254491 0.2107075 0.027849508 -0.083572105 -0.18087432 0.035471223 0.005384002 -0.44555417 0.17052941 0.11756839 -0.036178157 0.08063188 -0.17189357 -0.023189878 0.16366708 0.05110227 0.14727749 0.18986323 0.091319434 0.000888565 0.22876586 0.11584499 0.05379789 0.022400811
1 -0.14701442 0.11521379 0.16460581 0.12193709 -0.052434836 0.02695853 0.2662705 -0.09584663 -0.2369822 -0.027299076 -0.10657003 0.18814951 0.061524972 -0.17733458 0.1340746 -0.10813306 -0.10584781 -0.029649574 -0.075059526 0.15848882 -0.09409457 -0.10160321 0.17480545 -0.13718364 -0.06805141 0.028820269 -0.04141882 0.0886001 0.095807955 -0.02687686 -0.029852752 0.16947885 -0.013146133 -0.19969545 0.060050536 0.0057155713 0.1154986 0.020106412 -0.01549559 -0.107057124 0.11624889 0.04106119 0.27272353 -0.03948913 -0.12997709 0.20006564 -0.025015987 0.13185877 0.027579924 0.019056607 0.029371075 -0.12121969 0.14587894 0.24730596 -0.09782399 -0.070326015 0.05980652 0.0032127025 0.020909775 0.029730018 0.0075777 -0.013005804 -0.068703115 -0.056391805 -0.060598128 0.055955257 0.03476807 -0.24003005 -0.012176551 -0.2567565 -0.100807704 -0.027997697 -0.09135132 0.043661464 -0.20894569 0.06660292 -0.090525836 0.074318 0.117888615 -0.08451657 -0.10035159 0.17592166 0.043443494 -0.15876539 -0.15514323 -0.17181556 -0.011915008 0.21044004 -0.02104928 0.028362067 -0.07952145 -0.062160213 -0.061239697 -0.059682906 0.10407333 0.0010439863 -0.072132416 0.011794678 0.008084358 -0.0038907737 0.018524094 -0.11393673 -0.0047601126 -0.104314394 0.1466051 0.111903094 0.0111783035 0.018271523 -0.111823075 -0.12376317 -0.10286219 -0.38230687 0.13171548 0.048627682 -0.24432431 0.07728309 -0.054776337 0.0056759934 0.062338516 0.028644184 0.142062 0.16149065 -0.015961017 0.026178025 0.06529087 0.012612073 0.061392456 0.0009300298
23 0.020612786 0.014491492 0.18305191 -0.06623612 -0.004707767 -0.014611776 0.1902112 -0.011319008 -0.07371034 0.0260789 -0.07736285 -0.07468562 0.06503682 -0.2369943 0.1994445 -0.16140424 -0.13769089 0.06416494 -0.025704347 0.03205129 -0.09064913 -0.07933321 0.11823152 -0.077817746 -0.040048424 0.026890887 -0.005180425 0.11111682 0.08207537 0.013626413 0.02663829 0.047533166 -0.050250545 -0.14350711 0.05438567 0.1196344 0.05436239 0.030350063 0.06844799 -0.09543163 0.18912317 0.05839862 0.25151408 -0.06272936 -0.058295175 0.34845525 0.003847856 0.06323165 0.16450746 0.093216285 0.12366444 -0.054200888 0.10079377 0.11566719 -0.076974265 -0.13485712 0.045097552 0.12706192 -0.22455364 0.0072358437 0.11031134 0.034165174 -0.12711619 0.016098011 0.019300263 0.024549453 0.051213495 -0.14448828 0.00155515 -0.10303632 -0.02187295 -0.262466 0.0069744787 0.055921223 0.002058209 0.14133924 -0.22218241 -0.044809744 -0.05607591 -0.15227747 -0.033127926 0.18132319 -0.053192805 -0.20541652 0.10559914 -0.15352352 0.09674399 0.23760088 -0.07899081 0.04557186 -0.0074660988 -0.051565584 -0.26476735 -0.004317469 -0.03030596 -0.021683997 -0.0055810115 0.07488615 0.043416742 -0.037418988 0.118910916 -0.09014619 0.030791583 0.0017933288 0.20929584 0.23424897 -0.029399857 -0.07238123 -0.20499179 0.03503549 -0.0029514532 -0.46273574 0.17379755 0.11291565 -0.023419 0.052608613 -0.15257016 -0.06379151 0.04009908 0.05438462 0.13217604 0.15744148 0.14249557 -0.028291615 0.24595569 0.14059675 0.06912932 0.042094663
36 -0.18416096 0.03704293 -0.1296599 0.21421401 -0.21793212 -0.14872876 0.0071882685 0.14350174 -0.24223518 -0.04595631 0.04042855 0.062600516 0.11570281 -0.07945573 0.15791824 0.10207122 -0.1767272 0.116786756 -0.006015868 0.1585784 -0.2649364 0.10068694 0.09748221 0.027323537 -0.20143613 0.0005485125 0.01670288 -0.009198037 0.086771496 0.025322141 -0.11788242 0.3184468 0.114479676 -0.22707203 0.26246995 -0.03994755 -0.20383693 -0.052664 -0.0689217 -0.10508782 0.029107725 -0.05457829 0.29527843 0.15948266 -0.15414421 0.35778543 0.054019116 0.24217907 0.006836911 0.18684873 0.16701123 0.19031478 0.22287475 0.40447527 0.005296515 -0.13527714 -0.13541742 0.019687826 0.06605764 0.034646895 0.011268585 -0.14311121 -0.20234436 -0.2605383 0.13614005 -0.12714174 -0.07983874 -0.17506295 -0.21163553 -0.30177954 -0.17565967 -0.025668424 -0.25016657 0.20464735 -0.054117817 0.23002774 -0.10199535 0.011426358 0.14057067 -0.0055455095 -0.06529057 0.27058575 0.1283113 -0.13070685 -0.08357895 -0.33707818 -0.122318506 0.3028775 0.041322198 0.112928316 -0.06901785 -0.22746189 -0.14940284 0.15527552 0.027715055 -0.10909016 -0.051288936 0.080359146 0.19365558 0.1528776 -0.14102969 -0.18577932 -0.045317683 0.0431422 -0.070745 0.10274023 0.19441567 -0.11261459 0.08714705 -0.08016021 0.19067329 -0.53526413 0.21785545 0.08717616 0.07893798 0.09903817 -0.5150132 0.055780187 0.11798229 0.15588634 0.23707862 -0.056403283 0.028927054 -0.1780825 0.21810003 -0.038137093 0.0007582142 -0.08611065
37 -0.15414914 0.02266871 -0.2192135 0.24810013 -0.2204089 -0.14297794 -0.10669089 0.16924638 -0.22934923 -0.07699184 0.053301547 0.013237046 0.20325121 -0.10003166 0.22823107 0.14940955 -0.18098731 0.15518132 0.046032958 0.11754356 -0.34186512 0.08429802 0.026409417 0.072261795 -0.24577823 -0.01991023 0.031096932 -0.00056521065 0.07074889 0.032851204 -0.17146997 0.32879165 0.11250577 -0.18092312 0.2761334 -0.014879894 -0.2303603 0.029387342 -0.030633464 -0.10333189 0.10671252 -0.0859217 0.28332666 0.09598591 -0.14818203 0.42641604 0.07346825 0.2533017 0.06443295 0.29026687 0.19201103 0.2907666 0.22154477 0.41977155 -0.040164415 -0.17517133 -0.18701732 0.017531833 0.0021833754 0.10044746 0.0082899295 -0.10198823 -0.22940294 -0.2764112 0.22106181 -0.22664338 -0.089063235 -0.09509399 -0.24330264 -0.23861904 -0.16121183 -0.09233537 -0.24933042 0.18179648 -0.06134583 0.2883174 -0.12208361 -0.03749164 0.13276163 -0.0016697004 -0.007940112 0.3303618 0.15612556 -0.1494975 -0.036580827 -0.30963224 -0.12630855 0.28723824 0.05567093 0.12690394 -0.03245998 -0.2703741 -0.17073494 0.16981976 -0.0036628966 -0.08201065 -0.081601895 0.11786999 0.22062199 0.14446367 -0.11528168 -0.2063114 -0.054598987 0.12168904 -0.11055878 0.14721246 0.18012439 -0.16952656 0.14844988 -0.026948906 0.2512072 -0.57945496 0.23275481 0.13028836 0.19410014 0.106560595 -0.6181061 0.06618785 0.0988089 0.16727756 0.21290411 -0.13819158 0.06977629 -0.26688161 0.28313577 -0.014996315 0.0061420244 -0.1062865
2 -0.28184566 0.11667881 0.05495822 0.2886061 -0.124733105 0.037846226 0.15765536 -0.11052297 -0.30984926 -0.13891585 -0.14776663 0.33961582 0.14749573 -0.22551802 0.14630812 -0.067602694 -0.06670514 0.0024739143 -0.04021138 0.1807516 -0.2054766 -0.06350208 0.09116591 -0.18202016 -0.14268641 0.015682448 -0.0832756 0.05166935 -5.2088406e-05 -0.05670056 -0.16842885 0.32695162 -0.0021639154 -0.22706799 0.09601017 -0.03549565 0.09128972 0.057770144 0.0025822506 -0.05538556 0.20040493 -0.009938292 0.31007496 -0.078988604 -0.24703285 0.24509695 -0.044794954 0.23395063 0.056027085 0.17701483 -0.067737445 0.02550386 0.16522697 0.36944497 -0.11908338 -0.09592209 -0.05345324 -0.10197968 0.16315319 0.14515194 -0.06675165 -0.006810219 -0.117686026 -0.15216012 -0.03472393 -0.13813077 0.10282171 -0.24921173 -0.10090319 -0.2405091 -0.05409591 0.11972455 -0.15302214 -0.016984077 -0.37579888 0.06077901 -0.04281657 0.06153522 0.27927035 -0.052426904 -0.08214893 0.2701749 0.19199719 -0.14766347 -0.29441023 -0.08911168 -0.16325615 0.119256675 0.04485998 0.047666732 -0.08997956 -0.013800695 0.12611772 -0.08978632 0.16460055 0.15678892 -0.09580285 -0.040417694 0.12244294 -0.017702287 -0.0066504376 -0.09600023 -0.05502293 -0.037091028 0.09298102 0.07288311 0.014977308 0.07402691 0.055099837 -0.11231013 -0.068357654 -0.33269262 0.1265785 0.009519673 -0.25615934 0.100205064 -0.107244305 0.015168995 -0.05132389 -0.013815512 0.13222887 0.08116408 -0.022951178 -0.001138531 -0.013220258 -0.06436616 0.08546372 -0.03691077
75 0.1478262 -0.17431639 -0.19927976 0.23635258 -0.08815661 0.013919701 0.22621305 0.3255215 -0.48136905 -0.00025065857 -0.18615992 0.36658472 0.13891737 -0.044343043 0.0388634 0.074880764 -0.22395825 -0.035549615 -0.31260931 0.31914598 0.18097524 -0.06867262 0.37683517 0.03310314 0.10573657 -0.21343908 0.06903714 0.35329702 0.1136942 -0.031483132 0.066856734 -0.16916087 -0.24772021 -0.13347815 0.17289612 0.22323744 -0.06891192 0.04917896 -0.2591729 0.055606935 0.087487966 0.11128891 0.39323106 0.0074238395 0.029094074 -0.08093777 0.058686074 0.044912674 -0.06810755 -0.05729617 0.047354273 -0.12999634 0.2089824 0.31041962 -0.034698863 0.38759932 0.008629684 0.1279434 -0.42083493 -0.1450705 -0.2525102 0.037693087 -0.16045456 0.010465023 -0.05399971 -0.03539554 0.11188845 -0.30473012 0.0059067267 -0.18495442 0.04175153 -0.220964 -0.0868177 0.083180055 -0.0170829 0.29904467 -0.107024975 0.048249118 0.13201304 -0.28736612 0.10789476 0.1532517 -0.08308507 -0.052774027 0.07156686 0.021142803 0.23934546 0.46919686 0.46623087 0.25405157 0.042060524 -0.16158849 -0.18051296 -0.112086385 -0.022364931 0.20653963 0.17824219 -0.10217993 0.2342913 0.09637052 0.09530653 -0.18245268 -0.21411082 -0.027129864 0.22014843 0.112705015 0.05251487 0.18983343 0.18010817 -0.029637562 0.2999271 -0.2195605 0.06423948 -0.031761404 -0.14057368 0.39292997 -0.2724211 -0.14763393 0.10437516 -0.09345572 0.16983776 0.28523102 0.012265598 -0.09252237 0.020610636 -0.21297665 0.25655675 -0.095148005
80 0.14472942 -0.053204138 0.08952887 -0.095557615 0.008003112 0.039238606 0.17221415 0.018336888 -0.066387884 0.04444211 -0.0698074 -0.09588446 0.14512792 -0.22846627 0.23668876 -0.09437925 -0.18977846 0.029774923 -0.09444932 0.017300544 -0.035515666 -0.14147107 0.15328076 -0.0054961108 -0.027160065 -0.01365844 -0.008763909 0.17684181 0.13982786 0.00012182367 0.07845755 -0.097574055 -0.10217013 -0.10439364 0.039845362 0.18854147 0.015030814 0.10592386 0.013969448 -0.09953948 0.20086229 0.07174933 0.2519252 -0.1781832 0.06521748 0.33939335 0.03820974 -0.0038187301 0.19322677 0.095315054 0.21536753 -0.09155568 0.095939405 0.06975723 -0.13630113 -0.058473192 0.08864343 0.16909663 -0.4693574 -0.06252288 0.10900798 0.08462794 -0.11684276 0.08531253 0.022364287 0.10223198 0.071159795 -0.13982274 0.05525518 -0.06288633 0.00877748 -0.41759753 0.03765965 0.031472232 0.05404467 0.25072518 -0.22627121 -0.093128406 -0.118898705 -0.22861424 0.03398016 0.19303328 -0.13289595 -0.2473542 0.24927089 -0.07646556 0.23942292 0.2740376 -0.039587546 0.074988134 0.06928993 -0.12556161 -0.3718054 -0.022189053 -0.066600844 -0.06682 0.050487217 0.10208018 0.0181943 -0.020571472 0.16504897 -0.15013674 -0.008080659 0.026235467 0.24365298 0.29761854 -0.02502906 -0.12526658 -0.15692215 0.14871712 0.045376886 -0.43437645 0.13612932 0.1363927 0.043250225 0.10397108 -0.17650393 -0.049397305 0.09510222 0.08397604 0.12693697 0.19669975 0.1703459 -0.07053255 0.28112644 0.1426294 0.09618722 0.0275159
103 0.10783777 -0.1468926 -0.11644225 0.16638593 -0.08810371 0.008912989 0.27842838 0.2692019 -0.4021897 0.016074697 -0.14359654 0.31101772 0.07232253 -0.06327476 0.020400703 0.083541125 -0.20663872 -0.037896637 -0.29172838 0.27819893 0.16525507 -0.027495887 0.35047358 0.024727069 0.08542206 -0.16333243 0.06077475 0.26006362 0.11556899 -0.0067266133 0.078724585 -0.15903482 -0.20804079 -0.13865793 0.1578138 0.17506677 -0.075860366 -0.013674458 -0.25633574 0.044260975 0.034480914 0.105326876 0.36472172 0.053588197 0.024090871 -0.05352192 0.0550916 0.034951832 -0.053234078 -0.08337694 0.07240943 -0.15497828 0.213045 0.29502007 -0.0151598295 0.32536736 0.03259279 0.12714994 -0.35993752 -0.1867463 -0.19352086 -0.009111019 -0.16031176 0.0078920545 -0.06321786 0.052577227 0.093121305 -0.3140872 0.0025714429 -0.2362714 0.013307756 -0.21340106 -0.08423491 0.096792 0.010420574 0.27685544 -0.104723856 0.06039704 0.097190864 -0.28722432 0.05427966 0.1318809 -0.08770575 -0.06502715 0.063572876 -0.039655227 0.21362387 0.4260127 0.38028952 0.21073218 0.01812625 -0.1498416 -0.19384205 -0.062109884 0.008448856 0.12364287 0.18682386 -0.08406676 0.19873004 0.110636316 0.07124822 -0.17749755 -0.17546545 -0.047690086 0.22139251 0.09030346 0.0827654 0.15954112 0.113346785 -0.02539522 0.23149563 -0.23062295 0.07227433 -0.046826266 -0.14916414 0.32086763 -0.2196166 -0.123722434 0.1408797 -0.069379106 0.18494578 0.2830394 0.00027885166 -0.041491624 0.018400798 -0.17090613 0.20992787 -0.084266804
11 0.04382164 -0.05167909 0.0120023275 0.06374623 -0.09244576 -0.021177089 0.23005922 0.15578227 -0.20526855 0.02898825 -0.06958804 0.111238346 0.029616136 -0.07627796 0.02160603 0.02182727 -0.20046777 0.0042374944 -0.17847815 0.16012341 0.03399398 0.016332854 0.25018352 -0.04947651 -0.019349737 -0.054444026 0.009586066 0.11121048 0.10109416 0.020845087 0.064270444 -0.019678237 -0.067126065 -0.15316813 0.115693964 0.07370964 -0.101402424 -0.06330319 -0.18062377 -0.05038747 -0.0024811453 0.038894862 0.3035378 0.061475746 -0.013041153 0.13943897 0.01954829 0.06349181 -0.009550059 0.0008378136 0.13091727 -0.095009185 0.2025019 0.24586684 -0.004612953 0.10089309 0.041562743 0.12302113 -0.21879858 -0.15419064 -0.030075874 -0.074176736 -0.13911122 -0.0318193 -0.012807251 0.08758583 0.037121348 -0.25451365 -0.032885313 -0.24947718 -0.06377931 -0.17215843 -0.06839159 0.13343517 0.031169152 0.21349472 -0.107266776 0.02173092 0.026582167 -0.16766298 -0.04501123 0.14617094 -0.085539535 -0.14086537 0.06480578 -0.14188261 0.10287515 0.37496087 0.1443799 0.14703462 -0.01602528 -0.13502115 -0.20379159 0.022393975 -0.011231846 -0.052198533 0.103200465 -0.009477792 0.13183075 0.091960564 0.00081197004 -0.10997801 -0.07246824 -0.04329616 0.120343894 0.11601092 0.09039836 0.015636463 -0.03496457 -0.028208574 0.11596831 -0.31099156 0.1328063 -0.0075335167 -0.083603054 0.20052843 -0.18908277 -0.056263193 0.104679026 0.023920627 0.20496346 0.20111838 0.05289334 -0.022400105 0.11034437 -0.053226184 0.11347729 -0.012960279
41 0.05183951 0.020958837 0.15220024 -0.0066204634 -0.08582614 0.03778249 0.32623243 0.075395145 -0.14658432 0.08727084 -0.09601661 0.063524984 -0.02814733 -0.06878872 -0.034120485 -0.06361318 -0.25223768 -0.033922464 -0.2038885 0.1718688 0.04732838 -0.018463435 0.32244325 -0.18000259 -0.02504185 -0.008856933 -0.047227707 0.09418035 0.13211624 -0.011735089 0.10792827 -0.007971915 -0.0490822 -0.15891601 0.055827513 0.010956223 -0.05075037 -0.08635448 -0.22046183 -0.1298465 -0.048318777 0.02756394 0.31016198 0.04781651 -0.01147545 0.1688823 -0.034114826 0.03208299 -0.037942015 -0.053007483 0.15841332 -0.21234916 0.2522408 0.21118921 -0.012756926 0.0461725 0.14365342 0.15184802 -0.18864754 -0.19474119 0.023788456 -0.085836895 -0.1014496 0.038802143 -0.03277793 0.17083016 0.039841063 -0.30451983 0.024767805 -0.3023344 -0.10224838 -0.16865854 -0.019425884 0.15476318 0.018287828 0.16201504 -0.096453026 0.07435397 -0.023540055 -0.12816781 -0.1430656 0.14395311 -0.1795429 -0.22032626 0.04512606 -0.17394061 0.114444055 0.4787471 0.060840745 0.13515162 -0.0419101 -0.12675032 -0.22199075 0.020618789 -0.023855424 -0.16457969 0.03610466 -0.007066013 0.0732039 0.03881394 -0.002252533 -0.03806214 -0.019228779 -0.13198636 0.11423362 0.15067124 0.04991844 -0.012469006 -0.19153738 -0.09349272 0.008642666 -0.35724717 0.17076087 -0.028508201 -0.17788799 0.20864521 -0.08330978 -0.06604197 0.10911716 0.029715141 0.22588404 0.27606162 0.07570118 0.066744424 0.12957849 -0.010388239 0.089368775 0.063721254
55 -0.2229192 0.077086434 -0.14130312 0.24691825 -0.23425055 -0.14325882 -0.036661025 0.1343513 -0.24317215 -0.06922924 0.04251509 0.054477975 0.15025872 -0.10915048 0.18562704 0.1142773 -0.20917103 0.14232466 0.027165594 0.15611072 -0.3512399 0.10187001 0.06970431 -0.008798683 -0.26797974 0.012408196 -0.0033650144 -0.032931045 0.07398461 0.019826837 -0.16649778 0.39650965 0.15260713 -0.22787607 0.25939977 -0.069762 -0.2221676 -0.024243645 -0.06852756 -0.12995946 0.061261423 -0.09455902 0.30458477 0.14171073 -0.20085879 0.43308055 0.039152242 0.2825285 0.02209313 0.26056638 0.17921679 0.24815445 0.2640992 0.45592016 -0.024327392 -0.19247776 -0.16424689 0.008685733 0.1125155 0.081992716 0.022172933 -0.15791872 -0.22554083 -0.29802668 0.18157668 -0.18469946 -0.08165526 -0.15544868 -0.24503472 -0.324449 -0.19734319 -0.0062364205 -0.27295458 0.19859302 -0.10639662 0.25577202 -0.10693078 -0.00023826929 0.174988 0.030813904 -0.0842019 0.33435896 0.162597 -0.1763189 -0.11047428 -0.35110325 -0.18929137 0.3189496 0.016353078 0.12028874 -0.08464213 -0.25876513 -0.12539949 0.17130621 0.028804952 -0.12840877 -0.1010827 0.10230629 0.20660833 0.15005152 -0.1535626 -0.16974172 -0.04543565 0.07479939 -0.121980645 0.12129456 0.1946833 -0.16098504 0.099072754 -0.09045922 0.19915684 -0.6047928 0.2503522 0.10307968 0.113879025 0.10721895 -0.56870013 0.079324454 0.0910698 0.17726885 0.25461102 -0.0863261 0.053134836 -0.21579458 0.25985458 -0.021987703 -0.0042259293 -0.08741344
125 -0.11836144 0.17164595 0.061736584 0.5748555 -0.29814327 0.27741027 0.41070408 -0.035604145 -0.8448192 -0.023605619 -0.41197032 0.4114132 0.5832824 -0.46175036 0.5107404 -0.16079766 -0.5846337 0.075471714 -0.379305 0.5396771 -0.4056512 -0.41809264 0.64548975 -0.45119306 -0.28252694 -0.14540288 -0.15484986 0.5577202 0.39314505 -0.20691395 -0.079774596 0.37318057 -0.16664138 -0.5123547 0.31640002 0.10133555 0.088307045 0.33206224 -0.2946518 -0.38265517 0.5146425 0.03164109 0.9353996 -0.44557208 -0.22127348 0.8031198 -0.02402613 0.32175916 0.1625047 0.2996636 0.29768983 -0.25451258 0.642248 0.8590984 -0.469043 -0.10499119 0.14451611 0.094625376 -0.49136984 0.120651916 -0.07738527 0.12355104 -0.43402433 -0.07374483 0.19440022 -0.16648914 0.25760296 -0.6566058 -0.000111093315 -0.6448552 -0.17790085 -0.4368205 -0.22735134 0.19184348 -0.52722543 0.6050508 -0.3360715 0.05675518 0.21394235 -0.32007796 -0.0739997 0.8163759 -0.009767023 -0.70645136 -0.16962531 -0.38395426 0.21424648 1.0890149 0.20051333 0.31670204 -0.06652993 -0.4858603 -0.39580178 -0.15011759 0.0128228245 0.040185113 -0.33140105 0.16819295 0.2600511 -0.16057175 0.18316251 -0.45220286 -0.13909824 -0.15218934 0.37026465 0.60467976 -0.052823715 -0.16926378 -0.04472195 -0.23812057 0.11752623 -1.459635 0.5285894 0.25036606 -0.34322935 0.64390355 -0.74829 -0.020316849 0.2034612 0.037736107 0.4483504 0.44982153 0.19320662 -0.15823467 0.5633469 -0.026223276 0.27428058 -0.09018796
120 -0.17063351 0.092588365 -0.1029175 0.23348884 -0.18703769 -0.04664951 -0.087313846 0.052379202 -0.20118342 -0.05446505 0.009105573 0.008963213 0.19665383 -0.09489176 0.20760147 0.054362517 -0.15602955 0.12513617 0.051580817 0.10872874 -0.34303507 -0.0002755064 0.02922441 -0.049549684 -0.23663156 0.005678599 -0.0036265007 0.009550002 0.08443369 0.0031512235 -0.15727508 0.3440647 0.12118728 -0.17170997 0.20184197 -0.066248074 -0.11881129 0.06188224 -0.008006445 -0.14665486 0.11151736 -0.09394369 0.2304753 0.014845072 -0.15685874 0.3988282 0.027327592 0.22209176 0.0519163 0.23940831 0.12698175 0.19485672 0.21903998 0.36271772 -0.07399794 -0.21835402 -0.11396539 -0.026472442 0.08021371 0.14455572 0.03929145 -0.061559644 -0.17788321 -0.2065106 0.20531031 -0.19931556 -0.06591762 -0.09025996 -0.17614074 -0.21971208 -0.15449741 -0.03400387 -0.18082489 0.14017804 -0.13268161 0.18658699 -0.085528284 -0.0072581484 0.10224361 0.041558255 -0.03791942 0.3052783 0.14345324 -0.17177631 -0.114956275 -0.2806881 -0.14483717 0.26426327 -0.014579619 0.08127262 -0.055516705 -0.22410998 -0.09565772 0.10874945 -0.0023765361 -0.06637468 -0.17824034 0.11955451 0.14663088 0.03611426 -0.09339416 -0.15412313 -0.00094383967 0.054438375 -0.10259357 0.13747387 0.10285842 -0.16479786 0.057153545 -0.085006125 0.12495053 -0.55431783 0.21970725 0.116535716 0.09604024 0.1022478 -0.4772563 0.07169301 0.05393844 0.12608518 0.15628497 -0.107955135 0.048296247 -0.18596756 0.2422762 0.01750885 -0.013341509 -0.07659335
107 -0.11916395 0.16661936 0.06626786 0.56815815 -0.29892582 0.28122506 0.41071582 -0.038602624 -0.8394478 -0.023315476 -0.4161073 0.41235706 0.5828602 -0.45767656 0.50679564 -0.16473284 -0.58155096 0.075991 -0.37299412 0.53856295 -0.40823025 -0.425223 0.64250296 -0.4509905 -0.28451422 -0.14654425 -0.15278064 0.5576797 0.39600316 -0.20734718 -0.07968263 0.36521137 -0.16978104 -0.51223683 0.30594748 0.10353951 0.08884016 0.3322418 -0.28905427 -0.37782156 0.5177643 0.03644941 0.9320244 -0.44939655 -0.21695432 0.79716134 -0.027186655 0.31652942 0.16332954 0.30173135 0.30161023 -0.26321402 0.6389631 0.8467171 -0.47187957 -0.10443344 0.15263392 0.09480681 -0.49125224 0.121046014 -0.07972066 0.12814425 -0.42754522 -0.07168694 0.19660293 -0.16587636 0.2587844 -0.6554763 0.0039538178 -0.63772947 -0.1756958 -0.43639705 -0.22466527 0.187903 -0.5254434 0.59907925 -0.3323932 0.05344496 0.21411139 -0.31740326 -0.074918814 0.8081969 -0.008195877 -0.70239216 -0.1660543 -0.38025853 0.21938017 1.082647 0.20360409 0.31103042 -0.06282904 -0.480706 -0.39617956 -0.15514258 0.0055711903 0.0370191 -0.33054549 0.16359885 0.26042396 -0.16437128 0.18680574 -0.45459205 -0.13929568 -0.14874645 0.3696168 0.60300416 -0.058329202 -0.16565871 -0.04660562 -0.23853548 0.11721208 -1.4567399 0.5264071 0.24571714 -0.34367892 0.64199287 -0.73750037 -0.022082705 0.20050459 0.03388177 0.44213417 0.45234442 0.19552435 -0.15609074 0.5578711 -0.028482076 0.2796333 -0.08301656
25 -0.10736212 0.16657916 0.061537806 0.5728165 -0.30032846 0.27980614 0.42076847 -0.03273601 -0.8413913 -0.0145202195 -0.41566548 0.4112699 0.58213997 -0.46338612 0.5158771 -0.168941 -0.59091014 0.07486697 -0.382333 0.5412507 -0.41288584 -0.42965892 0.6591931 -0.44754806 -0.28442505 -0.14594948 -0.15528506 0.56287396 0.4056301 -0.20574445 -0.069904745 0.36688098 -0.16797613 -0.52278334 0.31286487 0.11327696 0.081809856 0.33512345 -0.2944908 -0.38533905 0.5197852 0.036036383 0.94744617 -0.44836122 -0.21609034 0.814932 -0.02519828 0.32164466 0.16855943 0.30809042 0.31017846 -0.26699236 0.6440387 0.8608599 -0.47394672 -0.107577614 0.15648696 0.10501156 -0.5051323 0.10958206 -0.07726254 0.12993348 -0.43701726 -0.073527664 0.1955161 -0.16378906 0.2562385 -0.66788965 -0.0037620936 -0.6479581 -0.18182082 -0.45127937 -0.22603168 0.19544898 -0.51919866 0.61263597 -0.34215474 0.05029737 0.21120027 -0.3239652 -0.07933862 0.8229988 -0.01854129 -0.7152128 -0.15420136 -0.3916625 0.22200118 1.1063768 0.20039836 0.32153645 -0.06720622 -0.49232596 -0.41343874 -0.15033866 0.005117134 0.032783896 -0.3301181 0.16777532 0.25764093 -0.1597278 0.19034551 -0.4643291 -0.13403273 -0.14817964 0.37454745 0.6178165 -0.05205986 -0.1779557 -0.051855575 -0.24055678 0.12783752 -1.4847035 0.5348456 0.24860333 -0.34365436 0.65265 -0.75844646 -0.022162944 0.2113572 0.041575156 0.4536028 0.4559472 0.20412776 -0.164275 0.57760656 -0.023300972 0.27938265 -0.08654811
57 -0.11321233 0.16491592 0.10354951 0.23458412 -0.04039692 0.13692465 0.0908526 -0.11210855 -0.33037356 -0.0075749885 -0.15349886 0.14816964 0.18000151 -0.09097013 0.19306672 -0.14396678 -0.12330757 0.033873737 -0.046331055 0.20287144 -0.16034065 -0.24911189 0.16165768 -0.20471008 -0.05282284 -0.02338504 -0.0022546935 0.22917292 0.16542466 -0.09176111 -0.03889607 0.18951645 -0.040489145 -0.15611805 0.042575415 -0.004461065 0.2150236 0.16592908 -0.0055401763 -0.15179713 0.19394664 0.0025726422 0.20083977 -0.1660407 -0.113487005 0.13233732 -0.051172066 0.10076944 -0.03748949 -0.015583098 -0.050445773 -0.13682818 0.14314224 0.20721914 -0.160226 -0.0813884 0.06719834 -0.056737874 0.04479586 0.18352875 -0.026730051 0.09587468 -0.061346456 0.0071287146 0.07870257 -0.088080645 0.049081553 -0.120528474 0.03989353 -0.15080974 -0.07548583 0.019178526 -0.012344697 0.015477235 -0.24508956 0.020701053 -0.05393117 0.11046179 0.072997354 0.0025335522 -0.007741942 0.17732666 0.06339082 -0.1507081 -0.22103305 -0.12470483 -0.0066533615 0.2560293 0.0072978865 0.0057592113 -0.074635945 -0.10501319 0.015736127 -0.13681294 0.0062152427 0.0934157 -0.2895274 0.045144904 -0.015078031 -0.16422132 0.043963727 -0.12811565 0.020543829 -0.10531785 0.09229375 0.10146066 -0.11325774 -0.013907275 -0.083226115 -0.21904154 -0.067364566 -0.42337897 0.12089218 0.09870465 -0.19167529 0.14566742 -0.12717998 -0.005600993 0.004546776 -0.045895793 0.007675537 0.10897386 -0.03969131 -0.04501739 0.104198724 -0.0047995737 0.05089994 -0.05845692
39 -0.033195183 0.11890883 0.007014513 0.20021504 -0.03753151 0.09589285 0.11811478 -0.04418385 -0.24915315 0.00926401 -0.1123681 0.18375815 0.13808534 -0.079048745 0.11878533 -0.059271205 -0.1372421 -0.025288874 -0.09906421 0.17285527 -0.069651745 -0.16682954 0.19571397 -0.14124335 -0.03471162 -0.052928966 -0.03975218 0.17715187 0.09830829 -0.07613526 -0.027624153 0.08924326 -0.056533583 -0.11898856 0.05011508 -0.0013838027 0.08686072 0.117592596 -0.07006234 -0.11016982 0.1097309 0.00016334587 0.20997973 -0.13904263 -0.04918831 0.09674273 -0.022126673 0.06778557 -0.027969511 0.024841037 0.032535173 -0.11359982 0.15346241 0.20085159 -0.14964578 -0.0034223525 0.054641806 0.0005303603 -0.057587374 0.06916936 -0.06494064 0.06513394 -0.041143544 -0.011620802 0.008894155 -0.049860913 0.032195926 -0.14592433 0.03777763 -0.15942575 -0.094533905 -0.037691355 -0.06722097 0.016622309 -0.20766301 0.09243981 -0.035926234 0.07447616 0.099127024 -0.030763263 -0.032638684 0.16943526 0.006326396 -0.15494598 -0.117874146 -0.08612311 0.037407663 0.27048883 0.06341394 0.075951405 -0.039376903 -0.12731868 -0.04060876 -0.09908583 0.031285107 -0.005732498 -0.16192803 0.03306308 -0.001264554 -0.034824964 0.056255028 -0.11393441 -0.02664618 -0.08668804 0.056830097 0.1482328 -0.067040995 -0.03047699 -0.022876218 -0.15810397 -0.014262883 -0.33433747 0.1160748 0.079020664 -0.16831537 0.16160758 -0.11517225 0.0021210813 0.026549358 -0.0067766504 0.078129716 0.12616399 0.011832588 -0.038814988 0.12748963 -0.04237146 0.07388148 -0.004805824
20 -0.046919312 0.010309611 0.044952627 0.07387464 -0.07971981 -0.017750233 0.1913826 0.064946786 -0.19987705 0.0022356359 -0.072284855 0.11867593 0.054333374 -0.12582633 0.07835043 -0.025136255 -0.1545607 0.013201204 -0.09888041 0.14230248 -0.05173144 -0.008782502 0.18111303 -0.053633396 -0.04242181 -0.012049051 -0.0028544953 0.09133506 0.078212924 0.00784463 0.0010583021 0.082148895 -0.029245565 -0.15696725 0.09716934 0.047904924 -0.031617906 -0.014054495 -0.078261934 -0.060407512 0.06463824 0.030350402 0.27224705 0.032610197 -0.07455508 0.17864582 0.0061957636 0.1020277 0.01853581 0.040884722 0.088513084 -0.040966857 0.15979765 0.22981066 -0.035511058 0.004924744 0.018603735 0.06928995 -0.10437474 -0.047029197 -0.008176787 -0.05126309 -0.12267092 -0.05960669 -0.009359428 0.029935965 0.02619859 -0.21617071 -0.04144001 -0.21293755 -0.06401626 -0.09976115 -0.09812607 0.09697315 -0.062540315 0.15246832 -0.1056546 0.03233315 0.078154236 -0.11860135 -0.05035113 0.17286168 -0.008678168 -0.13796163 -0.0135549065 -0.15876669 0.034002937 0.27761164 0.07584509 0.09066094 -0.034263823 -0.10105342 -0.15290292 0.009707276 0.021130182 -0.023537608 0.03476756 0.007872764 0.09746884 0.06474431 0.009054009 -0.11031104 -0.045341406 -0.030961161 0.11076922 0.12350945 0.057030402 0.0049480367 -0.04245957 -0.043163408 0.056432575 -0.35097465 0.13613626 0.0334625 -0.09897052 0.12889618 -0.18433766 -0.034211576 0.07778282 0.03544853 0.16878237 0.14576496 0.039678227 -0.03603162 0.10741768 -0.012219326 0.08438394 -0.020773852
95 -0.18236709 0.06112924 -0.15307842 0.24966195 -0.21434407 -0.10277964 -0.068684995 0.13976292 -0.24558301 -0.07420865 0.014572417 0.055002976 0.17898822 -0.08661135 0.1762848 0.09116612 -0.19555725 0.13624276 0.026328288 0.15386465 -0.32448488 0.0632418 0.059234463 -0.027378587 -0.23189294 -0.01260269 0.012166274 0.015673246 0.065970965 0.01104643 -0.16561815 0.3588275 0.11641811 -0.18760775 0.2332541 -0.04822355 -0.18530189 0.01731142 -0.04770728 -0.112589106 0.092750765 -0.09784846 0.29064882 0.09745669 -0.18731485 0.3885926 0.03166868 0.25578207 0.021733591 0.26023623 0.12984289 0.24363759 0.24281071 0.418256 -0.028981147 -0.16764967 -0.15525644 -0.0029175289 0.06754395 0.115350306 0.0019525656 -0.10924342 -0.20886414 -0.2573278 0.1967184 -0.22162502 -0.06496494 -0.12380381 -0.22553913 -0.254296 -0.16660228 -0.024443196 -0.22077754 0.17998491 -0.09998853 0.22231436 -0.09408089 0.0035322462 0.14983416 0.02704206 -0.04624975 0.3183634 0.15030539 -0.1538611 -0.102236405 -0.29564694 -0.16831319 0.31082946 0.054417234 0.123041384 -0.06200991 -0.22514388 -0.10568462 0.13224456 0.0034880314 -0.05335128 -0.110888414 0.080210194 0.212815 0.10668812 -0.12408232 -0.15165165 -0.035391357 0.0768415 -0.12100022 0.125572 0.150146 -0.13635397 0.09380677 -0.080555364 0.2011192 -0.54776883 0.23205526 0.09635402 0.112790406 0.1292166 -0.53073454 0.044772148 0.04609074 0.13371232 0.19293067 -0.10288119 0.05911233 -0.21793689 0.23208621 -0.023689406 0.008589031 -0.087650694
18 -0.17901523 0.08887849 -0.15114327 0.25910679 -0.22336555 -0.07625961 -0.06299515 0.114996456 -0.21959774 -0.03792229 0.028868299 0.053806476 0.16529872 -0.028135704 0.12444325 0.09603458 -0.18850566 0.11314461 0.0055329422 0.16186564 -0.3001641 0.06124108 0.08639187 -0.055977903 -0.22994101 -0.01213838 -0.019236602 0.008422478 0.0771692 -0.012261068 -0.1425485 0.34553072 0.12841108 -0.18470876 0.22269101 -0.09440669 -0.18531449 0.0074999304 -0.09426468 -0.1443751 0.041873723 -0.108599514 0.26898417 0.08358491 -0.16373958 0.35596678 0.025982333 0.23614402 -0.013680812 0.22861111 0.14875954 0.19570556 0.257823 0.39795747 -0.03674905 -0.16355367 -0.11848325 -0.0035773253 0.098818 0.08667997 -0.00690891 -0.11331882 -0.175476 -0.23500586 0.18923986 -0.18704663 -0.08191922 -0.13427256 -0.19558579 -0.27901497 -0.19560353 5.1514304e-05 -0.22328097 0.19632454 -0.12047781 0.21131001 -0.06508122 0.016910031 0.13810451 0.05025709 -0.07938569 0.3055938 0.1118229 -0.16210149 -0.1237214 -0.3026777 -0.1456662 0.35411593 0.046269022 0.12869209 -0.06408843 -0.24398573 -0.09467059 0.13560213 -0.004158281 -0.11685682 -0.13918926 0.0890292 0.17865674 0.100408144 -0.1451979 -0.14788918 -0.035231512 0.031353075 -0.1459969 0.1335724 0.15224935 -0.15105513 0.09175094 -0.1305213 0.1756046 -0.54190284 0.23493047 0.08821879 0.06412368 0.15490979 -0.5013824 0.07006126 0.06954272 0.12415862 0.21009798 -0.09257132 0.04334016 -0.18089327 0.234843 -0.04255726 -0.00026525703 -0.06358731
29 -0.107408196 0.108847834 0.04141197 0.17976202 -0.08250129 0.055568237 0.07381162 -0.05198916 -0.20994525 -0.027895827 -0.07947718 0.10582557 0.16170385 -0.110302754 0.16006476 -0.06722235 -0.09761703 0.030015755 -0.018164843 0.13945398 -0.17893371 -0.12285456 0.10000606 -0.119283125 -0.089073114 -0.008931337 -0.01172012 0.119482204 0.09671536 -0.034125168 -0.06725936 0.20854656 0.014631954 -0.14011095 0.0882617 -0.018241525 0.07904176 0.10368211 0.008434775 -0.11900204 0.1481658 -0.012874553 0.2016207 -0.09774386 -0.109696046 0.21644814 -0.01748821 0.1407508 0.02333185 0.08811708 0.024449307 -0.011501689 0.1454254 0.21684414 -0.11612647 -0.12090261 0.0019749491 -0.03898747 0.030782122 0.1277782 -0.005478669 0.03161268 -0.090760276 -0.061418146 0.081928045 -0.083291076 0.008373514 -0.1258907 -0.031167898 -0.1579496 -0.07328182 -0.010194455 -0.08581654 0.05975157 -0.19234866 0.07521974 -0.05333196 0.033253927 0.083016254 0.0003151101 -0.025063818 0.20800665 0.08695437 -0.14129539 -0.14153112 -0.16004735 -0.030822279 0.21939501 0.0048580067 0.03942596 -0.039319515 -0.12362812 -0.043337915 -0.037415396 0.011585188 0.02660169 -0.15429218 0.054147 0.028055368 -0.055300277 0.007866703 -0.12299474 0.009782318 -0.05320473 0.03677971 0.117833704 -0.009727675 -0.0549167 -0.03192853 -0.12363742 0.0032973613 -0.39882624 0.14202292 0.087947726 -0.09765535 0.10802907 -0.19725381 0.020215943 0.022395374 0.014605777 0.06789965 0.042089377 -0.0027107499 -0.051261205 0.11620968 0.023483768 0.03979822 -0.040147565
70 -0.2227739 0.06789686 -0.15510395 0.26093507 -0.21888521 -0.13691247 -0.06238641 0.10072082 -0.23368417 -0.074708685 0.037065808 0.07271572 0.16220444 -0.09748779 0.19203894 0.10672653 -0.15757124 0.1288298 0.04015258 0.13930188 -0.32865208 0.07924634 0.044602342 0.0067887744 -0.24760865 0.0060506808 -0.0007122145 -0.025537206 0.0642988 0.012593347 -0.17005809 0.38107938 0.13207698 -0.21538797 0.25431344 -0.06675028 -0.18970111 0.006020501 -0.034518722 -0.11802452 0.07986272 -0.080368176 0.27680588 0.10487709 -0.18928765 0.40428326 0.052138675 0.27309987 0.0381912 0.25731605 0.14164077 0.24982005 0.22916333 0.4313354 -0.03363569 -0.1900728 -0.16905497 -0.020964636 0.12367219 0.11925567 0.015898742 -0.11806735 -0.20202175 -0.28941807 0.16851789 -0.20711994 -0.082038045 -0.12977503 -0.23724751 -0.28210852 -0.1804122 0.011950646 -0.26753297 0.17515308 -0.13946211 0.22585215 -0.084740564 0.00090597273 0.17956798 0.038389295 -0.054154854 0.3176686 0.18019399 -0.13996994 -0.1314897 -0.320789 -0.18047072 0.25851464 0.022889957 0.09948458 -0.07445048 -0.23604737 -0.098038465 0.14917248 0.035547957 -0.08387469 -0.10652792 0.097411044 0.18893798 0.13379811 -0.1436301 -0.18079779 -0.038949687 0.069955066 -0.11430505 0.11778166 0.17526565 -0.14190951 0.12560529 -0.09022515 0.17954297 -0.5513121 0.22192042 0.11190578 0.09641836 0.09294338 -0.53465 0.085005626 0.07460218 0.15623626 0.22050363 -0.112796724 0.030298486 -0.20323966 0.2220258 -0.024536109 -0.0062241754 -0.093598604
82 -0.06157021 0.18492533 -0.1447516 0.31515816 -0.1565889 0.18939677 -0.15104556 -0.1020728 -0.15402022 0.010709476 -0.062834725 0.05378063 0.32025462 0.06288913 0.10246701 -0.003787325 -0.15321343 0.014779612 -0.033484403 0.13504851 -0.26513255 -0.1839013 0.077912994 -0.254744 -0.18491584 -0.08581514 -0.1111805 0.14675209 0.12389063 -0.1412493 -0.11537964 0.24224462 0.07448132 -0.050692216 0.082691036 -0.16099261 0.017471846 0.23441848 -0.10327065 -0.24156812 0.10315754 -0.15556522 0.12271417 -0.269644 -0.038476806 0.22307077 -0.038334798 0.09571082 -0.041399434 0.18059154 0.08262509 0.022183388 0.21671331 0.20682065 -0.20998889 -0.16125956 0.037986122 -0.103544116 0.050983954 0.18556926 -0.03921876 0.07695632 -0.051186714 -0.018051917 0.20946692 -0.21758388 -0.02290014 -0.04266797 -0.001649134 -0.11777439 -0.13515778 0.016828977 -0.08202928 0.07624406 -0.27861193 0.095588244 0.08410671 0.017344676 0.032668117 0.1599244 -0.013165237 0.27434748 0.028549246 -0.2193844 -0.16449738 -0.10992077 -0.03268774 0.3205287 0.00084368145 0.09549685 0.0033483 -0.23870403 0.03786538 -0.02220888 -0.062496126 -0.096159756 -0.3420602 0.11695546 0.0015482925 -0.12053428 -0.04529856 -0.09951098 0.008347983 -0.08304455 -0.19653517 0.17048253 -0.044406768 -0.20676161 0.064212956 -0.2150325 0.013912708 -0.38353541 0.1611895 0.08866647 -0.031735275 0.21809477 -0.25202394 0.10196928 0.012691965 0.015687332 0.015168374 -0.114019535 0.030421 -0.07103895 0.17957214 -0.013521875 -0.019471249 0.0011772078
52 -0.036708836 0.18585026 -0.102041736 0.33589882 -0.1049883 0.24632603 -0.08318886 -0.125583 -0.22432567 -0.010366287 -0.15030654 0.14473839 0.32056558 0.022878246 0.101115026 -0.07080669 -0.16492815 -0.02257297 -0.078268446 0.16846572 -0.2108524 -0.2543158 0.12968108 -0.31061673 -0.13964088 -0.09900221 -0.12303865 0.20631748 0.10463363 -0.16027346 -0.11388738 0.18754308 0.0023639142 -0.037225936 0.035635274 -0.12821689 0.10063406 0.25864992 -0.098020755 -0.20027104 0.14815623 -0.12438214 0.14579543 -0.3185225 -0.04838303 0.14207743 -0.067002706 0.060727403 -0.046155214 0.14702633 0.005648467 -0.054549363 0.22750184 0.19894499 -0.23242697 -0.08421995 0.068125 -0.10222102 0.004361227 0.20787127 -0.0876596 0.13907157 -0.052778848 0.028454553 0.1700967 -0.22964415 0.04350253 -0.0702501 0.0447283 -0.08566638 -0.08525573 0.015873045 -0.032164697 0.010938226 -0.3282512 0.060185026 0.085933834 0.038486887 0.0554682 0.12340631 0.0038402267 0.26563573 0.026621662 -0.22014701 -0.19432548 -0.016351294 -0.018965919 0.32779673 0.060620006 0.11238399 0.016888676 -0.17990251 0.09582328 -0.12545557 -0.050320916 0.004962949 -0.34562826 0.06446895 0.0021526704 -0.17363231 0.021079222 -0.06475761 -0.009226713 -0.10219909 -0.13471211 0.17062737 -0.1200707 -0.14354222 0.04538722 -0.22761415 -0.017822528 -0.3285868 0.13718872 0.06462617 -0.111757375 0.26179987 -0.15591654 0.037935704 -0.059936687 -0.05511984 -0.029852271 -0.037343245 0.026461557 -0.03160969 0.1298885 -0.024327824 0.029242583 -0.0019970865
50 0.024762966 0.038150772 0.12091109 -0.012548095 0.003579945 0.0055895457 0.17421924 -0.06575955 -0.072446324 0.02962876 -0.057803728 -0.014149752 0.08045971 -0.2162205 0.19337049 -0.11926159 -0.10131997 0.016315246 -0.041737046 0.02847348 -0.06643736 -0.11157557 0.12052076 -0.042294014 -0.028982567 0.008887546 -0.03182709 0.10613293 0.078062505 -0.011178467 0.037328638 0.019380167 -0.052216206 -0.14253335 0.053824864 0.10165565 0.06124106 0.06440073 0.04352512 -0.10353232 0.18840535 0.07833721 0.22653905 -0.12229046 -0.013982623 0.30345947 0.014333387 0.05338124 0.15376459 0.087398104 0.14602089 -0.08917075 0.074724995 0.105241306 -0.12297988 -0.11502909 0.0675364 0.09107822 -0.21905312 -0.0014522711 0.076675765 0.047201693 -0.07233432 0.013291389 -0.021112407 0.043598548 0.048202503 -0.13813351 0.036287382 -0.104732275 -0.038600594 -0.23561025 -0.026121696 0.029830974 -0.06541856 0.15418153 -0.18314166 -0.04467338 -0.013045453 -0.14427322 -0.03427247 0.17081074 -0.05065771 -0.2061915 0.087635316 -0.12189378 0.12583087 0.18769522 -0.086534165 0.020463713 -0.005192059 -0.08068677 -0.23960796 -0.009950638 0.01287623 -0.06695278 -0.029832704 0.091467254 -0.01452544 -0.012145038 0.12422421 -0.12752779 0.024700742 -0.018498134 0.19996563 0.24143611 -0.033686373 -0.09047775 -0.14332752 0.028420398 -0.040369816 -0.41471055 0.15348206 0.13742208 -0.060165808 0.033744693 -0.12702475 0.0026563883 0.07887708 0.065920696 0.14025645 0.16284733 0.11457743 -0.024174074 0.24070409 0.10085038 0.05586552 0.052616324
35 0.08141004 -0.0023843055 0.06959309 -0.012751847 -0.029209584 0.014829693 0.1644541 0.03196229 -0.09638282 0.058197178 -0.045005485 -0.05620609 0.11223106 -0.14723298 0.1651856 -0.076234 -0.14721008 0.027675327 -0.061838888 0.062768415 -0.051860534 -0.09487174 0.16494489 -0.02993459 -0.006942298 -0.02599204 0.012267572 0.15433066 0.12192407 0.010739346 0.079711184 -0.00872269 -0.05162752 -0.11919947 0.07761769 0.112385534 0.014655091 0.06230161 -0.02500257 -0.11375107 0.14530466 0.06441302 0.2309463 -0.09142981 0.028868632 0.26435694 0.024782384 0.044333097 0.11100426 0.042429183 0.1720624 -0.087333485 0.10094863 0.10298327 -0.09627222 -0.06588385 0.07778108 0.12170692 -0.28191364 -0.040175542 0.06593719 0.028858766 -0.11569925 0.03190039 0.019751247 0.06445948 0.013818769 -0.14563188 0.037808426 -0.12515461 -0.035594385 -0.28411192 -0.033612136 0.09146796 0.01125945 0.19264172 -0.1750481 -0.04132317 -0.059974838 -0.14070137 -0.00015912198 0.17555575 -0.09615863 -0.2100361 0.14172214 -0.16306801 0.17584674 0.29133677 -0.021361282 0.06736229 0.016993375 -0.1431625 -0.30494 0.020423735 -0.0550266 -0.08806491 0.0096245 0.094521224 0.006592701 -0.0007301773 0.10511472 -0.15836294 0.014542332 -0.021259973 0.17390144 0.22751595 0.004705953 -0.10372248 -0.14003967 0.0063833673 0.047015846 -0.44223598 0.16892853 0.12679727 -0.009859932 0.10444511 -0.20616901 -0.015796985 0.1294477 0.065129116 0.13820913 0.1626675 0.10302099 -0.0425569 0.24681655 0.10094344 0.06822606 0.02172988
92 -0.040425155 0.083841294 0.13069819 -0.012424844 -0.07151469 -0.0060948716 0.11966565 -0.04481812 -0.08454525 0.04734751 -0.04471034 -0.07161043 0.16514581 -0.16233604 0.19003955 -0.14433104 -0.09986339 0.058254115 0.033151496 0.038648862 -0.18792586 -0.10025233 0.0856061 -0.06301028 -0.04935592 0.01594876 -0.019183373 0.1346294 0.09755614 0.018557055 0.034343373 0.15844373 0.04940665 -0.16526966 0.10170812 0.080493346 0.026251087 0.08656141 0.09051344 -0.16578272 0.20731235 0.05841872 0.21596593 -0.07703751 -0.04147266 0.35396072 0.00726639 0.122426525 0.13734312 0.120234095 0.123978496 0.0015849306 0.053675897 0.11170482 -0.07894602 -0.23145884 0.050537385 0.033266652 -0.1293263 0.08318577 0.119814195 0.016472224 -0.086608976 -0.028922867 0.051504616 -0.017987473 -0.03368885 -0.09629152 0.010332435 -0.101432614 -0.07660818 -0.18901345 -0.108770974 0.129853 -0.081170045 0.13030721 -0.17919385 -0.07483741 -0.00994263 -0.046546318 -0.055432927 0.1973589 -0.011799297 -0.21311042 0.056144845 -0.23835507 0.085426405 0.20258966 -0.12735456 0.0016512736 -0.035570025 -0.1169643 -0.26337782 0.08196673 -0.014392706 -0.08320079 -0.0653965 0.15089536 -0.015301549 -0.018903164 0.064876005 -0.1562275 0.085027896 -0.05050204 0.1039688 0.24612176 0.030645996 -0.14379191 -0.16770032 -0.035118535 -0.025302676 -0.51824176 0.22848697 0.20025457 -0.004280594 0.046238154 -0.23835379 0.048759002 0.115901165 0.08368775 0.1154019 0.06271863 0.10816881 -0.042247806 0.25970733 0.16149211 -0.013072928 0.040272787
49 0.04099973 -0.08644996 0.045808174 0.11975208 -0.084926106 0.020319276 0.33146596 0.18018042 -0.38664985 0.010447819 -0.17926215 0.26693222 0.033025548 -0.10733058 0.03554216 -0.016727462 -0.20643242 -0.011005337 -0.26854944 0.26115835 0.114242345 -0.045456436 0.33962762 -0.07087127 0.054584775 -0.0984202 0.03204984 0.2191367 0.12449397 -0.0042540547 0.069274224 -0.08447625 -0.17833334 -0.17703402 0.11563578 0.14000797 -0.014414963 -0.05121522 -0.19522707 0.0063799517 0.04269294 0.10658976 0.36742795 0.06142887 -0.039094023 0.017257983 0.017452039 0.04793019 -0.038610246 -0.08897646 0.033662282 -0.18966714 0.2153073 0.29674947 -0.005618129 0.23148432 0.060131162 0.11902864 -0.2662025 -0.1526571 -0.11450017 -0.014872219 -0.15021414 0.02500383 -0.05463635 0.08617564 0.10768082 -0.32826728 -0.006186764 -0.26915973 -0.0056382855 -0.17886932 -0.029213779 0.09283786 0.00225006 0.19505891 -0.13133976 0.0757836 0.05930867 -0.2595225 -0.016101116 0.1228169 -0.082712315 -0.09339489 0.00077587354 -0.07876249 0.14880958 0.41951168 0.26852486 0.17470501 -0.027903505 -0.08592187 -0.15499969 -0.07164172 0.027921587 0.12026925 0.11676183 -0.072873354 0.18702221 0.031090384 0.06108351 -0.12143502 -0.117355496 -0.0872687 0.24345866 0.07909291 0.047361642 0.16633028 -0.00785201 -0.053128768 0.124035 -0.27413622 0.09744743 -0.053622134 -0.20639785 0.27947944 -0.13391787 -0.14050563 0.08854171 -0.07215851 0.17737333 0.29608956 0.014058835 0.013081967 0.025199194 -0.12754278 0.17828916 -0.053346537
3 0.039834626 -0.047018874 -0.033742514 0.105973 -0.087235846 0.0033313243 0.23995301 0.14451236 -0.2657525 0.021874411 -0.08399948 0.18797547 0.045244616 -0.05853937 0.018970367 0.03973576 -0.18361725 -0.01642758 -0.20354915 0.19738472 0.060573254 -0.011706647 0.27939585 -0.028959593 0.01430782 -0.08302724 0.0033218635 0.1561375 0.1023931 -0.008113565 0.06268091 -0.04185172 -0.10292411 -0.15163146 0.12269482 0.08496122 -0.06817911 -0.036658566 -0.19299169 -0.027537439 0.0136745805 0.064123884 0.3003504 0.04662792 -0.005274898 0.06431876 0.030767886 0.055559658 -0.038295552 -0.026273813 0.09489404 -0.11899604 0.18452865 0.2441126 -0.026346954 0.16106257 0.047802348 0.10599678 -0.21499611 -0.14395446 -0.086675785 -0.041029766 -0.11185289 -0.028086618 -0.04042401 0.07077771 0.054477558 -0.2630977 -0.00387109 -0.244159 -0.05339186 -0.14617679 -0.079776146 0.09996991 -0.022264808 0.21235235 -0.08953972 0.052408442 0.07585663 -0.18252978 -0.027144674 0.13355154 -0.076974526 -0.1221165 0.032548014 -0.10613213 0.12617145 0.36571002 0.19730844 0.13781306 -0.016080312 -0.13013448 -0.17068385 -0.010090959 0.022448318 -0.01777188 0.09234322 -0.032467168 0.12619434 0.09114031 0.024171254 -0.13188696 -0.098257355 -0.058522493 0.14149599 0.103345245 0.07720063 0.05319239 0.027852992 -0.046669405 0.119782835 -0.27820727 0.11227787 -0.008876572 -0.13161308 0.22478037 -0.17697422 -0.0532586 0.118866295 -0.0047075325 0.19738376 0.2237002 0.022063306 -0.019607058 0.0776792 -0.10121139 0.13293482 -0.021576878
84 -0.032612182 0.27725646 -0.16630892 0.45589587 -0.17138565 0.38984343 -0.24864618 -0.2514321 -0.22220665 0.022258291 -0.15402815 0.06415309 0.55216926 0.09003365 0.19312024 -0.0978477 -0.18341453 -0.008265331 -0.040613722 0.17958814 -0.36840743 -0.41616014 0.091894224 -0.42860687 -0.21095629 -0.13978398 -0.16702421 0.31748617 0.2105553 -0.23236841 -0.14161187 0.28887883 0.05641223 -0.027518908 0.045794897 -0.20036185 0.16911697 0.45642474 -0.093217656 -0.35231695 0.23929705 -0.20778398 0.109940514 -0.55446064 -0.01507635 0.24776633 -0.07629081 0.07505858 -0.045368522 0.20790005 0.04204692 -0.044559285 0.23982388 0.16879755 -0.3730619 -0.2254283 0.12588786 -0.19070911 0.019867074 0.35703328 -0.04972752 0.23938842 -0.040492684 0.08192256 0.3122466 -0.32961372 0.014994489 -0.008163845 0.107971795 -0.04676312 -0.11019666 0.0025127989 -0.024400076 0.04015294 -0.4591988 0.076400764 0.148598 0.013194335 -0.011555036 0.24960162 0.061022338 0.36716515 0.023985544 -0.3201512 -0.2365533 -0.05917452 0.027332658 0.39887148 -0.012592424 0.09822094 0.054438937 -0.29897076 0.09834929 -0.14124203 -0.12597081 -0.0340328 -0.561565 0.17702265 -0.07466718 -0.3098077 0.021765383 -0.14207569 0.047993593 -0.1464849 -0.23118761 0.2592952 -0.17803109 -0.30052873 0.057442926 -0.31881508 -0.046702184 -0.5020976 0.1950516 0.15586656 -0.07746439 0.3285605 -0.261443 0.12209508 -0.019227887 -0.056888476 -0.10545107 -0.14749904 0.03087354 -0.056492265 0.22977273 0.029449888 -0.022832988 -0.010257211
9 -0.07766406 -0.040014938 0.15554017 0.13451813 -0.112380125 0.052455693 0.31935796 0.044947572 -0.4039957 -0.010191115 -0.17941755 0.23813054 0.11016627 -0.12314766 0.13616359 -0.0715828 -0.068658516 0.016554678 -0.17089002 0.25721255 0.017343251 -0.10330583 0.23330906 -0.067985676 0.05770339 -0.05864129 0.084437355 0.23869933 0.18795323 0.016729318 0.043672886 0.03607677 -0.13540062 -0.22804508 0.13139878 0.13182631 0.14409655 0.005539866 -0.069227286 -0.035694562 0.119683914 0.12936378 0.3096881 0.011069564 -0.08212027 0.035535652 0.030885968 0.101534516 -0.008636901 -0.14036687 -0.061952334 -0.18882646 0.111145504 0.24482545 -0.04012075 0.099753976 0.073207945 0.0026290528 -0.107063726 -0.01008883 -0.05352638 0.034808952 -0.15471722 0.040577963 -0.0069277445 0.10332229 0.06958357 -0.30845663 0.004766149 -0.25669572 0.018804798 -0.10850871 -0.04319104 0.103292495 -0.08253313 0.094377175 -0.12770903 0.078019254 0.026162345 -0.21367937 0.029363075 0.12213523 0.040304862 -0.05141353 -0.13520725 -0.18073784 0.13274367 0.28442895 0.1671109 0.05874711 -0.04252195 -0.07998095 -0.101152875 -0.071098335 0.054381147 0.2252387 0.038226932 -0.0138974 0.10999448 -0.07712955 0.03138616 -0.22372249 -0.031284843 -0.1485101 0.29014155 0.0017445877 0.06293864 0.16744833 -0.04830529 -0.11111539 0.019982912 -0.358735 0.107244074 -0.010320789 -0.24540712 0.18025857 -0.119586736 -0.08765346 0.13389142 -0.09244282 0.080496885 0.21185319 -0.09845971 0.05689153 -0.04865094 -0.048438914 0.11740788 -0.13525376
60 0.113181695 -0.06294054 0.14701976 -0.082179144 -0.0001251738 0.015635286 0.18792431 0.047632426 -0.07195071 0.017933832 -0.062265377 -0.11159407 0.09992205 -0.27022237 0.24355666 -0.07858908 -0.14973658 0.06348405 -0.046111044 0.017892443 -0.070129775 -0.09629378 0.11628344 0.010960801 -0.032075394 0.00892811 0.038100075 0.10906837 0.12059921 0.06968745 0.075164475 -0.06745018 -0.08538901 -0.108274065 0.053180147 0.17629823 -0.0059389523 0.048090544 0.019407973 -0.062083352 0.18849431 0.08741016 0.24464041 -0.11924765 0.02220752 0.35338044 0.035525672 0.021904293 0.20240021 0.08116993 0.18042383 -0.07391098 0.09575207 0.113301635 -0.10214914 -0.08383376 0.055496886 0.1568629 -0.3852217 -0.07900386 0.12847537 0.03546737 -0.17333747 0.06299068 0.04846688 0.10931006 0.06659982 -0.14977197 0.012046482 -0.103789315 0.028263465 -0.37704232 0.01860998 0.036064155 0.08418454 0.24234968 -0.227259 -0.091415025 -0.10676082 -0.22763985 0.037710443 0.19133598 -0.082868375 -0.23189123 0.21684515 -0.11361787 0.16995871 0.24468714 -0.03490933 0.07454911 0.034494147 -0.12787683 -0.33885318 0.012312504 -0.06271115 -0.04190523 0.073370025 0.106161356 0.04108908 -0.017560178 0.16238083 -0.14117165 -0.0009408146 0.041838378 0.26149583 0.22330281 -0.011685833 -0.09051545 -0.17663737 0.14587417 0.036906615 -0.45255986 0.15424857 0.10518872 0.070879795 0.06921881 -0.19949201 -0.060106702 0.116821125 0.057089094 0.13599709 0.2012562 0.13616773 -0.062196758 0.25433847 0.15857339 0.09795154 -0.014303905
16 -0.03770087 0.18265575 -0.013524402 0.27544704 -0.048583686 0.22251366 0.037204787 -0.20059922 -0.24984752 0.020620786 -0.14208804 0.17559701 0.29244998 -0.03426188 0.17008622 -0.10662378 -0.076812305 -0.056508593 -0.08176445 0.16585483 -0.13720593 -0.30469695 0.14609264 -0.20843096 -0.046345916 -0.072388954 -0.08372812 0.253207 0.14878047 -0.15178405 -0.03623019 0.13851331 -0.04535454 -0.102144346 0.023785587 -0.035233878 0.21805787 0.2698132 -0.030191446 -0.18578498 0.20951864 -0.008219572 0.14233913 -0.33508226 -0.0003523389 0.10185195 -0.037130337 0.06723815 -0.012180455 0.03453383 0.0077607306 -0.16859275 0.09829218 0.11603949 -0.2571517 -0.07245317 0.12665312 -0.10060793 -0.032297518 0.18040466 -0.06349597 0.16719793 0.0052814633 0.06864741 0.041742843 -0.09755216 0.047271013 -0.09660669 0.12754558 -0.09419376 -0.058998864 -0.015009133 -0.050389383 -0.012979792 -0.34493294 0.05287973 0.018563097 0.057471424 0.06853274 0.039682876 0.021674363 0.19648592 0.0149835665 -0.18653691 -0.16848326 -0.05415618 0.097611524 0.22649746 0.0027724144 0.005667241 -0.013072707 -0.14953959 0.002591023 -0.14392297 0.006237827 0.019017696 -0.2949877 0.094348356 -0.1124517 -0.16925499 0.08262405 -0.17306156 0.011611981 -0.14292562 0.053594857 0.18792018 -0.12891 -0.09433939 -0.0054509053 -0.2030226 -0.09686641 -0.35007983 0.10729358 0.13517867 -0.21127617 0.17212434 -0.083079524 0.075443655 0.052461457 -0.035087317 -0.018343618 0.066674314 -0.023686182 -0.0050241966 0.113973744 -0.0054644025 0.0437907 -0.0027315782
30 0.050089758 -0.0015891687 0.121708944 -0.060240902 -0.026646245 -0.029283617 0.18664712 0.024873486 -0.07988358 0.056667246 -0.04261472 -0.06879568 0.07010081 -0.17525232 0.16974927 -0.111858845 -0.1387892 0.044689264 -0.045939084 0.04918584 -0.049539357 -0.057857174 0.14473715 -0.030786414 -0.022917759 0.0062701222 0.00040593673 0.12748706 0.10570623 0.018481463 0.060892403 0.02038165 -0.040027186 -0.14519827 0.073411934 0.12095415 0.012747742 0.023659391 0.019890293 -0.10239317 0.15050621 0.06478962 0.24837147 -0.03532737 -0.014347829 0.30193704 0.024511106 0.060937423 0.13063076 0.060797162 0.15986343 -0.06781137 0.089018375 0.10384612 -0.058370158 -0.10355272 0.05968975 0.12685215 -0.25240898 -0.039655343 0.08535116 0.009832733 -0.102972135 0.011085072 0.0066837873 0.06914192 0.01689352 -0.14898932 0.019592613 -0.12222514 -0.045677558 -0.27131042 -0.03047899 0.10362351 0.031461146 0.16834828 -0.20577586 -0.047264032 -0.05839899 -0.14582011 -0.033439085 0.1592803 -0.08671469 -0.18792419 0.14023745 -0.18441395 0.14509764 0.25918382 -0.05864159 0.04623103 -0.0008076164 -0.099281184 -0.3076793 0.026836138 -0.03445994 -0.07419399 0.0275976 0.08472754 0.023861222 0.010444891 0.09020333 -0.129971 0.02275764 -0.012530789 0.18402751 0.23326422 0.013564458 -0.08726096 -0.17677712 0.029249905 0.026399951 -0.44726115 0.17486559 0.12538381 -0.007032737 0.07004422 -0.18801999 -0.03148136 0.10604677 0.07488997 0.15282331 0.15424097 0.12169652 -0.038568318 0.2531141 0.11352482 0.056542177 0.038647156
78 -0.101264715 0.09823957 -0.086747326 0.21047434 -0.044446103 -0.037685167 -0.016816577 0.03845187 -0.28694564 -0.02401759 -0.016048409 0.07498354 0.14643848 -0.06757959 0.23504306 -0.023946665 -0.12720117 0.091243036 0.03503849 0.1631799 -0.1961133 -0.13214819 0.10106093 0.0023638194 -0.07550028 -0.041675586 0.04884691 0.17263842 0.12012713 -0.035664953 -0.06675217 0.20088899 0.0029497792 -0.14538041 0.122814745 0.033561144 0.058235433 0.124131255 0.019630121 -0.10336202 0.17731164 -0.012305675 0.17962249 -0.022449423 -0.10167283 0.17683941 0.027478145 0.13305862 -0.023297837 0.06608234 0.0368137 0.066432066 0.10450078 0.22627716 -0.08473606 -0.08139691 -0.061255507 0.0024987694 0.0027293314 0.1685473 -0.038355198 0.030198475 -0.08996558 -0.13569696 0.10641327 -0.1531325 -0.038155653 -0.03209584 -0.046074685 -0.10654941 -0.11959602 -0.023466798 -0.1250871 0.05639741 -0.11925856 0.12214349 -0.09725836 0.06336129 0.11828837 0.0049680653 0.032693017 0.17601171 0.099046335 -0.09807301 -0.09957524 -0.19909517 -0.024882827 0.21783999 0.036482878 0.022089994 -0.053688984 -0.17521878 -0.09394678 -0.026115552 -0.012235153 0.0062627243 -0.20075513 0.07374909 0.028061133 0.017529903 0.0031151639 -0.18060909 -0.01749778 0.026812928 0.01920613 0.12488915 -0.02130775 -0.09048799 0.011743843 -0.14445639 0.105095565 -0.46033588 0.13526163 0.17192604 0.018988509 0.091265455 -0.34251213 0.027675916 0.04792208 0.05509914 0.06300158 0.017673064 -0.0024122845 -0.20131934 0.21768741 -0.017642697 0.031924576 -0.087226585
69 0.07147378 -0.020243054 0.11080479 -0.073879525 -0.025129415 -0.04193756 0.19747724 0.036248423 -0.07337329 0.05734541 -0.03630205 -0.07255821 0.09233378 -0.19894308 0.2018811 -0.10946061 -0.12442787 0.037226852 -0.043311592 0.047050375 -0.03927051 -0.0688545 0.14513841 0.010054306 -0.00091876293 -0.0035701161 0.015918221 0.15237905 0.118042514 0.029569333 0.08351543 -0.0019788584 -0.047928084 -0.14837673 0.08467993 0.16153117 0.01277474 0.037844528 0.04114248 -0.10049135 0.17509907 0.08696933 0.25709572 -0.05151074 0.0073677693 0.32263407 0.04497644 0.06566244 0.16022275 0.06660627 0.18427251 -0.058036473 0.06683831 0.086172566 -0.0719022 -0.10612744 0.059538662 0.13334039 -0.3030519 -0.04463031 0.09157009 0.018222878 -0.10242328 0.015360316 -0.0020338248 0.08154705 0.006423241 -0.1563403 0.032657888 -0.10788583 -0.03698137 -0.3132345 -0.049747314 0.10982089 0.03474693 0.1981637 -0.22619753 -0.062325265 -0.06746797 -0.17449087 -0.0099872 0.17068294 -0.08955032 -0.19465359 0.17919056 -0.19254683 0.18527398 0.25734818 -0.060988244 0.044319708 0.0176592 -0.112581305 -0.3569437 0.036190867 -0.04481768 -0.07787833 0.059036665 0.10021646 0.00907394 0.033589754 0.109787434 -0.17132068 0.018395785 -0.0057511935 0.2141859 0.26289403 0.027865047 -0.099340975 -0.17221668 0.060145974 0.045734905 -0.4783296 0.17711629 0.15744664 -0.00014926092 0.06382154 -0.21680996 -0.024163531 0.13987789 0.08320421 0.16022179 0.16830008 0.12567213 -0.044448968 0.26496246 0.13386309 0.060922693 0.032674715
26 -0.20790833 0.054514904 0.23645222 0.19576919 -0.15094097 0.064386025 0.29549137 -0.090296715 -0.45617867 -0.018602032 -0.17457302 0.2301844 0.17264104 -0.12438754 0.22730102 -0.14885232 0.032637864 0.037918016 -0.08408259 0.281985 -0.09690231 -0.17034252 0.16172406 -0.0684091 0.05146343 -0.023445308 0.10703176 0.2669915 0.24486509 0.0032844427 0.011406417 0.19131716 -0.0694632 -0.3056519 0.1475589 0.0994032 0.2804694 0.05685994 0.04276582 -0.0938732 0.18866588 0.1473922 0.2762546 -0.029459476 -0.13857687 0.077941306 0.032774743 0.17689513 0.0014258467 -0.18042095 -0.13496062 -0.20329635 0.03803134 0.22186112 -0.06447142 -0.039542213 0.09215015 -0.10005761 0.076827824 0.12830068 -0.016557291 0.083586656 -0.13188396 0.03167797 0.024830924 0.10310752 0.011210643 -0.27438468 0.0085766185 -0.26345626 -0.0058991564 -0.0151511235 -0.08533361 0.111633465 -0.17508423 0.0025738198 -0.11829011 0.09634518 0.026180785 -0.121123694 0.039776392 0.11794417 0.14212501 -0.020034807 -0.27362463 -0.29101166 0.08457826 0.20851228 0.049369592 -0.042522237 -0.08145514 -0.074627414 -0.055250738 -0.09160464 0.087640464 0.27959582 -0.09654002 0.0599331 0.027706994 -0.17210354 -0.0099716 -0.30438194 0.047693346 -0.21717523 0.30032772 -0.03516087 0.058680877 0.16804896 -0.092272304 -0.20090027 -0.07966413 -0.47474608 0.12665644 0.06713552 -0.29968065 0.09308935 -0.1363866 -0.032613292 0.159137 -0.09620769 0.0052962084 0.117712826 -0.19583048 0.08549705 -0.06581887 0.009215933 0.05176986 -0.17970759
90 -0.06368852 -0.05857034 0.042686608 0.17007002 0.006334836 0.049793668 0.15701406 0.068415456 -0.37886545 -0.15962252 -0.30826697 0.33238477 0.05820141 -0.32433912 0.13826098 -0.1334169 -0.22989464 0.06495556 -0.16171613 0.17055918 -0.03552926 -0.09811642 0.19345935 -0.18874419 -0.082025684 -0.038331844 -0.07464403 0.16556582 -0.08030094 -0.08116395 -0.1579057 0.03187716 -0.20895821 -0.10945867 0.045754846 0.14694165 0.03896408 0.08346494 -0.0015609711 0.11827868 0.2512989 0.027766544 0.38366234 -0.086907215 -0.21947691 0.17522116 -0.059079874 0.055176005 0.12788229 0.21060857 -0.08490807 -0.009436355 0.2256717 0.3663505 -0.09194577 0.13486846 -0.09833468 0.08864494 -0.23290667 0.09264451 -0.12632398 0.088323645 -0.17793491 -0.05404137 -0.010014881 -0.26113665 0.3115146 -0.20495625 -0.07695977 -0.089066684 0.10003728 -0.12756765 0.07002623 -0.141372 -0.20158108 0.12895967 -0.18361385 0.018222336 0.21353139 -0.27430296 0.0075095217 0.26049715 0.06513955 -0.123653814 -0.073469736 0.19567832 -0.06814857 0.21904351 0.24606355 0.17990923 -0.032463048 0.11027662 0.07845523 -0.2246195 0.074174084 0.38432154 -0.013352818 -0.14994049 0.31632465 -0.08335899 0.17989008 0.09576534 -0.16342084 0.10454945 0.22555979 0.18014516 -0.16726752 0.18215467 0.07333417 0.06828661 0.090277135 -0.22861445 0.062486485 -0.04385477 -0.14751805 0.23503454 -0.090240695 -0.21878332 -0.22841981 -0.10770624 0.13231021 0.23098727 0.1640129 -0.08226674 0.074315675 -0.11317778 0.22941805 -0.014177922
121 -0.2170783 0.06391975 -0.13618897 0.22082368 -0.20646809 -0.16041759 -0.061223373 0.1357035 -0.21823353 -0.06877208 0.055307172 0.023167683 0.13631412 -0.09929645 0.19952019 0.10861289 -0.17050193 0.15350725 0.05935318 0.13601904 -0.33747506 0.10155051 0.045323625 0.026900977 -0.24492614 0.01833056 0.023694176 -0.027487718 0.073617056 0.029401775 -0.16474444 0.37521058 0.14728117 -0.21673004 0.2569483 -0.05078463 -0.19898735 -0.011868191 -0.02485072 -0.118224934 0.07009702 -0.08495101 0.28011197 0.14388862 -0.1906599 0.4285358 0.049196947 0.2713353 0.03700817 0.25114077 0.16111948 0.26237053 0.2347597 0.4290753 -0.019386657 -0.20143704 -0.17962986 0.009059212 0.11000996 0.10261937 0.035197627 -0.13160214 -0.21789524 -0.2930914 0.18450561 -0.18624353 -0.093396254 -0.11648157 -0.24766873 -0.2815607 -0.19317675 -0.016279869 -0.2588121 0.18806687 -0.08525784 0.23206145 -0.11654103 0.0064972737 0.15980591 0.026198555 -0.06703741 0.32021436 0.17161642 -0.14735776 -0.097440615 -0.35161248 -0.17792326 0.28457886 0.0035884324 0.10617694 -0.07926313 -0.24335209 -0.14066964 0.16056992 0.011785149 -0.102150045 -0.10400412 0.11198737 0.19761847 0.13911702 -0.14893013 -0.17679441 -0.03156412 0.088559195 -0.10840503 0.13127588 0.17259496 -0.15229097 0.08286786 -0.079764076 0.19933097 -0.5963634 0.23431474 0.12727161 0.12672025 0.078863166 -0.56351936 0.07483739 0.07660007 0.1811771 0.23438035 -0.10411496 0.047574125 -0.23262069 0.26183188 -0.007630738 -0.010698685 -0.097154446
86 0.027974274 0.005886259 0.23721692 -0.009722494 -0.070009746 0.05340486 0.41696152 0.077401675 -0.18947572 0.061935317 -0.14615229 0.14042224 -0.12471486 -0.11185596 -0.09956714 -0.07571387 -0.29290166 -0.03558977 -0.27901986 0.18804008 0.099856846 0.0029980876 0.3868212 -0.24890053 -0.02566751 0.009099205 -0.07600974 0.043532163 0.11381955 -0.0029897671 0.12976432 -0.04029455 -0.090362564 -0.20215592 0.034734763 -0.0023056613 -0.07252347 -0.1750974 -0.28467372 -0.09770449 -0.091077514 0.050279107 0.36996904 0.08527095 -0.061030827 0.14243497 -0.06080885 0.011733268 -0.054323226 -0.08778019 0.11464723 -0.28749466 0.31406358 0.30376738 0.012508545 0.12685579 0.15824144 0.17070328 -0.18573396 -0.27774325 0.014787786 -0.13596231 -0.12312864 0.033225708 -0.0834751 0.21788575 0.12825008 -0.40435472 0.0009242596 -0.38477764 -0.087027855 -0.13890444 0.020796178 0.120326765 0.026961155 0.16733465 -0.09658546 0.103902265 0.018517947 -0.19809188 -0.20623888 0.13463047 -0.19765969 -0.24789299 0.005930626 -0.121238984 0.06370153 0.5095868 0.09872985 0.16185886 -0.085863374 -0.071934536 -0.15918958 -0.01747761 0.03609148 -0.14525208 0.07410138 -0.06663378 0.14175344 0.026567644 0.0184832 0.029484749 -0.054667894 -0.14435585 0.17661683 0.097387955 0.036179963 0.07511228 -0.19990344 -0.08759155 -0.033884346 -0.31602117 0.16834538 -0.11152869 -0.25805268 0.25213596 0.0016728158 -0.114002064 0.069629505 -0.0069196667 0.29248264 0.39410946 0.09006588 0.11014358 0.08056686 -0.062967286 0.12615535 0.07176705
81 0.004089922 0.25992247 -0.18461302 0.46957073 -0.17398106 0.42354614 -0.26122704 -0.22019503 -0.23775543 0.030461084 -0.18581882 0.06319877 0.57946557 0.11753379 0.17890096 -0.103064954 -0.20136349 -0.001066872 -0.05979083 0.19479713 -0.35563084 -0.43534997 0.11554886 -0.45977885 -0.20075281 -0.16332072 -0.16343038 0.35692385 0.21473435 -0.2504731 -0.13840997 0.27378997 0.025375132 -0.0020144638 0.035605345 -0.20303355 0.17143038 0.4848774 -0.12851651 -0.35908142 0.24714522 -0.2148606 0.10727865 -0.5813735 -0.0012706666 0.22952166 -0.08465645 0.056703888 -0.05773376 0.20821622 0.022021715 -0.0510333 0.27044085 0.16796097 -0.37461504 -0.19510524 0.13043693 -0.18943769 -0.018534187 0.37062523 -0.08115935 0.26590165 -0.056465883 0.11012212 0.33596775 -0.36223242 0.028320868 -0.009584222 0.112554565 -0.020727104 -0.09371352 -0.009999673 -0.010045881 0.043153368 -0.45535454 0.07684991 0.16573729 0.012102955 -0.03128365 0.25212267 0.0779477 0.37474042 0.0018114978 -0.3374901 -0.23069793 -0.037913036 0.046198294 0.45697734 0.03159745 0.13364892 0.068897985 -0.3156576 0.101353176 -0.15245567 -0.15948854 -0.007830727 -0.56051195 0.16889313 -0.057571158 -0.34477964 0.029934062 -0.13669574 0.040534105 -0.16118348 -0.24878922 0.27172536 -0.18817022 -0.30196875 0.06775372 -0.32892147 -0.0143641075 -0.49357092 0.20035055 0.14375333 -0.06724224 0.38425487 -0.26284477 0.098019205 -0.04953276 -0.07826916 -0.12572767 -0.14530347 0.03770277 -0.053687528 0.2289095 0.01903321 -0.008763001 -0.016699614
94 0.042944606 0.24882948 -0.16458638 0.39819577 -0.16597418 0.42148733 -0.23951383 -0.22955105 -0.16934046 0.062738754 -0.15192594 0.0013214619 0.5608202 0.13084847 0.16915235 -0.102973595 -0.19958061 -0.017841289 -0.06586482 0.15605277 -0.3262194 -0.4249092 0.11358558 -0.43381155 -0.18532732 -0.15478517 -0.17303823 0.33196467 0.22192465 -0.23530905 -0.09090495 0.22904168 0.034849696 0.0082005 0.022809522 -0.2002539 0.15851894 0.4609276 -0.13245696 -0.3776897 0.22377592 -0.20678604 0.07890106 -0.5782553 0.04272442 0.23620915 -0.072412804 0.02915771 -0.04996748 0.18002887 0.06422266 -0.07523101 0.24946459 0.11557549 -0.36558604 -0.20909324 0.16014197 -0.16107929 -0.061746128 0.3183007 -0.045033447 0.25252098 -0.03985487 0.13667686 0.32291886 -0.2878149 0.005544214 -0.003977302 0.13978319 -0.017035821 -0.09440519 -0.0528886 0.009182516 0.05235264 -0.3932331 0.081504546 0.16586372 -0.0081765875 -0.08385803 0.25179365 0.073642835 0.3397983 -0.04635527 -0.35029283 -0.17202121 -0.046432335 0.088100515 0.44334325 -0.016524678 0.11639249 0.08616496 -0.3219778 0.049947813 -0.12857978 -0.17185755 -0.078940764 -0.529698 0.18381125 -0.098960064 -0.3320136 0.03855401 -0.13582027 0.057074863 -0.17152248 -0.23988965 0.27833754 -0.17233473 -0.33297932 0.022198485 -0.30025727 -0.04557089 -0.46900585 0.19487402 0.14451525 -0.0453977 0.36371234 -0.22860998 0.109739 -0.011811787 -0.06023695 -0.12470285 -0.13722917 0.04398355 -0.03458914 0.24009526 0.049494043 -0.024348127 0.010924111
7 -0.14581087 0.1055568 -0.11179885 0.25492254 -0.19899236 -0.00023873348 -0.08917988 0.053669814 -0.22866791 -0.020109745 -0.01587452 0.022498189 0.22286913 -0.005403429 0.16186047 0.03991034 -0.16614029 0.10788616 0.021458073 0.15881412 -0.30364326 -0.029980449 0.06930987 -0.09899892 -0.20090128 -0.018184554 -0.00024072104 0.07102064 0.1164776 -0.02241998 -0.13247639 0.33185703 0.1081207 -0.1485861 0.18773155 -0.0812935 -0.08443238 0.08833914 -0.057872277 -0.16675885 0.083341576 -0.10327655 0.21052983 -0.0016491141 -0.12918502 0.3037576 0.009134975 0.19776297 -0.015209855 0.17682873 0.0981 0.13789022 0.21977133 0.31795242 -0.07550989 -0.17333837 -0.072838284 -0.042182926 0.08812301 0.14884876 0.00057204964 -0.035589647 -0.15717724 -0.15446813 0.21980023 -0.19483955 -0.079173595 -0.080289 -0.13789615 -0.2050096 -0.1561364 0.00051032915 -0.15898946 0.16330762 -0.13597311 0.14219919 -0.034648735 0.019033689 0.07236789 0.09432728 -0.0195479 0.2728485 0.0998948 -0.15398008 -0.13717455 -0.27088866 -0.1129131 0.31768483 0.02458369 0.09324108 -0.04172088 -0.2344305 -0.06708188 0.0843783 -0.03673725 -0.06411992 -0.20730029 0.10573419 0.1202303 -0.0007015425 -0.1129347 -0.14670612 3.3876488e-06 -0.003957751 -0.14378673 0.10814796 0.086613126 -0.14971478 0.051774576 -0.15729682 0.13045256 -0.49855202 0.20833391 0.09788974 0.05780516 0.14430526 -0.4347521 0.058178257 0.05657818 0.08047174 0.10913409 -0.11313664 0.015801018 -0.15295354 0.19900997 -0.0013884786 -0.01644865 -0.08108387
6 -0.13622475 0.12761545 -0.04350239 0.24434227 -0.12206584 0.05184881 -0.04227459 -0.008452423 -0.19105104 -0.049251188 -0.06915044 0.089801066 0.16885787 -0.09495146 0.118879475 -0.030907148 -0.1551095 0.070082 0.007203506 0.1251446 -0.2499534 -0.07146408 0.07577388 -0.17787963 -0.17795174 -0.0034548957 -0.058044057 0.060713023 0.041139208 -0.05780646 -0.14173478 0.2956215 0.06176247 -0.11849503 0.097814515 -0.07194003 -0.026611598 0.100358516 -0.022538552 -0.11968406 0.13483346 -0.09069382 0.2174781 -0.083830155 -0.16572016 0.30637234 -0.046157066 0.1706722 0.019929703 0.22040245 0.052835517 0.103661954 0.2294617 0.29295272 -0.11211333 -0.15576023 -0.070527405 -0.0430443 0.07624048 0.16324405 -0.024639828 -0.005761998 -0.12141436 -0.13846047 0.14990394 -0.21599175 0.015876956 -0.084290326 -0.10155108 -0.1512248 -0.10659275 0.040387847 -0.102003835 0.059380945 -0.2166549 0.10346888 -0.041748125 0.021443443 0.13214052 0.051316876 -0.057110738 0.28411528 0.10707564 -0.17867433 -0.15923887 -0.1295552 -0.13723655 0.26050106 0.023447283 0.09377965 -0.043368407 -0.13035703 0.012439669 -0.0072155413 -0.014847228 0.008614259 -0.19680999 0.05065548 0.10444835 -0.02782262 -0.031143626 -0.05118529 -0.014635004 0.018665437 -0.08669099 0.1532374 -0.008080243 -0.10989513 0.03248753 -0.10889777 0.07396008 -0.41909742 0.15876539 0.076410696 -0.01900709 0.14065643 -0.28827178 0.024817457 -0.0672611 0.039413698 0.1046201 -0.021937829 0.058874708 -0.109346405 0.17459385 0.0009908621 0.029179305 -0.02397629
51 -0.173787 0.25759345 0.1536883 0.2662043 -0.007643406 0.13699381 0.24673285 -0.32203534 -0.25135508 -0.01331448 -0.13243975 0.3044905 0.10915958 -0.17360306 0.16949314 -0.12324015 -0.0366068 -0.12344147 -0.100550316 0.16333345 -0.11377074 -0.24360482 0.20020436 -0.19144785 -0.06506499 0.009214042 -0.13792413 0.09544237 0.10436323 -0.14110224 -0.050102346 0.16512541 -0.037090287 -0.20048784 0.012916515 -0.07498359 0.24398524 0.13593574 -0.0032979094 -0.16789824 0.15220536 0.055500682 0.21601677 -0.26273456 -0.08343586 0.14039609 -0.039826445 0.098729834 0.022381138 0.014494794 0.02378122 -0.26539606 0.11396317 0.2213766 -0.26996085 -0.10709746 0.15197502 -0.09178629 0.09105138 0.10231236 -0.029627921 0.10154898 0.04624985 -0.016999947 -0.11621662 0.04893865 0.06272337 -0.2214741 0.08851965 -0.27084383 -0.15819268 0.05796706 -0.12138373 -0.06295019 -0.45271316 0.031353656 -0.025651919 0.12394871 0.18143892 -0.023447294 -0.13155538 0.17648034 0.06816164 -0.20746385 -0.2819647 -0.12144122 0.028049078 0.14468041 -0.101631515 -0.0481073 -0.11864644 -0.09519837 0.042066704 -0.15007144 0.20397593 -0.074950196 -0.28347576 0.08245179 -0.14620234 -0.06882129 0.088337205 -0.16655508 0.013462233 -0.18985118 0.1531879 0.17367356 -0.11208157 -0.037203055 -0.06322705 -0.24167784 -0.2725834 -0.4093229 0.12084608 0.1310842 -0.39773783 0.04129392 0.05464519 0.12437028 0.0928381 0.01761551 0.12416645 0.17987965 -0.055918146 0.07560453 0.10721677 -0.028199168 0.03264096 0.05712957
46 0.20395853 -0.092607446 0.2246269 -0.15910803 0.045226526 0.075982586 0.239998 0.0008954464 -0.039990816 0.023293087 -0.06990821 -0.21498618 0.15544139 -0.37627 0.36265552 -0.10656128 -0.20360549 0.069520906 -0.059642922 -0.019596664 -0.093789 -0.1808282 0.13208455 0.018651102 -0.048358504 0.030324263 0.04136158 0.13435932 0.18960321 0.0892527 0.12589493 -0.14800316 -0.13017364 -0.10498342 0.0076269247 0.24557282 0.033855345 0.0962678 0.036273092 -0.10079854 0.2699172 0.12060472 0.29329523 -0.24818604 0.083140984 0.48861971 0.04683307 -0.02056371 0.30154502 0.11371034 0.26225376 -0.12794212 0.10481835 0.094293505 -0.1855604 -0.116461486 0.11941081 0.21222526 -0.60549587 -0.11865461 0.21412276 0.09247652 -0.21070649 0.13840637 0.06503816 0.2155943 0.10468533 -0.15773414 0.046173785 -0.0984906 0.06766492 -0.5652315 0.08287766 -0.012373406 0.12166329 0.33579758 -0.30027843 -0.12918289 -0.19734356 -0.3349462 0.07620244 0.23872319 -0.14503628 -0.33788434 0.34283078 -0.08720719 0.27588326 0.27074477 -0.080135055 0.07102859 0.067086786 -0.16586353 -0.48201194 -0.01763288 -0.08568243 -0.070503324 0.097131304 0.14761443 0.018386528 -0.053890478 0.26814225 -0.18611039 -0.004343089 0.076886445 0.3861419 0.31298825 -0.04216776 -0.1684278 -0.24881981 0.26058552 0.016902182 -0.5769357 0.17093171 0.14636463 0.122385554 0.06759881 -0.20590849 -0.0723275 0.16529597 0.0957609 0.14807284 0.3033326 0.1954068 -0.0887531 0.33510455 0.2532765 0.11664655 -0.025120491
71 -0.14612906 0.21038428 0.123376355 0.23356166 -0.04997721 0.14870241 0.19177817 -0.2397706 -0.23061948 -0.009492588 -0.116968274 0.23061506 0.15137 -0.11244258 0.13438831 -0.10499051 -0.061376933 -0.090523474 -0.084913164 0.16178793 -0.1264736 -0.20894472 0.16753598 -0.202575 -0.06608658 -0.003966025 -0.09740049 0.11279875 0.11938915 -0.10370484 -0.03633686 0.18543656 -0.013562123 -0.17368817 0.020384694 -0.080417216 0.20138015 0.13124986 -0.041655146 -0.17512628 0.12757517 0.011311136 0.1998075 -0.221715 -0.07645328 0.13599116 -0.040927786 0.10407525 -0.0158106 0.0072448 0.004822229 -0.19968763 0.1320214 0.20375071 -0.21850789 -0.09982126 0.13043939 -0.08990925 0.08888331 0.09864792 -0.020115431 0.0692435 0.0045708865 -0.0034930217 -0.043560274 0.02496382 0.036816694 -0.20672916 0.0634108 -0.23837577 -0.1258587 0.056748863 -0.09592073 -0.006169726 -0.371134 0.030586103 0.012910215 0.10031065 0.1309638 0.012776915 -0.09508003 0.17555974 0.05281428 -0.19951835 -0.25541705 -0.13333918 0.0054089846 0.19771753 -0.052861158 -0.015860943 -0.07570208 -0.11650858 0.03671022 -0.117875904 0.12380098 -0.049765136 -0.23881446 0.058802105 -0.0918055 -0.09191715 0.03809634 -0.14768761 0.019819835 -0.17794392 0.08661729 0.11896164 -0.06781698 -0.0415437 -0.05888232 -0.22513399 -0.19769748 -0.36584282 0.1255221 0.07723641 -0.31429127 0.097893044 -0.00094436354 0.085019864 0.0706726 -0.0040040473 0.08034235 0.12960818 -0.057306755 0.058523245 0.06307268 -0.01142985 0.03318287 0.01079096
24 0.1355473 -0.030530795 0.15952067 -0.14713554 -0.0013013269 0.03851019 0.27374923 -0.018112157 -0.058779184 0.07481865 -0.077622 -0.08006558 0.12890038 -0.2135986 0.198725 -0.13706227 -0.19469272 -0.009858907 -0.1247039 0.04024275 0.0081577515 -0.13917884 0.20259248 -0.033334747 -0.0013201474 3.2188167e-05 -0.03216993 0.20333593 0.16545373 -0.011904484 0.13381444 -0.093105525 -0.09103796 -0.13204753 0.018748028 0.19367541 0.055556882 0.08579632 -0.0014052027 -0.13373266 0.1822852 0.09071421 0.28213567 -0.16333897 0.06870897 0.33040804 0.027612127 0.0068670344 0.18107729 0.048046805 0.23564355 -0.15745091 0.081850395 0.037441265 -0.13292344 -0.06937282 0.14218767 0.17457761 -0.47282425 -0.10103064 0.11984587 0.06424635 -0.071042515 0.10232016 -0.030993477 0.19287127 0.05546383 -0.20606723 0.10688484 -0.11815079 -0.02681706 -0.42820278 0.02836061 0.08507704 0.029264644 0.23043902 -0.24470882 -0.0784105 -0.13633795 -0.2351267 -0.01601614 0.17835863 -0.18542892 -0.2721379 0.25370836 -0.13240421 0.29138166 0.32326862 -0.07378225 0.05515858 0.052127615 -0.115694866 -0.42404646 -0.020817885 -0.057482343 -0.110422656 0.08237093 0.10808311 -0.029319242 -0.007258749 0.14966641 -0.17024748 0.00523079 -0.0364157 0.27316165 0.3258969 0.0013346174 -0.124839775 -0.224002 0.1158017 -0.011008786 -0.47661185 0.16205768 0.15107068 -0.045736868 0.11328155 -0.13030015 -0.042212464 0.15388213 0.09484096 0.16572168 0.24680415 0.1520726 -0.015492679 0.2698883 0.16800503 0.07871091 0.062270116
