84 128
0 0.21334787 -0.017409258 -0.040995505 -0.05341228 -0.003639772 -0.15520154 -0.06577793 -0.037604127 -0.14296049 -0.15218998 -0.073123276 0.013287485 -0.03214253 -0.07700664 -0.08845973 0.18741874 0.13503504 0.02845534 -0.020336116 -0.009887003 0.0044595078 0.12210787 0.047374286 -0.23302157 0.02471397 -0.22964908 -0.04805258 0.16831878 0.2525109 -0.104983605 0.19584073 -0.047494147 0.10285642 -0.11285275 0.07459827 -0.09966918 0.025248695 0.04014244 -0.0062152334 -0.13421169 -0.025970584 0.22532924 -0.14990945 0.04594428 0.09395213 -0.08520455 0.08246797 -0.0690663 0.010195895 -0.1472113 -0.12559584 -0.050686173 0.08739843 0.013528795 0.10462256 -0.09765634 -0.012950269 0.075837016 0.13262698 -0.00802154 0.25038627 0.08753388 0.06503557 0.020246975 -0.0142088365 0.043695748 0.15703182 -0.009768891 0.014893537 0.026340429 0.08017626 -0.04419068 0.020841898 -0.20443961 -0.07473326 0.14638412 -0.10177882 0.1140992 0.115532845 0.0040391195 -0.13566369 0.13851635 -0.100150906 -0.10517788 -0.060115345 0.047503542 -0.030401643 0.087271154 -0.07995269 -0.0026447568 0.025704455 -0.043848548 0.18488364 0.013598602 -0.08269013 0.119648 0.07332745 -0.16928487 0.08265202 -0.16096544 -0.010645671 -0.013912074 -0.16465111 0.091996565 0.050212026 -0.17809755 0.09164083 -0.08256274 0.008335633 -0.07087545 0.038581125 0.029215623 0.07365584 -0.06103664 0.0803501 -0.011036674 -0.03034945 -0.034604244 -0.06884219 -0.19106966 -0.20518303 0.1330119 0.10583462 -0.017428389 0.02094083 -0.06157324 -0.19210277 -0.03838605
8 0.22177587 -0.08297746 0.009797743 -0.08940933 -0.03236873 -0.08071208 -0.008592568 -0.036728166 -0.15055971 0.0065475153 -0.06156676 -0.0028982013 -0.0959656 0.05544038 -0.05373856 0.3095692 0.13296196 0.11183396 -0.029762281 -0.11005998 0.0036288695 0.16615291 0.007057672 -0.13258365 -0.0035866029 -0.2753035 0.031965103 0.10371693 0.035796314 -0.054720286 0.23231962 -0.05797809 0.14088996 -0.114649996 -0.06165712 -0.07260799 -0.030529203 -0.024228318 -0.018197026 -0.17761542 -0.040666867 0.22510268 -0.16852129 0.16013023 0.06115462 -0.014110761 0.052284587 0.035428762 0.056350514 -0.11923369 -0.04757583 0.054399807 -0.017022483 -0.15886237 0.20511463 -0.15702532 -0.02541919 0.044251252 0.1419651 0.01935929 0.21602826 0.09320837 0.08164686 0.15683627 -0.018718122 0.037465867 0.14189969 0.07579901 0.03892448 -0.008351741 0.18504146 -0.027651068 -0.029667258 -0.15111858 -0.06437372 0.12704596 -0.007072683 0.051038988 0.09481703 0.06646408 -0.093067355 0.119960174 -0.04291758 -0.177751 -0.11145744 -0.012796618 -0.080132045 0.087733224 -0.09974365 0.07524776 0.013555792 -0.07696794 0.16353214 -0.039745275 -0.06700504 0.06931906 -0.02363503 -0.15044443 0.12765683 -0.1812374 0.0035230224 -0.024027636 -0.20340487 0.18251897 -0.005377365 -0.11487549 0.036950376 -0.043625172 0.026789943 -0.14853953 0.017733177 -0.05850835 0.110995255 -0.030564837 0.0951956 0.08611566 0.007586838 -0.07916276 -0.1873848 -0.16447431 -0.17605473 0.16540891 0.036977626 0.054395508 0.031480912 -0.094491236 -0.16460066 -0.0739551
1 0.22071785 -0.0411498 0.00656881 -0.05560866 0.007549111 -0.12164387 -0.06682459 -0.05166618 -0.15165421 -0.09585644 -0.07032356 -0.02023639 -0.035245568 -0.044021558 -0.06437025 0.18767574 0.10608905 0.04656556 -0.016092993 -0.011348699 -0.005096909 0.10202245 0.030577602 -0.18780072 0.025745692 -0.2240921 -0.03960353 0.12967347 0.1815652 -0.06402323 0.19498865 -0.028406745 0.11529814 -0.11035588 0.044288933 -0.073198184 0.020186573 0.036625832 -0.008098222 -0.105100065 -0.030620016 0.20853166 -0.13870098 0.058815226 0.07968941 -0.07214047 0.081563644 -0.04833989 0.021991936 -0.13087402 -0.103160694 -0.040068127 0.0486432 -0.018077368 0.12487384 -0.096199565 0.0033520712 0.077322274 0.112562425 0.015449143 0.2319278 0.11109706 0.08606757 0.030978851 -0.023769973 0.03779235 0.14944473 0.008623152 0.022847075 0.019006684 0.10393294 -0.033337247 0.014428818 -0.1999518 -0.06981163 0.13803346 -0.053721644 0.13545243 0.12999627 0.0027812978 -0.107651174 0.13347813 -0.086776316 -0.105772816 -0.070396416 0.024055494 -0.04016146 0.09965415 -0.09372563 0.0130549595 0.0036649592 -0.047193937 0.16990961 0.014250047 -0.07670066 0.08972461 0.081176035 -0.17230247 0.09306737 -0.18700218 0.0025696612 -0.041740023 -0.17230596 0.13408871 0.022415858 -0.19001192 0.08492329 -0.09282071 0.016720101 -0.09093211 0.02564125 0.001810493 0.10040314 -0.040203754 0.0932166 0.010646493 -0.043055702 -0.02698266 -0.07797544 -0.18086916 -0.20178679 0.14235242 0.07682793 0.0005525602 0.0060963156 -0.08169062 -0.17481263 -0.04671558
12 0.20240684 -0.030524429 -0.05414706 -0.06313742 -0.017119948 -0.14040908 -0.022494903 -0.021394925 -0.12774482 -0.07939559 -0.06541039 0.029318092 -0.07185286 -0.010663721 -0.092481986 0.2522933 0.13966902 0.042312577 -0.018435875 -0.07311063 0.012678605 0.16109616 0.029473774 -0.20400941 -0.008898017 -0.25570205 -0.0037628538 0.1617316 0.15729675 -0.10682824 0.20632441 -0.07973881 0.10788902 -0.093222834 -0.014108995 -0.09156687 -0.023735551 -0.0140977055 -0.014556167 -0.18013889 -0.054979376 0.22601523 -0.15882964 0.10468453 0.08328842 -0.03542906 0.060468514 -0.02241283 0.026504558 -0.14417158 -0.08486355 0.025259325 0.02107826 -0.06761076 0.12937331 -0.112684816 -0.026735675 0.044574585 0.14601557 -0.017543182 0.19779661 0.048157465 0.0643232 0.10864488 -0.009459048 0.037222035 0.15587504 0.033055186 0.027516782 0.00795492 0.142785 -0.045910202 0.0074187815 -0.14706033 -0.047974236 0.14090775 -0.08439709 0.052075412 0.08514075 0.037623577 -0.117940605 0.1293949 -0.046943042 -0.13924778 -0.06300726 0.023244591 -0.044249278 0.056826673 -0.071752764 0.033814903 0.052778635 -0.08478256 0.16764908 -0.008140035 -0.053980555 0.09683124 -0.0049973046 -0.1223886 0.08729485 -0.14222793 -0.015745277 -0.0061961156 -0.17379881 0.11827251 0.029325068 -0.12549198 0.04804 -0.021174436 0.028974717 -0.115584984 0.011635484 -0.01789359 0.054771956 -0.056816973 0.09031716 0.07127964 0.011832893 -0.062061947 -0.14276637 -0.17381033 -0.17972535 0.13221201 0.08376156 0.011468141 0.044636987 -0.03405784 -0.18442576 -0.049596887
17 0.21166651 -0.054932322 -0.02982707 -0.0805068 -0.033565428 -0.11351515 -0.01633668 -0.02825083 -0.13445117 -0.038419582 -0.04628121 0.03171557 -0.09134144 0.022528017 -0.08835471 0.30952743 0.15374874 0.07780939 -0.032536376 -0.10268979 0.0019305386 0.17499554 0.019201173 -0.17017974 -0.0010340556 -0.27984175 0.021086626 0.14609458 0.09523995 -0.07932352 0.23182726 -0.08172879 0.13314445 -0.11216415 -0.060169198 -0.09410003 -0.035270255 -0.02787013 -0.014828429 -0.19102116 -0.03565727 0.23833571 -0.15848164 0.1453342 0.07028183 -0.029547984 0.049925037 0.014937171 0.04739807 -0.1488008 -0.06249882 0.043893322 0.008218524 -0.12445983 0.1824911 -0.15489192 -0.035279054 0.05032326 0.16793269 -0.013003581 0.21091278 0.06149502 0.06895396 0.15968263 -0.011136528 0.04414072 0.14979416 0.05182862 0.03510372 0.00021986873 0.17114834 -0.03135385 -0.01236796 -0.13849624 -0.06728313 0.13852769 -0.045646057 0.050434485 0.08289635 0.058380503 -0.1031274 0.12394533 -0.04976623 -0.16858324 -0.089820944 -0.0028403355 -0.07326071 0.083125636 -0.07080218 0.053111687 0.039276343 -0.08796225 0.16766791 -0.040464655 -0.05540861 0.09533775 -0.021962665 -0.14207754 0.11558236 -0.15272331 -0.0010285939 -0.008772618 -0.18913268 0.15385823 0.018564584 -0.11452208 0.03517324 -0.032497056 0.014932094 -0.14910753 0.027556228 -0.03705483 0.07387674 -0.057199057 0.1015087 0.06561488 -0.0013740711 -0.07347703 -0.15690564 -0.16729796 -0.17911753 0.14317524 0.065437794 0.036420356 0.03874147 -0.059721295 -0.1800656 -0.060120746
9 0.19762719 -0.025065297 -0.0421419 -0.055701215 -0.018907629 -0.13484083 -0.025956303 -0.025049906 -0.12995605 -0.09003596 -0.048168022 0.03183604 -0.05972279 -0.027953036 -0.089817405 0.22736116 0.13558668 0.047328513 -0.019034842 -0.05863197 0.011588781 0.14884964 0.03278905 -0.1879499 0.0025429078 -0.23910932 -0.008726915 0.15518782 0.16714482 -0.09522729 0.20062082 -0.057805732 0.11365849 -0.113815024 0.022569008 -0.09198189 -0.008808553 0.010027199 -0.008684702 -0.16886029 -0.038037375 0.23686393 -0.16188334 0.08889681 0.083772495 -0.056338 0.06973679 -0.032741286 0.024908865 -0.14654434 -0.105339855 -0.011329553 0.053064004 -0.046545994 0.14167425 -0.123637825 -0.027699983 0.061784398 0.15212974 -0.0039995373 0.23063542 0.075706504 0.063253604 0.080448665 -0.01177523 0.044156335 0.15182155 0.0179394 0.024542762 0.008587348 0.12261118 -0.041224528 -0.001091771 -0.1666429 -0.065014005 0.14286843 -0.08175722 0.07095746 0.09202854 0.03288425 -0.123647094 0.12848672 -0.07324357 -0.13437712 -0.07413491 0.019594587 -0.039943766 0.074785575 -0.07031636 0.028034454 0.031516206 -0.07142607 0.18081208 -0.008639442 -0.07030353 0.10913818 0.029949537 -0.1494206 0.087414786 -0.14787026 -0.01381697 -0.0090083275 -0.1671445 0.12893665 0.03549148 -0.14244878 0.051499594 -0.044765905 0.0164674 -0.10994079 0.028036358 -0.009774774 0.06712216 -0.05559179 0.08454135 0.035240863 -0.0059043076 -0.059864294 -0.11792076 -0.18095088 -0.18935525 0.13501921 0.089502916 0.003695678 0.027407523 -0.053413797 -0.19145788 -0.04397303
3 0.2023048 -0.02814793 -0.06766178 -0.074442014 -0.03786872 -0.14352766 -0.009341184 -0.01858733 -0.1085943 -0.060134336 -0.045745455 0.0624225 -0.088306434 0.011227908 -0.10115264 0.28204355 0.16096434 0.044533446 -0.019115178 -0.11018638 0.024003977 0.18467996 0.01759584 -0.19165428 -0.018258814 -0.26307794 0.028924987 0.1695416 0.11540682 -0.10633432 0.21540678 -0.10054699 0.11729169 -0.1166706 -0.061392408 -0.10756642 -0.05316367 -0.036239997 -0.009628138 -0.19916229 -0.058945224 0.23761877 -0.16498211 0.1281451 0.089011915 -0.037497547 0.04900665 -0.007833655 0.036515284 -0.15230314 -0.07033903 0.03507545 0.017260302 -0.095957026 0.14488013 -0.15174466 -0.027446494 0.030268027 0.17233263 -0.029416062 0.19244452 0.027839787 0.058856227 0.14284953 -0.0016090025 0.033382 0.15333483 0.044809185 0.035009746 -0.009542652 0.174329 -0.035233777 0.017355584 -0.1174215 -0.0408574 0.14163402 -0.08645096 0.02220688 0.053407595 0.05416659 -0.11492351 0.119810864 -0.041263364 -0.15934567 -0.06949336 0.0049151783 -0.069557816 0.053168934 -0.060715113 0.040796183 0.064427525 -0.102036424 0.15448898 -0.034152545 -0.040579893 0.10018671 -0.042397056 -0.10798164 0.095715016 -0.113240205 -0.015985118 0.008695306 -0.17852175 0.12611596 0.02679469 -0.095566764 0.03667756 0.004234878 0.0279533 -0.14429608 0.030591823 -0.035277218 0.03487515 -0.07248721 0.10572516 0.07218224 0.015766008 -0.066210456 -0.15815856 -0.17264837 -0.1822787 0.12538671 0.07238201 0.020652857 0.0395343 -0.029642977 -0.1781523 -0.05631532
2 0.2161452 -0.028862687 -0.056842647 -0.065356694 -0.016355101 -0.1392486 -0.0306364 -0.027712986 -0.13278256 -0.07754278 -0.06643002 0.032975975 -0.06758245 -0.010513758 -0.09151954 0.2559568 0.14706431 0.0444091 -0.015369618 -0.08072471 0.022892686 0.16106127 0.027024621 -0.21015419 -0.008883051 -0.25701845 -0.0037606757 0.16237661 0.1449624 -0.10003651 0.21576263 -0.08146716 0.107628405 -0.10168527 -0.015582323 -0.09620625 -0.02417343 -0.017805796 -0.006288002 -0.17360206 -0.056211684 0.23114184 -0.16332036 0.10802467 0.0831545 -0.041779738 0.06368204 -0.023915188 0.038549982 -0.14881986 -0.081844404 0.016262142 0.028874643 -0.06887879 0.13517521 -0.118416816 -0.024482606 0.03750768 0.15146141 -0.013899929 0.20403652 0.0553244 0.06731276 0.107642226 -0.009881343 0.036054146 0.15344469 0.038323108 0.02844621 0.0014272796 0.15216413 -0.04551252 0.020905588 -0.14098732 -0.044063758 0.14386413 -0.08525609 0.05400798 0.08149136 0.041189212 -0.117652036 0.13022703 -0.04641668 -0.12695353 -0.071007304 0.014651722 -0.05587587 0.058228027 -0.07354325 0.033021536 0.053369693 -0.083636634 0.1562927 -0.02065569 -0.051610865 0.100340895 0.0025544234 -0.12757464 0.09059399 -0.14105062 -0.015567458 -0.010845661 -0.17731905 0.121126 0.0341397 -0.1321264 0.05001322 -0.02552071 0.028991539 -0.12252958 0.01286119 -0.015862718 0.04995991 -0.05693895 0.098833606 0.06132516 0.0072406316 -0.061058834 -0.1364421 -0.17474268 -0.18790402 0.13730085 0.07980552 0.01035327 0.030311784 -0.03955489 -0.17806317 -0.056745674
11 0.22340575 -0.028681891 -0.0476429 -0.061333314 -0.005420275 -0.13606806 -0.039872423 -0.033595275 -0.1349115 -0.09759433 -0.066146426 0.019826224 -0.06164684 -0.02458862 -0.08562805 0.2361986 0.14519727 0.041728888 -0.017379781 -0.062702686 0.011028798 0.15274352 0.026510287 -0.22686255 -0.002759515 -0.24619703 -0.016756222 0.16798273 0.17902015 -0.09319619 0.20425582 -0.06925435 0.1047481 -0.09923122 0.020388525 -0.098519996 -0.0057245945 -0.0031377312 -0.0030812055 -0.15208894 -0.052500192 0.22834924 -0.1676333 0.08564847 0.094178125 -0.06725614 0.077584624 -0.03813015 0.0359943 -0.1536575 -0.094273984 0.0007340762 0.041660182 -0.0419145 0.12595786 -0.106697544 -0.0119347675 0.050599188 0.13882779 -0.012150168 0.22569752 0.07068131 0.07652655 0.08338641 -0.005747635 0.040474847 0.16026293 0.029696474 0.025442705 0.0114809 0.13284814 -0.046580765 0.019815108 -0.16562313 -0.047193304 0.14776891 -0.087804295 0.06998387 0.0957482 0.024702376 -0.116028756 0.1308153 -0.06337076 -0.122817 -0.060247485 0.02344593 -0.044272996 0.06629902 -0.07466522 0.021806607 0.052537818 -0.0712614 0.1678464 -0.011190377 -0.057031415 0.10173874 0.016121062 -0.14007315 0.085183844 -0.15322931 -0.020820767 -0.016194899 -0.18411288 0.11762685 0.03830353 -0.15078762 0.0669847 -0.041466746 0.02968793 -0.10660857 0.015274669 -0.008489251 0.06478095 -0.0520734 0.09273873 0.045902282 -0.0072148237 -0.04583905 -0.11664399 -0.18136105 -0.19769864 0.1404642 0.08719167 -0.002155421 0.032638654 -0.051457882 -0.18328622 -0.053391334
19 0.21000823 -0.031365294 -0.019675093 -0.06338548 -0.008241732 -0.12936372 -0.04467065 -0.03845929 -0.14074801 -0.09993717 -0.051499348 0.013912142 -0.054374043 -0.027807288 -0.07939899 0.22403765 0.1262546 0.047312733 -0.020900428 -0.034420364 0.006546206 0.12795179 0.03217749 -0.1950015 0.016594397 -0.2379405 -0.025402162 0.14686823 0.17795458 -0.08240976 0.1999922 -0.05659782 0.11947345 -0.12167867 0.017582014 -0.09157832 -0.0049087056 0.016129019 -0.014908258 -0.14927262 -0.024281973 0.2267718 -0.1430108 0.07450574 0.08520996 -0.06348987 0.06754916 -0.034618273 0.018426837 -0.14189437 -0.09807834 -0.020835398 0.05612091 -0.036859002 0.13711403 -0.12106775 -0.013438403 0.07396826 0.14565282 0.0044317087 0.23978627 0.085497744 0.06283372 0.06033795 -0.016677424 0.03725593 0.16019222 0.0050372113 0.020987596 0.016527802 0.11401633 -0.028362952 0.003273369 -0.18919599 -0.07799419 0.14569804 -0.063765556 0.10913629 0.10958075 0.018846752 -0.114139326 0.1346638 -0.08819375 -0.13120958 -0.07907948 0.017151257 -0.047161106 0.08818736 -0.07974688 0.022067873 0.007660798 -0.061507016 0.17780766 -0.0076782512 -0.0759562 0.10729746 0.042561177 -0.16572978 0.10230929 -0.16068596 -0.00849983 -0.012585421 -0.1766524 0.1289958 0.027470922 -0.15090165 0.07371297 -0.0681053 0.004212635 -0.10364209 0.033511687 -0.0061713243 0.07747112 -0.058293622 0.09322326 0.015673513 -0.025021385 -0.04276196 -0.09870805 -0.17587738 -0.19363183 0.12664132 0.078663036 -0.00031319598 0.018057873 -0.06490854 -0.17064431 -0.04064871
4 0.19942746 -0.021986935 -0.041176293 -0.063123174 -0.014605728 -0.14705238 -0.038999047 -0.027015314 -0.12531233 -0.09931014 -0.050474748 0.031367645 -0.05317212 -0.017268876 -0.08913356 0.2341161 0.13893153 0.03717361 -0.022543201 -0.056653757 0.015778614 0.15319106 0.032306224 -0.19865088 0.005703149 -0.24716781 -0.01403535 0.16355255 0.17196544 -0.10452371 0.20752852 -0.072868735 0.117975205 -0.10702565 -0.0012907644 -0.09408488 -0.018367007 -0.0035643042 -0.018441362 -0.16036057 -0.036852848 0.22413616 -0.1435929 0.080811836 0.08323504 -0.050394822 0.06424793 -0.028736817 0.020145366 -0.14096259 -0.093471 -0.0020940818 0.043746322 -0.037124638 0.12196085 -0.11571817 -0.025260296 0.05980307 0.15188634 -0.008696432 0.21007489 0.057770763 0.05503235 0.07396184 -0.014853059 0.03051668 0.1600828 0.013859999 0.0255429 0.013444922 0.12398917 -0.037471835 0.01368961 -0.16493875 -0.064546466 0.13308443 -0.08261414 0.076429136 0.08602725 0.026065802 -0.120159656 0.1276896 -0.06756293 -0.12988411 -0.062145434 0.018070286 -0.047444873 0.071801566 -0.06882451 0.024542127 0.03487999 -0.07698167 0.16493241 -0.006286618 -0.06145566 0.10600333 0.026875772 -0.14219859 0.09415117 -0.14075857 -0.0093262065 -0.0036650123 -0.17147568 0.12076898 0.03152952 -0.13081841 0.067981824 -0.037394438 0.02192238 -0.11347685 0.03191612 -0.005515755 0.06159113 -0.066159256 0.093274795 0.0408863 -0.013325152 -0.04247286 -0.10805951 -0.17811662 -0.19063985 0.12940164 0.08603711 0.0030364615 0.027751965 -0.045381173 -0.17982091 -0.042071275
14 0.2049639 -0.02033069 -0.06347959 -0.06257377 -0.023623236 -0.14828658 -0.023186566 -0.01976709 -0.12246027 -0.095726535 -0.053858634 0.043402158 -0.07026294 -0.023114927 -0.097001456 0.24925877 0.14755319 0.03995582 -0.017861875 -0.078535 0.022020275 0.17031932 0.028803872 -0.20318538 -0.004817923 -0.26005703 1.6828853e-06 0.1692765 0.166593 -0.119664274 0.2142267 -0.08354087 0.11410354 -0.11756274 -0.0052254386 -0.103226505 -0.016670687 -0.008826405 -0.014646234 -0.18296029 -0.048729226 0.24189064 -0.16438243 0.09733186 0.08876493 -0.05155445 0.0693559 -0.027971536 0.020078376 -0.1532376 -0.09692105 0.0050879125 0.045083806 -0.047937833 0.13175666 -0.1274656 -0.029323092 0.04753383 0.1632818 -0.02189988 0.21878974 0.055128068 0.057471886 0.09521936 -0.007497151 0.03401213 0.15990974 0.025352148 0.027878987 0.009406822 0.14113228 -0.037912726 0.016883891 -0.14641774 -0.05555359 0.14104553 -0.08756957 0.053300492 0.07355579 0.03922027 -0.12854387 0.12782727 -0.061417818 -0.14664263 -0.0667483 0.01873019 -0.043923076 0.062695496 -0.06159291 0.031970352 0.058499925 -0.0855439 0.16557609 -0.016754018 -0.05611589 0.1141812 -0.0013889668 -0.12789184 0.0909145 -0.12690146 -0.021911606 0.009917907 -0.17600772 0.112371266 0.038301233 -0.113089256 0.058871716 -0.018438892 0.017405301 -0.11628669 0.030400604 -0.017834347 0.04323374 -0.07089909 0.086381115 0.054177906 0.0032930712 -0.06663774 -0.12608005 -0.17047282 -0.19287258 0.13189504 0.09054228 0.004075688 0.04195565 -0.03473588 -0.18779112 -0.052673426
26 0.19152449 -0.021280942 -0.04233374 -0.05222666 -0.01822649 -0.13782932 -0.039232723 -0.025164047 -0.12338672 -0.09819872 -0.047717657 0.029912293 -0.05559446 -0.0277308 -0.087067164 0.2193061 0.12970556 0.04376357 -0.023822289 -0.048581406 0.010228747 0.14529695 0.029471656 -0.19618878 0.011503752 -0.22946754 -0.019577615 0.15353271 0.17970242 -0.098233335 0.19643769 -0.06237446 0.10574744 -0.1054989 0.010764183 -0.08975637 -0.008948832 0.003852711 -0.013373658 -0.1567415 -0.032879706 0.21736684 -0.13895749 0.078268364 0.079899244 -0.053591304 0.06660136 -0.029844781 0.018773053 -0.13332567 -0.09622322 -0.0064458535 0.050154965 -0.03319237 0.12547523 -0.11057421 -0.023635793 0.06266113 0.14883022 -0.009509302 0.21187578 0.06644023 0.05706775 0.07408271 -0.016348472 0.03705679 0.15491056 0.012672023 0.02179704 0.0185328 0.11372058 -0.03249608 0.004019288 -0.16894567 -0.06871011 0.13254307 -0.08224548 0.078396395 0.0926108 0.024569739 -0.12012875 0.12830196 -0.071327105 -0.1272632 -0.061726652 0.024286257 -0.036963146 0.076115064 -0.062804095 0.027875047 0.03247976 -0.07517133 0.16601604 -0.0064345924 -0.07103392 0.1100376 0.036801297 -0.14536868 0.08243157 -0.14541449 -0.0106002735 -0.010641987 -0.1643282 0.111141704 0.032119695 -0.13653861 0.060587343 -0.046417814 0.013180296 -0.102301076 0.029651927 0.0039953636 0.06364684 -0.05749976 0.084891446 0.025886167 -0.011800433 -0.043895572 -0.10266469 -0.17252825 -0.18389855 0.12671226 0.08809861 0.0018851178 0.028367035 -0.045851626 -0.18622842 -0.045458507
10 0.19735113 -0.033165306 -0.061567012 -0.06631514 -0.03073835 -0.1460252 -0.01427745 -0.017827371 -0.118779175 -0.072967395 -0.0518592 0.042194184 -0.06634747 -0.009841018 -0.090067714 0.25096187 0.15244976 0.05032804 -0.019474806 -0.084581934 0.015720064 0.1656345 0.025826724 -0.19587316 -0.011993951 -0.25345156 0.0058813365 0.15682195 0.14325386 -0.109102935 0.2022061 -0.074143 0.10563889 -0.10462057 -0.01507251 -0.097553276 -0.026895924 -0.014502516 -0.011985329 -0.18324363 -0.0457598 0.23082332 -0.15928191 0.104807675 0.08732298 -0.037409298 0.056882333 -0.015964657 0.026959518 -0.14783522 -0.08617433 0.020074174 0.028140884 -0.071236216 0.13543917 -0.125799 -0.029822664 0.048586734 0.15736449 -0.016247628 0.20754465 0.05365812 0.060396306 0.11201536 -0.0074109845 0.03894132 0.15435451 0.03244968 0.02741763 -0.00086962344 0.14494091 -0.04010312 0.007269053 -0.13573374 -0.05013875 0.13834292 -0.09050477 0.03689198 0.07455474 0.048934 -0.12392291 0.12843686 -0.044581737 -0.14257294 -0.06454643 0.022317216 -0.049078047 0.059707932 -0.06619028 0.037170045 0.0552602 -0.08610916 0.16025871 -0.018909127 -0.054474786 0.103341304 -0.0128234485 -0.1214997 0.08380761 -0.13428111 -0.018170437 -0.0029310167 -0.17248333 0.11408905 0.029233735 -0.11031571 0.046911012 -0.012915114 0.026373092 -0.11406064 0.020650983 -0.012342314 0.050060194 -0.06004939 0.0871772 0.06498731 0.008145983 -0.06327981 -0.14240755 -0.16994664 -0.18039791 0.13531055 0.07752453 0.015528585 0.043475725 -0.03766772 -0.18750164 -0.057838276
92 0.20190737 -0.0332242 -0.022475349 -0.064986154 -0.018745756 -0.13084523 -0.038979053 -0.031510323 -0.1223501 -0.08880153 -0.047086302 0.022854786 -0.060211957 -0.014895672 -0.087073505 0.24156752 0.14520599 0.042765692 -0.025589393 -0.060634375 0.004910582 0.14643754 0.02822289 -0.19459417 0.011747188 -0.24128345 -0.007863032 0.14837834 0.15967824 -0.08716783 0.20875165 -0.07159061 0.13124545 -0.11502768 -0.01168079 -0.09276117 -0.009714132 0.0061650053 -0.011981757 -0.15571867 -0.0263322 0.2229286 -0.15659796 0.09393613 0.08555728 -0.06721696 0.07035273 -0.023315057 0.030125914 -0.1456147 -0.083075136 -0.008620725 0.048811562 -0.047469366 0.13480364 -0.13547468 -0.009560451 0.066577025 0.15354328 -0.010822334 0.22720484 0.065383285 0.057626124 0.085247405 -0.0096417805 0.03997109 0.15164663 0.019750834 0.023531912 0.01258918 0.1340024 -0.031994622 0.0049816757 -0.17328386 -0.0734516 0.14627852 -0.06936879 0.08929869 0.0853414 0.018873757 -0.11280377 0.12223469 -0.07866721 -0.13459368 -0.07425371 0.011337721 -0.055235475 0.08782711 -0.07685595 0.022428988 0.033036094 -0.07639542 0.1744832 -0.01450085 -0.056814987 0.10034945 0.017572878 -0.14873518 0.10310422 -0.14896175 -0.0028261268 -0.0050194794 -0.17677958 0.13569987 0.028400779 -0.1309083 0.068393424 -0.04662745 0.015869424 -0.12876566 0.034157347 -0.013171822 0.06974076 -0.06456492 0.1062642 0.030254662 -0.020679357 -0.040504448 -0.10825407 -0.18050916 -0.19115856 0.12370772 0.08569952 0.010575853 0.019098856 -0.053201888 -0.18089478 -0.04595315
29 0.21657664 -0.01571134 -0.063123986 -0.05731095 -0.00072030356 -0.15087618 -0.047562264 -0.035197113 -0.13083194 -0.1039826 -0.0787572 0.02415692 -0.044979125 -0.036538336 -0.09151225 0.22755346 0.15289365 0.0206427 -0.011898545 -0.06379243 0.022200847 0.14746323 0.024463156 -0.24194594 -0.0025885766 -0.25414398 -0.018601 0.17742303 0.19899683 -0.098209284 0.21548177 -0.08653215 0.1103167 -0.09165826 0.0038535644 -0.09588918 -0.01630705 -0.0095866565 -0.011867055 -0.15235704 -0.050854273 0.21692711 -0.15974645 0.07624886 0.101803534 -0.063200064 0.075458884 -0.05004392 0.03886982 -0.1637563 -0.087302364 -0.0035136687 0.042798877 -0.024758779 0.10034836 -0.104567744 -0.013249431 0.043838095 0.13090032 -0.022893308 0.21755505 0.055855434 0.075630024 0.07423765 -0.008981406 0.034906685 0.15651047 0.017636213 0.03269829 0.015552214 0.14084908 -0.06042036 0.03763306 -0.15245248 -0.045278408 0.15042274 -0.10342465 0.07461786 0.083315626 0.015110604 -0.11810759 0.1385604 -0.064666644 -0.10768658 -0.05110338 0.030546123 -0.048098177 0.061335944 -0.07166458 0.0057330057 0.066562444 -0.08577911 0.15552717 -0.008281451 -0.038858946 0.10600395 0.024369292 -0.1303534 0.09261166 -0.14664513 -0.019536875 -0.011215099 -0.18885802 0.110962264 0.05282369 -0.15953311 0.08084911 -0.04845573 0.03780606 -0.11403405 0.021246675 -0.00047589547 0.055761773 -0.060585726 0.11219555 0.049688272 -0.011815616 -0.03753527 -0.11170161 -0.19593488 -0.21005066 0.13950397 0.10173953 -0.0024018402 0.024438486 -0.031990014 -0.18842201 -0.060738683
87 0.20033917 -0.049491327 -0.012775515 -0.0736387 -0.028058613 -0.1040928 -0.017214958 -0.024278639 -0.12594447 -0.034487784 -0.04591166 0.022061793 -0.08054434 0.019817675 -0.07045265 0.27422005 0.13797966 0.07327849 -0.030936385 -0.094404496 0.006607724 0.1572845 0.017008668 -0.14696006 -0.00092999183 -0.25707537 0.014501211 0.12631392 0.08820081 -0.07411423 0.20829704 -0.06422353 0.12967654 -0.11390837 -0.050795674 -0.08339391 -0.030778028 -0.021876246 -0.011541653 -0.17901915 -0.039735157 0.22324248 -0.16301079 0.1316976 0.06252164 -0.029282533 0.054855756 0.010060849 0.0448793 -0.13597123 -0.059657402 0.029572345 0.01087709 -0.11223018 0.17162932 -0.15214218 -0.02259337 0.04690696 0.1532204 -0.0028942185 0.2044223 0.07186838 0.06287548 0.13935047 -0.012293065 0.04140868 0.14183453 0.049204662 0.030863171 -0.003888181 0.16386111 -0.029067516 -0.01360936 -0.14783417 -0.06532732 0.13629979 -0.040656842 0.056190073 0.085215405 0.04664823 -0.104783766 0.11680199 -0.05304465 -0.1628912 -0.091243945 -0.0039859917 -0.07082034 0.08075581 -0.0815347 0.050049737 0.023212014 -0.080971375 0.16546464 -0.030557878 -0.059426837 0.09218448 -0.0096086785 -0.14678477 0.11413205 -0.15777087 -0.0018561796 -0.014107407 -0.18289909 0.15385532 0.00977081 -0.11015596 0.045743197 -0.039091077 0.012258722 -0.13663864 0.0291672 -0.038764443 0.08224388 -0.054000665 0.09857493 0.059397124 2.5433184e-05 -0.06423494 -0.14896491 -0.15812464 -0.17713702 0.13337958 0.061319835 0.035809025 0.030770224 -0.06434658 -0.16790996 -0.05513918
91 0.20610112 -0.03104855 -0.06002726 -0.06750074 -0.028673839 -0.14182276 -0.016496014 -0.015118735 -0.122590385 -0.07260359 -0.05531622 0.043224834 -0.07354297 -0.0055264 -0.091122515 0.2650997 0.15337484 0.040963545 -0.024413522 -0.09013546 0.024970228 0.17712565 0.02512519 -0.19995564 -0.010079317 -0.26521313 0.009456951 0.17102042 0.14744341 -0.117984906 0.2189655 -0.08194032 0.12080568 -0.117242806 -0.02101247 -0.10065263 -0.035346348 -0.021149056 -0.0139048295 -0.19755015 -0.054508477 0.24358684 -0.17083678 0.11736041 0.08895299 -0.039259866 0.062692635 -0.018436138 0.030364158 -0.15197559 -0.08378672 0.022152543 0.024219548 -0.07584451 0.14892417 -0.1361576 -0.031675715 0.04671938 0.16279343 -0.019782893 0.21058595 0.053767364 0.059380826 0.116819985 -0.013038213 0.03986153 0.1654823 0.04076077 0.029774712 0.0021767751 0.16181023 -0.04504822 0.010496009 -0.14211234 -0.05759877 0.14119953 -0.0851429 0.0483452 0.07968118 0.04806477 -0.12983724 0.13331899 -0.057607256 -0.15561469 -0.07413778 0.017445846 -0.05714678 0.0591658 -0.07003248 0.038023304 0.04985876 -0.09913057 0.17140988 -0.02189134 -0.052807238 0.11265564 -0.011191475 -0.13360664 0.10238866 -0.1359202 -0.017326094 -0.001568317 -0.18970531 0.12929665 0.030010372 -0.12306479 0.05479754 -0.018246295 0.029513944 -0.12889272 0.025529778 -0.022023108 0.053738337 -0.061968178 0.096618585 0.069704846 0.012313981 -0.06675429 -0.15133551 -0.17613178 -0.1954883 0.13316658 0.08268706 0.012898171 0.047565147 -0.038596507 -0.19415633 -0.053107917
16 0.20947897 -0.029262647 -0.0074968846 -0.05556977 -0.0057548494 -0.12163918 -0.057677906 -0.044332966 -0.14418943 -0.099178374 -0.06668038 -0.004944984 -0.04922284 -0.03976893 -0.06454866 0.20747592 0.128451 0.056367047 -0.019956235 -0.022083264 0.008280375 0.11818835 0.037003312 -0.20137678 0.024016645 -0.22738677 -0.032709118 0.1278927 0.1811408 -0.0737512 0.2067322 -0.046160664 0.10871922 -0.10519967 0.043841112 -0.08419131 0.012870675 0.019779501 -0.008441072 -0.13186967 -0.023459429 0.21505474 -0.14533468 0.07207032 0.07918327 -0.06202181 0.07598156 -0.029254774 0.03551648 -0.13500743 -0.09975848 -0.032813225 0.05767864 -0.038609527 0.13766891 -0.11091577 -0.010440101 0.07453093 0.1254711 0.006555509 0.2440059 0.100243025 0.07005609 0.05084426 -0.018742956 0.049124174 0.15248013 0.014612694 0.016397823 0.021779416 0.10657863 -0.03912627 -0.0078088683 -0.2000212 -0.06943264 0.13950938 -0.06485629 0.115876235 0.1177508 0.014881454 -0.118317276 0.13643995 -0.081593 -0.10872672 -0.0846101 0.02178139 -0.03776335 0.091818236 -0.08227455 0.019783054 0.002655591 -0.04888952 0.17148085 -0.009138571 -0.08055657 0.09703236 0.06549469 -0.17367743 0.11025307 -0.18525054 -0.00505678 -0.027281705 -0.17033911 0.11623695 0.036673866 -0.16560274 0.07625703 -0.0910166 0.00073532446 -0.085793585 0.023128148 0.0053970483 0.099640526 -0.03273783 0.08237089 0.015709143 -0.03423411 -0.038450845 -0.094429746 -0.18565744 -0.18812329 0.1427289 0.08751336 0.0061713397 0.0123319365 -0.07746661 -0.18092255 -0.04989797
53 0.21073025 -0.034329496 -0.031754885 -0.05879203 -0.021405485 -0.12336543 -0.035086013 -0.026384033 -0.12914805 -0.077437036 -0.053552218 0.023406079 -0.065625966 -0.012116632 -0.078824714 0.24432063 0.1359838 0.051396433 -0.022787144 -0.063706785 0.010789717 0.14188732 0.023485381 -0.19252327 0.0063107787 -0.24426857 -0.007549754 0.14638843 0.1492864 -0.08751785 0.20165706 -0.06423394 0.110439256 -0.106012784 -0.008235217 -0.090626046 -0.014481215 -0.00079953665 -0.010312225 -0.15992957 -0.038594827 0.22086568 -0.15686356 0.09850675 0.072273016 -0.049497418 0.06571314 -0.022764012 0.034451645 -0.141916 -0.08004923 0.0049900343 0.030918708 -0.060474947 0.13946845 -0.120527335 -0.01927538 0.054281652 0.14232047 -0.0043263347 0.21267551 0.06804572 0.06638384 0.097295254 -0.009406146 0.03525653 0.15381524 0.030720295 0.025439102 0.010758588 0.13447432 -0.036686674 0.0048737805 -0.16046613 -0.060341798 0.13989787 -0.0656641 0.073936895 0.09659212 0.02947405 -0.108334206 0.13168715 -0.065902345 -0.13415244 -0.07788999 0.012204804 -0.051693927 0.07465379 -0.08028251 0.030291243 0.03743282 -0.073132634 0.16707624 -0.011968409 -0.06399705 0.10101875 0.017609235 -0.14236243 0.098456785 -0.15251935 -0.007010078 -0.01118721 -0.17942627 0.124019414 0.028693149 -0.13537146 0.062553674 -0.043335013 0.0208353 -0.11121302 0.023221657 -0.014935226 0.06748821 -0.054262888 0.0872771 0.044007793 -0.007100611 -0.059688263 -0.11942615 -0.16509503 -0.18357053 0.1422501 0.071996145 0.017322375 0.028402288 -0.049573872 -0.18194866 -0.05696475
100 0.22055852 -0.029999651 0.00018361429 -0.05299594 0.009892669 -0.13398781 -0.07907056 -0.06399746 -0.15480492 -0.1364721 -0.072717115 -0.011856764 -0.0194576 -0.061691802 -0.064660065 0.18329825 0.12525868 0.038741343 -0.016901793 0.00692549 0.0010504103 0.097159415 0.03817264 -0.22091411 0.041362543 -0.22732928 -0.053906046 0.1468629 0.23419766 -0.06959811 0.19482382 -0.04115955 0.11235117 -0.110039055 0.067814976 -0.087009184 0.02855627 0.04592531 -0.0127497325 -0.094929844 -0.011666809 0.198697 -0.14162552 0.033068616 0.086462446 -0.09823718 0.0788101 -0.061549213 0.015909286 -0.13005652 -0.11375043 -0.06933981 0.0783784 0.010291808 0.11316908 -0.09537104 0.0051567126 0.097926766 0.114527695 0.011217354 0.2540026 0.11128776 0.07453117 -0.0021634218 -0.02372579 0.037567854 0.15073793 -0.010949884 0.016668122 0.03034932 0.07923627 -0.03349418 0.016393522 -0.21794891 -0.084946506 0.1407807 -0.07580404 0.15564203 0.1281804 -0.008862651 -0.1116171 0.13953915 -0.09773735 -0.07942667 -0.06789625 0.037700787 -0.0399534 0.10020867 -0.09471742 0.0030657689 -0.008620672 -0.033347324 0.17409687 0.0134477895 -0.0830354 0.09890624 0.09073926 -0.19320662 0.100856945 -0.18728898 0.003963427 -0.03774442 -0.15968297 0.102178715 0.040688496 -0.18667576 0.10242558 -0.116449475 0.005235102 -0.067012705 0.041685436 0.03170861 0.102347575 -0.050138425 0.089114755 -0.01936004 -0.060090058 -0.0046077617 -0.050148465 -0.18879518 -0.19885637 0.12883815 0.088020846 -0.015244845 -0.012592043 -0.081185855 -0.15724452 -0.035327047
22 0.20757452 -0.034425247 -0.019170457 -0.06304717 -0.008740641 -0.1289367 -0.049889304 -0.035289384 -0.13941665 -0.09483703 -0.06682428 0.014854408 -0.06005729 -0.027783526 -0.07673388 0.22657478 0.12748337 0.051357385 -0.019879581 -0.05132553 0.0024353878 0.13515873 0.027829718 -0.19464943 0.01489713 -0.24417628 -0.017499397 0.14382488 0.16660552 -0.07886643 0.21030848 -0.057881508 0.117834866 -0.10758874 0.0056063486 -0.08528905 -0.00970141 0.0058446513 -0.01327112 -0.14280169 -0.03350038 0.22346756 -0.14536671 0.086679325 0.080596425 -0.054820333 0.07129146 -0.025610955 0.031729035 -0.14363955 -0.090540685 -0.006538971 0.04672474 -0.047942784 0.13334684 -0.12050731 -0.011902052 0.059331194 0.13234963 8.898409e-05 0.21614301 0.07215928 0.072311565 0.07734866 -0.018190797 0.0428461 0.15202309 0.01646724 0.027311798 0.013615054 0.12734236 -0.039547708 0.011650507 -0.17902094 -0.0670553 0.14248389 -0.063497 0.09636555 0.100475185 0.024091203 -0.11369732 0.122900255 -0.073878475 -0.12667266 -0.07407819 0.018745964 -0.05456701 0.090105295 -0.0802092 0.021899939 0.022578264 -0.061742336 0.16515654 -0.0014472669 -0.0655511 0.09835737 0.039471738 -0.15467104 0.09672286 -0.16135627 -0.00054118095 -0.015754988 -0.1746973 0.12825924 0.027170382 -0.15145276 0.06770278 -0.0631549 0.015549696 -0.1120276 0.029647345 -0.0056926487 0.07874515 -0.056563456 0.094433695 0.026248524 -0.019495858 -0.044789333 -0.10500219 -0.17845584 -0.19422574 0.13579653 0.07772207 0.012325517 0.024814883 -0.06589299 -0.1769875 -0.0517852
58 0.1935123 -0.029585332 -0.046313446 -0.059896283 -0.0253456 -0.13493203 -0.024099205 -0.016148688 -0.1258079 -0.075815305 -0.04452983 0.038775537 -0.07206175 -0.008414305 -0.09434673 0.25445956 0.14275007 0.04949567 -0.025951987 -0.07935518 0.0062334077 0.1660681 0.027127242 -0.18352722 -0.00014704952 -0.25086707 0.002753655 0.15322636 0.1450937 -0.09706254 0.20759593 -0.07307308 0.10914373 -0.10789293 -0.019234173 -0.08953545 -0.023810877 -0.013320117 -0.013394858 -0.1760766 -0.036935095 0.23475909 -0.15142223 0.1042867 0.08196738 -0.038658634 0.058731996 -0.01473475 0.02813389 -0.14007184 -0.089692965 0.013897451 0.037367914 -0.06986061 0.14391823 -0.13083635 -0.03298976 0.050615307 0.15790676 -0.014741135 0.21022756 0.055908594 0.056224238 0.114572585 -0.010712031 0.038884796 0.15330149 0.029928265 0.030482234 0.008495568 0.14026634 -0.03471155 0.0020010252 -0.14933877 -0.066276304 0.14222054 -0.07469845 0.05752434 0.07922417 0.0404221 -0.120699905 0.12081379 -0.057037614 -0.1531669 -0.065875925 0.017324606 -0.048776537 0.071186215 -0.06391425 0.039988518 0.041385647 -0.08426833 0.1670046 -0.01820201 -0.058090117 0.108534746 0.00805906 -0.13681148 0.09372727 -0.13737085 -0.0070844432 0.001105523 -0.16971889 0.1294846 0.026885152 -0.12449729 0.051361676 -0.029970912 0.016206512 -0.1249679 0.02594259 -0.018211389 0.057246763 -0.05879787 0.08527073 0.046792597 -0.0019717272 -0.062421266 -0.123426124 -0.16678865 -0.18810232 0.13457057 0.081179336 0.013339076 0.03709403 -0.04802427 -0.18927127 -0.045990597
90 0.23512039 -0.0232012 -0.030380428 -0.064533174 0.0005030139 -0.14220671 -0.059908714 -0.050439674 -0.14137636 -0.105718955 -0.08167586 0.006818011 -0.043873273 -0.03660763 -0.0748095 0.22870812 0.14405882 0.039208014 -0.02044327 -0.043130398 0.017035652 0.1318119 0.028243432 -0.23308212 0.010214437 -0.25639766 -0.030738559 0.16431017 0.19216663 -0.081930526 0.21439047 -0.07123165 0.113567956 -0.10880998 0.016321072 -0.09661914 0.0013015085 0.008781118 -0.008738906 -0.13295794 -0.044253893 0.21565348 -0.16012833 0.06977249 0.089026384 -0.07080978 0.079655334 -0.048515983 0.03829203 -0.15034582 -0.089372426 -0.021263905 0.043294486 -0.029523842 0.12196491 -0.0990199 -0.0018922121 0.059234794 0.12727241 -0.00042808498 0.23180291 0.082483485 0.084978946 0.058416706 -0.013192551 0.029302305 0.15953705 0.021571966 0.02451371 0.01919659 0.13092962 -0.04395634 0.030666266 -0.1743187 -0.05970689 0.1436757 -0.083864026 0.10253728 0.10421439 0.012069715 -0.11353003 0.1416569 -0.072198525 -0.096555255 -0.06194407 0.029398493 -0.050240375 0.07743211 -0.088798486 0.01187853 0.037438698 -0.070629075 0.1646733 -0.005008036 -0.05503207 0.099881075 0.039293405 -0.15714331 0.10136301 -0.16228907 -0.007127991 -0.030187463 -0.18987156 0.1183724 0.040079996 -0.17338882 0.091492385 -0.07473065 0.027660275 -0.098943755 0.02423969 0.00052351854 0.07407229 -0.05207848 0.106868416 0.026760321 -0.030143807 -0.027651194 -0.09348062 -0.19501609 -0.20335746 0.14362921 0.089841634 0.0015390299 0.011013133 -0.05593947 -0.17353791 -0.0558983
43 0.19729322 -0.022842707 -0.04368261 -0.054484524 -0.016195724 -0.14216973 -0.04417376 -0.026567014 -0.1293953 -0.10969902 -0.05223027 0.02445637 -0.04716579 -0.03661549 -0.08233317 0.21688099 0.1347831 0.043172903 -0.01813055 -0.043751817 0.0103265485 0.1361897 0.03227227 -0.2048271 0.011492943 -0.23755835 -0.020874465 0.15390874 0.19493446 -0.10010874 0.20131634 -0.058251645 0.112713605 -0.110058576 0.029076198 -0.09675203 0.0015453794 0.019333553 -0.0082319 -0.15634418 -0.02999821 0.22245592 -0.15272243 0.075378686 0.08559025 -0.063730426 0.0719103 -0.046015285 0.0215023 -0.14478111 -0.10860134 -0.022466194 0.05891756 -0.023562469 0.1210997 -0.10800836 -0.016613191 0.07077165 0.13964692 -0.009323609 0.23108017 0.07161021 0.05852492 0.060189765 -0.013539809 0.042170484 0.15829818 0.0099203 0.02131229 0.020529164 0.109815955 -0.0372085 0.011533546 -0.17238091 -0.06660077 0.13640083 -0.08476931 0.08786133 0.093379 0.021566221 -0.117944 0.13124502 -0.07572611 -0.120461665 -0.06684369 0.02885869 -0.041492563 0.07502955 -0.072800055 0.021757819 0.03369965 -0.06702578 0.16826393 0.0020527346 -0.06906227 0.11041314 0.03734528 -0.14317623 0.08963573 -0.14620219 -0.0090345675 -0.0093910685 -0.16679902 0.10893694 0.03952285 -0.14709555 0.07169213 -0.052829098 0.017613133 -0.09372749 0.029195232 0.009308897 0.06566459 -0.05605474 0.08627971 0.025677714 -0.015115863 -0.047772594 -0.09265682 -0.17504269 -0.19216676 0.12862274 0.092759416 -0.0023697743 0.024586612 -0.04737996 -0.17774001 -0.0469874
103 0.18974727 -0.026916027 -0.07119282 -0.064260945 -0.03971778 -0.1439475 0.0012432117 -0.0024338064 -0.10990498 -0.062332157 -0.03964027 0.058290157 -0.081458844 0.0024076926 -0.1024144 0.27850783 0.15173669 0.047267135 -0.024338968 -0.10773647 0.01977828 0.18943727 0.025076363 -0.1821911 -0.012926692 -0.27043045 0.026078612 0.1728874 0.12393605 -0.12273426 0.2108139 -0.089750245 0.10706338 -0.11206691 -0.0500809 -0.09692137 -0.045947645 -0.032859698 -0.013791827 -0.21434242 -0.05523332 0.2424899 -0.16542144 0.1361594 0.08410162 -0.025240406 0.04400155 -0.00434673 0.025916338 -0.15059447 -0.06910984 0.04213174 0.017202789 -0.095993 0.14234701 -0.1446019 -0.044110153 0.026757589 0.1701599 -0.026529785 0.1881847 0.019589623 0.04565124 0.15753338 -0.004898211 0.03861534 0.15397227 0.049886823 0.03787719 -0.008080415 0.16582613 -0.045873374 0.0072002667 -0.115131386 -0.053889427 0.13911079 -0.08952459 0.019122737 0.056015957 0.055620536 -0.12385577 0.11791701 -0.04631654 -0.1689537 -0.060800023 0.015303169 -0.056055296 0.05844688 -0.055520803 0.04296096 0.069492176 -0.108018145 0.16848801 -0.021758446 -0.049966067 0.1109519 -0.037172355 -0.106332526 0.08982459 -0.11075739 -0.018636683 0.016676415 -0.18158291 0.13134874 0.031601816 -0.097334094 0.036970142 0.0100139 0.030868856 -0.14326818 0.026102388 -0.030551825 0.030280935 -0.067842804 0.093269564 0.07428347 0.020989224 -0.08471128 -0.15306817 -0.16909984 -0.18372941 0.13161817 0.083482735 0.025847653 0.06014394 -0.020532845 -0.1977214 -0.05711276
13 0.20493168 -0.006569617 -0.10153986 -0.05542077 -0.02546535 -0.17230785 -0.013532395 -0.009558545 -0.10044553 -0.086762846 -0.055670694 0.05820182 -0.068096265 -0.0010375836 -0.10285394 0.2722693 0.16885266 0.015149051 -0.014364265 -0.101797506 0.035930227 0.18606345 0.026683813 -0.22178636 -0.023893468 -0.2687679 0.013344468 0.18304688 0.14401224 -0.1381319 0.21353164 -0.11429061 0.09867981 -0.102838375 -0.03677187 -0.115756415 -0.046602987 -0.040903036 -0.018737605 -0.20712781 -0.06845416 0.23572832 -0.16831163 0.11134616 0.09996187 -0.03109282 0.057301633 -0.028179204 0.024767784 -0.15778604 -0.07738415 0.03443878 0.017352622 -0.07250901 0.116006084 -0.120434895 -0.030300569 0.030179946 0.17406064 -0.041941375 0.18636854 0.020091994 0.055210467 0.12634492 -0.004090461 0.029470209 0.17405403 0.045784686 0.033842 -0.0028277992 0.16514368 -0.05829773 0.02851549 -0.114030905 -0.030731931 0.14493755 -0.12321029 0.016210409 0.052706838 0.045687616 -0.13124073 0.13496697 -0.0408209 -0.1484553 -0.051346496 0.016133765 -0.05659095 0.030814914 -0.06185084 0.028527668 0.09066559 -0.11552616 0.15456061 -0.018525517 -0.0369434 0.109676756 -0.03840751 -0.09470244 0.093033336 -0.106699996 -0.028191628 0.006754782 -0.19061321 0.10196031 0.046141583 -0.11175771 0.055449933 0.016736608 0.04036281 -0.12736137 0.012754162 -0.02531965 0.013931758 -0.076866634 0.11445863 0.095111094 0.027610429 -0.06604913 -0.15527685 -0.17850044 -0.19059306 0.12548497 0.09393528 0.0034307786 0.04577481 0.0012387256 -0.19738093 -0.062266972
54 0.1970472 -0.018181438 -0.07018496 -0.047557846 -0.016217144 -0.14582132 -0.020814044 -0.018805094 -0.12054667 -0.07545477 -0.05533654 0.027661743 -0.0644165 -0.012046268 -0.0863419 0.23534344 0.14757432 0.03666098 -0.0151999295 -0.0763337 0.022868492 0.1582054 0.03122607 -0.19950223 -0.018992476 -0.2513539 -0.0022628088 0.1592949 0.14620344 -0.10632643 0.20006417 -0.08080091 0.1043003 -0.09627427 0.0019934264 -0.094550766 -0.021496251 -0.018581137 -0.008235497 -0.18485059 -0.06600808 0.23782632 -0.17419952 0.09456414 0.09470988 -0.0426019 0.0677278 -0.033391356 0.040445708 -0.1465588 -0.09247593 0.016400613 0.025221573 -0.06504985 0.13340639 -0.10601365 -0.022853494 0.04572788 0.15146287 -0.014614419 0.2097267 0.05726296 0.064515546 0.09971766 -0.012894246 0.035220273 0.17120077 0.03883948 0.023741057 0.007933869 0.1586368 -0.05126659 0.009940571 -0.1500602 -0.039557382 0.13660961 -0.107044496 0.047232598 0.08521658 0.04958664 -0.12621817 0.13863629 -0.041900113 -0.13757116 -0.07229482 0.023081835 -0.0480245 0.047021255 -0.07455776 0.03303452 0.06493468 -0.10072108 0.16663828 -0.014588408 -0.05817059 0.10318466 0.0018409691 -0.12893958 0.09097638 -0.14873958 -0.020065807 -0.015272233 -0.19159177 0.1254228 0.039466023 -0.1373284 0.06068742 -0.023004064 0.03973533 -0.116566174 0.014903963 -0.008736815 0.055982295 -0.052414212 0.09955036 0.0762848 0.014348028 -0.063177764 -0.14099619 -0.18250433 -0.19546813 0.1547 0.08485438 -0.0013324849 0.03842152 -0.03971821 -0.1950844 -0.061042104
25 0.21962747 -0.065435536 -0.009775388 -0.096664645 -0.035844415 -0.10176357 -0.013668867 -0.02913851 -0.13379286 -0.017747765 -0.051114276 0.034284472 -0.10649759 0.042547368 -0.0703612 0.32719007 0.15077801 0.07908623 -0.035209432 -0.11164687 -0.0002548718 0.17691791 0.006097799 -0.15963061 -0.0021378042 -0.29792988 0.030742671 0.13902542 0.07593473 -0.062821366 0.23621038 -0.08838613 0.15147956 -0.12599221 -0.091271445 -0.098124936 -0.043319426 -0.03616824 -0.011737425 -0.1932021 -0.035876643 0.25102478 -0.16419657 0.15995657 0.06948697 -0.02926194 0.048488162 0.03701116 0.051624548 -0.15064526 -0.048208337 0.049699713 -0.00907023 -0.15553764 0.20324567 -0.18215027 -0.026933303 0.051682033 0.16775404 0.00012861958 0.22048295 0.07262075 0.07700894 0.18182458 -0.018822148 0.042400748 0.1534152 0.052856185 0.03326539 -0.010899474 0.18832757 -0.025048353 -0.0118343625 -0.14372848 -0.080714494 0.1516304 -0.027508143 0.057568725 0.08700017 0.051908966 -0.09921014 0.12580837 -0.0523895 -0.17685443 -0.10570214 -0.012867909 -0.08474154 0.09055391 -0.07651912 0.0632723 0.024573235 -0.09113601 0.18144073 -0.05567496 -0.05533571 0.088846885 -0.040384565 -0.15144312 0.13964622 -0.15439078 0.002045537 -0.0124819875 -0.20907508 0.17340884 0.0057089487 -0.1039021 0.03007377 -0.034402408 0.008789491 -0.16612527 0.028224325 -0.0606075 0.07977575 -0.06687256 0.11625344 0.07542996 0.0054808855 -0.0773201 -0.18166646 -0.16553228 -0.18039156 0.13698672 0.05486023 0.05248954 0.04162136 -0.061099567 -0.17747459 -0.06657598
64 0.20114407 -0.03210826 -0.049806923 -0.067101024 -0.021366578 -0.12975591 -0.009154357 -0.018917603 -0.13034742 -0.061772473 -0.043515936 0.043607257 -0.07890527 -0.0021646323 -0.09531096 0.2709353 0.14589626 0.04965749 -0.0250117 -0.09141551 0.013377692 0.16964594 0.025888715 -0.1817766 -0.009781185 -0.25783238 0.011269568 0.1582109 0.12619475 -0.11162548 0.21492565 -0.07690861 0.116303794 -0.11196203 -0.029446283 -0.093365766 -0.027040353 -0.02237439 -0.012843305 -0.19333899 -0.054034345 0.23944318 -0.16594462 0.12426908 0.08597917 -0.036956057 0.057620283 -0.00944074 0.03028414 -0.14501017 -0.083950125 0.02131853 0.020954696 -0.08771185 0.15715471 -0.13230157 -0.035303645 0.04211912 0.1677507 -0.011434604 0.21527688 0.056339692 0.059906244 0.13043442 -0.014402188 0.039114356 0.16167174 0.04381819 0.029761665 0.008186234 0.16278844 -0.03919357 -0.0066383467 -0.14472175 -0.058869902 0.14378327 -0.0742237 0.050378677 0.086636774 0.0499836 -0.12821548 0.1323746 -0.051997926 -0.15581448 -0.07858409 0.0068710614 -0.05104506 0.06806974 -0.06684738 0.046159744 0.05074675 -0.09526881 0.18092614 -0.01989678 -0.059994224 0.10538172 -0.004267588 -0.136803 0.101858556 -0.14577387 -0.019735303 -0.0015068479 -0.1859838 0.14665563 0.029431922 -0.1250134 0.053501923 -0.022292553 0.02526583 -0.12808983 0.013966722 -0.027567036 0.06232867 -0.051927958 0.09124963 0.07479043 0.0064714057 -0.067556106 -0.14511791 -0.16915706 -0.19147223 0.13658027 0.08304063 0.017301166 0.04703146 -0.050181843 -0.20225108 -0.053928986
15 0.20698442 -0.016426086 -0.044359934 -0.047441427 -0.0064863395 -0.15210369 -0.051379498 -0.037034232 -0.13838936 -0.13008319 -0.05509652 0.017139379 -0.04183817 -0.057396084 -0.08807645 0.19860974 0.13167821 0.03378863 -0.019818231 -0.021633497 0.0072340546 0.1303904 0.036609493 -0.21944305 0.018901506 -0.22933227 -0.03756797 0.1652376 0.2173108 -0.0982206 0.19529095 -0.05342377 0.09952292 -0.11124981 0.04833594 -0.08819329 0.009412599 0.02439401 -0.009420066 -0.13912043 -0.03088296 0.22071967 -0.1490766 0.054295048 0.08934309 -0.06965758 0.077701166 -0.0580963 0.015796205 -0.14007494 -0.11556861 -0.03903248 0.07387723 -0.005840074 0.11546343 -0.10002205 -0.0194644 0.0742865 0.13467078 -0.0017682433 0.2318099 0.07901601 0.065707065 0.038701862 -0.012575054 0.036722075 0.15668993 -1.4480393e-05 0.010906346 0.022103257 0.09607071 -0.041316073 0.010087419 -0.18867406 -0.07050903 0.14175703 -0.09016394 0.10282947 0.10379003 0.012676373 -0.1272181 0.13747664 -0.080242924 -0.10790422 -0.060258605 0.034335744 -0.029726349 0.07401336 -0.068886586 0.00958809 0.027075034 -0.06170346 0.17494528 0.01365611 -0.07605584 0.10965685 0.062387332 -0.15403831 0.08448459 -0.1576689 -0.011455651 -0.013840672 -0.16138843 0.098030046 0.039313186 -0.15883459 0.08203279 -0.06949143 0.009676445 -0.082711704 0.02676903 0.017771555 0.06908131 -0.051415887 0.08245609 0.013931515 -0.025910528 -0.033465117 -0.078002416 -0.18472452 -0.1941535 0.13356528 0.10077619 -0.016366785 0.01912137 -0.057063013 -0.18634282 -0.040915933
88 0.22256626 -0.043741822 -0.02524625 -0.0639022 -0.0022502174 -0.12961045 -0.05138509 -0.045443796 -0.1477953 -0.09019664 -0.07287944 0.00036897243 -0.04528814 -0.024278367 -0.071100324 0.22696584 0.1294355 0.051911835 -0.019485375 -0.050147887 0.013005881 0.13485685 0.021616248 -0.21012294 0.013849381 -0.2603565 -0.022981206 0.15032184 0.17012593 -0.08297816 0.21586595 -0.058212407 0.10989928 -0.10585933 0.013054172 -0.08478265 0.004077421 0.015580167 -0.013914433 -0.12724341 -0.03368382 0.2126524 -0.1601866 0.08316818 0.07772119 -0.05811026 0.07072161 -0.030439736 0.035491336 -0.13771842 -0.08274276 -0.016349899 0.032677326 -0.0467345 0.12914938 -0.10404055 -0.007242342 0.06087563 0.118321545 0.0074968785 0.2247319 0.084028594 0.08080347 0.070459925 -0.01663279 0.03478191 0.1529879 0.025314268 0.029456992 0.010772231 0.12709953 -0.036913812 0.018955426 -0.16817456 -0.06558445 0.13348857 -0.064078055 0.10022593 0.10382832 0.019876512 -0.10322034 0.13525613 -0.06826701 -0.10943853 -0.06643994 0.027598863 -0.051430576 0.08443002 -0.09372181 0.024247866 0.022955837 -0.064446375 0.16211392 -0.0034597246 -0.06547848 0.08983387 0.035627853 -0.15859048 0.101558656 -0.16870359 -0.0007218514 -0.036839847 -0.18383946 0.12642534 0.027757619 -0.16560178 0.081313066 -0.071281485 0.019201173 -0.09356148 0.022355366 -0.0015599747 0.08509506 -0.046141554 0.10043261 0.03440755 -0.027180297 -0.03413368 -0.105231464 -0.1806797 -0.1889137 0.14141625 0.077146664 0.011796152 0.01720553 -0.066760294 -0.16671918 -0.053659566
49 0.20159027 -0.03917192 -0.07989694 -0.078246675 -0.042798337 -0.14427042 0.013704281 0.0036810949 -0.107810244 -0.037860822 -0.040798333 0.073343635 -0.09892985 0.037123926 -0.10301484 0.32418966 0.1746231 0.053781547 -0.02191254 -0.14462453 0.025693132 0.21483938 0.013336009 -0.17989925 -0.02788085 -0.29151624 0.044332337 0.17288609 0.083041355 -0.123229936 0.22785686 -0.114991024 0.12045718 -0.11877609 -0.08856523 -0.11305156 -0.066504695 -0.059186514 -0.009548437 -0.24180257 -0.06718405 0.25405025 -0.17748755 0.15534586 0.09289977 -0.013587485 0.039826848 0.0141071845 0.037164345 -0.15994027 -0.059215248 0.06818925 -0.005801941 -0.132351 0.16529757 -0.16724035 -0.046235695 0.023670008 0.19183667 -0.03578651 0.1977235 0.019498147 0.05719377 0.19496967 -0.007027386 0.030766945 0.16247681 0.06879975 0.042603437 -0.023091681 0.20299795 -0.042882852 0.004624718 -0.091220185 -0.04021242 0.14639121 -0.083389275 -0.013713771 0.049430165 0.07235326 -0.12274516 0.12157527 -0.022625385 -0.19100095 -0.065647885 0.005126042 -0.0728039 0.04350621 -0.05357976 0.06459741 0.08226522 -0.1237867 0.16541415 -0.042697433 -0.036241658 0.104708806 -0.07370149 -0.10390271 0.102428995 -0.112441555 -0.021747798 0.016530924 -0.1956308 0.1420552 0.01967943 -0.07941147 0.028930627 0.02691644 0.036184385 -0.16282961 0.023589972 -0.049519833 0.031186253 -0.07323511 0.112065285 0.107509136 0.03604143 -0.088741764 -0.18513209 -0.16924037 -0.18577881 0.132644 0.07083877 0.03378992 0.06217238 -0.016684668 -0.18637905 -0.06954384
65 0.19415754 -0.026502818 -0.05401698 -0.05608392 -0.014953707 -0.13922958 -0.02447524 -0.025496295 -0.11901311 -0.09084906 -0.04519425 0.039350286 -0.056081478 -0.017115917 -0.09440731 0.23906083 0.14299162 0.029709306 -0.015455351 -0.06270307 0.014177586 0.15576142 0.037150532 -0.19669268 -0.00062111946 -0.24165228 -0.0066673616 0.16369894 0.15744308 -0.112049684 0.1955728 -0.077131115 0.113866664 -0.11026609 -0.0055985902 -0.09293263 -0.013282211 -0.0013233415 -0.013865491 -0.16703033 -0.036406733 0.21661104 -0.14635791 0.088702954 0.09459004 -0.048443876 0.067958385 -0.034438502 0.016192237 -0.14009376 -0.08343151 -0.0035469034 0.042881377 -0.042130496 0.12456339 -0.119125046 -0.022851672 0.05919665 0.15551315 -0.01984701 0.21496099 0.053433027 0.05517799 0.08550927 -0.007929949 0.04346327 0.15080552 0.01641085 0.01874583 0.013676039 0.1350856 -0.041237023 0.005572127 -0.14925072 -0.061681323 0.14011538 -0.085834734 0.06323363 0.08518314 0.03490324 -0.12346901 0.12355174 -0.063542664 -0.12437692 -0.06074428 0.015024946 -0.044556364 0.068632916 -0.05890182 0.018014366 0.044540383 -0.08769919 0.16944437 -0.0056090266 -0.052304044 0.10599203 0.017705642 -0.12974901 0.09031161 -0.13466208 -0.016737435 -0.004503327 -0.17557931 0.11744306 0.033509668 -0.12785326 0.06533909 -0.033109847 0.017810863 -0.113109834 0.024826452 0.00027035628 0.056839496 -0.062629335 0.0985438 0.0374968 -0.0067120055 -0.040824756 -0.11219704 -0.17354931 -0.18458383 0.11925072 0.09024521 0.0020952825 0.03525508 -0.03892338 -0.182473 -0.047214333
128 0.18264417 -0.028797599 -0.04767726 -0.060555127 -0.02112589 -0.12981573 -0.016016038 -0.018163146 -0.116608724 -0.07595431 -0.04470674 0.039394286 -0.068807036 -0.019157184 -0.08243612 0.23253024 0.13383184 0.037283365 -0.02372859 -0.067521915 0.015491775 0.14999627 0.027619384 -0.17896505 0.00019321775 -0.22918622 -0.00071270514 0.14721183 0.14075717 -0.10448455 0.18507457 -0.061678287 0.097614266 -0.1078682 -0.010012859 -0.083300315 -0.022183403 -0.010977888 -0.008952976 -0.17500551 -0.03642062 0.21118721 -0.14943165 0.09947431 0.075320706 -0.035808235 0.052311033 -0.020386996 0.015388579 -0.13702501 -0.08449022 0.0052714245 0.03772965 -0.062391043 0.13220736 -0.12243528 -0.037499934 0.045717727 0.150773 -0.011383639 0.19766827 0.056723 0.049036127 0.10215695 -0.004888346 0.03449408 0.14164563 0.024531947 0.017803878 0.009936132 0.12083682 -0.03934797 -0.0009301892 -0.14143662 -0.059891768 0.13260031 -0.0727648 0.044907283 0.079029985 0.038432248 -0.12021935 0.11653152 -0.054253276 -0.13098945 -0.07035663 0.01563797 -0.039722636 0.058517892 -0.055974405 0.030474707 0.033070628 -0.077504285 0.16347043 -0.011796245 -0.056355108 0.10137723 0.0073064677 -0.12796551 0.08502224 -0.12647584 -0.013080841 0.0043488555 -0.15720195 0.11483141 0.02927884 -0.11009053 0.049234826 -0.02833031 0.013945563 -0.104440846 0.025049362 -0.010090559 0.046083707 -0.049781658 0.079440296 0.04521149 0.004008219 -0.053620692 -0.12324094 -0.16281803 -0.16816688 0.11444243 0.073711544 0.013114682 0.04126709 -0.035463575 -0.17820396 -0.046692025
104 0.19486918 -0.04325247 -0.042687047 -0.07184118 -0.027209247 -0.12758195 -0.008537942 -0.019561572 -0.12158715 -0.059807125 -0.042113617 0.040746287 -0.06891168 0.0030300454 -0.08892321 0.2637561 0.1367542 0.05510746 -0.022347579 -0.089152746 0.0044000926 0.16187726 0.015912447 -0.16658153 -0.006575901 -0.2460437 0.014396465 0.15045337 0.117546424 -0.09179568 0.19712974 -0.072416015 0.11883792 -0.11919284 -0.023998428 -0.0955693 -0.026647897 -0.008813682 -0.010344251 -0.18270577 -0.04229658 0.23493919 -0.16145378 0.107373945 0.08500894 -0.04403205 0.05107043 -0.010429625 0.029146379 -0.13995175 -0.08677723 0.015780175 0.02668854 -0.082875095 0.1519024 -0.14112185 -0.022740608 0.05171812 0.15888502 -0.0047156154 0.21993683 0.058807872 0.062492516 0.12044472 -0.0129494555 0.030090718 0.15641183 0.035393164 0.036599774 0.0008183155 0.14844795 -0.030191438 0.00026746717 -0.13774148 -0.059570275 0.13520299 -0.06673423 0.04323454 0.07223149 0.047442146 -0.11005099 0.11653564 -0.052552123 -0.16229534 -0.0689913 0.014646853 -0.061041366 0.072403215 -0.06747909 0.047959898 0.043682907 -0.0844293 0.170095 -0.016157292 -0.05600122 0.09682481 -0.017522117 -0.12944047 0.08778674 -0.13402951 -0.015076191 0.004594676 -0.17674087 0.13533084 0.021979649 -0.11143003 0.0480902 -0.018515244 0.02835831 -0.13117659 0.03133269 -0.027132316 0.06050169 -0.06258285 0.09207342 0.060024884 0.008208444 -0.06906655 -0.13618007 -0.16200362 -0.18011157 0.124804296 0.066193044 0.01979868 0.0379526 -0.04863118 -0.17446683 -0.051914465
122 0.22751418 -0.015386771 -0.092006996 -0.06247107 -0.021480767 -0.15220986 -0.013885481 -0.010799694 -0.11949147 -0.061065674 -0.077175215 0.049540933 -0.077996224 0.004662648 -0.10075388 0.29419753 0.17301446 0.036076874 -0.015376565 -0.1172887 0.034688078 0.19968931 0.018244674 -0.23448853 -0.032047167 -0.30083004 0.014383687 0.18939742 0.1360426 -0.11687083 0.23173435 -0.114169605 0.10417028 -0.09743283 -0.052114867 -0.11310861 -0.048878595 -0.05474415 -0.0020132351 -0.20346436 -0.07871723 0.2500907 -0.18644783 0.1294265 0.09527666 -0.027193114 0.06748168 -0.015598863 0.058738314 -0.1710257 -0.06221495 0.05337104 0.003481001 -0.102687635 0.13828126 -0.12732334 -0.030922363 0.012638124 0.16063234 -0.042307198 0.19467272 0.024336148 0.07088517 0.1533903 -0.004427059 0.03863141 0.17485842 0.060731873 0.031761147 -0.0030896447 0.19633505 -0.06746716 0.031434663 -0.119234264 -0.029141972 0.15397334 -0.11233632 0.019823868 0.07135443 0.04922818 -0.126357 0.14369878 -0.027558628 -0.14756127 -0.059733007 0.0205166 -0.06363477 0.038416933 -0.06552656 0.038336497 0.09236817 -0.12013452 0.15834525 -0.03542148 -0.030422043 0.108080246 -0.043040436 -0.11130728 0.10895475 -0.12878387 -0.019392576 -0.0015515152 -0.21260254 0.12419569 0.042889893 -0.13065526 0.052567273 0.00071319554 0.051391613 -0.148097 0.0019223021 -0.03641649 0.028461117 -0.060608145 0.11998655 0.10772535 0.029682929 -0.07366099 -0.17153142 -0.19473685 -0.18945992 0.14760688 0.08917796 0.023246313 0.05367981 -0.015546732 -0.20045884 -0.08128047
93 0.19937024 -0.049920198 -0.060523402 -0.08388795 -0.046861734 -0.12676553 0.019597718 0.005473563 -0.100651965 -0.023954688 -0.037193533 0.0724757 -0.11224058 0.051218446 -0.10856067 0.3406215 0.1742996 0.072411604 -0.03313563 -0.14792286 0.019107956 0.21328896 0.0105756065 -0.1616227 -0.02584059 -0.29073277 0.0606334 0.16654834 0.0663809 -0.11034992 0.22613837 -0.11651392 0.13572742 -0.12236194 -0.09328833 -0.10792844 -0.06883092 -0.059412673 -0.013872756 -0.23529974 -0.060169067 0.252847 -0.17269035 0.171214 0.07971278 -0.01099474 0.034316674 0.03497608 0.037107546 -0.14738007 -0.05462862 0.07879596 -0.011595659 -0.14452535 0.17758194 -0.18154609 -0.037479907 0.021120947 0.19518897 -0.028055146 0.20216769 0.013441163 0.04476073 0.20316026 -0.007636127 0.038838238 0.16435422 0.066777594 0.04443772 -0.020636277 0.20681326 -0.030519208 -0.0038139417 -0.09719531 -0.050939273 0.13887192 -0.07635103 -0.011938331 0.047074407 0.06882066 -0.11681941 0.11867807 -0.03828992 -0.20919666 -0.07683299 0.0024653983 -0.08243115 0.059452657 -0.06194404 0.064174436 0.073783875 -0.11944433 0.16935469 -0.05595646 -0.04262543 0.09348777 -0.0857524 -0.10188925 0.10274521 -0.10989581 -0.011538491 0.02518302 -0.19450846 0.1530088 0.012260114 -0.06175685 0.019167114 0.021309933 0.03451208 -0.17415132 0.031770986 -0.06295313 0.044690534 -0.07520172 0.100833565 0.09997322 0.034951545 -0.100566715 -0.19685787 -0.16355743 -0.1842211 0.12953831 0.06630351 0.041908424 0.063788265 -0.027518054 -0.19496673 -0.05966877
45 0.21289164 -0.012047599 -0.08319963 -0.057285838 -0.017455077 -0.15956023 -0.01917519 -0.017123044 -0.12292986 -0.07443048 -0.059054863 0.04710925 -0.07301807 -0.0039267517 -0.10314917 0.27387995 0.1573233 0.029958326 -0.021445652 -0.09741218 0.023472402 0.18155897 0.024335314 -0.22050895 -0.02175164 -0.2742756 0.009356232 0.17807487 0.14587834 -0.11414571 0.21350963 -0.100948386 0.09644204 -0.09378101 -0.03666099 -0.10171555 -0.04357092 -0.040152054 -0.0115204 -0.19243295 -0.07003951 0.22931412 -0.16194937 0.10616635 0.09393202 -0.033829194 0.06416313 -0.01986324 0.04054152 -0.15400776 -0.07784542 0.031528335 0.015598404 -0.07519605 0.13154343 -0.113650806 -0.034548398 0.025143502 0.16071093 -0.032412756 0.18802844 0.030011317 0.06420774 0.13061006 -0.0061709927 0.03363337 0.1677348 0.046020947 0.029343056 0.004184933 0.16580404 -0.051621493 0.020535918 -0.118957944 -0.033660367 0.14128166 -0.11135268 0.027953502 0.068651274 0.050012108 -0.12509714 0.13681732 -0.031096475 -0.1430023 -0.0532118 0.016837532 -0.05458521 0.046600875 -0.06019676 0.030920982 0.078992166 -0.10870159 0.1555954 -0.01640319 -0.034879323 0.10610668 -0.013788521 -0.10990557 0.09395491 -0.13125114 -0.019559668 -0.008194464 -0.19364755 0.11659391 0.043501586 -0.12993388 0.0561435 -0.012295385 0.04114172 -0.12328354 0.013193145 -0.014744952 0.036162224 -0.052380074 0.110446595 0.08442002 0.01121762 -0.05800104 -0.1425717 -0.18394645 -0.19215234 0.13771623 0.089634724 0.009962002 0.043847818 -0.025202915 -0.19757666 -0.060903307
89 0.21309999 -0.0326555 -0.027470503 -0.06694925 -0.013894701 -0.12954958 -0.043621514 -0.039791714 -0.13001698 -0.08635353 -0.06300535 0.018242102 -0.05634955 -0.022596678 -0.073379286 0.23090474 0.13477789 0.048627373 -0.020975042 -0.05924031 0.008133926 0.1395053 0.020810382 -0.19697855 0.014227555 -0.24363218 -0.009997046 0.1506457 0.16093385 -0.07936692 0.20539378 -0.06735827 0.120488346 -0.11045983 0.000969495 -0.088384815 -0.008229491 0.0068382397 -0.0078157 -0.14537393 -0.03516883 0.2100983 -0.15750505 0.08473688 0.083449304 -0.06667692 0.07227255 -0.027806882 0.037313793 -0.14132954 -0.082869045 -0.015305819 0.04133062 -0.048557837 0.12672673 -0.11715749 -0.0048657195 0.056399263 0.1355251 -0.003681344 0.22685781 0.07209387 0.07218128 0.07425989 -0.016482182 0.035858963 0.14422102 0.020361433 0.03018712 0.012180119 0.13303265 -0.04009061 0.016243326 -0.16216592 -0.05962799 0.13649283 -0.06809192 0.08256353 0.085562356 0.025851622 -0.09942875 0.12069355 -0.0646971 -0.113960534 -0.0706631 0.022761429 -0.057347387 0.07756765 -0.084273316 0.022694329 0.026790662 -0.06550026 0.1620046 -0.012601853 -0.05533927 0.10165324 0.025989816 -0.15351655 0.10176304 -0.15457095 -0.005886408 -0.020619713 -0.17502643 0.1245298 0.02936754 -0.14886294 0.07404403 -0.062547825 0.018986791 -0.10890868 0.028533822 -0.0052397773 0.078056104 -0.06305557 0.10171992 0.026939515 -0.021547787 -0.03737076 -0.106392674 -0.17827587 -0.19282559 0.1385949 0.08041072 0.01464022 0.015575685 -0.052398548 -0.17030564 -0.05423879
18 0.30236194 0.003300123 0.04394623 -0.0076575293 0.10228795 -0.18703882 -0.21924864 -0.1372847 -0.24498777 -0.32908583 -0.14303944 -0.13307688 0.102816924 -0.24335507 -0.03998256 -0.01823196 0.06443659 0.005843467 -0.0069465013 0.22278 -0.024768343 -0.03099237 0.08597129 -0.34994718 0.11530898 -0.15012163 -0.22235999 0.16047084 0.51122427 -0.044618245 0.17402658 0.06288488 0.07597658 -0.116116434 0.36323687 -0.072962806 0.18525413 0.20320447 -0.006344129 0.05747051 0.022612337 0.17016317 -0.13758889 -0.15281184 0.119406864 -0.22148673 0.16683948 -0.21779081 -0.023129579 -0.13714564 -0.24431363 -0.27650544 0.2194143 0.2590578 0.024769386 0.040528364 0.07034883 0.19591835 0.018713119 0.068822354 0.40078202 0.25401315 0.13528855 -0.29150227 -0.034842692 0.043678332 0.183464 -0.109573774 -0.017266007 0.10496519 -0.08608359 -0.05342454 0.056026667 -0.42690903 -0.12338158 0.1601072 -0.12446239 0.36623296 0.26759496 -0.119874835 -0.15065286 0.20067579 -0.20377544 0.0545822 -0.044481453 0.111713596 0.03475655 0.16597593 -0.15968612 -0.10258143 -0.076952174 0.06949393 0.21612974 0.11961168 -0.1522666 0.1283415 0.3460886 -0.31136915 0.07890933 -0.30018714 0.0019023699 -0.117569715 -0.15530759 0.057916213 0.090242326 -0.4089234 0.24017206 -0.2987817 -0.013010855 0.07300893 0.04604364 0.15644631 0.18315183 0.002486999 0.06389069 -0.1675032 -0.17021967 0.096664324 0.1246354 -0.2718386 -0.26415372 0.1667657 0.15442546 -0.10928364 -0.08149898 -0.16421865 -0.1721147 -0.018701619
86 0.2318687 -0.017321598 -0.06767684 -0.058645856 -0.0015215614 -0.16268054 -0.04113915 -0.026980143 -0.14210542 -0.10634012 -0.0844512 0.02209719 -0.05196998 -0.028649487 -0.09180746 0.24415033 0.14723608 0.026169255 -0.019611195 -0.067270964 0.021866998 0.16012783 0.030305445 -0.24167097 -0.006918648 -0.26691577 -0.021820772 0.17544493 0.19073395 -0.101909935 0.21230653 -0.082895994 0.10176182 -0.10471154 0.010932742 -0.10289378 -0.008457882 -0.009987894 -0.009345531 -0.1686597 -0.06499514 0.23532063 -0.17840843 0.08756845 0.099859454 -0.06043305 0.07923301 -0.049026635 0.037085176 -0.16315785 -0.09876413 0.002484011 0.032599576 -0.041602153 0.11819563 -0.097716965 -0.01563155 0.0447995 0.13694341 -0.023291735 0.22795871 0.063667566 0.084985636 0.081060134 -0.0072852513 0.03274462 0.17212446 0.032295324 0.031336393 0.013984029 0.14987843 -0.06224235 0.037314456 -0.15653619 -0.046013724 0.14926983 -0.11065307 0.06604193 0.09403242 0.030827979 -0.12179462 0.14620036 -0.055231303 -0.12100095 -0.05599628 0.034515597 -0.05276504 0.057677403 -0.08175489 0.012971715 0.07039699 -0.08594505 0.15963991 -0.000590065 -0.050633658 0.11054613 0.015164714 -0.13673423 0.09684008 -0.15488254 -0.01820609 -0.016699407 -0.2010281 0.1115383 0.044089966 -0.17170909 0.08603818 -0.04581159 0.045905005 -0.11003255 0.013802707 -0.004677531 0.051645454 -0.053693816 0.10746433 0.058506448 -0.0016188839 -0.052935768 -0.1151644 -0.2009043 -0.20076036 0.1524893 0.09531062 0.005398941 0.028858539 -0.03431133 -0.18913865 -0.06853097
24 0.2159514 -0.061091375 -0.0076636784 -0.07342688 -0.015774492 -0.09318471 -0.015481465 -0.03443909 -0.15128742 -0.014607451 -0.07036353 -0.0025398687 -0.086890966 0.04044386 -0.060171112 0.28538382 0.12543267 0.092391774 -0.024891414 -0.09753649 0.009138234 0.15906444 0.011930127 -0.14935638 -0.0073716356 -0.2618165 0.014254241 0.12003016 0.06326025 -0.061957993 0.22289231 -0.058453254 0.118831284 -0.09202723 -0.042118013 -0.07308659 -0.028907465 -0.028439434 -0.020741982 -0.16158523 -0.051239647 0.21883203 -0.16158195 0.13153021 0.06360818 -0.01503934 0.05953615 0.009425909 0.05612541 -0.12388783 -0.057045177 0.04687673 -0.015181028 -0.1300704 0.18030955 -0.12840486 -0.02087468 0.038871326 0.13390248 0.0077271885 0.19567557 0.08514999 0.08149211 0.13073175 -0.017466543 0.03917549 0.14202908 0.06816151 0.031273402 0.0024229288 0.17896903 -0.034151964 -0.019410856 -0.13961193 -0.050095722 0.12193162 -0.032836292 0.05279435 0.095128424 0.058465287 -0.09202168 0.12136481 -0.035160847 -0.16034792 -0.09746162 -0.008022367 -0.06827212 0.071207374 -0.09924767 0.05989306 0.027743796 -0.08827478 0.15700309 -0.029382523 -0.06082029 0.07463168 -0.006443737 -0.14199716 0.11226584 -0.17900883 0.0055241147 -0.03208284 -0.19772238 0.16240756 0.010926922 -0.1329807 0.04594711 -0.042654835 0.025711987 -0.12911466 0.0034977575 -0.04485598 0.09791565 -0.023434656 0.09971725 0.08919887 0.008381401 -0.06783513 -0.16795613 -0.15412617 -0.16267644 0.15236609 0.042115092 0.029893689 0.031420484 -0.07693038 -0.15959492 -0.062343355
5 0.27605277 0.0033197328 0.039236877 -0.015269275 0.0802535 -0.17282058 -0.1898065 -0.113187864 -0.22039345 -0.29333866 -0.13087839 -0.10978191 0.084393755 -0.20979635 -0.045295946 0.010732186 0.07336998 0.008886007 -0.010251986 0.1799189 -0.024847506 -0.012642721 0.08065036 -0.32072958 0.099231705 -0.16136865 -0.19059008 0.15309618 0.4661388 -0.051270857 0.17044795 0.04618457 0.07862834 -0.10542963 0.31275153 -0.072379544 0.15768307 0.17332053 -0.0060879467 0.034885205 0.016680563 0.17255624 -0.12895158 -0.12641972 0.10991802 -0.19346583 0.14935924 -0.1890617 -0.021742843 -0.12701815 -0.21481447 -0.23201016 0.19305548 0.2207566 0.026853502 0.018094648 0.06032081 0.17063777 0.02525294 0.05542492 0.36166257 0.22119495 0.11110071 -0.24468957 -0.032481454 0.043449167 0.17155463 -0.09423849 -0.017626021 0.0952289 -0.06330036 -0.04712222 0.043624222 -0.38277894 -0.116497815 0.15566295 -0.11058889 0.32516357 0.23812953 -0.104861245 -0.14195737 0.18339373 -0.19151445 0.03245308 -0.04810247 0.10816389 0.029142821 0.149195 -0.13951395 -0.09077984 -0.061852638 0.05824822 0.21088894 0.10426329 -0.13804436 0.12084591 0.29706386 -0.2807087 0.07792471 -0.26527184 0.0027004723 -0.09725502 -0.14965072 0.056618888 0.075331464 -0.35898495 0.20988695 -0.25390777 -0.01227952 0.054639824 0.044451673 0.13340504 0.1664782 -0.012303698 0.06409741 -0.14673875 -0.14272411 0.08006934 0.1039739 -0.24338412 -0.24790743 0.14513086 0.14487652 -0.09328068 -0.070780806 -0.14817423 -0.16685328 -0.013857385
39 0.19648863 -0.032538686 -0.06502902 -0.066658035 -0.040644687 -0.13543424 0.0028018388 -0.010601986 -0.11761622 -0.046873953 -0.04801205 0.051193576 -0.09002254 0.020782884 -0.09562759 0.28531975 0.15041885 0.057615012 -0.024775717 -0.11304155 0.023411848 0.19117372 0.017131539 -0.17587169 -0.02394573 -0.2678995 0.024655065 0.1608585 0.10631377 -0.11270931 0.21839038 -0.091199614 0.11701052 -0.11091327 -0.042808898 -0.097912654 -0.045384843 -0.034737553 -0.018286707 -0.20260029 -0.05739106 0.24174127 -0.16314407 0.12773302 0.08236705 -0.01967152 0.049938824 0.0004946649 0.029226607 -0.1417118 -0.07560153 0.044162657 0.010034291 -0.10071207 0.15585507 -0.1375534 -0.04337111 0.03969059 0.1673823 -0.022317054 0.19181304 0.039308056 0.052157678 0.1391988 -0.0063801124 0.03498907 0.15747915 0.051919896 0.03254809 -0.00837411 0.16700293 -0.040644646 -0.0027243162 -0.11388048 -0.046235487 0.13066716 -0.07789778 0.017075194 0.06140024 0.06102129 -0.12517218 0.12137284 -0.033458482 -0.16970415 -0.07020253 0.009304596 -0.059231885 0.05441959 -0.06452577 0.055091985 0.062177695 -0.10437634 0.15955147 -0.02440798 -0.05302407 0.09732612 -0.026810722 -0.10809731 0.09023766 -0.12860227 -0.012324784 -0.0007498857 -0.17754142 0.13337559 0.026948707 -0.10076812 0.037640445 0.002238167 0.029694727 -0.13412689 0.020651406 -0.03246001 0.04727328 -0.05809049 0.09387021 0.085484296 0.021316499 -0.079984166 -0.16576535 -0.16384 -0.17702924 0.13680778 0.07221004 0.022304198 0.04731108 -0.033053618 -0.19029021 -0.05778784
113 0.19831213 -0.042571053 -0.039706513 -0.06347513 -0.029081728 -0.12117721 -0.008636082 -0.02148191 -0.12015893 -0.05167024 -0.054293174 0.027103983 -0.07760814 0.007777285 -0.082165346 0.25805047 0.1383196 0.06530838 -0.017537171 -0.08371956 0.012594921 0.16411167 0.017003955 -0.16242166 -0.008318866 -0.2479622 0.0164373 0.13836133 0.10871399 -0.094091274 0.20673923 -0.067255035 0.107600875 -0.10490527 -0.018195158 -0.08975501 -0.02267379 -0.01448274 -0.014625768 -0.17382407 -0.04263848 0.22337905 -0.15661256 0.110313036 0.07477085 -0.029172415 0.050803363 -0.0070232037 0.031250514 -0.13050972 -0.07548446 0.021156669 0.024523394 -0.08338554 0.14551191 -0.13234995 -0.023191363 0.04407467 0.14554182 -0.0033239913 0.20660436 0.05803848 0.061535884 0.10999073 -0.014015192 0.03537037 0.15189765 0.042187646 0.02748078 0.0020798764 0.14321513 -0.031401142 -0.008184203 -0.13432968 -0.05194402 0.13559578 -0.061450537 0.043464493 0.078252554 0.046538647 -0.11448866 0.115000375 -0.050303742 -0.1551088 -0.073911 0.013370532 -0.051591065 0.060064513 -0.07254328 0.04460332 0.041223966 -0.08193695 0.15928313 -0.019205842 -0.059629917 0.09009492 -0.010636179 -0.12943208 0.0887487 -0.13715053 -0.015901797 -0.011358471 -0.17043169 0.13268396 0.021831004 -0.11463854 0.042635646 -0.02446763 0.026706425 -0.12296359 0.02138634 -0.026068259 0.06707213 -0.04766568 0.08472792 0.062258914 0.01042564 -0.07040282 -0.14663249 -0.16426516 -0.17795701 0.13420998 0.06471369 0.014552784 0.037730187 -0.053034436 -0.17295381 -0.056035645
44 0.18455438 -0.026541566 -0.05835599 -0.067874394 -0.033520106 -0.1366314 0.00052980514 -0.008374644 -0.11724807 -0.059748806 -0.04000298 0.053969998 -0.084637664 0.007116085 -0.09970213 0.2776008 0.15011743 0.050362118 -0.02163703 -0.09555552 0.017863153 0.18175119 0.027973793 -0.17403209 -0.011561591 -0.25875467 0.017883973 0.16078618 0.11587254 -0.11447655 0.21103415 -0.08291294 0.11291851 -0.11215684 -0.04196636 -0.092197806 -0.03938931 -0.031326268 -0.01446747 -0.20816466 -0.053535208 0.24082242 -0.15333007 0.1287132 0.07777539 -0.02097702 0.04915385 -0.005486188 0.028976992 -0.14934714 -0.07475185 0.042865526 0.01917027 -0.100905076 0.1489516 -0.13947675 -0.04593778 0.033138122 0.17201191 -0.02593793 0.18782522 0.040853504 0.04986858 0.14390488 -0.00948223 0.04109084 0.15183891 0.03822841 0.025572086 -0.0021206972 0.15484014 -0.03618436 -0.0070603862 -0.12207155 -0.051043905 0.14210491 -0.075358845 0.025433531 0.07130656 0.060575422 -0.1268147 0.124907576 -0.043885108 -0.16395277 -0.07844137 0.005637013 -0.051304042 0.059030913 -0.059300497 0.04349147 0.0513306 -0.10148499 0.17275403 -0.022590764 -0.05259306 0.10032695 -0.020620275 -0.11547067 0.092079416 -0.12294673 -0.017730448 0.012951153 -0.17002505 0.12911096 0.022139901 -0.101517126 0.026275286 -0.0021607394 0.01995221 -0.13466199 0.017959071 -0.028210165 0.038079623 -0.05951263 0.08871871 0.0783268 0.023637101 -0.08125747 -0.15329677 -0.16425914 -0.17509755 0.1271098 0.077798106 0.020996025 0.047924757 -0.03140957 -0.19214624 -0.050970323
60 0.23048553 -0.07330797 0.0049625365 -0.07114805 -0.023078253 -0.088649295 0.0060998145 -0.04529008 -0.15311113 0.028889349 -0.058111105 -0.011083826 -0.103479184 0.0873402 -0.0598253 0.32882404 0.15090482 0.11901342 -0.021298021 -0.13020849 0.009599314 0.1783483 0.0016810156 -0.14099535 -0.027934598 -0.2915431 0.04545735 0.109204456 0.011520775 -0.062059104 0.24740557 -0.07349486 0.15512347 -0.09827332 -0.078068875 -0.0740824 -0.04208638 -0.03945713 -0.029670332 -0.19009194 -0.04612396 0.23216777 -0.18399927 0.17114925 0.07410012 -0.007829379 0.06525261 0.04089233 0.068296984 -0.121514626 -0.03896423 0.07398794 -0.04314893 -0.17763701 0.22443935 -0.14314693 -0.018281132 0.053053875 0.15892012 0.022347964 0.21143563 0.09416417 0.08666604 0.1584342 -0.017201751 0.04105551 0.16784072 0.09268882 0.023233443 0.0028198336 0.2285015 -0.029987786 -0.046259686 -0.15183884 -0.057357635 0.123791486 -0.026032927 0.041180603 0.0980551 0.082248546 -0.08721428 0.14152198 -0.025784042 -0.18626411 -0.121596396 -0.028070496 -0.08390634 0.0666047 -0.10997061 0.0770899 0.037502676 -0.11423471 0.16309682 -0.04378441 -0.067062825 0.06015475 -0.029989308 -0.15300132 0.13552313 -0.20450443 0.0089934785 -0.04679802 -0.23952153 0.20474511 -0.0011998832 -0.12162765 0.04130811 -0.026817895 0.04385326 -0.1627414 -0.0009578984 -0.057425283 0.12118183 -0.01852946 0.11825872 0.124210395 0.013782406 -0.0774069 -0.21647237 -0.16436718 -0.17487751 0.18341136 0.036224313 0.040950403 0.033683825 -0.098642424 -0.17214565 -0.07447751
111 0.24535087 -0.0057619815 -0.10733897 -0.061674617 -0.00845798 -0.17885041 -0.026460782 -0.021245029 -0.13605547 -0.09826097 -0.086643696 0.047649395 -0.06413939 -0.02213223 -0.11132284 0.28603426 0.18107717 0.020094987 -0.010964042 -0.10221862 0.034353185 0.19394414 0.02796536 -0.2727922 -0.023035014 -0.29888397 -0.0026548663 0.20766886 0.19086057 -0.13323154 0.23648275 -0.11764567 0.108393736 -0.09176925 -0.021077804 -0.1216201 -0.03363734 -0.037697397 -0.004502673 -0.1963939 -0.082882315 0.2529066 -0.19282229 0.10851969 0.1135529 -0.050323162 0.0740976 -0.037638623 0.05249948 -0.18100688 -0.08510315 0.0284111 0.02257593 -0.06339612 0.12289653 -0.1102326 -0.028265515 0.02088164 0.16315854 -0.041365806 0.21988447 0.03336052 0.07746448 0.12248614 -0.008066052 0.04031248 0.18304487 0.04631808 0.039798204 0.009755079 0.17841415 -0.07410555 0.04365755 -0.13300459 -0.033210017 0.15745154 -0.13871734 0.035489038 0.0763509 0.037027244 -0.13136046 0.15971294 -0.039903313 -0.13189478 -0.054497447 0.026898896 -0.061577946 0.04168548 -0.07695714 0.022872718 0.10292698 -0.12198715 0.16127414 -0.022899823 -0.035983454 0.12001255 -0.01753992 -0.120242864 0.09980496 -0.13579148 -0.031847235 -0.009435969 -0.21435942 0.11137612 0.062026426 -0.15785766 0.07488145 -0.015118687 0.056799803 -0.13289161 0.0011625385 -0.014028524 0.037543215 -0.06708458 0.12641118 0.093663625 0.018660817 -0.06421525 -0.14981103 -0.21172777 -0.21299022 0.15031017 0.10103683 0.0006211011 0.043603458 -0.013748827 -0.20716497 -0.07400577
7 0.29536656 0.004903489 0.042310365 -0.0119141145 0.09925991 -0.18836598 -0.20916739 -0.12997234 -0.24072891 -0.32474142 -0.14024797 -0.13064359 0.100419946 -0.23500896 -0.036871504 -0.0091709085 0.07919045 0.0036401202 -0.00844925 0.20769879 -0.017790714 -0.020324204 0.086129546 -0.3493488 0.11249664 -0.1593614 -0.21629356 0.16164358 0.5054502 -0.057331834 0.17386658 0.05415218 0.08226825 -0.11982917 0.35174683 -0.08294056 0.17142625 0.1982359 -0.0061562727 0.0391553 0.020068426 0.17777365 -0.14387488 -0.14072597 0.12592128 -0.21399601 0.16937473 -0.21752214 -0.022637552 -0.13585153 -0.2415361 -0.26297683 0.21058449 0.2497812 0.02443514 0.024626458 0.06371868 0.18998913 0.022695085 0.06614124 0.39704132 0.24576749 0.12921938 -0.28031024 -0.03727073 0.048126254 0.19015945 -0.107363835 -0.022004938 0.0977164 -0.06802921 -0.056738414 0.051052738 -0.42307633 -0.12031605 0.16928579 -0.12302671 0.35872877 0.25647014 -0.11255578 -0.15156953 0.19892506 -0.20475332 0.045701314 -0.043120332 0.117167346 0.026931588 0.16186495 -0.15892956 -0.10223654 -0.07284133 0.06620941 0.2315035 0.12257157 -0.14487459 0.13530354 0.33004355 -0.30806148 0.08430394 -0.30195296 -0.00067297457 -0.11172382 -0.16656254 0.05989904 0.08744691 -0.40240496 0.2350283 -0.29141828 -0.0021793838 0.056837376 0.04510426 0.15122323 0.18631303 -0.00740459 0.07209637 -0.1545441 -0.16140729 0.0896806 0.11664519 -0.2803714 -0.27350572 0.16623847 0.16000381 -0.103355296 -0.08293439 -0.16182356 -0.18108149 -0.016597187
6 0.28546703 -0.0074665067 0.052864414 -0.01968218 0.08890446 -0.1567564 -0.18854192 -0.12520891 -0.23294757 -0.2716685 -0.13618483 -0.1258103 0.07131207 -0.19413157 -0.034914486 0.018977093 0.06608733 0.018321762 -0.013257849 0.1749939 -0.025118148 -0.013921395 0.0722961 -0.31405744 0.099923335 -0.16197991 -0.19206181 0.14376825 0.43514255 -0.029972928 0.17590271 0.05046687 0.086480275 -0.10903985 0.2996555 -0.069936216 0.15511811 0.17134412 -0.009045259 0.032273322 0.009744856 0.17550893 -0.13306306 -0.11544957 0.10342223 -0.1866311 0.15577236 -0.18521637 -0.0089760525 -0.1265035 -0.20947848 -0.22531675 0.1758973 0.19491118 0.050559796 0.014238266 0.05522903 0.16922598 0.017847037 0.06440647 0.35902673 0.23748195 0.12393836 -0.23496103 -0.032224927 0.043036092 0.16198714 -0.08591267 -0.01254155 0.089995876 -0.04814444 -0.052467205 0.041003287 -0.38291615 -0.111223795 0.15095846 -0.08846324 0.3266321 0.24565874 -0.09039518 -0.12904817 0.18470135 -0.18003395 0.032128356 -0.055615015 0.090421125 0.019563433 0.1493567 -0.154203 -0.08433443 -0.066224776 0.053713307 0.20427194 0.0980888 -0.13605696 0.10914487 0.2977102 -0.2896203 0.086989015 -0.29026678 0.012773716 -0.108470224 -0.15511867 0.074331805 0.07133634 -0.36731878 0.20415914 -0.26381686 -0.007804406 0.049680803 0.034924608 0.12305917 0.17872296 0.00021780988 0.067767754 -0.13667391 -0.147615 0.078288406 0.08653935 -0.24403407 -0.24407105 0.15508357 0.1316528 -0.08307044 -0.07384535 -0.15605642 -0.1507436 -0.017363338
55 0.30436313 -0.0026159268 0.052179314 -0.008326244 0.10195823 -0.18148988 -0.22135666 -0.13561861 -0.25254187 -0.33045137 -0.15001233 -0.14060143 0.10070786 -0.24377164 -0.029999321 -0.0058896095 0.075829275 0.0041731247 -0.0024904127 0.22265661 -0.024633015 -0.031009624 0.09180964 -0.36192656 0.11257728 -0.16343446 -0.2265694 0.15534703 0.52079207 -0.04624604 0.184284 0.059222672 0.09040961 -0.11460061 0.35959113 -0.07627743 0.18104711 0.20063002 -0.008153597 0.06061025 0.021489559 0.1764786 -0.14394006 -0.1537729 0.12692422 -0.22513202 0.17118503 -0.22267771 -0.01786155 -0.13959229 -0.24113859 -0.27410695 0.21691255 0.25469232 0.023297373 0.03251935 0.07495264 0.20175785 0.01473241 0.068990625 0.40246314 0.26486462 0.13452055 -0.29626474 -0.04394619 0.051643446 0.18211317 -0.10692227 -0.027677085 0.110731564 -0.07610639 -0.053275503 0.049571574 -0.43355796 -0.12246505 0.1730957 -0.119419865 0.37931257 0.2748408 -0.120871864 -0.15293948 0.20355125 -0.21559758 0.05518985 -0.05641617 0.118860126 0.035355635 0.1646853 -0.15924063 -0.106882684 -0.08477007 0.07152686 0.23455796 0.122318864 -0.14875475 0.13108304 0.34577608 -0.32107058 0.08701631 -0.31372812 0.008984947 -0.117441945 -0.17027 0.057873774 0.08407074 -0.41709277 0.2446118 -0.3083388 -0.015466784 0.06417725 0.048529316 0.15717366 0.1971358 -0.0049605984 0.07385497 -0.17153507 -0.16940105 0.098940566 0.12679258 -0.2753724 -0.27585232 0.17126201 0.15557893 -0.10467199 -0.083416015 -0.16853377 -0.17032431 -0.019758172
41 0.2043839 -0.02878913 -0.07453797 -0.06992723 -0.02545852 -0.13305584 -0.0114694005 -0.017648356 -0.11959058 -0.049159866 -0.06401462 0.047308516 -0.076396346 0.015650555 -0.088987514 0.28286555 0.15132895 0.041400947 -0.016841458 -0.11384747 0.024966776 0.18438698 0.016780365 -0.19693454 -0.020715533 -0.27926624 0.019775113 0.16360779 0.11029961 -0.09945987 0.21839474 -0.10201915 0.10847083 -0.09424219 -0.05721188 -0.09917692 -0.044449296 -0.045901854 -0.006208941 -0.19161233 -0.061330583 0.23765828 -0.16661873 0.12326242 0.08915343 -0.024890078 0.05973223 -0.008822815 0.047247984 -0.15097526 -0.065551884 0.049000565 0.0003122198 -0.104969 0.13972233 -0.12733157 -0.03133112 0.02249784 0.14933068 -0.026708648 0.18678525 0.03292773 0.06613222 0.15140404 -0.011861699 0.03470919 0.15943149 0.052940894 0.038184725 -0.0020544017 0.1813688 -0.05235156 0.015418109 -0.10784448 -0.039194446 0.141379 -0.08478863 0.026690323 0.06131457 0.052720062 -0.11092322 0.12804192 -0.027268682 -0.14434618 -0.06270962 0.013342963 -0.06304248 0.044598326 -0.06415905 0.043235928 0.074889705 -0.10763824 0.15327653 -0.029205281 -0.04012518 0.09275113 -0.04216913 -0.10610859 0.09957955 -0.12427638 -0.016546989 -0.0015503161 -0.19379711 0.12343822 0.03568424 -0.11107536 0.04606574 0.00014536025 0.03729872 -0.13736542 0.008105193 -0.036714308 0.03836338 -0.063296966 0.10786067 0.092128575 0.0221489 -0.07346164 -0.15934756 -0.16550727 -0.18011743 0.13811362 0.075304136 0.02826065 0.05041048 -0.024672925 -0.18152936 -0.06853649
50 0.22084814 -0.014275742 -0.04108172 -0.048200388 0.0025663092 -0.15721956 -0.06262349 -0.044348285 -0.14472851 -0.14423436 -0.06869533 0.0066615283 -0.029485965 -0.06127484 -0.0840098 0.1901308 0.13131572 0.027006611 -0.019637406 -0.01270113 0.0101315845 0.12674 0.043335885 -0.23901078 0.023307871 -0.2303872 -0.049532983 0.16298643 0.24254264 -0.097697645 0.19961552 -0.048097298 0.103194386 -0.10939299 0.068196274 -0.093100026 0.022407766 0.03575833 -0.0088060945 -0.1352626 -0.036163144 0.2180126 -0.15425977 0.045413457 0.10220951 -0.086137965 0.08653809 -0.07351285 0.019328043 -0.14967595 -0.123084925 -0.050487336 0.07685747 0.017613646 0.10158826 -0.08525352 -0.008003076 0.07827264 0.12999366 -0.006406429 0.25264502 0.09062267 0.07039759 0.018375406 -0.012492166 0.041028515 0.16835757 -0.001197284 0.017829824 0.03417206 0.0964948 -0.041261543 0.020848023 -0.20620431 -0.064169236 0.14540255 -0.10077317 0.1156448 0.11615889 0.008761686 -0.12511392 0.14367674 -0.09238357 -0.098056935 -0.060610868 0.037648715 -0.030063469 0.08287984 -0.08093736 -0.0013589824 0.03160336 -0.0614283 0.1743728 0.013506784 -0.07321022 0.115637615 0.07834465 -0.16980717 0.091078795 -0.17372525 -0.012919028 -0.026282858 -0.17191137 0.104490556 0.052231066 -0.18764135 0.0970698 -0.080840826 0.01942816 -0.0738997 0.03080797 0.027449477 0.07585689 -0.051903978 0.087041266 0.0021214348 -0.039962467 -0.021327384 -0.06723344 -0.19814488 -0.20855041 0.14315812 0.10555731 -0.01735742 0.012538423 -0.060788106 -0.18940213 -0.046146557
47 0.21860056 -0.021737646 -0.056994714 -0.058656655 -0.005396907 -0.14347537 -0.030101003 -0.030217452 -0.13581644 -0.08098633 -0.06337467 0.021948937 -0.05927207 -0.014610937 -0.08990945 0.2464298 0.13911226 0.04125518 -0.020840105 -0.06703677 0.01729646 0.14897604 0.028582716 -0.20651199 -0.0037112655 -0.25756076 -0.008305406 0.15916923 0.15126121 -0.098120205 0.2043296 -0.079634055 0.102436274 -0.10528258 0.0009857186 -0.09753486 -0.021095028 -0.008342072 -0.00933129 -0.1715148 -0.05729094 0.22251248 -0.16176464 0.09267734 0.088356875 -0.050330885 0.06664439 -0.036446746 0.038123544 -0.14685033 -0.08601088 0.011147158 0.021743208 -0.06463474 0.13647124 -0.10692386 -0.019023817 0.05105746 0.14059626 -0.016642205 0.21215978 0.06273943 0.07426599 0.0952621 -0.01098358 0.034320857 0.16881719 0.03817564 0.022777343 0.0032798434 0.15007979 -0.04700648 0.018527042 -0.15225483 -0.046572477 0.14011563 -0.09683977 0.069454506 0.095102996 0.033548646 -0.118053116 0.13451025 -0.04926928 -0.12878276 -0.06015711 0.023745934 -0.05351536 0.061477076 -0.07608699 0.027859429 0.051938377 -0.09037888 0.16256717 -0.006812755 -0.05345739 0.099747434 0.006921732 -0.13303861 0.09873666 -0.1570194 -0.014213707 -0.021969676 -0.19356096 0.1288642 0.039461352 -0.15146732 0.065877244 -0.034096148 0.033899896 -0.117783606 0.017433485 -0.014723817 0.062404826 -0.043099653 0.10583471 0.061343726 -0.0019616378 -0.048312526 -0.13139683 -0.18714847 -0.18892352 0.14640322 0.07852382 0.0016542048 0.027945222 -0.044831924 -0.18537809 -0.059421826
76 0.19487925 -0.023322832 -0.069732964 -0.061926432 -0.024751963 -0.14357802 -0.014587594 -0.007633958 -0.10994323 -0.09087991 -0.046686504 0.05492649 -0.07078443 -0.008333559 -0.09671355 0.25497586 0.14633092 0.032817416 -0.025571482 -0.089489184 0.014752888 0.1704213 0.025664752 -0.19214949 -0.0033447156 -0.24827631 0.012354141 0.16717139 0.1473662 -0.11158063 0.20263028 -0.08205964 0.11042706 -0.11631175 -0.0092529105 -0.10611481 -0.027731331 -0.008701643 -0.0036452855 -0.18899864 -0.044196807 0.24629694 -0.1665741 0.10718789 0.09524652 -0.047483563 0.059474975 -0.025374481 0.02007561 -0.15211728 -0.09294248 0.010783747 0.04005392 -0.06379896 0.13467613 -0.13191943 -0.02246301 0.05197166 0.1677567 -0.025231909 0.22442079 0.04024897 0.05509217 0.11727698 -0.013682827 0.03508356 0.1603941 0.03264309 0.034938652 0.0035023969 0.14347115 -0.04530166 0.015605087 -0.13510437 -0.053167205 0.14365104 -0.09056982 0.045167774 0.07175516 0.040553648 -0.12283345 0.11774867 -0.064239055 -0.14990602 -0.060121164 0.026744967 -0.049971957 0.06310866 -0.06038847 0.034542415 0.053097293 -0.09017899 0.17000823 -0.020389387 -0.056968 0.112917185 -0.015711533 -0.12750803 0.08983422 -0.12126716 -0.021717591 0.0111724725 -0.17751344 0.12580927 0.034555417 -0.119846776 0.04717909 -0.012241027 0.030469619 -0.13496928 0.02657991 -0.020240521 0.043652415 -0.07537798 0.09458562 0.050769813 0.010460741 -0.06933308 -0.12574339 -0.18100376 -0.19323191 0.12327244 0.08680241 0.013081396 0.04737198 -0.028492462 -0.18919115 -0.04963137
52 0.19762242 -0.024231063 -0.04569485 -0.062235683 -0.021764982 -0.13793021 -0.029787838 -0.02639289 -0.12247468 -0.08467729 -0.05677509 0.030735096 -0.067803234 -0.014341306 -0.0858984 0.23352718 0.13936865 0.048115976 -0.019770863 -0.06946711 0.015954852 0.15390806 0.030517234 -0.18559696 -0.0014867414 -0.24123222 -0.007132943 0.15198295 0.15336184 -0.10263867 0.19650123 -0.07076683 0.11143319 -0.10374808 -0.0015415451 -0.0940005 -0.019901523 -0.0028208478 -0.014203713 -0.17604595 -0.045605037 0.22512141 -0.15001181 0.0945867 0.084903635 -0.03903355 0.065004736 -0.020420406 0.017753778 -0.13908178 -0.08599316 0.008977998 0.0368544 -0.060028642 0.13097748 -0.11576252 -0.026011614 0.049177248 0.14827666 -0.0144770695 0.20448303 0.060253423 0.053581208 0.08920519 -0.011962274 0.03783132 0.15248156 0.024476042 0.021070419 0.010875808 0.13009462 -0.0367169 0.0028549733 -0.1476266 -0.05402998 0.13627626 -0.077747405 0.058472626 0.0825251 0.033622712 -0.123105116 0.12340366 -0.057275053 -0.13332185 -0.0658942 0.02004939 -0.049343493 0.062339347 -0.06792217 0.03169474 0.04188375 -0.077756464 0.16552243 -0.00695148 -0.06278711 0.0990964 0.02675886 -0.13633946 0.09030607 -0.14894994 -0.013415631 -0.010972698 -0.16914938 0.11459217 0.03054399 -0.13190736 0.057504505 -0.04466146 0.019314462 -0.102928795 0.024034856 -0.007908835 0.064884275 -0.053177647 0.083761916 0.04376961 -0.0071199266 -0.056112647 -0.122893125 -0.16846967 -0.18706769 0.13239034 0.08131114 0.004696931 0.03362842 -0.05135497 -0.18213698 -0.047113493
107 0.21048498 -0.056660395 -0.00413002 -0.08039057 -0.024367254 -0.09857981 -0.029998157 -0.03576716 -0.13314945 -0.033806738 -0.04518615 0.022088004 -0.099333465 0.02042133 -0.070525855 0.29813418 0.1458382 0.07565027 -0.029384417 -0.08806313 -0.0018777342 0.1561181 0.012570037 -0.1611496 0.013278409 -0.27288023 0.018866502 0.12975484 0.09941289 -0.052601814 0.2275855 -0.07705969 0.13938706 -0.12747143 -0.06420866 -0.09447274 -0.036258947 -0.026105141 -0.011030037 -0.17551264 -0.028652564 0.23952296 -0.15765108 0.13433596 0.0631533 -0.03924967 0.056335572 0.016425796 0.050583474 -0.14864211 -0.063960284 0.025943326 0.015731586 -0.12422126 0.19680198 -0.17254712 -0.024119074 0.06087685 0.1586828 -0.0051715598 0.22336106 0.08485379 0.07285201 0.14572774 -0.011780244 0.037137907 0.15322663 0.04739931 0.024981508 0.0025524737 0.17133662 -0.01985237 -0.0142880725 -0.16178268 -0.08223756 0.15009658 -0.02942823 0.0852339 0.09580797 0.037656493 -0.10048877 0.13004464 -0.063816816 -0.16863866 -0.10364286 -0.0031971564 -0.07617597 0.095034644 -0.0796196 0.052814383 0.008563192 -0.07352121 0.17728303 -0.045749683 -0.06541911 0.094457455 -0.010732674 -0.16357465 0.13595095 -0.16643184 0.011818699 -0.015381406 -0.18787228 0.15233621 0.007172727 -0.11476111 0.038171507 -0.04542529 0.0032042183 -0.14690608 0.036553614 -0.04511303 0.08059492 -0.06270399 0.10291185 0.05267234 -0.0124785835 -0.07097369 -0.15195018 -0.16834527 -0.17774531 0.12988436 0.05481655 0.040833037 0.026280787 -0.0674752 -0.17270343 -0.056620806
57 0.21578082 -0.030569976 -0.031371202 -0.05959069 -0.0006151548 -0.1378431 -0.04897695 -0.04165183 -0.13960436 -0.093158476 -0.06547651 0.0059334966 -0.05211794 -0.019191183 -0.07987993 0.22973078 0.1277953 0.04493212 -0.019712612 -0.045166176 0.014231358 0.13419881 0.024913423 -0.20087908 0.010287213 -0.24972911 -0.023947475 0.14946118 0.16852377 -0.08048588 0.2105208 -0.06486623 0.10855237 -0.102986254 0.014375142 -0.08674911 -0.0033318053 0.00598609 -0.019425182 -0.14326657 -0.036069166 0.22089791 -0.15017132 0.08413762 0.08576257 -0.0530413 0.0765083 -0.03298642 0.026153622 -0.13478427 -0.09190186 -0.01467086 0.038530827 -0.042396404 0.12996607 -0.101164095 -0.01629472 0.065756656 0.12955329 0.003178038 0.21867096 0.08329517 0.07466783 0.0670685 -0.018093947 0.034631304 0.15788355 0.019218802 0.022314783 0.015328562 0.12983237 -0.039096735 0.015698457 -0.17501691 -0.063067995 0.13320963 -0.07225624 0.09556071 0.10514231 0.02517068 -0.10719474 0.13389519 -0.067337774 -0.12281384 -0.06646418 0.018651731 -0.051798005 0.079153165 -0.08387083 0.019756243 0.029852439 -0.07265194 0.16438557 0.0013791007 -0.061029613 0.09534556 0.04090448 -0.14956492 0.09814919 -0.16371958 -0.009081499 -0.029387057 -0.18846701 0.12500256 0.031898294 -0.16587722 0.071968466 -0.062164646 0.0256954 -0.10635899 0.018040586 -0.0016507388 0.07433986 -0.046868704 0.10291272 0.03840378 -0.017678063 -0.03655309 -0.10888653 -0.183187 -0.19001588 0.13997948 0.08375808 0.00083334267 0.021335192 -0.05666127 -0.17578936 -0.053226553
61 0.2216098 -0.0873665 0.013235377 -0.08019889 -0.033030827 -0.07391697 0.022421397 -0.038082097 -0.14645086 0.061370905 -0.04982077 -0.0075723957 -0.11786678 0.11285243 -0.049978673 0.3491316 0.15612106 0.13094558 -0.025254013 -0.1487497 0.021619963 0.19215311 -0.0059735677 -0.118167646 -0.040622193 -0.30871135 0.06844782 0.109627254 -0.03787638 -0.062751226 0.25050667 -0.079316676 0.16554113 -0.101541646 -0.100552514 -0.081644446 -0.06087961 -0.05627317 -0.029894274 -0.19407515 -0.052113947 0.22902057 -0.1967676 0.19891539 0.06566064 0.0017092493 0.055779696 0.060460642 0.08725782 -0.11692634 -0.014135479 0.09280148 -0.06373608 -0.21134461 0.23676787 -0.16154693 -0.016230535 0.044474013 0.17158055 0.025587495 0.1994378 0.092381805 0.077478975 0.18100402 -0.01958257 0.039474722 0.16452959 0.10359509 0.02682112 -0.007673527 0.25143233 -0.021890696 -0.059282694 -0.12675484 -0.054314125 0.11460067 -0.017914962 0.0132604465 0.07879364 0.101095855 -0.08371772 0.14070247 -0.015578369 -0.19191708 -0.13676187 -0.043486543 -0.10260446 0.058159072 -0.11974595 0.104503684 0.03493937 -0.12988682 0.15786262 -0.05527037 -0.06821042 0.044630874 -0.06020907 -0.15295258 0.14593871 -0.20693304 0.012995106 -0.053754833 -0.24149592 0.22093317 -0.006532933 -0.09666413 0.028322294 -0.021205222 0.048981704 -0.1684423 -0.0075117466 -0.067188114 0.12251388 -0.01624132 0.12941597 0.14617461 0.021836331 -0.08190097 -0.24887957 -0.16377066 -0.17043893 0.19633521 0.016058397 0.05596454 0.029652968 -0.09765265 -0.16320044 -0.085009106
21 0.2604369 -0.14716709 0.088949576 -0.14732033 -0.021997195 0.0022930878 -0.012171932 -0.041643437 -0.2197888 0.12009424 -0.121942215 -0.07098505 -0.15890981 0.12259669 -0.014490476 0.3968553 0.084577456 0.1878574 -0.049395047 -0.13373983 -0.015464734 0.16447751 -0.014792289 -0.074408844 0.001703918 -0.32795134 0.04061135 0.04926604 -0.08122866 0.006789996 0.28861213 -0.042653672 0.1384722 -0.12379642 -0.13674547 -0.03451808 -0.058341794 -0.04535367 -0.02248642 -0.15906043 -0.05270133 0.23559438 -0.17787224 0.23504937 0.0058994913 0.05623605 0.0389342 0.10406884 0.10956131 -0.1071814 0.008734262 0.10839211 -0.107780196 -0.28266078 0.2922889 -0.18339303 -0.035602953 0.020895796 0.09603342 0.048753615 0.20066985 0.14248481 0.12720941 0.23827466 -0.026198518 0.046319995 0.11067225 0.12136737 0.035682417 -0.047874797 0.24729548 -0.017114082 -0.058491424 -0.13580838 -0.07749502 0.13632675 0.10273562 0.07568027 0.15280811 0.08057079 -0.054245707 0.10903877 -0.011212563 -0.2124371 -0.16131252 -0.038215943 -0.121723816 0.122121334 -0.1363687 0.10607557 -0.048115835 -0.047234956 0.15865049 -0.05784736 -0.05898566 0.019174367 -0.052368242 -0.1753847 0.18672173 -0.25232756 0.0508383 -0.074761465 -0.24166316 0.24593328 -0.059149336 -0.14079313 3.9876206e-05 -0.09378649 0.0002054757 -0.17053522 -0.015499536 -0.13840938 0.17204139 0.035579596 0.10211212 0.13044088 0.011581673 -0.10302633 -0.25467303 -0.13390511 -0.12294503 0.1573964 -0.03480638 0.1300314 0.022775354 -0.13543208 -0.108592734 -0.088273905
27 0.19808403 -0.03985092 -0.026605949 -0.06656851 -0.022851078 -0.1244848 -0.027765563 -0.024928382 -0.123709835 -0.061095897 -0.04074134 0.0359598 -0.075271815 0.00273578 -0.0844748 0.26198077 0.14458843 0.04870268 -0.02362064 -0.0767043 0.0026974336 0.14738844 0.021898646 -0.17070238 0.0019615267 -0.2508474 0.011162801 0.1444001 0.12008554 -0.07705783 0.20244174 -0.07567581 0.12042346 -0.11197209 -0.03549002 -0.09333627 -0.028083593 -0.017779477 -0.007353125 -0.1730415 -0.032191664 0.22142489 -0.14747135 0.110572055 0.08143093 -0.044755064 0.05208922 -0.0041432614 0.03492293 -0.14039369 -0.07259901 0.013611478 0.031018244 -0.08539838 0.15483336 -0.14549008 -0.02352691 0.052048016 0.15471569 -0.011167328 0.21452567 0.05781003 0.056376487 0.115218826 -0.008010954 0.038696866 0.14665234 0.027294002 0.024534917 0.005707131 0.14724451 -0.03004315 -3.9434773e-05 -0.14684254 -0.0651086 0.13952316 -0.062394105 0.06885256 0.08115809 0.03783096 -0.10721807 0.11777712 -0.063731305 -0.14640905 -0.078002594 0.0046925424 -0.065541305 0.08059169 -0.06730735 0.03777497 0.032805465 -0.07863667 0.16195603 -0.024765667 -0.059196245 0.09060048 -0.0071394667 -0.13540602 0.10688154 -0.14058663 0.0010328488 -0.00027574686 -0.17502725 0.1323918 0.024015313 -0.113570824 0.045763843 -0.032302134 0.013003599 -0.1297797 0.035365995 -0.03040644 0.062804066 -0.067954294 0.101459734 0.050856773 -0.009546565 -0.060540948 -0.13240357 -0.1615267 -0.18100125 0.12160189 0.066851474 0.017661402 0.032134824 -0.05422007 -0.17108148 -0.045037773
127 0.2459444 0.004097579 -0.124173954 -0.05952073 -0.0079522105 -0.1860537 -0.022975558 -0.022861408 -0.12098594 -0.08433585 -0.10156656 0.046787858 -0.06740214 -0.007880223 -0.10393725 0.2918019 0.17962041 0.0064552114 -0.011606949 -0.10738535 0.04274026 0.20057034 0.01939693 -0.27978063 -0.039002966 -0.3080421 0.00074252003 0.20671724 0.16735886 -0.122701354 0.2403054 -0.13091081 0.09171924 -0.08178007 -0.04444027 -0.11360339 -0.052152056 -0.057438117 -0.008985825 -0.19203952 -0.096341655 0.24121962 -0.18685299 0.10487378 0.11818852 -0.03148427 0.07206064 -0.038611762 0.056657467 -0.1811514 -0.07209512 0.043529827 0.0011594831 -0.0669686 0.10526514 -0.10607765 -0.025396952 0.005425579 0.14335163 -0.05452837 0.19119847 0.013157368 0.08387269 0.13523296 -0.0063631544 0.026414167 0.18244888 0.05740421 0.04007727 -0.0037112287 0.1984124 -0.08146676 0.062435582 -0.101641715 -0.007680754 0.15999086 -0.13767518 0.019657087 0.058091074 0.041230824 -0.12206839 0.15237865 -0.014253169 -0.115779705 -0.03732224 0.029445902 -0.06718648 0.022527868 -0.071993105 0.020457191 0.12124718 -0.12393484 0.14380924 -0.023016468 -0.008985728 0.10458186 -0.039252024 -0.09642177 0.10713889 -0.12699258 -0.027712638 -0.015156184 -0.21495892 0.09631847 0.062695384 -0.15957478 0.07714793 -0.00076930143 0.06692662 -0.12973726 -0.0066287452 -0.023857081 0.017840797 -0.057957668 0.13756901 0.11596769 0.026231874 -0.050370846 -0.15567395 -0.2105385 -0.2070633 0.14465937 0.09926239 0.009092067 0.044063102 0.0034878172 -0.19573237 -0.08867658
124 0.18507971 -0.028192373 -0.04486331 -0.05320919 -0.021774117 -0.14138931 -0.019974483 -0.020231253 -0.124120325 -0.082874686 -0.04401351 0.036516108 -0.0662192 -0.02106051 -0.08595435 0.23323755 0.13318779 0.04901265 -0.020699352 -0.06017451 0.01120692 0.15804254 0.035447937 -0.18545698 -0.002281777 -0.24400312 -0.009451286 0.15584038 0.15048234 -0.10610882 0.19540294 -0.060900174 0.1085938 -0.11131655 0.003786361 -0.087711126 -0.012111634 -7.246755e-05 -0.013898848 -0.17710698 -0.03781455 0.23014234 -0.15563999 0.09759439 0.081466205 -0.04367124 0.06471844 -0.025192643 0.01292376 -0.1403334 -0.09575457 -0.00034015987 0.048840772 -0.055902917 0.13861245 -0.12240075 -0.032828867 0.06018109 0.15724622 -0.004189727 0.2125747 0.06667848 0.061576083 0.08772671 -0.011819704 0.037928388 0.15762584 0.026185801 0.018625591 0.009220305 0.1297248 -0.03549499 -0.005823518 -0.15563133 -0.06380573 0.13688676 -0.08280377 0.056482818 0.0915579 0.044248972 -0.12966774 0.1276102 -0.06512961 -0.14283995 -0.072691806 0.01793457 -0.037820145 0.066730216 -0.06528658 0.027162788 0.03909619 -0.07561186 0.1776228 -0.0015049938 -0.069983296 0.105279975 0.021780647 -0.134847 0.08658677 -0.13885045 -0.009568804 -0.0011287889 -0.16686116 0.12445746 0.032885276 -0.13117167 0.05640139 -0.028269343 0.022164349 -0.11364878 0.026587695 -0.00993689 0.05764509 -0.057811063 0.0848635 0.04920303 -0.00021479883 -0.06235753 -0.11914873 -0.17442583 -0.1833752 0.13582726 0.08588863 0.0093477545 0.04084703 -0.048215613 -0.19143583 -0.045964547
97 0.20586708 -0.026069771 -0.052381396 -0.06500263 -0.017361298 -0.1343824 -0.02619204 -0.025163794 -0.11835643 -0.07768448 -0.050796196 0.028093247 -0.06325461 -0.013131052 -0.08724203 0.25244662 0.1430013 0.045735415 -0.021398084 -0.064938106 0.012047813 0.15354475 0.02742275 -0.19244333 6.3838306e-05 -0.24794868 -0.005213172 0.15769915 0.14796957 -0.10002993 0.19893272 -0.080687106 0.11436685 -0.11025446 -0.009967886 -0.093803704 -0.016476864 -0.008907521 -0.014918055 -0.1730172 -0.041785087 0.21722329 -0.15048733 0.10043417 0.087752596 -0.046851322 0.061380647 -0.02349054 0.026520737 -0.14136511 -0.082926385 0.011113641 0.030133473 -0.05919869 0.13241689 -0.12115841 -0.025817217 0.05362954 0.15515411 -0.012106113 0.21738254 0.062324796 0.060266867 0.093909234 -0.012043821 0.03692557 0.15948293 0.03334799 0.027930949 0.004784378 0.13842687 -0.039440535 0.0056235297 -0.14852208 -0.059058737 0.13820553 -0.083418995 0.06076761 0.08575614 0.035599537 -0.115835056 0.13232104 -0.060671218 -0.14123309 -0.07180434 0.01775507 -0.050508272 0.06524837 -0.0740439 0.026045129 0.040164623 -0.08794004 0.16012539 -0.018322187 -0.054602742 0.09801084 0.002174555 -0.13527967 0.092124894 -0.13634588 -0.014589517 -0.0041130027 -0.1747142 0.11594232 0.03083337 -0.13146651 0.061648834 -0.032993197 0.024858447 -0.11672809 0.029043954 -0.013122768 0.05808801 -0.05199961 0.09383547 0.05297765 -0.001191636 -0.055528793 -0.12315647 -0.1695629 -0.18277349 0.1234528 0.08125231 0.0065733856 0.032170106 -0.03939813 -0.17762296 -0.051885717
