84 128
0 -0.05004272 -0.12425028 0.04385555 -0.068570316 -0.061118633 0.05255265 -0.048555322 0.04440157 -0.1461793 0.012085088 -0.18046533 -0.034021623 0.14343049 -0.097474195 -0.15313578 0.007329843 0.035480104 -0.15002018 -0.102167316 0.1275956 -0.032087505 0.13525353 0.05400844 -0.045031004 -0.21161638 0.026884053 0.031667758 -0.027960531 -0.08962819 -0.02740685 -0.061639022 -0.017684303 -0.09412947 0.17458557 0.101589136 0.02730315 -0.14859238 -0.018814528 -0.03612896 -0.07780311 -0.030978907 0.1892108 -0.11617377 -0.026414791 -0.05477699 0.23944059 -0.059823316 -0.020635456 0.13321798 0.13079669 0.034016944 -0.07280624 -0.088302195 -0.04992609 0.04657724 -0.062431376 -0.090262435 -0.055691328 -0.02210024 0.18822663 -0.041869514 0.0734666 0.11200613 -0.06777102 -0.058626227 -0.03128205 -0.12197887 0.076831914 -0.03407766 0.07479713 -0.065852985 -0.032694783 0.060312506 0.06723808 -0.059151247 -0.095717765 -0.016431635 -0.029206036 0.2023467 0.06484529 0.11979908 0.046401236 0.046301853 0.059820913 0.047040675 0.023358563 0.050223015 0.04743109 -0.081269525 0.024905672 -0.015444129 0.0030062762 0.03251239 0.053565238 0.12874562 -0.1847277 -0.1008826 -0.12269616 0.028937545 0.036362834 -0.006885667 0.01519464 -0.061303835 0.020435393 0.24263094 0.18605815 -0.09925301 0.02924193 0.092117645 -0.03824685 0.12890485 0.102335565 0.1407199 0.117184095 0.070178635 0.0054138573 -0.02969309 -0.19027045 -0.09388209 -0.00844522 -0.048735984 0.062475417 0.03610407 -0.020194137 -0.204652 0.010042603 -0.0029689518 0.052015062
8 -0.05008901 -0.11100691 0.08509374 -0.23714368 -0.013130522 0.07709585 0.009567476 0.1335873 -0.13143386 0.01557376 -0.12447891 -0.090350464 0.11108005 -0.0572438 -0.2296123 -0.057662494 0.088987395 -0.039223332 -0.07256509 0.25586784 -0.0676425 0.18071024 0.043812525 -0.09586809 -0.17607538 -0.08303193 -0.0814687 -0.10225801 -0.18928191 0.00394124 -0.007376713 -0.015616373 -0.1866023 0.14648736 0.14482345 0.14238307 -0.15115139 0.064651296 0.009003759 -0.04246295 0.10277118 0.16043548 -0.15317754 0.024741625 -0.1010925 0.053802248 -0.10635918 -0.017108897 0.09777986 0.09024409 -0.05576511 -0.056376416 -0.11349877 0.019972801 0.09842556 0.03606357 -0.0168004 0.020421952 -0.007968453 0.10707074 -0.122806005 0.024632538 0.02089513 0.073370226 -0.050529584 -0.063121 -0.039190102 0.023338506 -0.063315056 0.11855464 0.032928344 -0.122877486 0.15616414 0.056036346 -0.025496488 -0.06799625 0.039694782 -0.018272579 0.2954538 -0.038863946 0.122611254 0.14927831 0.26418644 0.1071968 0.18006077 -0.067697026 -0.01921415 0.05039445 -0.10633488 -0.08567172 -0.19294281 -0.115335524 0.052617185 0.110887975 0.124426335 -0.21732375 -0.12624234 -0.20021534 0.0969842 0.08774297 -0.13256632 0.07500152 -0.11937998 0.031893246 0.26551548 0.32847336 -0.15423204 0.013116346 0.09324343 -0.13096936 0.256699 0.17610872 0.24000423 0.14711241 0.14953162 -0.019057404 -0.04316063 -0.1608057 -0.106695905 -0.09134798 -0.07709079 0.11244033 0.085283116 -0.030057972 -0.23361048 -0.11886071 -0.06958808 0.11414408
12 -0.064998336 -0.12037883 0.043677922 -0.106004395 -0.042574108 0.07034965 -0.033640437 0.107364014 -0.1531451 -0.006803169 -0.1837072 -0.059343565 0.14683183 -0.07607378 -0.18963149 0.002265863 0.060155272 -0.12230903 -0.08003357 0.1912069 -0.027470376 0.17328623 0.07148602 -0.08763062 -0.20794249 -0.016221788 -0.020163167 -0.050738566 -0.12094347 -0.01470927 -0.03419716 -0.014159096 -0.12461323 0.12702197 0.11368472 0.066998854 -0.11403884 0.01140872 0.014251855 -0.05665415 -0.015318584 0.17878912 -0.10395792 -0.025930483 -0.06844352 0.1936063 -0.09974135 -0.021124952 0.09291091 0.11375507 0.0144276675 -0.04883007 -0.078464076 0.0019455946 0.06791975 -0.027995018 -0.04375989 -0.0146203935 -0.051194783 0.16442227 -0.058699142 0.06554929 0.06885814 -0.026997674 -0.038929667 -0.054612435 -0.071101084 0.06878763 -0.044722117 0.06792143 -0.04136472 -0.07016622 0.09024732 0.08620126 -0.03732226 -0.10911047 -0.008813592 -0.028045014 0.20998557 0.043016672 0.11014175 0.07377537 0.13645557 0.08377722 0.07261739 -0.023320632 0.04122647 0.018399503 -0.08779174 0.02162952 -0.061766233 -0.03851793 0.039294105 0.09562415 0.10461646 -0.2142924 -0.0870968 -0.15615597 0.052999888 0.06958365 -0.025820786 -0.008650927 -0.06527143 0.023349822 0.26239932 0.22308195 -0.08928659 0.016500572 0.10258231 -0.03994185 0.16691405 0.14600313 0.19233057 0.1709717 0.078581385 -0.012939432 -0.018626267 -0.19067158 -0.10687514 -0.04892271 -0.09136188 0.08087646 0.02910139 -0.0072302655 -0.2149833 -0.01306709 -0.016257571 0.06903649
11 -0.052621093 -0.11429773 0.051681593 -0.10868066 -0.04092845 0.06580109 -0.027863871 0.09350688 -0.14537083 0.0048252447 -0.16652712 -0.043798495 0.12247644 -0.07503551 -0.18117581 -0.0033477605 0.059810482 -0.11043076 -0.08407795 0.17865936 -0.031879928 0.16246003 0.06013505 -0.07938841 -0.1950943 -0.004413947 -0.0105232755 -0.05342899 -0.10937775 -0.020954132 -0.04005735 -0.005907843 -0.12436342 0.15335111 0.11064487 0.06696023 -0.1481189 0.007619684 -0.00243465 -0.071695045 -0.0014360256 0.19131729 -0.12761547 -0.018305525 -0.075819656 0.2006068 -0.091887325 -0.01892815 0.11852066 0.12630785 0.008172559 -0.06696404 -0.08848379 -0.008456975 0.07398816 -0.02855455 -0.050173234 -0.024702156 -0.03019305 0.16507582 -0.06702683 0.062346544 0.06968756 -0.022951398 -0.044430025 -0.059390586 -0.090206265 0.06577533 -0.060908485 0.08823497 -0.045119844 -0.073263176 0.09909268 0.07420774 -0.049545866 -0.09271049 -0.0011649799 -0.029076932 0.23298308 0.038560666 0.113777064 0.08352582 0.13885969 0.07577976 0.08380978 -0.010161191 0.03137533 0.033276837 -0.092149734 0.008148891 -0.06721245 -0.034008395 0.045585517 0.08749365 0.11681258 -0.21146423 -0.10090055 -0.15347846 0.056559827 0.06550304 -0.030129557 0.014825352 -0.06833922 0.01627 0.25299087 0.2291343 -0.10186557 0.019264305 0.092642635 -0.05322355 0.17105179 0.13751636 0.1888057 0.14839816 0.08565912 -0.018485295 -0.019706547 -0.18422948 -0.11516354 -0.03982143 -0.07472273 0.08044923 0.04716207 -0.01664222 -0.2146642 -0.023297716 -0.030417785 0.07004425
1 -0.034334358 -0.12404461 0.042529732 -0.09825901 -0.054842863 0.059659082 -0.02791781 0.051231526 -0.14813876 0.011550594 -0.16473386 -0.041187804 0.12993209 -0.08502853 -0.16327204 -0.006259142 0.04227915 -0.12901263 -0.09681263 0.13732053 -0.026834296 0.12426856 0.05405906 -0.05542426 -0.19453545 0.013153298 0.0125682885 -0.034104094 -0.09221321 -0.023321284 -0.04822252 -0.01965973 -0.10952715 0.17906968 0.10991498 0.043048292 -0.16581677 -0.008962254 -0.03466357 -0.07428291 -0.009883818 0.19357681 -0.13565485 -0.020260189 -0.059444405 0.22615436 -0.06819193 -0.024110071 0.14451724 0.13323058 0.027015388 -0.06818595 -0.09631604 -0.04532241 0.056831155 -0.043322306 -0.07386599 -0.048686724 -0.018544247 0.18634118 -0.0609545 0.07391549 0.11332881 -0.05678365 -0.06550213 -0.03955316 -0.12174191 0.06872738 -0.043877408 0.08997427 -0.054501873 -0.05601069 0.07534071 0.06022578 -0.05834838 -0.104838125 -0.011666188 -0.02387658 0.2321286 0.065845646 0.12544018 0.06592261 0.071093336 0.07724401 0.07098207 0.011566085 0.03540639 0.044206068 -0.09916302 0.0072439746 -0.04075567 -0.022174215 0.036219038 0.05861384 0.13326055 -0.19063056 -0.113315515 -0.13675138 0.033211857 0.050133962 -0.024602456 0.026430368 -0.07680854 0.028158944 0.25216243 0.22712384 -0.114772074 0.017464468 0.10165011 -0.052320972 0.16347505 0.1197438 0.16411045 0.1337173 0.085792184 0.0033850048 -0.02299075 -0.19895697 -0.10771982 -0.03119566 -0.058009833 0.07334748 0.049335167 -0.025468728 -0.22647025 -0.01588698 -0.025176298 0.068676986
17 -0.063454725 -0.11152873 0.07570271 -0.16190244 -0.014195737 0.08524638 -0.02169065 0.0734016 -0.1574754 0.027671248 -0.17611432 -0.06809037 0.12966692 -0.08322623 -0.21036069 -0.039074946 0.062269446 -0.11691416 -0.10591953 0.22734275 -0.042484894 0.1876445 0.02848236 -0.07934582 -0.20276812 -0.033875734 0.0059022573 -0.074777886 -0.12776817 -0.022164611 -0.0397863 -0.001453199 -0.13672836 0.18257718 0.11768214 0.10727669 -0.15655647 0.04162316 -0.0019653784 -0.08292077 0.045011822 0.18038449 -0.13589238 0.012351469 -0.072229385 0.14510664 -0.07790681 -0.0114247175 0.12754224 0.10999928 -0.00436077 -0.087750055 -0.11429233 0.0007477936 0.08998765 -0.03690006 -0.030243212 -0.027811673 0.012962989 0.14920121 -0.06741505 0.04329265 0.03431917 0.003024882 -0.050626524 -0.07281681 -0.11786212 0.036107823 -0.08051058 0.10450028 -0.021967782 -0.098575905 0.1314587 0.051920786 -0.052706316 -0.053909894 0.02113346 -0.033215456 0.25710523 0.026586344 0.10602305 0.10852108 0.14908119 0.067783825 0.121802144 0.008056934 0.0024156554 0.05759014 -0.0797975 -0.025361627 -0.0873476 -0.067986675 0.058929086 0.068787016 0.13262628 -0.188639 -0.117787 -0.17791747 0.090047985 0.06879268 -0.06714124 0.086575046 -0.078543894 0.021625951 0.25779805 0.2544766 -0.115562126 0.031892803 0.07950796 -0.106069244 0.20048204 0.120846435 0.1777411 0.087487616 0.10069197 -0.0014647596 -0.026140686 -0.16628075 -0.09357691 -0.04590335 -0.059232146 0.07193238 0.09040752 -0.016048938 -0.18857552 -0.07140335 -0.055444837 0.07733365
9 -0.025716858 -0.121286936 0.028996 -0.07676942 -0.047410063 0.071341515 -0.041445322 0.061482836 -0.15175565 0.01723106 -0.17546725 -0.058648854 0.15139244 -0.09538943 -0.14907394 0.005324371 0.036143128 -0.16608873 -0.09580008 0.15045568 -0.023843424 0.14528349 0.055335246 -0.060466867 -0.18903834 0.024259573 0.0055746264 -0.024666296 -0.08585302 -0.03798955 -0.06934358 -0.016010836 -0.09483989 0.16975428 0.10982138 0.05340964 -0.15074041 -0.00823735 -0.026320463 -0.10493721 -0.042705245 0.21863188 -0.1222752 -0.0019132516 -0.06518993 0.25567394 -0.07262798 -0.019444484 0.14611538 0.15908228 0.03252038 -0.079567924 -0.09967442 -0.020424712 0.060321182 -0.06686975 -0.07811993 -0.060248494 -0.056000646 0.19927663 -0.049504966 0.08794002 0.12707153 -0.085816965 -0.045429252 -0.036864486 -0.14329784 0.10814104 -0.03743195 0.08950946 -0.075285256 -0.0761247 0.08150713 0.06569681 -0.07031444 -0.11678223 -0.03891152 -0.01289864 0.22263728 0.08962541 0.10611325 0.05623255 0.047020413 0.049576234 0.04492251 -0.0041478374 0.04770927 0.056067433 -0.07150347 0.009030329 -0.027228123 -0.015933912 0.023735387 0.05224556 0.12838957 -0.20452113 -0.082628414 -0.113629736 0.025633823 0.037321877 0.015186546 0.019033346 -0.047591496 0.009370457 0.24399363 0.1787895 -0.072540656 0.024556309 0.103275694 -0.07246271 0.16963574 0.10495758 0.13083671 0.11704525 0.07851079 -0.010016787 0.00103277 -0.17844999 -0.11165544 -0.037339725 -0.048311494 0.048537217 0.025025824 -0.037520725 -0.17303513 -0.0011218571 -0.012061737 0.035679255
3 -0.03126809 -0.13226077 0.056575973 -0.13931271 -0.023422584 0.07962269 -0.020474646 0.105259635 -0.15587497 0.021758663 -0.15710624 -0.06427182 0.13221158 -0.063013725 -0.18487509 -0.013156301 0.062261917 -0.119747825 -0.069068514 0.19251537 -0.029133063 0.16925088 0.045525737 -0.07740485 -0.17428517 0.0006513229 -0.024265373 -0.054551132 -0.11011261 -0.024150249 -0.05139045 -0.009721859 -0.142779 0.17274784 0.12420488 0.09960446 -0.15884376 0.024061859 -0.0037806786 -0.089725696 0.013185115 0.20606145 -0.13749954 0.0052620303 -0.08679802 0.1923019 -0.08263614 -0.0065048984 0.13267943 0.13798319 0.0094109215 -0.09765276 -0.12709959 0.006367077 0.09331419 -0.027889792 -0.033104245 -0.012091037 -0.031147873 0.1691508 -0.08707488 0.0646576 0.086633235 -0.031053284 -0.055006713 -0.07861887 -0.11099983 0.07678517 -0.07704085 0.12178491 -0.051831122 -0.11240554 0.122466885 0.053704664 -0.062386576 -0.07721084 -0.0023087107 -0.014526916 0.24415916 0.032629624 0.103590004 0.106547356 0.14331658 0.05209883 0.095051505 -0.005246178 0.023367407 0.05261467 -0.09984865 -0.03387062 -0.08100116 -0.060204823 0.04389 0.072279185 0.13408883 -0.19663715 -0.102852456 -0.14979719 0.06370684 0.063734934 -0.024175828 0.062562905 -0.051691357 0.020989286 0.23674431 0.21890637 -0.10357015 0.013219098 0.09788288 -0.104222454 0.19598086 0.12975845 0.17762314 0.1028762 0.08433595 -0.01538263 0.0056057163 -0.16498424 -0.11831324 -0.04111068 -0.055323042 0.063798286 0.07132199 -0.039102104 -0.17128319 -0.06508433 -0.051749323 0.06735757
92 -0.049885653 -0.1020383 0.070873566 -0.111085534 -0.037303787 0.047257476 -0.029396052 0.04523758 -0.13504784 0.023986368 -0.15196903 -0.029862301 0.11000859 -0.082276314 -0.18522963 -0.024381144 0.065089986 -0.10704504 -0.11329658 0.15537825 -0.042952236 0.12719795 0.039874237 -0.059467208 -0.21074031 -0.020238798 0.01639628 -0.049378194 -0.10390947 -0.021909539 -0.033090536 -0.010754018 -0.11391907 0.16267253 0.092751645 0.050156135 -0.14601415 0.00022581608 -0.01783384 -0.06360379 0.019174477 0.15663457 -0.12073932 -0.026597869 -0.054809324 0.16694462 -0.06761002 -0.028886661 0.111733995 0.09476182 0.007145393 -0.05840954 -0.072495356 -0.03887217 0.05973252 -0.025203364 -0.06350992 -0.038925473 0.007816521 0.15783599 -0.051216148 0.058608696 0.04718535 -0.007506763 -0.059372894 -0.049860414 -0.09432615 0.034610923 -0.041960172 0.08289547 -0.024979522 -0.044100963 0.09783847 0.06268092 -0.04748219 -0.07925714 0.011745768 -0.053484395 0.23282771 0.032357898 0.13541739 0.075622715 0.120336875 0.086155824 0.09456185 0.01407903 0.015694514 0.04374679 -0.09401594 0.018166207 -0.06490566 -0.02912541 0.049886793 0.06832296 0.13757898 -0.18930334 -0.12096245 -0.14795841 0.058729813 0.031061968 -0.057444744 0.04166564 -0.099332534 0.026297169 0.25452372 0.24804814 -0.12550251 0.020240182 0.08302329 -0.04601197 0.13728765 0.12221135 0.19005615 0.12382996 0.08366421 0.0072228042 -0.05694076 -0.19442661 -0.09020894 -0.022856992 -0.06272058 0.09824614 0.07477667 -0.024173185 -0.24671075 -0.027333017 -0.023762276 0.07346885
10 -0.028510608 -0.14710057 0.0341515 -0.1585971 -0.037093338 0.097897634 -0.011276464 0.14626837 -0.1609631 0.007066125 -0.16031244 -0.09506905 0.15383786 -0.06880245 -0.19155435 -0.0126260705 0.053351384 -0.12755783 -0.05308446 0.22423045 -0.029138194 0.19031537 0.06394939 -0.10281253 -0.1595097 -0.011283046 -0.069451965 -0.053010557 -0.13789254 -0.029595383 -0.056805182 -0.0063491003 -0.13557555 0.14735675 0.14861338 0.11358401 -0.15930645 0.035145465 -0.0017304653 -0.10135802 0.001269717 0.22119959 -0.14913172 0.02189563 -0.09969982 0.2098627 -0.10224157 -0.008607808 0.13412319 0.16070983 -0.003578915 -0.08721061 -0.13024311 0.030805878 0.092995845 -0.016776681 -0.036400978 -0.015174788 -0.07786962 0.17284253 -0.08840384 0.07099144 0.106117375 -0.036028635 -0.045327097 -0.07071854 -0.103005014 0.10319317 -0.0631688 0.10603295 -0.04695514 -0.13372496 0.123255074 0.067158476 -0.05828193 -0.102818474 -0.022951154 0.014429565 0.25028476 0.036336213 0.079932295 0.10688541 0.135613 0.046945408 0.081968375 -0.055938665 0.024706174 0.054382015 -0.08606826 -0.053307597 -0.1048255 -0.066580094 0.02712056 0.06976177 0.1081847 -0.21259211 -0.08640675 -0.15659353 0.05466555 0.078148484 -0.016700385 0.03741707 -0.043923233 0.019636363 0.25173467 0.2330819 -0.0839348 0.008515006 0.13096695 -0.11908813 0.2510835 0.14836621 0.17173894 0.14273635 0.1115912 -0.03836426 0.031662885 -0.15532407 -0.13101093 -0.080462396 -0.066248074 0.057962313 0.03632439 -0.043225378 -0.1656632 -0.05918181 -0.049144328 0.06337585
19 -0.04980486 -0.13457468 0.042963628 -0.09163851 -0.05215783 0.06680317 -0.03378944 0.059904553 -0.16791126 0.019406078 -0.194235 -0.04623277 0.14576453 -0.09177952 -0.18090323 -0.007066577 0.048385266 -0.15511343 -0.09477581 0.16305271 -0.022555243 0.15143791 0.053131938 -0.0565367 -0.2142571 0.016156234 0.022132352 -0.039989803 -0.09076166 -0.024875857 -0.056404162 -0.017934473 -0.1084179 0.17910464 0.10648106 0.047504034 -0.15606183 -0.003936917 -0.021834547 -0.08100146 -0.015217167 0.20379497 -0.13063952 -0.025761288 -0.06610706 0.24080805 -0.0758831 -0.0173532 0.14588171 0.13456231 0.037206873 -0.0780689 -0.10540517 -0.029846545 0.06724525 -0.052285057 -0.06311535 -0.04355563 -0.026197426 0.19210434 -0.05242821 0.06989633 0.099589236 -0.06153432 -0.054995306 -0.053792197 -0.1307455 0.070890374 -0.05836868 0.09396283 -0.06392873 -0.05938852 0.08270378 0.061635476 -0.06492516 -0.096915826 -0.011011465 -0.024390468 0.22107512 0.06781451 0.11565263 0.059658643 0.074952886 0.06663611 0.060356658 0.015394044 0.042762864 0.047662552 -0.089954175 0.019309908 -0.034346316 -0.022079807 0.04475025 0.06247302 0.12962498 -0.1890374 -0.10667534 -0.13971709 0.045886565 0.05620927 -0.003418794 0.02657602 -0.05794816 0.025878143 0.2578189 0.21253064 -0.09699565 0.022601917 0.09933703 -0.051316228 0.15148817 0.11941065 0.15912417 0.1260815 0.06647735 -0.00097846 -0.019445859 -0.20460533 -0.11146861 -0.027189974 -0.06340814 0.06509887 0.055574942 -0.016551293 -0.2099846 -0.0057257107 -0.02576963 0.064620286
14 -0.03760623 -0.13309197 0.0403375 -0.11595792 -0.04347513 0.07328334 -0.026879942 0.089986965 -0.15710045 0.011689444 -0.17513059 -0.061075106 0.1462995 -0.07981334 -0.17878924 -0.008960922 0.050431713 -0.13390942 -0.08474437 0.18300615 -0.026020898 0.16023977 0.054181375 -0.074253075 -0.18988964 0.00304084 -0.015393615 -0.046320986 -0.10750861 -0.02767506 -0.054844882 -0.01279298 -0.11781871 0.15865932 0.119731136 0.07163187 -0.1481298 0.010623337 -0.014351412 -0.080762565 -0.01278306 0.20229779 -0.12637724 -0.00035158207 -0.07439214 0.2167946 -0.07942185 -0.015157326 0.13256896 0.14135067 0.022035655 -0.07986723 -0.10866012 -0.0030296878 0.0761579 -0.039647482 -0.05201741 -0.037112996 -0.040946193 0.1758053 -0.066169344 0.07133517 0.09433646 -0.044883158 -0.050198838 -0.060074095 -0.11958166 0.08626662 -0.05222013 0.09103309 -0.058681622 -0.08414374 0.10017923 0.0671821 -0.0611186 -0.10346366 -0.018761504 -0.016721273 0.22805852 0.05817034 0.10079063 0.07693742 0.10245385 0.052433364 0.066271655 -0.017696032 0.029794373 0.051312927 -0.083447866 -0.012158548 -0.05694318 -0.032930713 0.038374137 0.06582542 0.11943581 -0.19954644 -0.09683268 -0.14300248 0.048158552 0.054424558 -0.012989642 0.030055674 -0.05294272 0.019390056 0.24213697 0.208195 -0.08807048 0.01717735 0.10481243 -0.07425296 0.1849286 0.13011709 0.16275153 0.12475907 0.08670167 -0.019919189 -0.0048697907 -0.17472498 -0.11271745 -0.04341278 -0.05973807 0.063485 0.039417986 -0.027915584 -0.18210958 -0.026512014 -0.031183705 0.056682307
5 -0.2520491 -0.011422858 0.135381 0.1938369 -0.24790494 -0.043833334 -0.17614274 -0.34344456 -0.22522214 0.022110404 -0.4550752 0.11758046 0.26670134 -0.3696223 -0.25083905 0.008877645 0.051045433 -0.4183788 -0.5020343 -0.0058713905 -0.11106439 0.028411344 0.052338883 0.1047527 -0.65011144 0.019809924 0.4271374 0.035561144 -0.045318093 -0.094218686 -0.03239729 -0.04384826 0.02173416 0.3265684 -0.0070591588 -0.28521872 -0.17969018 -0.16908357 -0.19886261 -0.037832305 -0.10565163 0.16211927 -0.092191435 -0.2538874 0.15420209 0.47058085 0.046157748 -0.17795733 0.22263427 0.033916123 0.18988377 0.02536314 0.11123613 -0.42106524 -0.123149626 -0.24372973 -0.39625722 -0.33412543 0.17686258 0.38236174 0.1790187 0.18236575 0.09103361 -0.13664356 -0.089744315 0.16900511 -0.26061952 -0.050659936 0.1212423 -0.101753324 -0.03297715 0.33398673 -0.101195775 0.18645309 -0.05143469 -0.26692474 0.0006249197 -0.25888225 0.31316155 0.24293934 0.38256946 -0.19909178 -0.29007694 0.31672043 -0.016851423 0.23298053 0.12839136 0.0793523 -0.09680283 0.3994588 0.2541773 0.24218863 0.017382888 0.024089128 0.24530461 -0.32696456 -0.20861289 -0.14665556 -0.047774892 -0.14101885 -0.1227974 -0.15754656 -0.34299532 0.051576607 0.58287746 0.3859879 -0.23089302 0.09761596 0.04168081 0.29275396 -0.09965692 0.035716265 0.1900359 0.25495172 0.11552039 0.15152961 -0.36313593 -0.5710961 -0.030454673 0.11136798 -0.08109994 0.1955676 0.007394719 0.08040086 -0.7535979 0.3609684 0.19892083 0.09570796
87 -0.036871444 -0.12153732 0.06867253 -0.14667372 -0.024267739 0.07330612 -0.019107796 0.082243614 -0.15040013 0.025483347 -0.16153957 -0.056503933 0.1251049 -0.07769726 -0.202507 -0.032195263 0.06890256 -0.117341 -0.09523596 0.19630274 -0.037629154 0.16570921 0.04020412 -0.07970455 -0.19045667 -0.020684421 -0.0075539537 -0.059988704 -0.11671939 -0.018410487 -0.044729743 -0.010019567 -0.13329624 0.17664145 0.10993796 0.093152635 -0.15706757 0.022527155 -0.012260092 -0.087159485 0.024538936 0.18098773 -0.13254528 0.0034410267 -0.07935994 0.17333126 -0.07212433 -0.020404074 0.12970681 0.123089336 0.00013790197 -0.086237006 -0.104149595 -0.014377544 0.08316794 -0.02304058 -0.044765092 -0.023614319 -0.0038956373 0.15627028 -0.075598225 0.057018682 0.06450429 -0.010152825 -0.057524398 -0.070028566 -0.1092727 0.055562448 -0.06994848 0.1109959 -0.033583436 -0.094304346 0.120792225 0.051146664 -0.05587668 -0.069665484 0.005798285 -0.034035604 0.2536167 0.027387252 0.11948541 0.10389606 0.14689612 0.066976234 0.106911555 -0.0012615571 0.01056503 0.05353992 -0.09720765 -0.027577754 -0.08310765 -0.057751678 0.04933801 0.06305551 0.1411101 -0.1870695 -0.115654424 -0.16062798 0.0714814 0.05337702 -0.047419358 0.07502757 -0.07838898 0.021329539 0.25331205 0.24977659 -0.12717724 0.022574626 0.0908707 -0.101240605 0.18379349 0.13210717 0.18336427 0.10153578 0.09757297 -0.0031571416 -0.02614534 -0.17275754 -0.10269884 -0.04020807 -0.058301937 0.0809693 0.08394748 -0.034936473 -0.20614415 -0.06164418 -0.042472064 0.07639459
2 -0.049444094 -0.13240978 0.061034374 -0.122448534 -0.03944503 0.077442646 -0.033421252 0.07783988 -0.16729388 0.020611553 -0.18743764 -0.06027657 0.14072442 -0.08420785 -0.19547606 -0.017001959 0.05730673 -0.14927825 -0.10182197 0.19558176 -0.037002932 0.17862302 0.04762834 -0.076134615 -0.21372831 -0.0028252946 0.012493835 -0.05546638 -0.11242779 -0.02636745 -0.06384102 -0.012997523 -0.12390373 0.1888319 0.12050688 0.08277559 -0.16112757 0.011193783 -0.009228043 -0.09240181 0.0028397948 0.21000376 -0.13910893 -0.004971196 -0.07477143 0.2137767 -0.08224548 -0.011850097 0.14161102 0.14359035 0.016291652 -0.08606239 -0.11843952 -0.012207537 0.08122941 -0.05178574 -0.055227265 -0.036708176 -0.019123776 0.18085511 -0.065095626 0.062978424 0.08340158 -0.04042348 -0.053370185 -0.06671675 -0.1286544 0.07604011 -0.06866017 0.103327036 -0.05671275 -0.08407915 0.106018715 0.054432523 -0.068394914 -0.080243856 -0.006697354 -0.029561784 0.24306034 0.058439445 0.11333525 0.08330155 0.115115464 0.057750512 0.085427605 0.0053892927 0.027179543 0.060288154 -0.08319032 -0.008405386 -0.05734814 -0.044269238 0.052726332 0.06981019 0.13554017 -0.19802555 -0.10574114 -0.15499046 0.059915584 0.05957604 -0.023917425 0.05276408 -0.0627277 0.020976838 0.2508694 0.22216603 -0.103256345 0.026659392 0.097821966 -0.08553244 0.17780721 0.11640111 0.16642168 0.106753156 0.07999446 -0.00740168 -0.011600964 -0.18153153 -0.10521811 -0.03324771 -0.053570945 0.06559757 0.06275853 -0.023732658 -0.19061592 -0.035962682 -0.041487202 0.05780086
103 -0.047168154 -0.12966648 0.04813833 -0.11302987 -0.044056293 0.07468093 -0.025547564 0.10999605 -0.15797435 -0.00046153186 -0.18017565 -0.053814914 0.13990316 -0.075647354 -0.18924168 -0.0032053893 0.054952648 -0.12637238 -0.07148464 0.18963729 -0.019106843 0.17280255 0.06298604 -0.08574853 -0.19122918 0.0004979739 -0.021616936 -0.048935816 -0.111254215 -0.015800897 -0.050354533 -0.010777086 -0.117050864 0.14433423 0.11511637 0.07435421 -0.13639963 0.0050305156 0.0033377674 -0.071180776 -0.018197503 0.19025193 -0.11489541 -0.015226166 -0.07192921 0.20372163 -0.09522852 -0.010238392 0.115903705 0.12495725 0.015570848 -0.060903564 -0.09168817 -8.353859e-05 0.07824065 -0.025391389 -0.035474353 -0.01881296 -0.04090299 0.16129096 -0.061604608 0.05892396 0.08297109 -0.03569108 -0.04256793 -0.06461288 -0.089562446 0.08112875 -0.0642433 0.08657227 -0.05175763 -0.08015107 0.09928362 0.0759905 -0.04689716 -0.1011344 -0.009551961 -0.024421114 0.22250038 0.048685588 0.10537887 0.084320754 0.12765041 0.07073171 0.07994896 -0.017120454 0.034490958 0.028227832 -0.08620485 0.0067387456 -0.06557027 -0.04092912 0.048490506 0.08152076 0.11880491 -0.20656055 -0.0923936 -0.14689714 0.05731748 0.07052445 -0.013185425 0.012729775 -0.05296187 0.023727672 0.25561407 0.22464731 -0.09458131 0.020362465 0.1022932 -0.050677344 0.17371187 0.14452693 0.18580231 0.15482168 0.08540283 -0.015524783 -0.008802824 -0.18330246 -0.115998775 -0.044485833 -0.075037025 0.07222139 0.0417379 -0.017964127 -0.20687917 -0.021657983 -0.033654124 0.06559201
91 -0.03724113 -0.12602869 0.033973474 -0.049181882 -0.05958404 0.054054428 -0.04454143 0.035761308 -0.1520139 0.014225488 -0.17740817 -0.035715826 0.1387214 -0.09234005 -0.14797689 0.0055662873 0.030740185 -0.15531139 -0.09571885 0.12059109 -0.014662621 0.12428256 0.05790193 -0.045091327 -0.20549434 0.03633807 0.029136144 -0.018240156 -0.0731567 -0.026224876 -0.063486926 -0.016543662 -0.08723856 0.17802393 0.10094306 0.020399403 -0.15540603 -0.020856438 -0.03628481 -0.08346381 -0.038757637 0.20146418 -0.124683574 -0.034257635 -0.0537845 0.26497504 -0.0649787 -0.020685341 0.14627686 0.13931112 0.04867086 -0.07618589 -0.0891291 -0.04659793 0.051266316 -0.061576337 -0.07576831 -0.058911115 -0.031365663 0.20102514 -0.03990257 0.084872775 0.12639272 -0.09006411 -0.05721901 -0.0357869 -0.13601276 0.08321049 -0.045566283 0.07607575 -0.082118995 -0.043559838 0.06146313 0.06230349 -0.06613421 -0.102064505 -0.023871101 -0.024154207 0.1966347 0.09116214 0.116726175 0.03826351 0.02742191 0.053686388 0.0381147 0.029114189 0.051079784 0.045493174 -0.080826275 0.037120752 -0.002807285 0.0045457887 0.03226599 0.047876503 0.116295055 -0.17665927 -0.09974806 -0.11469741 0.024992384 0.04503749 0.010667221 0.0028151334 -0.043674912 0.024650417 0.23962508 0.17891276 -0.088309705 0.02000084 0.098216414 -0.036327153 0.12844354 0.09750771 0.12972423 0.12019566 0.053448126 0.003876749 -0.012823339 -0.19862778 -0.10487001 -0.010680086 -0.05251657 0.05681459 0.036387175 -0.021962151 -0.19163734 0.016929869 -0.012313119 0.049625423
26 -0.031309884 -0.13884844 0.031637408 -0.09658936 -0.043422822 0.064635605 -0.028445322 0.07397924 -0.15653841 0.017448327 -0.1633786 -0.05691063 0.14125447 -0.07123435 -0.15477341 0.0014396993 0.038999315 -0.13836809 -0.07117701 0.1517316 -0.022608643 0.1420682 0.056070548 -0.058489688 -0.18113032 0.02864082 -0.0062024924 -0.028691547 -0.0915254 -0.028264835 -0.06299191 -0.019815365 -0.11355271 0.18188024 0.118643925 0.056905814 -0.1593579 -0.005008653 -0.0274833 -0.085351706 -0.019805554 0.20992245 -0.13401723 -0.004267541 -0.073911674 0.24241704 -0.076417685 -0.0044512274 0.14677568 0.14868128 0.03565598 -0.08659524 -0.116692916 -0.015453395 0.069490045 -0.048459336 -0.05895869 -0.038678933 -0.045061756 0.194074 -0.06686509 0.07947283 0.12037092 -0.078704685 -0.06068304 -0.056471743 -0.12874407 0.099084176 -0.062233612 0.108637445 -0.073974885 -0.07994406 0.08558941 0.055676334 -0.07412083 -0.100555815 -0.020733766 -0.009799256 0.21826865 0.07143681 0.10913049 0.064887024 0.069436096 0.050075915 0.05873943 0.008629482 0.041989516 0.04933975 -0.09139458 0.0013607168 -0.038597066 -0.025434472 0.04126754 0.060455218 0.12487068 -0.19852075 -0.09939422 -0.13078055 0.033208113 0.058408767 0.0067521846 0.025163325 -0.036411908 0.019703357 0.23388115 0.18367222 -0.08448393 0.017880434 0.10279219 -0.06456098 0.16754398 0.11659174 0.14831506 0.117998 0.07098406 -0.011280245 0.0049170596 -0.18081701 -0.114065975 -0.028191919 -0.056166206 0.05105646 0.043700732 -0.028186671 -0.17013083 -0.02441196 -0.025143541 0.052776635
4 -0.049129307 -0.11054247 0.052303687 -0.065946564 -0.061166644 0.04883621 -0.04076762 0.02173529 -0.14284861 0.018062212 -0.18103752 -0.030807128 0.13743076 -0.097327165 -0.16324969 -0.0072202715 0.043670565 -0.1499053 -0.121571854 0.12424923 -0.028941853 0.12071756 0.046758182 -0.043466732 -0.21517746 0.012617363 0.03846542 -0.026484342 -0.08487781 -0.02540217 -0.049685933 -0.01427902 -0.08562422 0.17403428 0.095280215 0.019442193 -0.1416333 -0.0105667105 -0.03425727 -0.07263727 -0.01785021 0.17587882 -0.11999066 -0.03413914 -0.045266736 0.22659147 -0.056797717 -0.029219605 0.12763964 0.11004639 0.03455045 -0.065236285 -0.07615175 -0.056276128 0.041798417 -0.065649524 -0.090648584 -0.066406935 -0.004716919 0.18293029 -0.034100153 0.07514556 0.089913264 -0.06073029 -0.055878315 -0.024266358 -0.12645844 0.059908483 -0.036123455 0.06670407 -0.05535717 -0.024247136 0.057671763 0.06897484 -0.05218869 -0.10198247 -0.011525632 -0.04217169 0.20634122 0.07367278 0.12665628 0.03785126 0.038410977 0.07562424 0.052908808 0.024990162 0.041892506 0.048703108 -0.07746669 0.040155906 -0.013284449 0.005937765 0.028352942 0.053231936 0.12523566 -0.17715785 -0.10334734 -0.124412164 0.029563371 0.027469823 -0.021035107 0.012225459 -0.07463257 0.019541547 0.25169402 0.20323597 -0.101426125 0.026789788 0.086175516 -0.025025982 0.12707764 0.09809613 0.13819557 0.11711576 0.07232363 0.008947608 -0.044046246 -0.20353892 -0.088873506 -0.01083536 -0.055167463 0.0743425 0.039035242 -0.017246582 -0.22768056 0.014551551 -0.008063182 0.0563015
29 -0.055547174 -0.11770804 0.06936998 -0.12144681 -0.023734301 0.07384231 -0.02681745 0.070069805 -0.1545256 0.032761164 -0.18215178 -0.05016494 0.13104315 -0.0809244 -0.19823207 -0.027252154 0.058866147 -0.13085642 -0.10041588 0.1960133 -0.038709514 0.17623077 0.038934104 -0.07023666 -0.20664029 -0.01271813 0.025422495 -0.060422853 -0.1091937 -0.022477962 -0.049460918 -0.008931246 -0.11981504 0.1897768 0.112490594 0.0783336 -0.15240408 0.021638071 -0.0038684942 -0.07674638 0.01834512 0.1885164 -0.12635277 -0.009753381 -0.063140616 0.18826711 -0.06856096 -0.018177958 0.13183978 0.12170571 0.019973582 -0.08867083 -0.10822606 -0.016549489 0.07918358 -0.043365162 -0.051478058 -0.04011603 0.0051839994 0.1646325 -0.05675612 0.05946675 0.050613254 -0.02875004 -0.05705245 -0.067175664 -0.1233374 0.049270876 -0.068457335 0.102669835 -0.049117513 -0.07554559 0.11129109 0.056933276 -0.06141769 -0.068262525 0.009035268 -0.03470988 0.24197745 0.04592358 0.12283323 0.08063789 0.12647618 0.06991112 0.0991241 0.022825472 0.022011245 0.05222653 -0.08203892 -0.004942285 -0.053769868 -0.041624613 0.051107757 0.06653518 0.13489638 -0.19405995 -0.10976772 -0.16385588 0.07212221 0.05827508 -0.038020197 0.06887131 -0.07199885 0.017591791 0.26058108 0.23515606 -0.10962839 0.033867285 0.08053051 -0.080382906 0.16579203 0.11915855 0.1764761 0.09887859 0.08213502 -0.0030697887 -0.034380738 -0.18983175 -0.09740975 -0.027089408 -0.057281043 0.07278884 0.08246606 -0.020873565 -0.20666988 -0.04449641 -0.038765498 0.068636596
54 -0.03397399 -0.1556819 0.05352418 -0.20300171 -0.017054591 0.1021716 -0.0033286428 0.19132729 -0.15376225 0.0010177629 -0.14752367 -0.091722414 0.13266842 -0.03946312 -0.2204731 -0.026350856 0.07276081 -0.081722304 -0.037398487 0.25717705 -0.02597634 0.2154468 0.06661984 -0.12178278 -0.15051106 -0.037048195 -0.09291376 -0.07940681 -0.15133736 -0.011830557 -0.038447887 -0.0040572924 -0.17907864 0.13172844 0.1532451 0.14915445 -0.15843685 0.056605484 0.034513634 -0.081265666 0.028617483 0.20757155 -0.14956711 0.019807398 -0.11899186 0.15059625 -0.13108993 -0.000835427 0.10868024 0.138931 -0.031481106 -0.07704112 -0.13579272 0.05301996 0.12391015 0.013498769 0.0027248827 0.031693656 -0.067707814 0.14639062 -0.117748015 0.04440885 0.061244525 0.014674076 -0.048363913 -0.09750779 -0.06369703 0.08187941 -0.08961515 0.13091712 -0.033821423 -0.16002083 0.15297672 0.072153226 -0.041131042 -0.08175432 0.004961165 -4.4084387e-05 0.27008477 -0.0064819 0.08756907 0.15303223 0.25045896 0.064847246 0.1294549 -0.06819288 0.008621919 0.03530497 -0.109026365 -0.071379095 -0.15091519 -0.09815474 0.060503293 0.11078827 0.12038779 -0.22859308 -0.10341593 -0.1933024 0.09355262 0.11355501 -0.046221133 0.051053196 -0.05408082 0.021759516 0.25934944 0.27294084 -0.106438324 0.010082473 0.12655853 -0.12496819 0.2621665 0.18276274 0.23518814 0.16497809 0.11408546 -0.044460464 0.017561618 -0.15719579 -0.14250542 -0.08225776 -0.09361568 0.086921126 0.07209504 -0.037616894 -0.1903586 -0.09451812 -0.07083602 0.083912015
58 -0.054873798 -0.10712055 0.04281621 -0.04009778 -0.06969882 0.042222444 -0.052546214 0.00998114 -0.14376065 0.014923796 -0.19141838 -0.022480996 0.14448385 -0.11007582 -0.1582344 -0.0010248328 0.037003867 -0.15903205 -0.13195688 0.10821159 -0.029970555 0.1192024 0.052486543 -0.03474017 -0.23322432 0.025910318 0.061205156 -0.020209318 -0.0782239 -0.03403568 -0.05718542 -0.014935641 -0.08224933 0.18095443 0.09203774 0.008258355 -0.14958015 -0.029152244 -0.0430975 -0.07388041 -0.029737901 0.18482074 -0.12059582 -0.042898733 -0.03934612 0.25706404 -0.049519747 -0.030449927 0.14687932 0.121762305 0.04743167 -0.063258536 -0.070756465 -0.075146995 0.035550304 -0.06907409 -0.10449001 -0.07491028 -0.0054097883 0.20302922 -0.03232178 0.08493024 0.11186764 -0.07457537 -0.057387404 -0.018168673 -0.13336858 0.06750619 -0.0223675 0.06750785 -0.06178801 -0.017493865 0.04833196 0.06656836 -0.06034321 -0.11323542 -0.013279953 -0.04272011 0.20992993 0.08766916 0.13072586 0.030814905 0.018531805 0.08012177 0.044151135 0.038616825 0.04496149 0.05034571 -0.08455676 0.05589778 0.009580814 0.018464217 0.027457634 0.050763138 0.13140953 -0.1907315 -0.10631423 -0.11518259 0.02587622 0.021924984 -0.016079392 0.005444455 -0.078787915 0.021969369 0.26476374 0.20517525 -0.1007921 0.027199468 0.08472888 -0.014721583 0.11608235 0.0965938 0.13413593 0.122576244 0.06986514 0.015054356 -0.050474197 -0.21775918 -0.08940711 -0.007849111 -0.05327862 0.065306574 0.035555996 -0.018768877 -0.24026205 0.031605493 0.0013659343 0.05425685
18 -0.23676974 -0.007551972 0.11864942 0.20497672 -0.25234163 -0.04332128 -0.16869497 -0.34959295 -0.21861172 0.019699441 -0.43960968 0.12543838 0.25856578 -0.36132708 -0.223737 0.011373491 0.04193348 -0.4062237 -0.4797973 -0.03191317 -0.102904595 0.009080247 0.05533012 0.11207409 -0.6211969 0.022707796 0.4204164 0.037451826 -0.025241062 -0.08939145 -0.04250597 -0.05133783 0.047494568 0.31051007 -0.01680495 -0.29124406 -0.15977535 -0.16802828 -0.20251016 -0.028823119 -0.11587348 0.14285554 -0.08888058 -0.25406566 0.16399729 0.45277607 0.05642127 -0.17972875 0.21010137 0.027314465 0.19313568 0.031617 0.113932624 -0.40484568 -0.121640116 -0.23473862 -0.38958195 -0.32733268 0.1644861 0.3686981 0.18036753 0.17832294 0.09148421 -0.14216328 -0.08481887 0.17066838 -0.25153813 -0.049742457 0.121429555 -0.11066995 -0.043867663 0.3318516 -0.10928077 0.18176223 -0.049760763 -0.26056704 -0.003974291 -0.24305649 0.28365618 0.24577025 0.36608684 -0.20823103 -0.3128122 0.30162057 -0.03165117 0.22699684 0.13235816 0.08216722 -0.08587773 0.38829982 0.25861916 0.24673094 0.016031314 0.017178524 0.24061108 -0.3005965 -0.1940008 -0.11998261 -0.05662565 -0.14230925 -0.099417225 -0.15627082 -0.32059953 0.060217693 0.5482772 0.34953177 -0.218669 0.09432201 0.03891082 0.29538384 -0.10772134 0.024755888 0.16204856 0.24690206 0.10889531 0.14492264 -0.3502346 -0.5458558 -0.02206132 0.115400024 -0.07421394 0.17882985 -0.0010171623 0.07680434 -0.7175002 0.35435876 0.19629344 0.09033904
43 -0.06889553 -0.09826058 0.05838875 -0.046479158 -0.077750534 0.043674663 -0.047303468 -0.013450381 -0.1467083 0.016386209 -0.19672331 -0.016179465 0.14728685 -0.119448565 -0.17079467 -0.008574158 0.045591135 -0.16858871 -0.15027085 0.11367524 -0.03275463 0.10322996 0.044682622 -0.022950867 -0.24823765 0.013518359 0.07661542 -0.018404303 -0.07798484 -0.035912715 -0.042106327 -0.023322368 -0.07374368 0.18624738 0.077703655 -0.01170065 -0.1433667 -0.0302557 -0.054567214 -0.06696197 -0.018791048 0.1616708 -0.115297 -0.054155484 -0.01996673 0.237574 -0.0378716 -0.049074244 0.14081554 0.10203448 0.051473163 -0.054017223 -0.054584153 -0.08889285 0.026960816 -0.074871704 -0.113145515 -0.086328834 0.019295484 0.19302244 -0.020994052 0.08001433 0.089467384 -0.06381897 -0.06345735 -0.008976509 -0.13149141 0.035917 -0.021115983 0.053287514 -0.044665292 0.008504958 0.048119616 0.07506374 -0.04992814 -0.10652187 -0.002659228 -0.05399177 0.2165677 0.083692975 0.14818962 0.019213734 0.0134483455 0.099365 0.04845879 0.049784936 0.04237754 0.04735115 -0.08478561 0.06521543 0.008309273 0.017648198 0.028234422 0.0449377 0.1379167 -0.18492442 -0.11650652 -0.12384059 0.026276596 0.01299914 -0.029985594 -1.34496695e-05 -0.10024151 0.027103504 0.27156585 0.22415525 -0.11923383 0.02619132 0.07541619 0.00021415575 0.10251826 0.09693267 0.14505717 0.12588927 0.07691645 0.023068173 -0.07668643 -0.23440956 -0.08318133 -0.00023759363 -0.05715791 0.08098053 0.04375555 -0.0036493435 -0.27116665 0.03957944 0.010397154 0.06674124
53 -0.030659437 -0.13202958 0.054150056 -0.14569528 -0.020509493 0.07240249 -0.015815713 0.11188184 -0.15408655 0.021220831 -0.157023 -0.06121422 0.12071241 -0.057455923 -0.18512706 -0.017444087 0.0670767 -0.10130336 -0.06604945 0.201483 -0.031889856 0.1693603 0.047506053 -0.08452392 -0.1716051 -0.008003836 -0.033583146 -0.055062994 -0.11428738 -0.021966867 -0.049824767 -0.014198781 -0.14734787 0.17210476 0.12904164 0.09875098 -0.15698135 0.019475823 -0.0023951833 -0.084976785 0.021728842 0.20016284 -0.1388923 0.0108789615 -0.09112798 0.18161304 -0.09072048 -0.0069904076 0.12864633 0.1327617 0.0047912365 -0.08531455 -0.12115744 0.010555074 0.09183615 -0.015514064 -0.027608687 -0.0071391594 -0.03191536 0.15908448 -0.09061383 0.05839839 0.073976174 -0.023262722 -0.054908816 -0.08608495 -0.107548326 0.07720389 -0.075520106 0.12083851 -0.045801375 -0.11479393 0.12480651 0.05158873 -0.06175845 -0.079210415 -0.004822325 -0.013618975 0.2423738 0.026495455 0.099609844 0.10399704 0.15390074 0.05289088 0.09597071 -0.014557067 0.016337816 0.047086217 -0.09632667 -0.03301725 -0.09123637 -0.0605226 0.052339748 0.079077005 0.12472645 -0.1980193 -0.10655585 -0.15179236 0.06430167 0.0682023 -0.028198069 0.061145883 -0.054649822 0.022561396 0.23083025 0.2251049 -0.0988424 0.009962164 0.10245837 -0.09432213 0.20051554 0.13453342 0.184768 0.11154276 0.087752864 -0.020183658 -0.00013461895 -0.16374686 -0.12266135 -0.05156312 -0.0628749 0.072916344 0.067846164 -0.034625817 -0.17422749 -0.07120701 -0.049583055 0.07187219
49 -0.05075461 -0.12166316 0.05069093 -0.11342478 -0.042663913 0.075734414 -0.02756428 0.090534806 -0.14625525 0.008120226 -0.17570427 -0.05335216 0.14192058 -0.08268331 -0.19020094 -0.010828651 0.060004618 -0.12418898 -0.08837409 0.19011855 -0.02578737 0.16866623 0.061033007 -0.08091597 -0.198067 -0.014758268 -0.011103479 -0.048752073 -0.11121166 -0.017320866 -0.04181742 -0.012259723 -0.119205266 0.14160472 0.11199987 0.07151637 -0.12668055 0.012409631 -0.0033316314 -0.06909694 -0.008627711 0.1762583 -0.11111932 -0.019636912 -0.06715833 0.18920848 -0.08811754 -0.021385387 0.11181072 0.11720176 0.010156414 -0.053568136 -0.08572012 -0.008052352 0.0696918 -0.03267779 -0.043541037 -0.0255657 -0.038511053 0.15907042 -0.060073346 0.06136683 0.07175029 -0.023041567 -0.042702917 -0.054522533 -0.0925404 0.06356169 -0.04726179 0.07809552 -0.043421373 -0.07709409 0.09695012 0.0710898 -0.042733528 -0.10096658 -0.004657105 -0.027223509 0.22582765 0.04136618 0.10760476 0.071855396 0.13114943 0.07854808 0.079385005 -0.017210865 0.027978877 0.038887307 -0.08793739 0.0037772548 -0.061678603 -0.035639368 0.04810501 0.08165489 0.11487007 -0.19959883 -0.09965288 -0.1518605 0.053698156 0.06274867 -0.033068888 0.014584728 -0.06481179 0.023710525 0.25714442 0.2321749 -0.09453597 0.019927394 0.10448991 -0.057599213 0.17427738 0.13829157 0.1813211 0.14603065 0.08139239 -0.011675558 -0.01736741 -0.188117 -0.10556235 -0.049997207 -0.07535611 0.07386394 0.042472485 -0.016880909 -0.21405198 -0.018007422 -0.026093215 0.06738901
15 -0.03999527 -0.1333385 0.052756213 -0.1207472 -0.035006944 0.07970515 -0.02892986 0.08848183 -0.16320813 0.01840506 -0.17621098 -0.069106154 0.14704493 -0.08228283 -0.18733631 -0.018249998 0.057153 -0.14285354 -0.09710001 0.19258347 -0.030698173 0.16687359 0.05047132 -0.071196705 -0.20521949 -0.00026493976 -0.0053620576 -0.050506346 -0.11798031 -0.026885673 -0.05920017 -0.011675978 -0.12421523 0.17698471 0.13065858 0.07887844 -0.15265201 0.013220037 -0.0102644535 -0.08706044 -0.0012243548 0.2108304 -0.13049757 -0.0006421567 -0.08038245 0.2173303 -0.0815721 -0.011340341 0.14038567 0.14628354 0.016301917 -0.09340319 -0.11806939 -0.0046280967 0.07742901 -0.04742644 -0.057178367 -0.038761664 -0.034306843 0.18018413 -0.07012307 0.071975105 0.09419235 -0.046921417 -0.04984196 -0.06153121 -0.12425415 0.086572684 -0.056789093 0.10976722 -0.058017198 -0.09792843 0.11074742 0.059483405 -0.06493011 -0.09731267 -0.0196627 -0.015969643 0.24081005 0.06231225 0.11093425 0.08140364 0.11004837 0.057070695 0.084736034 -0.010405992 0.024942681 0.057079908 -0.0819472 -0.014901159 -0.06950147 -0.050244633 0.035329137 0.06522612 0.12675667 -0.2057654 -0.104362324 -0.15505442 0.05339873 0.0559484 -0.018450541 0.044348273 -0.06301406 0.013347002 0.2547645 0.2231403 -0.09797611 0.019280778 0.102088735 -0.08731596 0.19030428 0.12378449 0.16951086 0.12007529 0.08861643 -0.016116966 -0.004394276 -0.18255143 -0.114351325 -0.04681256 -0.055273343 0.06222604 0.052487597 -0.030906655 -0.18243894 -0.043939527 -0.034089986 0.05934544
22 -0.037965715 -0.12574588 0.04118049 -0.09486767 -0.050090324 0.057246745 -0.033926807 0.057878785 -0.14698894 0.014964031 -0.16478154 -0.048655976 0.13261594 -0.08356901 -0.16410196 -0.0066042272 0.047721896 -0.13702027 -0.09306168 0.14191917 -0.024955418 0.13696693 0.054242674 -0.053566188 -0.1972015 0.016062368 0.012595598 -0.033923466 -0.091154836 -0.022429504 -0.05468579 -0.014794398 -0.105045885 0.16850372 0.09894405 0.046277456 -0.15183297 -0.0037671938 -0.02575469 -0.07705277 -0.016069582 0.186049 -0.11799998 -0.022185896 -0.063924685 0.2195492 -0.061571553 -0.016361853 0.13776144 0.12699433 0.02644582 -0.07102418 -0.096132524 -0.029290909 0.056682948 -0.046800397 -0.06898484 -0.042598914 -0.024026614 0.17999117 -0.057263955 0.07019887 0.1034815 -0.051494878 -0.060144797 -0.040858343 -0.116507865 0.070552826 -0.04142785 0.0911221 -0.056365363 -0.05813309 0.07694258 0.056215856 -0.05662563 -0.092532046 -0.013387252 -0.023097578 0.21866038 0.059873167 0.12046954 0.06259203 0.0728518 0.06379152 0.06299133 0.013873985 0.03876995 0.0478907 -0.08768646 0.008458817 -0.04040684 -0.0234859 0.03467946 0.056907494 0.12920614 -0.18690617 -0.10194538 -0.1279926 0.040301774 0.04749476 -0.012864253 0.029162327 -0.06283557 0.0211252 0.23893802 0.20335835 -0.10421595 0.022335917 0.088032104 -0.050058298 0.14420636 0.11382336 0.15232632 0.12008011 0.0717485 -8.229402e-05 -0.021142682 -0.18475065 -0.09791821 -0.022757031 -0.058776774 0.06807331 0.049349487 -0.026159842 -0.20334245 -0.016213927 -0.023138434 0.05958944
100 -0.08634338 -0.064322256 0.08118272 -0.06372589 -0.06975059 0.028525306 -0.047369834 -0.027272632 -0.13207316 0.021139782 -0.18567474 -0.016227167 0.13043174 -0.12529096 -0.1835059 -0.02936183 0.05807 -0.1440974 -0.16594474 0.1263792 -0.061127756 0.09748658 0.030798057 -0.015108407 -0.25389582 -0.033001233 0.0864477 -0.03651759 -0.09615121 -0.028426588 -0.022153733 -0.013746868 -0.0853579 0.16511618 0.06645842 0.00044359633 -0.12520975 -0.0117585985 -0.050365493 -0.040127527 0.0244307 0.12320703 -0.105723284 -0.05726946 -0.0071395934 0.16161136 -0.033162486 -0.05230055 0.10864791 0.05573514 0.025575094 -0.037010025 -0.041706104 -0.09539066 0.025262753 -0.05080818 -0.10944529 -0.0732141 0.0445087 0.16021198 -0.01679143 0.06856746 0.031794984 -0.0017921889 -0.05905524 -0.0037228717 -0.09976654 -0.0012462612 -0.0047909794 0.03837761 -0.00025049987 0.017832398 0.057380203 0.07259517 -0.037226204 -0.09415786 0.021671304 -0.08151337 0.22439244 0.042277303 0.1622506 0.024894409 0.053528428 0.12375969 0.08415372 0.04449377 0.020428639 0.055987947 -0.08493376 0.059807215 -0.022819329 0.0074425815 0.03161939 0.052503075 0.13844487 -0.18377966 -0.120420456 -0.13464019 0.044424742 -0.0005901089 -0.08901116 0.011238251 -0.1369403 0.033425167 0.27528477 0.25369507 -0.13921626 0.03142534 0.05692927 0.0021154103 0.09329698 0.09480301 0.1640947 0.119073436 0.09376095 0.036224525 -0.11069863 -0.22328559 -0.055400524 -0.008119618 -0.050472077 0.10244666 0.06283274 -0.0021327059 -0.30014062 0.029333945 0.012244861 0.07445884
61 -0.0638605 -0.10150359 0.0709481 -0.20845157 -0.03173122 0.06871057 -0.0009866839 0.12672451 -0.122515485 0.006661929 -0.12008827 -0.08830992 0.10817485 -0.051741663 -0.22091982 -0.048613 0.08374555 -0.047308546 -0.069257475 0.23280324 -0.07801998 0.16517706 0.051394507 -0.088720575 -0.17745999 -0.07714115 -0.073759206 -0.0986959 -0.18470573 -0.002485797 0.00020371904 -0.015663033 -0.17266227 0.12523423 0.13505156 0.12087165 -0.14503121 0.05264818 0.006795407 -0.03783448 0.09889054 0.14978606 -0.13942398 0.012297057 -0.09621333 0.060655806 -0.10658073 -0.019160612 0.08969918 0.08347732 -0.04866182 -0.043244027 -0.09537022 0.0041909167 0.08616335 0.03109681 -0.033866473 0.009119449 -0.0083727185 0.11319478 -0.10644855 0.030794665 0.014411833 0.07628371 -0.047012523 -0.047002938 -0.022797331 0.017800208 -0.045294154 0.10924315 0.039790805 -0.10253604 0.14229745 0.056736678 -0.020979464 -0.06739488 0.036320794 -0.024001379 0.27427447 -0.042592134 0.11411979 0.13454561 0.23365016 0.107944585 0.16478665 -0.061397135 -0.019524725 0.04983845 -0.10567634 -0.062973164 -0.18994157 -0.10222248 0.04219006 0.1004699 0.103698775 -0.20429139 -0.12745747 -0.18861659 0.08915105 0.076980844 -0.1266353 0.054423317 -0.11955115 0.025872767 0.26286316 0.32793787 -0.15416297 0.009861721 0.09963168 -0.11080637 0.23767683 0.16302465 0.22624366 0.15657638 0.14340355 -0.019849764 -0.05143383 -0.16696572 -0.099248864 -0.08247306 -0.08074697 0.10703602 0.07763389 -0.028500669 -0.24128158 -0.089778244 -0.05497137 0.11246471
16 -0.08503388 -0.06415057 0.07056877 -0.03615683 -0.070620865 0.033851195 -0.050209187 -0.030736528 -0.14671312 0.024230797 -0.20797727 -0.009726272 0.1420032 -0.12635083 -0.17584008 -0.020987835 0.0521481 -0.1736965 -0.17161717 0.12371827 -0.043174714 0.1164333 0.030937143 -0.02385884 -0.26512456 -0.008917615 0.100107804 -0.035908446 -0.075279094 -0.037305504 -0.041736323 -0.0073757856 -0.07607116 0.18359333 0.071461804 -0.003750363 -0.13193446 -0.016852288 -0.03620423 -0.063317895 -0.006349424 0.15218528 -0.10112454 -0.04568315 -0.007448571 0.20206808 -0.034837894 -0.0416055 0.12321633 0.086045094 0.048749167 -0.05965387 -0.047125842 -0.09026501 0.032421175 -0.080212474 -0.107840545 -0.08884927 0.033250373 0.17769912 3.7272577e-05 0.07667364 0.04513782 -0.04433739 -0.046569217 -0.0073396326 -0.14017569 0.031248422 -0.021245822 0.04625109 -0.03940246 0.0051742606 0.06018059 0.06950372 -0.04429667 -0.09567321 -0.0022637637 -0.076695286 0.21441069 0.08311654 0.14774247 0.014844126 0.018985394 0.10247576 0.060117535 0.05213273 0.028556993 0.05916163 -0.061347384 0.07023408 0.01981569 0.015431343 0.029315792 0.047271665 0.13876328 -0.18617551 -0.10991608 -0.13404785 0.034675192 0.0070610833 -0.04126611 0.02072802 -0.10777155 0.020136816 0.27520812 0.21542272 -0.116356835 0.044006154 0.05367776 0.0016423715 0.09599392 0.07411604 0.14098594 0.10761916 0.0803569 0.02350807 -0.09141239 -0.22242492 -0.06389024 0.00105301 -0.0452235 0.076731004 0.05327861 0.0041858465 -0.26644027 0.03559045 0.010552624 0.05227028
128 -0.027471755 -0.13996962 0.035345066 -0.15591401 -0.023252117 0.08873629 -0.015144057 0.14978233 -0.15365964 0.0069931103 -0.15590931 -0.086270235 0.1367495 -0.05387177 -0.19016027 -0.010877066 0.056696553 -0.11556751 -0.042182393 0.22614421 -0.029153602 0.1944417 0.0610962 -0.09744933 -0.15781014 -0.012624951 -0.065271586 -0.060371764 -0.13364546 -0.019470107 -0.059674125 -0.005239382 -0.14322515 0.14261025 0.14323358 0.12759349 -0.1431479 0.04220024 0.009603249 -0.096976325 0.012149034 0.21717013 -0.13757442 0.02964952 -0.10328941 0.18525888 -0.1065216 -0.0033850078 0.121850714 0.15371649 -0.010164349 -0.092377335 -0.14027832 0.048721295 0.10875589 -0.019120548 -0.019578503 0.0034481953 -0.0748324 0.16052333 -0.09806854 0.055944532 0.08788403 -0.026554128 -0.04254967 -0.08614425 -0.09858907 0.10103964 -0.079841316 0.1233606 -0.05523876 -0.14559054 0.13401492 0.060066357 -0.061417874 -0.08353136 -0.014209329 0.009099253 0.23767479 0.025527256 0.07843949 0.11336865 0.17450568 0.039781492 0.08869921 -0.05143028 0.023780871 0.054171197 -0.08608748 -0.057101194 -0.113070935 -0.0736036 0.04030452 0.08479416 0.11182906 -0.21136191 -0.082846604 -0.1526715 0.06480344 0.083465345 -0.009956071 0.0487119 -0.033106767 0.011187812 0.22645469 0.21097831 -0.07420556 0.015457514 0.11771111 -0.122352585 0.22759354 0.14673045 0.17163178 0.12609433 0.09507095 -0.0352983 0.03107208 -0.13861091 -0.12381801 -0.0714998 -0.06780454 0.05902729 0.052801486 -0.038357724 -0.13296507 -0.07204839 -0.05846282 0.05783345
25 -0.058409598 -0.08787167 0.0675903 -0.10733728 -0.031974502 0.05973156 -0.033724867 0.04120701 -0.13907173 0.032898173 -0.17096107 -0.04496024 0.11489302 -0.08558506 -0.17650698 -0.031408608 0.056085695 -0.12310501 -0.108231016 0.17277971 -0.047137372 0.1503389 0.030787928 -0.051091164 -0.1983276 -0.019759405 0.036061026 -0.05807223 -0.09571603 -0.022675583 -0.046470188 -0.0062119835 -0.11319248 0.1770447 0.09616556 0.06818944 -0.14407283 0.011464738 -0.008537985 -0.073746815 0.024727646 0.16358672 -0.11185817 -0.0023768917 -0.05096054 0.15568724 -0.06233011 -0.020418076 0.12265372 0.102810614 0.016599568 -0.07373496 -0.09532469 -0.02554492 0.067008965 -0.03909018 -0.051613666 -0.043043703 0.014036148 0.1479246 -0.050403036 0.058442578 0.038102794 -0.010284591 -0.053272873 -0.060342394 -0.11743203 0.0431119 -0.06454937 0.0925042 -0.03252823 -0.06514602 0.108438686 0.04998463 -0.056459945 -0.061561972 0.010959097 -0.048348766 0.23229292 0.033897467 0.11645347 0.07981403 0.10970711 0.07279327 0.099253945 0.023965005 0.012141544 0.056804586 -0.07510111 0.0017524271 -0.05210436 -0.038917378 0.05457496 0.06315503 0.13388517 -0.1879682 -0.10628852 -0.15024413 0.06887445 0.04063198 -0.043808404 0.06863036 -0.07915424 0.02005583 0.24338078 0.22895072 -0.10925952 0.034129158 0.072120085 -0.07413757 0.15814641 0.10011343 0.16700923 0.08464473 0.08636009 0.010634211 -0.037463404 -0.17205347 -0.08494293 -0.022659026 -0.04675487 0.07042062 0.07838175 -0.015029587 -0.19675547 -0.04067672 -0.030183563 0.0597392
6 -0.20914966 -0.0088148685 0.11103226 0.1780916 -0.2178869 -0.03699398 -0.15406841 -0.31432724 -0.18828307 0.02520179 -0.3862137 0.11054045 0.22706297 -0.31402555 -0.19513865 0.012029611 0.034000844 -0.35793334 -0.4261195 -0.028076021 -0.0933968 0.010292129 0.040267322 0.09763197 -0.5450846 0.025537157 0.37247553 0.03692848 -0.025006603 -0.07985538 -0.037059937 -0.04484108 0.035485946 0.27843717 -0.016005745 -0.26050457 -0.14323625 -0.1474912 -0.1799387 -0.020985473 -0.09983632 0.12764402 -0.07818315 -0.22869642 0.1479071 0.39775035 0.053380333 -0.15574297 0.18168482 0.024014026 0.1733235 0.019554142 0.095599376 -0.3663933 -0.11486998 -0.2116119 -0.34480658 -0.28887448 0.15622464 0.32833806 0.15508267 0.15628277 0.085683286 -0.1280787 -0.07875747 0.1463411 -0.22721843 -0.046397742 0.103074715 -0.0979893 -0.03385342 0.29894143 -0.098043375 0.16083129 -0.04895355 -0.22961128 -0.004109393 -0.2166817 0.2519486 0.21514776 0.32524115 -0.18713136 -0.27357966 0.26254693 -0.030618612 0.2059505 0.117427975 0.07157823 -0.071595535 0.3447553 0.23246847 0.22132687 0.011603489 0.0140871005 0.21095762 -0.26329312 -0.1767677 -0.10587057 -0.044918567 -0.13468604 -0.09244046 -0.13488656 -0.28168994 0.045248788 0.48711386 0.30805528 -0.19051525 0.08618163 0.031595312 0.25820875 -0.10430871 0.01798703 0.14428906 0.21030977 0.09207031 0.13140182 -0.31552058 -0.48357353 -0.015516838 0.1074307 -0.06698295 0.16070896 0.0021909075 0.06979126 -0.63585836 0.31905916 0.17437664 0.07369315
13 -0.0476398 -0.1275684 0.05932386 -0.16495287 -0.019643214 0.07908896 -0.008923702 0.12992148 -0.1499716 0.017602531 -0.15912355 -0.06946119 0.1307592 -0.056406833 -0.20825064 -0.0278962 0.0698407 -0.09520579 -0.067122854 0.22829022 -0.030225646 0.18674204 0.05124034 -0.093228035 -0.17843734 -0.027439775 -0.043188907 -0.07115168 -0.13640141 -0.013003496 -0.041749157 -0.00912375 -0.15417086 0.14925887 0.13315241 0.11546468 -0.14424084 0.037339576 0.015260193 -0.071972884 0.034310505 0.18646744 -0.13011202 0.005604039 -0.090660475 0.15959288 -0.09485137 -0.007063516 0.11706636 0.12847894 -0.0033799368 -0.08031356 -0.118228026 0.025691422 0.098979704 -0.010465831 -0.011466714 -0.0006729559 -0.0361436 0.14943297 -0.091348976 0.051255416 0.049913727 0.0025245445 -0.04454947 -0.08351819 -0.08562196 0.06752787 -0.079764724 0.11428497 -0.029845964 -0.12194527 0.13564831 0.06455532 -0.049861595 -0.07318944 0.00058180944 -0.02158559 0.24876985 0.017659985 0.097246006 0.11444662 0.19414765 0.063655406 0.11134901 -0.03436276 0.008819866 0.038318276 -0.09462149 -0.03509328 -0.11008347 -0.08134887 0.056347817 0.09269952 0.12189567 -0.20647198 -0.10600342 -0.18206565 0.084166974 0.08358393 -0.04223932 0.052573167 -0.06471654 0.021284133 0.2505072 0.25436836 -0.104724154 0.01620164 0.10389045 -0.09693435 0.21445064 0.15793931 0.20941602 0.13295324 0.09490045 -0.027923333 -0.0052543557 -0.16794315 -0.12333969 -0.059714295 -0.07352024 0.07750423 0.06957029 -0.022508884 -0.1841427 -0.07755771 -0.06112954 0.08127902
90 -0.046831075 -0.1284052 0.057577252 -0.14016543 -0.021081654 0.068644606 -0.015039938 0.093330346 -0.14625041 0.01914602 -0.16101241 -0.060732603 0.12687905 -0.07312108 -0.19787076 -0.024037037 0.06974196 -0.11056652 -0.083361685 0.20189478 -0.03309878 0.1794718 0.051287133 -0.0814207 -0.19232276 -0.014453647 -0.008436866 -0.068407215 -0.120454594 -0.019807357 -0.037186835 -0.01256092 -0.14083935 0.1647639 0.117832854 0.09931009 -0.14840204 0.029105164 0.003024581 -0.07694095 0.029529393 0.19098029 -0.13613448 -0.005163967 -0.08875702 0.18293783 -0.09153478 -0.015397502 0.12556137 0.12828052 0.006344736 -0.08549317 -0.11496943 0.0058739507 0.08804692 -0.02672231 -0.03669391 -0.016809704 -0.01858621 0.15948524 -0.083317526 0.05777718 0.055279985 -0.007479375 -0.054133713 -0.08336903 -0.100926235 0.05578351 -0.073641665 0.11335053 -0.033980165 -0.097082965 0.11692787 0.066083945 -0.060219318 -0.083539076 0.007983079 -0.021218847 0.24482092 0.02227357 0.10640299 0.10244283 0.16925134 0.065721594 0.10053435 -0.0083022285 0.023474017 0.048657913 -0.090589866 -0.022468947 -0.09184467 -0.057618838 0.05539003 0.08557905 0.120208 -0.1975685 -0.113136984 -0.16379629 0.07301786 0.065478094 -0.044839554 0.058239143 -0.07057803 0.018724471 0.25415292 0.2404465 -0.1103147 0.015694724 0.0908079 -0.0921997 0.18737146 0.14315082 0.1979949 0.11818859 0.080980815 -0.009649516 -0.020338185 -0.18001236 -0.109686725 -0.042317506 -0.06534048 0.08554161 0.07195564 -0.019274045 -0.18616986 -0.056417506 -0.050757963 0.07771927
7 -0.24967998 -0.0031769702 0.12820779 0.19742824 -0.2525142 -0.046469714 -0.17806382 -0.3561119 -0.2250084 0.024523845 -0.44988617 0.12794879 0.25825864 -0.36778337 -0.23664321 0.0028536327 0.043303747 -0.41385898 -0.49629563 -0.024461007 -0.112487145 0.015255814 0.051516086 0.11240826 -0.64247334 0.016850473 0.4297639 0.029765716 -0.032919645 -0.08690717 -0.03847971 -0.046499796 0.038983062 0.3176673 -0.013566948 -0.29197952 -0.16503964 -0.16535325 -0.19945739 -0.024288794 -0.101761855 0.14524971 -0.09087039 -0.25815552 0.16767757 0.4485908 0.051116668 -0.17583875 0.2109265 0.024031803 0.1897889 0.025408925 0.11142313 -0.41162947 -0.12676086 -0.23932236 -0.39211798 -0.33099183 0.17716493 0.37217897 0.17779224 0.17867652 0.08192846 -0.13111746 -0.08748149 0.16864969 -0.2583363 -0.056094863 0.114402875 -0.10704331 -0.034369685 0.33856463 -0.10665338 0.17830633 -0.052225824 -0.261626 0.0038250748 -0.25254536 0.2949024 0.24571098 0.37573206 -0.20627192 -0.30080634 0.30745766 -0.02223375 0.23489553 0.1284384 0.08323647 -0.08601284 0.39631575 0.2525034 0.24471894 0.014543861 0.023595368 0.24977866 -0.31428495 -0.2085589 -0.1365801 -0.0473565 -0.14919055 -0.11135152 -0.15365705 -0.33592486 0.05864479 0.5566376 0.36181033 -0.2230583 0.09971057 0.036182094 0.2969484 -0.11010444 0.025335308 0.17417048 0.2515109 0.114067964 0.15256678 -0.36464956 -0.556071 -0.0155659225 0.12083765 -0.07973159 0.1878176 0.010258543 0.081593625 -0.7345981 0.36167783 0.19625728 0.095189266
55 -0.23055868 -0.012077461 0.1193979 0.17243436 -0.2263369 -0.037220277 -0.16323413 -0.32890236 -0.21186958 0.026023101 -0.42236862 0.11510894 0.24417347 -0.343476 -0.22370943 0.0024643051 0.048085675 -0.38152456 -0.45489663 -0.00837415 -0.10438221 0.022468785 0.04654504 0.10047791 -0.6014437 0.015557822 0.39436308 0.0291661 -0.03478243 -0.080494575 -0.038794976 -0.041492246 0.027736275 0.30930972 -0.004512413 -0.25832352 -0.16417855 -0.15017815 -0.18852918 -0.025635049 -0.08904533 0.1496835 -0.08979778 -0.23760557 0.14992915 0.42928275 0.046251994 -0.16695257 0.20379943 0.03732967 0.178733 0.017862111 0.09230409 -0.3780122 -0.111189954 -0.2195135 -0.36625856 -0.30848822 0.16201366 0.35713527 0.15776801 0.1697724 0.08643366 -0.12744103 -0.08879108 0.15185277 -0.24794884 -0.04667038 0.103364535 -0.09253945 -0.035742525 0.30736434 -0.0886398 0.1681112 -0.058279257 -0.24071918 0.0021566532 -0.22880527 0.28391808 0.23019715 0.34966397 -0.18279526 -0.2722217 0.2887194 -0.017600587 0.21101369 0.122399546 0.077685095 -0.0914551 0.3618102 0.23326892 0.2174953 0.022396283 0.020506974 0.23989692 -0.30052945 -0.20260331 -0.13696261 -0.038611617 -0.13624334 -0.10464388 -0.1356733 -0.3075542 0.053720985 0.53695023 0.35515946 -0.21487631 0.088908255 0.045680624 0.2620939 -0.082810156 0.031064313 0.16803198 0.23603615 0.10422704 0.13811031 -0.3327117 -0.5235683 -0.02321529 0.10961925 -0.073815346 0.17794898 0.012151923 0.07333978 -0.6803817 0.3266663 0.17081332 0.092138834
64 -0.053299442 -0.104458965 0.05337113 -0.08131283 -0.046423256 0.06225207 -0.037835617 0.047241967 -0.14471167 0.019410016 -0.17268872 -0.042747244 0.14046612 -0.089779735 -0.17036542 -0.015449363 0.051423635 -0.1410069 -0.117962904 0.15580684 -0.027100263 0.14187837 0.047381993 -0.05591377 -0.21074905 0.0037025043 0.023005543 -0.03771683 -0.0896487 -0.031184703 -0.04545336 -0.011800059 -0.110244706 0.17371534 0.101251796 0.048476167 -0.14674373 -0.0040857056 -0.022344725 -0.084658414 -0.011486772 0.18493207 -0.12117519 -0.019798044 -0.053110745 0.22199295 -0.058281083 -0.03203308 0.13829045 0.11785521 0.028144948 -0.07960181 -0.08183893 -0.04451744 0.058220506 -0.048857547 -0.083407454 -0.059952166 -0.0118370745 0.18867445 -0.05241698 0.082833685 0.08775262 -0.054711204 -0.045814913 -0.03892654 -0.124076575 0.073395595 -0.040474422 0.07910936 -0.05456464 -0.058105282 0.08354329 0.0728465 -0.055461254 -0.10064566 -0.0110999 -0.042279515 0.23029388 0.06652736 0.123400494 0.06237651 0.07989122 0.07634868 0.064483374 0.005859029 0.027108494 0.056203853 -0.08632674 0.018330077 -0.030948939 -0.018058645 0.02625349 0.0595272 0.13231416 -0.20567939 -0.101463795 -0.1350993 0.042406026 0.03791267 -0.02806617 0.025824068 -0.07315525 0.016048582 0.25719485 0.21619563 -0.106262036 0.021262811 0.08601426 -0.053767152 0.1556974 0.11212167 0.15878855 0.12377411 0.08571536 -0.004266167 -0.033491068 -0.19873375 -0.095181055 -0.025289081 -0.05771478 0.068713784 0.04432419 -0.025832932 -0.22073825 -0.0029719342 -0.0123782195 0.058461644
60 -0.044555783 -0.13147704 0.05826872 -0.19095944 -0.02688249 0.07735711 -0.0073254206 0.1405106 -0.15067954 0.006768755 -0.1506883 -0.087105416 0.13031168 -0.05885907 -0.21203203 -0.025962656 0.075721234 -0.08311915 -0.061514556 0.23353417 -0.04844468 0.18187247 0.058899388 -0.09880051 -0.17500512 -0.040967233 -0.07083204 -0.07950784 -0.16452284 -0.0076606832 -0.03117649 -0.01442845 -0.16341846 0.14471067 0.14930527 0.11890787 -0.14855923 0.039991256 0.009508078 -0.06458136 0.05344417 0.19422105 -0.14369795 0.01733397 -0.100387774 0.13739683 -0.11382669 -0.009181745 0.11568123 0.12602358 -0.028499901 -0.06438422 -0.11885015 0.026301302 0.099025756 0.016093561 -0.023071129 0.0059076943 -0.042000134 0.14305636 -0.10677975 0.04329832 0.061038256 0.025130011 -0.054060016 -0.070648015 -0.06509562 0.059991635 -0.06478149 0.114688165 -0.009706648 -0.12525178 0.137932 0.057840653 -0.042130407 -0.08843373 0.012516016 -0.0057567665 0.2598654 -0.00027870008 0.10748179 0.12213525 0.21164867 0.07294662 0.12960128 -0.057397768 0.0034676082 0.046809394 -0.10189138 -0.055547934 -0.1439592 -0.08942376 0.050909564 0.10067818 0.116776735 -0.21188697 -0.10592674 -0.18614557 0.07564218 0.086714454 -0.072927006 0.049254484 -0.0806893 0.024255926 0.25763294 0.28080812 -0.11709759 0.013812788 0.11036311 -0.11430682 0.23900877 0.16393167 0.20972326 0.15209201 0.119444095 -0.030832198 -0.0065454734 -0.16394256 -0.119895145 -0.07559978 -0.07253052 0.090934046 0.059752405 -0.031750053 -0.20000508 -0.08383787 -0.057123303 0.084844634
113 -0.057820164 -0.10787046 0.054319926 -0.087120414 -0.048251517 0.058083132 -0.03428426 0.04590903 -0.14013024 0.01037343 -0.17132747 -0.035103604 0.12373929 -0.0896032 -0.16769658 -0.0120718805 0.050644297 -0.12887058 -0.1009108 0.149789 -0.028086275 0.13325682 0.048924662 -0.055848993 -0.19983914 -0.0010472662 0.024788922 -0.040862616 -0.08954224 -0.020015944 -0.041218378 -0.007667243 -0.09958826 0.15545702 0.091412015 0.036961067 -0.13991793 -0.006842398 -0.019079473 -0.067728795 -0.005493033 0.16698329 -0.11019908 -0.029875338 -0.049524125 0.20068072 -0.06375198 -0.028586032 0.123130225 0.10930668 0.022557655 -0.06177483 -0.07549058 -0.043266036 0.051990926 -0.042389806 -0.06783068 -0.049513385 -0.007667369 0.1688046 -0.042831164 0.064451374 0.07007448 -0.035926167 -0.05198289 -0.03615057 -0.10641713 0.050343376 -0.041485593 0.068116784 -0.04167886 -0.04122166 0.0788379 0.067591265 -0.041700166 -0.09045631 -0.003090143 -0.039974935 0.21433477 0.049958825 0.12239527 0.057460595 0.08334255 0.08293919 0.07235527 0.013264249 0.031919047 0.041154165 -0.08532855 0.024699707 -0.039388847 -0.016836386 0.04288375 0.059081778 0.124926485 -0.18900836 -0.100684 -0.13875052 0.046407674 0.03812083 -0.030029053 0.013726215 -0.07829677 0.021413296 0.25304464 0.21954948 -0.10617226 0.019525358 0.08735379 -0.037116893 0.13999225 0.11175154 0.16450712 0.12723786 0.08238838 -0.00036965086 -0.039722733 -0.18806332 -0.092434935 -0.025677182 -0.059464365 0.0752166 0.048253603 -0.011478491 -0.22614965 0.0008653958 -0.0138359 0.060976338
45 -0.05402991 -0.12657516 0.055379078 -0.14150725 -0.026683433 0.081144474 -0.01357137 0.13203062 -0.1491391 0.0045851823 -0.16417423 -0.061223052 0.12637688 -0.058564574 -0.20602217 -0.019909317 0.072753206 -0.10596924 -0.06977569 0.21938494 -0.0267132 0.19512181 0.06369135 -0.09740772 -0.19001114 -0.023911392 -0.031820636 -0.0670424 -0.1309733 -0.017111938 -0.035695765 -0.004397902 -0.14456013 0.13105817 0.1250478 0.10075216 -0.13450734 0.034468547 0.028986547 -0.06967008 0.013365742 0.18502064 -0.12611644 -0.0037800332 -0.09044615 0.16879334 -0.101087525 -0.008362287 0.10945315 0.11893309 -0.0076007782 -0.06838959 -0.10311253 0.02488443 0.09410176 -0.01403247 -0.021615086 -0.0012337032 -0.03950579 0.14591247 -0.07866346 0.05341749 0.05082281 -0.005816679 -0.042661976 -0.075500265 -0.078292765 0.06367434 -0.07219431 0.103187464 -0.04024188 -0.103054576 0.12123865 0.07610311 -0.03776538 -0.07948178 0.005633217 -0.020272002 0.2329139 0.01723787 0.100339904 0.104422554 0.19406892 0.0698384 0.10287103 -0.03573869 0.019345311 0.03144206 -0.09192998 -0.015823841 -0.0939572 -0.067653604 0.046503887 0.09589077 0.11300568 -0.20673501 -0.099750854 -0.17748964 0.07952996 0.0769894 -0.03455162 0.029064108 -0.057691474 0.016147472 0.25098878 0.24556547 -0.099938996 0.017908601 0.098405264 -0.07970414 0.19389331 0.15582739 0.20401171 0.15337428 0.08827751 -0.025855208 -0.009253421 -0.16902661 -0.1205817 -0.052504018 -0.08667326 0.078199215 0.063957 -0.019859934 -0.19440113 -0.049236447 -0.04966854 0.07422913
93 -0.06577798 -0.088593215 0.07160887 -0.13884561 -0.036061965 0.057177596 -0.021679135 0.07159198 -0.13010186 0.012642459 -0.15528435 -0.055342678 0.12032608 -0.07767782 -0.19713031 -0.031757783 0.06435775 -0.09238572 -0.10406471 0.18980756 -0.056195 0.14499676 0.048773486 -0.07168107 -0.20260295 -0.04907092 -0.006775024 -0.06984017 -0.13488068 -0.010911071 -0.02375972 -0.009930449 -0.13022624 0.15008852 0.11186048 0.07176526 -0.13978061 0.022107774 -0.0049797627 -0.04770683 0.04579221 0.15548135 -0.122459546 -0.012714432 -0.06461097 0.12450161 -0.07885343 -0.028114729 0.10636311 0.08779964 -0.0151319485 -0.05027141 -0.07736922 -0.027138151 0.067375936 -0.009549456 -0.05809361 -0.028046733 0.0007412507 0.14064503 -0.0668801 0.049458962 0.034309816 0.0217081 -0.048309457 -0.04030655 -0.07154437 0.029486153 -0.036037818 0.08560837 0.0038175392 -0.059702016 0.108436055 0.065379195 -0.033270825 -0.08282091 0.020363655 -0.044688955 0.252903 0.0074192984 0.13023539 0.091767386 0.15640593 0.10054817 0.12408959 -0.017050778 0.008935587 0.047844864 -0.091991045 -0.012443895 -0.105274506 -0.054088388 0.04406877 0.084315546 0.12499739 -0.20054606 -0.11110165 -0.16724652 0.06976628 0.055447172 -0.09021274 0.040826734 -0.114318475 0.028777122 0.26817104 0.28090113 -0.13845667 0.020241397 0.08077675 -0.06258013 0.18025047 0.13674541 0.19561271 0.14450103 0.117009915 -0.0039710696 -0.054982975 -0.18599267 -0.09195638 -0.05070698 -0.06567913 0.09895027 0.06799205 -0.0151130315 -0.25053734 -0.043530326 -0.025204908 0.08550806
46 -0.06045095 -0.090136655 0.087301284 -0.22344147 -0.03516655 0.05594749 0.0051389444 0.11764864 -0.12585944 -0.00019981814 -0.124919966 -0.08344437 0.11608415 -0.063560985 -0.21846716 -0.05990692 0.08782742 -0.041858263 -0.08127617 0.23355025 -0.085090235 0.15281138 0.046449825 -0.07463827 -0.19427736 -0.08687223 -0.07288253 -0.102045864 -0.19860908 0.0022516802 -0.0002673014 -0.020068198 -0.1744339 0.13608043 0.14152716 0.10866156 -0.14351359 0.053023953 -0.008504013 -0.024966858 0.11477741 0.14010677 -0.1482291 0.012507252 -0.07564335 0.03849164 -0.095625386 -0.028056517 0.09635929 0.06967118 -0.06285302 -0.03841909 -0.09649208 0.00014072222 0.08754311 0.041528385 -0.047489583 0.008182785 -0.007212097 0.101732075 -0.110631116 0.029653681 0.009115085 0.08709637 -0.055742297 -0.029808968 -0.017086385 0.0090362895 -0.034136303 0.10565448 0.05228001 -0.09016136 0.13955377 0.06362888 -0.016740497 -0.07681858 0.048908696 -0.027098842 0.27754113 -0.039446034 0.13159569 0.13363416 0.23630396 0.12412413 0.17309622 -0.07189264 -0.017017571 0.055503227 -0.100511946 -0.075599566 -0.19928096 -0.10090041 0.038245704 0.10942666 0.12265135 -0.21009329 -0.12460977 -0.18989544 0.0885518 0.06815577 -0.15002617 0.057909176 -0.14526863 0.03083059 0.2630734 0.3389588 -0.16670358 0.01909308 0.08747585 -0.09716222 0.23665752 0.16646303 0.2326409 0.16096991 0.16057056 -0.010612844 -0.0678583 -0.1690401 -0.08913353 -0.0878729 -0.07131273 0.11477028 0.07324109 -0.023669979 -0.25771612 -0.09784092 -0.052418087 0.10957762
104 -0.05590536 -0.1179762 0.05124314 -0.0962449 -0.04734651 0.063140444 -0.0292571 0.06604889 -0.1455325 0.014859913 -0.1787687 -0.043584354 0.13278776 -0.0881251 -0.17514265 -0.008673352 0.05151373 -0.13456449 -0.10192634 0.16718878 -0.028332802 0.15221888 0.049280435 -0.06834055 -0.20533133 -0.003897627 0.011414642 -0.04496933 -0.09930944 -0.024737684 -0.043307498 -0.007952173 -0.113363996 0.16514367 0.10206485 0.05347088 -0.14506476 -0.00030897115 -0.012769641 -0.07163273 -0.0019751203 0.18454254 -0.116549045 -0.024249455 -0.060394324 0.20529719 -0.06852638 -0.02228806 0.122506596 0.119251646 0.025504889 -0.06529452 -0.08537228 -0.026123015 0.066730246 -0.038734704 -0.05578479 -0.042742413 -0.017934732 0.16986227 -0.04870887 0.067132026 0.07682555 -0.040303655 -0.050405353 -0.053146243 -0.11111857 0.060880773 -0.047720596 0.080930784 -0.048492957 -0.060867604 0.088013455 0.06479703 -0.0471054 -0.09496959 -0.006906332 -0.03271531 0.22011189 0.055106398 0.11197546 0.066551305 0.099937506 0.07599038 0.07544583 0.008142906 0.03308923 0.04226266 -0.088960975 0.013446676 -0.040302407 -0.025645256 0.04081628 0.06986081 0.121167004 -0.19182807 -0.10081066 -0.14615639 0.0513284 0.05164724 -0.022430705 0.027675953 -0.07160676 0.019191135 0.25165188 0.22444522 -0.10509812 0.018010903 0.089839175 -0.050275978 0.1593654 0.11949321 0.1670551 0.12982756 0.07904819 -0.0014992821 -0.025891101 -0.1908824 -0.10343689 -0.029693741 -0.066515416 0.07087264 0.05552088 -0.01888669 -0.21099281 -0.018929683 -0.023259828 0.061905123
88 -0.039262544 -0.13745683 0.061637808 -0.16244394 -0.020988882 0.08213635 -0.017099647 0.124018624 -0.15680505 0.017692901 -0.16448615 -0.068865016 0.13412964 -0.06611995 -0.20566155 -0.019814787 0.072945416 -0.11104282 -0.07770404 0.21778344 -0.030093247 0.18967377 0.05319291 -0.08854254 -0.19203301 -0.016051399 -0.026978089 -0.06792353 -0.13134104 -0.021590631 -0.045885608 -0.00972231 -0.15099376 0.17537057 0.13867311 0.110126264 -0.16262588 0.031005472 0.007885087 -0.08256344 0.03316497 0.20247 -0.14442836 0.004279662 -0.09615562 0.1859736 -0.09832433 -0.009930685 0.13307028 0.13648753 0.0014361935 -0.09309481 -0.13049549 0.016276872 0.09728792 -0.022808427 -0.029957112 -0.003793238 -0.032011423 0.16804065 -0.09607906 0.05787638 0.061598048 -0.0097266715 -0.055149153 -0.09172598 -0.10841212 0.068765506 -0.08102841 0.12781675 -0.04163528 -0.122102045 0.13181616 0.057391424 -0.061858583 -0.07740252 0.0033046096 -0.014467872 0.25789437 0.019831808 0.1097793 0.11779129 0.18200913 0.05617166 0.106712475 -0.017163308 0.016362898 0.04879296 -0.0991181 -0.038088884 -0.1013192 -0.074374035 0.053017147 0.08694138 0.13034822 -0.20492642 -0.114585094 -0.17373858 0.07786624 0.07157868 -0.037004646 0.062170733 -0.059358694 0.021810643 0.25361052 0.25273362 -0.11103367 0.015489189 0.1014364 -0.11056702 0.21116835 0.15465885 0.20671108 0.12513646 0.09104537 -0.02240355 -0.004944032 -0.17920397 -0.11883272 -0.052493654 -0.06549655 0.08370888 0.07996141 -0.026712485 -0.18083526 -0.075760886 -0.057893965 0.07542283
57 -0.05992198 -0.10651007 0.07579719 -0.13218041 -0.021717276 0.068158165 -0.023948038 0.07180578 -0.1562946 0.03450898 -0.18055211 -0.056903932 0.124818414 -0.078803934 -0.20594774 -0.036256243 0.06753002 -0.12758575 -0.1082073 0.2083172 -0.04000334 0.17777532 0.03598169 -0.071947426 -0.21276934 -0.024312612 0.01626013 -0.067291625 -0.116336174 -0.024684908 -0.045780703 -0.00054816884 -0.1297415 0.18166539 0.11590487 0.09022605 -0.14885208 0.03132162 -0.0034316648 -0.08019426 0.037721258 0.1871888 -0.13005792 0.0014847359 -0.07017489 0.1651415 -0.07701808 -0.013770306 0.12900369 0.11600548 0.0052875085 -0.08470513 -0.11539235 -0.0022426436 0.08764601 -0.036242235 -0.037243787 -0.031014316 0.005417157 0.15804204 -0.06372324 0.052215815 0.036414035 -0.010435915 -0.048874307 -0.07485776 -0.120541535 0.050624948 -0.081348054 0.10968147 -0.033137847 -0.08921093 0.12716883 0.04580676 -0.054238427 -0.06103628 0.009444461 -0.041621063 0.24587716 0.03574217 0.11532038 0.09859019 0.14979918 0.07079591 0.108423196 0.009849186 0.010143025 0.06252597 -0.0872345 -0.01714975 -0.07347569 -0.060910057 0.06193127 0.07358172 0.13953596 -0.19986399 -0.11659906 -0.17551427 0.08128614 0.057611994 -0.053019084 0.078929886 -0.0700423 0.023401793 0.26065832 0.24819872 -0.11577753 0.0331334 0.084522024 -0.09597289 0.1826926 0.117508195 0.18771052 0.098736316 0.09192888 -0.0029261536 -0.02379175 -0.17674358 -0.099567965 -0.035423364 -0.05730519 0.07260426 0.089387566 -0.021781629 -0.19838677 -0.06151681 -0.049765512 0.0719153
24 -0.038569745 -0.12122087 0.051595505 -0.13459411 -0.036370467 0.07164398 -0.024465337 0.09240371 -0.14942437 0.01378739 -0.16056243 -0.06478681 0.12930924 -0.06797316 -0.18355629 -0.013645622 0.059373006 -0.11118481 -0.078879185 0.19427888 -0.03148049 0.16554444 0.05304137 -0.08061709 -0.18879248 -0.013017114 -0.01689107 -0.057825632 -0.12111594 -0.021176161 -0.03804014 -0.015064083 -0.13529195 0.16758512 0.1263028 0.084734604 -0.15326604 0.015650123 -0.008205761 -0.07607171 0.020282164 0.19576207 -0.13793795 -0.0076797083 -0.07966089 0.18871889 -0.092878185 -0.01785853 0.12397343 0.12470681 0.006243076 -0.07366182 -0.11287165 -0.0016158351 0.08130269 -0.020041162 -0.0382569 -0.022423567 -0.027354756 0.16948341 -0.08440109 0.06029481 0.075451136 -0.023221053 -0.05158789 -0.06487774 -0.10117412 0.06178803 -0.063799456 0.108223386 -0.037776336 -0.091537416 0.11358789 0.06723427 -0.057337083 -0.08916306 0.00029857323 -0.02172676 0.2484157 0.037616134 0.1120264 0.09928589 0.15161227 0.07485833 0.097849146 -0.0144977495 0.025367722 0.042581365 -0.09856989 -0.015203447 -0.08667365 -0.05809135 0.04486244 0.08198326 0.124723636 -0.2035199 -0.10958176 -0.16169249 0.059859093 0.069781154 -0.036046445 0.039348986 -0.06793585 0.025569228 0.25586435 0.24099167 -0.1146203 0.016646737 0.10123242 -0.08511008 0.19818382 0.14383717 0.18768266 0.12922086 0.08945567 -0.011310843 -0.010931211 -0.17975128 -0.113069795 -0.04440824 -0.07062544 0.0819544 0.065092005 -0.026451949 -0.20471573 -0.053523898 -0.043004557 0.07774354
56 -0.23661046 -0.019136375 0.115155384 0.1873802 -0.2450506 -0.03547683 -0.1719371 -0.34080833 -0.22057173 0.023338266 -0.4353069 0.11459695 0.2585048 -0.35167447 -0.22824457 0.012743552 0.04190724 -0.40412372 -0.4696478 -0.025050914 -0.10268517 0.019376248 0.049192294 0.10053285 -0.61672115 0.02112318 0.4073329 0.03192502 -0.034704745 -0.08568904 -0.0368268 -0.047574114 0.039332792 0.3111789 -0.008852435 -0.2817183 -0.16614833 -0.16369888 -0.19761191 -0.028038308 -0.11510975 0.1545039 -0.09482025 -0.2556597 0.15522976 0.46064964 0.04975733 -0.17375873 0.20844445 0.039192684 0.19070326 0.026899725 0.10336759 -0.39856178 -0.11513382 -0.23083523 -0.38324606 -0.3188215 0.1593035 0.374373 0.1667669 0.18096416 0.09263278 -0.13864236 -0.08664966 0.16154405 -0.253106 -0.046988063 0.11183098 -0.10489083 -0.04736325 0.32078755 -0.09710265 0.18256657 -0.05963293 -0.25857902 -0.0029934407 -0.24171306 0.28542653 0.24181779 0.36714956 -0.19816984 -0.29823095 0.29959264 -0.031495884 0.22494288 0.12628512 0.08121935 -0.09115335 0.3853705 0.25333327 0.24208762 0.015567483 0.017985875 0.24549694 -0.3093648 -0.20181155 -0.13220055 -0.050034065 -0.13998835 -0.09784417 -0.1564322 -0.31793374 0.056900516 0.552548 0.35408124 -0.21447434 0.08689004 0.041853003 0.28600594 -0.09416939 0.03650954 0.17081892 0.2533774 0.111622214 0.14241241 -0.3415139 -0.5467581 -0.02385133 0.10860182 -0.07981992 0.18057919 0.0078162085 0.07753499 -0.71377665 0.35019964 0.18842965 0.08713383
47 -0.043247104 -0.12414072 0.0520948 -0.14454709 -0.027290678 0.080454774 -0.013337692 0.13203457 -0.13895923 0.0089960005 -0.15086994 -0.07463718 0.12837945 -0.05662948 -0.18454103 -0.01563531 0.06454451 -0.08926324 -0.05920431 0.20858766 -0.02946855 0.18095928 0.059713803 -0.09379658 -0.1669578 -0.022269888 -0.046971425 -0.06279698 -0.13028356 -0.01606045 -0.03213533 -0.0060683913 -0.14020078 0.1279025 0.13030717 0.10608095 -0.13345276 0.033968948 0.01439068 -0.06582025 0.017080216 0.1833492 -0.12040519 0.0037191734 -0.09024344 0.15369955 -0.10188031 -0.005249456 0.10975866 0.120788686 -0.0101312185 -0.06396082 -0.103279196 0.020026643 0.09015212 -0.008990419 -0.021850185 0.00015001895 -0.048538506 0.13924359 -0.08344421 0.05409849 0.061597507 -0.0034214547 -0.03823875 -0.06597281 -0.07109596 0.06429536 -0.060214873 0.09876545 -0.035971783 -0.10685551 0.11943995 0.06792947 -0.036698926 -0.07912883 -0.0032124766 -0.012624309 0.23024753 0.016416907 0.092666395 0.10283824 0.18106042 0.06732495 0.101617575 -0.037672933 0.020683635 0.035477392 -0.09109089 -0.03286129 -0.107736446 -0.06621488 0.04803116 0.0946373 0.10751507 -0.20131347 -0.092086464 -0.1631595 0.07032206 0.07785349 -0.041923944 0.031256553 -0.05975318 0.018306991 0.24097277 0.2330366 -0.09302649 0.013396208 0.10114771 -0.09107939 0.2076928 0.14614712 0.18838163 0.14186457 0.09382117 -0.029711166 -0.00198336 -0.16172715 -0.11412309 -0.060803864 -0.07902745 0.07327519 0.05784455 -0.027898585 -0.18191944 -0.057880763 -0.044719573 0.06936303
52 -0.03499268 -0.1497031 0.05145676 -0.16713181 -0.028327053 0.10037181 -0.017508382 0.13247472 -0.17179497 0.023921762 -0.1769946 -0.094072826 0.16256392 -0.07244006 -0.20576718 -0.014577524 0.055008795 -0.14343233 -0.066493966 0.23580363 -0.037252307 0.20683742 0.05632175 -0.09790536 -0.18377785 -0.009954196 -0.048032556 -0.060606442 -0.14323366 -0.034189105 -0.067736626 -0.015109318 -0.14243324 0.17838004 0.14557056 0.11903073 -0.17093953 0.030680098 -0.003077533 -0.10599188 0.005236014 0.23768403 -0.15704872 0.026983777 -0.09905496 0.21574092 -0.10143396 -0.0015509606 0.1410438 0.16627315 -0.002166632 -0.09909094 -0.14232859 0.025063025 0.09918248 -0.03742361 -0.037447296 -0.02579491 -0.06372274 0.1743501 -0.08840253 0.06368768 0.09861527 -0.04109926 -0.05386567 -0.07836607 -0.123729855 0.10317493 -0.076979056 0.13064602 -0.05672746 -0.13670005 0.13241018 0.066119574 -0.070500955 -0.09811028 -0.011443757 0.0044177803 0.26697084 0.04476651 0.095036045 0.107212655 0.15080547 0.05157284 0.102512024 -0.04306376 0.024674354 0.069058165 -0.08919177 -0.051925853 -0.10666391 -0.0694673 0.039757617 0.08051788 0.13498221 -0.22589034 -0.09586442 -0.16392915 0.06304294 0.07562093 -0.02171121 0.058965288 -0.051316753 0.012615563 0.2592301 0.23030986 -0.0899159 0.020826072 0.12379576 -0.12552781 0.23791242 0.15132415 0.17259274 0.12582454 0.1104126 -0.035105396 0.020258944 -0.15817223 -0.12621604 -0.067214504 -0.054601744 0.055109728 0.053074285 -0.046142053 -0.17286164 -0.067796834 -0.055488363 0.06355491
39 -0.03353566 -0.14154123 0.0584458 -0.16257958 -0.021093491 0.0921854 -0.010017086 0.12081683 -0.15790513 0.026290122 -0.16667794 -0.08986009 0.13764603 -0.06263794 -0.19663747 -0.026853511 0.06410074 -0.12560003 -0.06334092 0.22357276 -0.036980413 0.19807361 0.049063478 -0.08637198 -0.17727728 -0.016700927 -0.03938382 -0.069527976 -0.13776405 -0.027869003 -0.061604828 -0.005079729 -0.14812005 0.16813035 0.13502304 0.12340238 -0.16469136 0.039283536 0.0036740247 -0.098881915 0.029735496 0.22043511 -0.15104963 0.026392696 -0.09451016 0.1875634 -0.100632384 -0.005458813 0.13412037 0.15239763 -0.0016664842 -0.094399914 -0.14122011 0.031822015 0.100549184 -0.027400544 -0.031681452 -0.01603977 -0.048313793 0.15952466 -0.08901414 0.05730993 0.08049396 -0.019832255 -0.048454292 -0.08358253 -0.10768492 0.088809356 -0.08373443 0.13039581 -0.04507543 -0.13168488 0.13770847 0.0514676 -0.066449344 -0.07418593 0.0005382293 -0.008244988 0.25144163 0.028042207 0.1013748 0.11936421 0.1653079 0.052378986 0.10654443 -0.03348909 0.018994069 0.06570871 -0.08928125 -0.048249613 -0.10821131 -0.07073418 0.046054304 0.077637106 0.123658694 -0.20789848 -0.100185655 -0.16775899 0.07496128 0.07135101 -0.033574577 0.07218964 -0.04899933 0.016330382 0.24853718 0.24025944 -0.09766811 0.020206518 0.11304875 -0.12828651 0.22935408 0.14357297 0.18000335 0.11576167 0.103560165 -0.027206127 0.0128420675 -0.15625955 -0.12079436 -0.057225917 -0.056868944 0.065924525 0.06603242 -0.042702664 -0.1662593 -0.07125499 -0.061375704 0.06781291
65 -0.03655288 -0.12946251 0.058491003 -0.12300674 -0.03783719 0.07996221 -0.027518023 0.09302076 -0.16153643 0.022024652 -0.17978343 -0.06273741 0.14705132 -0.07715612 -0.19770586 -0.018115528 0.060922474 -0.14805247 -0.09641568 0.19943726 -0.025471566 0.17223434 0.050763756 -0.08282223 -0.19467422 -0.0008358619 -0.010963425 -0.048172187 -0.114179306 -0.024999501 -0.05639987 -0.0057983627 -0.1279226 0.17554434 0.12273197 0.087501 -0.15369 0.015795466 -0.003269753 -0.100639574 0.0020000788 0.20305751 -0.1315424 -0.00044057655 -0.0742205 0.21719527 -0.07198673 -0.021056775 0.14100567 0.14356455 0.012844886 -0.09300936 -0.11114626 -0.0055499636 0.08932675 -0.04101918 -0.05789184 -0.032656986 -0.026619177 0.17943457 -0.06952829 0.07002286 0.08440423 -0.046202622 -0.05329099 -0.066492 -0.12401465 0.08640039 -0.063714795 0.09997385 -0.06332735 -0.099775836 0.115218446 0.06942704 -0.05748576 -0.08977962 -0.013224396 -0.020101128 0.24779855 0.05188436 0.10634238 0.092387386 0.12030822 0.055632953 0.08644625 -0.011341859 0.020270528 0.056033622 -0.08602318 -0.015882934 -0.06411056 -0.042626273 0.041949853 0.06943415 0.13731539 -0.20801508 -0.10094687 -0.14889964 0.06651226 0.053797353 -0.016549062 0.051956475 -0.059306093 0.012937688 0.2570962 0.21749033 -0.10441382 0.022712482 0.10130765 -0.09216743 0.19065732 0.133732 0.16771792 0.11165737 0.09384303 -0.019280989 -0.010637989 -0.17792755 -0.11497772 -0.044969123 -0.057643827 0.06269469 0.0643831 -0.03928388 -0.19094208 -0.03650178 -0.03812496 0.053229783
124 -0.028892366 -0.14298573 0.048446707 -0.13683613 -0.03601967 0.092255235 -0.020696467 0.12595204 -0.1616625 0.0090829665 -0.16814572 -0.07048513 0.14368281 -0.067210466 -0.19150335 -0.01009116 0.06253161 -0.13150533 -0.07566278 0.20302424 -0.023622815 0.18608463 0.06344169 -0.09526694 -0.1838554 0.0021023992 -0.039671417 -0.052361492 -0.120406754 -0.03075369 -0.06397522 -0.0073282737 -0.1406084 0.1643654 0.13359612 0.097454734 -0.1630369 0.015340926 0.0048977807 -0.09618711 -0.012031712 0.2159073 -0.13588063 0.0060871104 -0.08792506 0.22502151 -0.09547546 -0.0070443014 0.1341336 0.15362415 0.006350673 -0.08972896 -0.11504777 0.012303594 0.094332755 -0.033076826 -0.04553248 -0.026104977 -0.05395821 0.18207689 -0.08414714 0.07539647 0.10622053 -0.045574054 -0.045645166 -0.070886225 -0.11000615 0.09933369 -0.059112374 0.11772987 -0.06279971 -0.118989475 0.11711537 0.06650079 -0.06036591 -0.10822899 -0.024206238 -0.009416073 0.25538078 0.055440765 0.10158989 0.09556666 0.14093174 0.060178917 0.087104686 -0.028739348 0.02316954 0.046548724 -0.096431896 -0.026603915 -0.07819961 -0.05446246 0.032497108 0.075873934 0.12820585 -0.22434908 -0.09791163 -0.15395801 0.056587268 0.06818712 -0.016980462 0.037190087 -0.051208965 0.009537917 0.26080874 0.22394064 -0.091838464 0.013045163 0.114211865 -0.101847745 0.21040991 0.14285289 0.1842065 0.14358369 0.098388456 -0.034661863 0.0066694254 -0.17800122 -0.12944955 -0.058796898 -0.06913805 0.06293473 0.04562948 -0.038325123 -0.18910609 -0.04580823 -0.045030713 0.06119011
111 -0.037678216 -0.17724758 0.055893667 -0.22413324 0.0014938891 0.10977266 0.021548303 0.23819543 -0.16742694 0.003561238 -0.14730458 -0.10336048 0.12244707 -0.008509596 -0.23535565 -0.023643048 0.09609729 -0.07061179 0.0070961677 0.30058965 -0.017430842 0.24968277 0.07512156 -0.1431583 -0.13582106 -0.034831252 -0.10897792 -0.09525374 -0.15867475 -0.007402307 -0.04898911 0.0048819142 -0.20623356 0.1377069 0.17289919 0.18682079 -0.15753987 0.07243462 0.07152252 -0.08634919 0.049615137 0.23208995 -0.16055666 0.03248197 -0.15109754 0.16137433 -0.14362815 0.017248433 0.11377204 0.16056721 -0.03750048 -0.11506445 -0.17801091 0.109027125 0.15195397 0.022598341 0.046726648 0.06278733 -0.083793074 0.14455737 -0.15041058 0.043732654 0.049817678 0.0064281616 -0.050400812 -0.14577162 -0.07203563 0.099758714 -0.12818983 0.16398256 -0.054522097 -0.20416297 0.19099611 0.0632657 -0.045251537 -0.06387636 0.0085411575 0.02293385 0.256249 -0.017149182 0.07452954 0.17227517 0.31212023 0.041747548 0.13967045 -0.07615407 0.010708686 0.037683718 -0.1159845 -0.09761553 -0.17439336 -0.13230461 0.060870703 0.13449386 0.09934991 -0.22382995 -0.108616546 -0.21782042 0.104094096 0.13317354 -0.015228193 0.07234976 -0.021214629 0.009435257 0.2318232 0.2598615 -0.086984165 0.0018952172 0.12579013 -0.15568696 0.28155932 0.20526147 0.2510775 0.15762815 0.09257612 -0.0662298 0.059347767 -0.13773867 -0.16083387 -0.09449658 -0.10273893 0.07780852 0.094631396 -0.04570041 -0.12704192 -0.14288023 -0.10140528 0.083059885
44 -0.045427445 -0.12613903 0.051797602 -0.11665413 -0.04429124 0.07575074 -0.03143496 0.08919694 -0.15978728 0.011881423 -0.17822027 -0.06500933 0.14088602 -0.08299609 -0.1832696 -0.010017698 0.052042518 -0.14211817 -0.09552057 0.18342866 -0.03368936 0.16210306 0.05554554 -0.07913433 -0.1978477 0.0020040008 -0.0106650265 -0.047134425 -0.106287576 -0.026353827 -0.059624087 -0.0088480525 -0.12679818 0.17787512 0.1254576 0.06630331 -0.16402796 0.006091981 -0.00882608 -0.08878282 -0.007528716 0.21326028 -0.13383031 -0.004638737 -0.07418421 0.22434862 -0.07616581 -0.012842427 0.13996695 0.14206776 0.013395812 -0.08927428 -0.10615106 -0.014876717 0.07612116 -0.038596373 -0.06931446 -0.048000734 -0.035870228 0.18660223 -0.06597833 0.08160347 0.09622281 -0.052853916 -0.048119273 -0.05126815 -0.12377156 0.085513346 -0.04761557 0.10242116 -0.05396951 -0.08429186 0.09543367 0.073732816 -0.052551176 -0.105691396 -0.01978906 -0.02650346 0.24778652 0.055502135 0.11607599 0.083988905 0.10488389 0.070152365 0.08269199 -0.0027736847 0.028964328 0.04961831 -0.08858995 -0.0064943936 -0.05535705 -0.033498023 0.026592545 0.06544843 0.12460803 -0.21141861 -0.0984565 -0.1436791 0.046692383 0.054400396 -0.014810594 0.027926376 -0.062369723 0.010444639 0.26313075 0.22229344 -0.10771941 0.022494432 0.095307045 -0.080195315 0.17964947 0.12658274 0.17015201 0.12538719 0.08758748 -0.016610561 -0.013240221 -0.18930946 -0.11264255 -0.03792294 -0.0545805 0.061140485 0.05199015 -0.028555887 -0.19974585 -0.028369475 -0.022971623 0.06206458
122 -0.046908565 -0.16433877 0.05564211 -0.20779504 -0.0062199403 0.104569994 0.011793523 0.23039599 -0.17560339 0.0017452447 -0.1636924 -0.1015564 0.13366278 -0.023588393 -0.24272777 -0.026808392 0.098250054 -0.08679842 -0.0120235905 0.30178905 -0.021500953 0.26026148 0.07535473 -0.13437395 -0.16189855 -0.030739484 -0.092873424 -0.10171915 -0.1648583 -0.009762312 -0.050976627 0.00968542 -0.20379202 0.13923916 0.1700393 0.17609204 -0.15293446 0.065527156 0.058075838 -0.091055945 0.04229425 0.23045707 -0.14764005 0.023365872 -0.14327346 0.1668822 -0.13563912 0.01722103 0.12217834 0.1573526 -0.024601188 -0.112572215 -0.16183132 0.08954375 0.14007436 0.010122273 0.03372089 0.052484192 -0.0806771 0.14673221 -0.13501583 0.043877605 0.047443263 0.011538744 -0.039386567 -0.1413028 -0.07290233 0.09263422 -0.13138129 0.16051945 -0.0568468 -0.19464616 0.18306674 0.06532183 -0.053455837 -0.06736684 0.0035220014 0.0063882903 0.26808423 -0.008847024 0.077999644 0.16348298 0.30417147 0.051270735 0.1350584 -0.07169853 0.010758002 0.03796725 -0.115901634 -0.08627833 -0.16873786 -0.12651531 0.06381303 0.12665118 0.108368635 -0.23646943 -0.10990545 -0.22003555 0.10291515 0.1286365 -0.020947322 0.06230056 -0.027660409 0.007429717 0.24913882 0.26286396 -0.09803549 0.00372742 0.1300166 -0.13965254 0.2699509 0.19631986 0.25330675 0.1601761 0.087198146 -0.056258045 0.046429034 -0.15213518 -0.16236617 -0.08898814 -0.09847588 0.07292629 0.08547211 -0.033126548 -0.13974045 -0.1262567 -0.09063766 0.0829299
107 -0.073054075 -0.09832837 0.07921967 -0.110469386 -0.042015724 0.06543431 -0.03946823 0.027178407 -0.16157815 0.035823185 -0.20330815 -0.0394205 0.14358027 -0.1129206 -0.2084282 -0.031909876 0.06701447 -0.15625887 -0.14876266 0.18816337 -0.05058732 0.1644427 0.033335887 -0.057556067 -0.2492604 -0.026256155 0.055802107 -0.062029842 -0.109790325 -0.031519078 -0.0519096 -0.0031099673 -0.112053506 0.19558924 0.09622184 0.060885478 -0.15448669 0.007825748 -0.017952885 -0.07893685 0.020635284 0.1785016 -0.12238802 -0.018924661 -0.048149243 0.18569198 -0.059664078 -0.025474457 0.13893752 0.10338367 0.018451687 -0.07659098 -0.08712198 -0.043008853 0.07183741 -0.058887556 -0.073408246 -0.05662421 0.023714298 0.16849506 -0.041219514 0.061803386 0.04120894 -0.023597786 -0.05145439 -0.045665868 -0.12846804 0.04219113 -0.0525163 0.08823738 -0.037283815 -0.055284273 0.10056102 0.058151644 -0.052662503 -0.08181295 0.009079459 -0.05994879 0.2558985 0.053851403 0.13864717 0.067927256 0.1033913 0.09277901 0.105259 0.03103216 0.014380034 0.06207135 -0.077696465 0.020978982 -0.036077335 -0.024550293 0.056267772 0.06263523 0.15244205 -0.2059961 -0.117202766 -0.16948232 0.07294757 0.042697445 -0.05632899 0.059474297 -0.09611249 0.023574248 0.28966594 0.2629293 -0.1258956 0.04189436 0.07397915 -0.065325126 0.15771057 0.110350505 0.17645904 0.10502986 0.09660858 0.013903253 -0.061218664 -0.21218307 -0.08544408 -0.025457144 -0.05359143 0.08382756 0.07660833 -0.012897212 -0.25072685 -0.023422262 -0.024159338 0.06527411
86 -0.05210305 -0.12929142 0.05029499 -0.12448745 -0.03426141 0.07758195 -0.01776933 0.11158051 -0.15460868 0.007459329 -0.17279795 -0.06294708 0.13710436 -0.062335968 -0.19284181 -0.0160464 0.06283795 -0.121101804 -0.0743858 0.20187287 -0.0297973 0.17434917 0.05259683 -0.07693763 -0.18952085 -0.0129117705 -0.014381903 -0.057939135 -0.11326432 -0.02286646 -0.045454778 -0.0052058664 -0.12807491 0.1499695 0.11874252 0.085681796 -0.13646182 0.026484825 0.010517086 -0.07325421 0.010989537 0.1886047 -0.12416697 -0.0056754895 -0.07893828 0.19255069 -0.09178558 -0.011420757 0.11733315 0.12192825 0.010194205 -0.08168375 -0.1107666 0.011334442 0.08382066 -0.03317051 -0.036771487 -0.016294312 -0.03552164 0.1605362 -0.07283492 0.058379427 0.06620167 -0.024851866 -0.043540597 -0.06934749 -0.09858586 0.071695484 -0.07332777 0.09841295 -0.051518317 -0.09313591 0.11274808 0.06703115 -0.051457297 -0.08939262 -0.006052753 -0.019985138 0.22916594 0.034508165 0.09982057 0.087742396 0.15441711 0.0671931 0.08431222 -0.01736352 0.029736742 0.039285272 -0.09525413 -0.0143329855 -0.082108304 -0.051848724 0.044478107 0.087723695 0.11981426 -0.20541124 -0.10341107 -0.15915038 0.062890455 0.073243886 -0.019654712 0.033193223 -0.05789813 0.018817397 0.24678354 0.2264401 -0.09815101 0.01837874 0.095790975 -0.073387414 0.18614024 0.14219558 0.17995763 0.13523322 0.0810583 -0.018786818 -0.0058568763 -0.17276396 -0.117285945 -0.04417275 -0.07243766 0.07325112 0.058879662 -0.021043539 -0.18761301 -0.037023813 -0.04287057 0.07143225
89 -0.044427674 -0.12741308 0.06169978 -0.14367552 -0.033213105 0.0689555 -0.0147804925 0.0971069 -0.148693 0.018369572 -0.1648661 -0.054139663 0.1274287 -0.069536924 -0.19797254 -0.021625655 0.06771307 -0.116420045 -0.08978004 0.20239075 -0.034071498 0.17461 0.051245254 -0.07553157 -0.19242565 -0.019006386 -0.005479372 -0.06725316 -0.12469511 -0.020794682 -0.040136486 -0.009631928 -0.1310386 0.16741206 0.123373665 0.0944494 -0.14550573 0.02782057 0.0011813076 -0.072964735 0.0316172 0.1846894 -0.13644993 -0.0013377091 -0.084126376 0.1747222 -0.07994364 -0.015893107 0.12581384 0.12392566 0.00069111714 -0.08246411 -0.112321995 0.0052251215 0.08090341 -0.026152138 -0.041155312 -0.0187994 -0.018263424 0.1544219 -0.07714093 0.049433317 0.05723606 -0.009330748 -0.050937053 -0.07610216 -0.10165343 0.06073296 -0.06760555 0.108713716 -0.034717385 -0.093341626 0.11291964 0.057207577 -0.052834224 -0.075244226 0.002119068 -0.018139163 0.24254622 0.02470314 0.10506877 0.099947795 0.1583954 0.066146106 0.094230294 -0.013289523 0.018465001 0.052467834 -0.0872095 -0.03061963 -0.08460509 -0.060041215 0.052753657 0.07375436 0.120191336 -0.1869208 -0.104272835 -0.15864788 0.0726026 0.060718115 -0.04191221 0.05755481 -0.069477536 0.022942437 0.24365857 0.23419191 -0.1075834 0.019096134 0.0900174 -0.09543992 0.18825218 0.13934888 0.18115918 0.11578717 0.08597362 -0.014648549 -0.015679756 -0.1708276 -0.10419243 -0.04790241 -0.061683174 0.07761775 0.07452698 -0.022922102 -0.18538766 -0.056601975 -0.046844345 0.07047105
21 -0.045618705 -0.12286929 0.06317245 -0.16182493 -0.021655751 0.080804944 -0.012951676 0.11485078 -0.14068083 0.017310845 -0.15366961 -0.07312985 0.12624909 -0.05867845 -0.19796619 -0.0273847 0.06558225 -0.09111255 -0.07299398 0.21451974 -0.041390024 0.17303571 0.05002902 -0.091202065 -0.17452584 -0.035028458 -0.044930913 -0.07430244 -0.13933411 -0.014734995 -0.03815393 -0.012517386 -0.14557531 0.15309887 0.13006847 0.10764444 -0.15019584 0.032021746 0.009920966 -0.06878501 0.038974162 0.18226339 -0.13188548 0.007036805 -0.08875942 0.14664234 -0.09672214 -0.012730982 0.11859594 0.12228799 -0.013077699 -0.07300569 -0.11282999 0.013034757 0.08997385 -0.0010400389 -0.025535537 -0.009232894 -0.025791196 0.14400725 -0.08768479 0.049981672 0.055310015 0.012750787 -0.04805984 -0.072249904 -0.07984105 0.052876584 -0.072543904 0.109305285 -0.020896224 -0.10983872 0.13355267 0.058075096 -0.043009527 -0.07705169 0.009551465 -0.020097738 0.24737252 0.011896838 0.10813121 0.114080526 0.18787466 0.065669514 0.11921257 -0.035429455 0.011523519 0.04505212 -0.09670421 -0.0452857 -0.11690922 -0.072452605 0.04811196 0.09143026 0.1194475 -0.19563076 -0.11019384 -0.17336431 0.07919787 0.072071254 -0.05980829 0.052531 -0.0661951 0.019507624 0.24409057 0.25714546 -0.11348479 0.018539276 0.09803488 -0.09921673 0.20778677 0.14377193 0.19992048 0.1284996 0.09739746 -0.019414658 -0.011831887 -0.16244833 -0.10666645 -0.056803204 -0.06829793 0.08387385 0.066225216 -0.027894292 -0.18678105 -0.070318334 -0.049535938 0.08165224
50 -0.038506612 -0.13419951 0.054375477 -0.16130346 -0.029849295 0.083350465 -0.014572598 0.120585896 -0.15034367 0.012474387 -0.15784511 -0.07589075 0.13144489 -0.06650713 -0.20175259 -0.028687783 0.06710757 -0.11073144 -0.0681201 0.21524814 -0.033812504 0.18181734 0.05585311 -0.08791555 -0.17976713 -0.017010791 -0.042748686 -0.067171104 -0.13360697 -0.01868746 -0.0492473 -0.011106911 -0.14927119 0.16201039 0.1378633 0.108022295 -0.158736 0.03651889 0.000959458 -0.08198663 0.024921788 0.19892375 -0.14194095 0.014788392 -0.09254489 0.17118679 -0.093813725 -0.008561668 0.13070281 0.13878803 -0.0037814197 -0.087020494 -0.12390742 0.014756206 0.091598175 -0.015573044 -0.037584573 -0.0077486984 -0.038881533 0.15968849 -0.091217145 0.060224187 0.07291645 -0.012808233 -0.05118988 -0.070084885 -0.10150311 0.073777206 -0.06689789 0.12062163 -0.040247977 -0.11926903 0.12633812 0.05390798 -0.057093788 -0.083559014 -0.0025040412 -0.009758433 0.25337854 0.024828378 0.09744432 0.11563182 0.17097634 0.0621461 0.10775962 -0.032685194 0.017734751 0.054501723 -0.09265144 -0.048363812 -0.104578234 -0.072904505 0.044604182 0.07974228 0.12362417 -0.20508443 -0.104618125 -0.16768537 0.065832675 0.07461755 -0.037600998 0.056981385 -0.06273161 0.015938113 0.23967768 0.24298027 -0.10919328 0.018681582 0.105457366 -0.10640457 0.2185434 0.13900639 0.18791035 0.1259191 0.10236984 -0.019884786 -0.0014510236 -0.16420323 -0.117814794 -0.059891403 -0.05930776 0.074408144 0.0641582 -0.030100182 -0.17325446 -0.07045605 -0.055509053 0.06959553
115 -0.051497445 -0.11537146 0.06740667 -0.13368468 -0.025961284 0.07040847 -0.02441592 0.07711169 -0.14859647 0.028180804 -0.16477565 -0.05814115 0.12403116 -0.073874034 -0.19394971 -0.029875472 0.06153273 -0.11496976 -0.09280757 0.19166602 -0.035935123 0.16758923 0.04513064 -0.073254414 -0.19308765 -0.020585064 0.0024675955 -0.06685489 -0.115669005 -0.022382034 -0.05004402 -0.0070620305 -0.13225356 0.1725079 0.116641484 0.09366952 -0.15459852 0.024050549 0.000101100035 -0.07530785 0.02929989 0.18708712 -0.12672544 0.0035311927 -0.073201306 0.1683028 -0.08070768 -0.010829762 0.1256347 0.12424295 0.006185898 -0.084989674 -0.114122495 -0.002065725 0.08602658 -0.030518256 -0.043155234 -0.020445725 -0.011971563 0.15186775 -0.071078256 0.050225426 0.05598895 -0.012395173 -0.050296895 -0.067194745 -0.105641946 0.060609765 -0.06875147 0.10946144 -0.037118655 -0.09412677 0.11913801 0.047756925 -0.05564714 -0.06800991 0.008467416 -0.030725509 0.23778872 0.029978218 0.108923554 0.0975418 0.14033785 0.063812315 0.10421083 -0.00014454602 0.013645132 0.055791683 -0.0818908 -0.022054425 -0.07841686 -0.05351863 0.052574925 0.06846063 0.1302707 -0.19086331 -0.10405428 -0.15959541 0.07289603 0.06095053 -0.044648062 0.069291 -0.063636236 0.018938234 0.25052962 0.24231412 -0.11189698 0.025074344 0.086476065 -0.09591604 0.19011511 0.12851658 0.17823057 0.10229839 0.088924676 -0.0069867615 -0.02134848 -0.17297132 -0.10070657 -0.04321713 -0.058056623 0.07196413 0.07181057 -0.023031289 -0.19144665 -0.056763623 -0.048575412 0.06848977
41 -0.05307707 -0.13247405 0.05651178 -0.14258212 -0.02852519 0.07550235 -0.009911349 0.12249444 -0.1583606 0.014665067 -0.17087796 -0.065839365 0.1305473 -0.056412913 -0.20662329 -0.023278652 0.07320779 -0.11506094 -0.07366194 0.22496231 -0.028375223 0.19546583 0.056011364 -0.08618569 -0.19341849 -0.015769202 -0.02373855 -0.068105124 -0.12113512 -0.020264518 -0.0498144 0.0005355322 -0.15139401 0.16361116 0.13060819 0.108687356 -0.15188512 0.035284195 0.018058028 -0.07932437 0.018936856 0.20373307 -0.14010237 0.002808455 -0.09461457 0.18840323 -0.09431359 -0.0068602054 0.12609355 0.13274877 0.0046471185 -0.09582413 -0.12774351 0.024394698 0.10040104 -0.023194827 -0.027700331 -0.0031258299 -0.030330123 0.16575365 -0.08924278 0.054378837 0.055056803 -0.01666868 -0.05136268 -0.08698634 -0.10075215 0.07508555 -0.086407825 0.115112044 -0.0495925 -0.11217067 0.13347349 0.06716081 -0.055213347 -0.07739206 0.0020047687 -0.018247219 0.24607387 0.027508968 0.103558175 0.10669626 0.18936014 0.06654153 0.101264596 -0.02539179 0.018642815 0.047177963 -0.09844707 -0.031176379 -0.096995935 -0.07035054 0.050050136 0.09776113 0.12121908 -0.21581139 -0.110874064 -0.18062602 0.07163658 0.07978917 -0.024460755 0.0512322 -0.055466678 0.012669915 0.25545177 0.23897578 -0.10013212 0.0147604905 0.099643394 -0.09081983 0.2041421 0.14857051 0.20713302 0.137286 0.08170083 -0.025310118 -0.005584291 -0.17860563 -0.12260031 -0.05442213 -0.08103741 0.075348176 0.076421514 -0.02266962 -0.18633878 -0.06319811 -0.055310674 0.07214448
80 -0.046544664 -0.12431665 0.064814664 -0.17325714 -0.028727919 0.073735036 -0.011918197 0.121505 -0.15033181 0.015453992 -0.15534304 -0.07056061 0.12707138 -0.061807662 -0.20540155 -0.023001311 0.07302885 -0.09277346 -0.074527405 0.21852127 -0.045096844 0.17853215 0.053176664 -0.095505156 -0.18824138 -0.035600435 -0.048012786 -0.07558453 -0.14571957 -0.010427637 -0.036634464 -0.01193014 -0.15979253 0.16066672 0.13981947 0.10775794 -0.1518076 0.03172123 0.005853401 -0.066968225 0.040427733 0.19191566 -0.14338283 0.0031588685 -0.092905946 0.15005238 -0.10093167 -0.012104821 0.11579655 0.12858365 -0.009958336 -0.0753327 -0.11835086 0.0149714695 0.09224092 0.0013845068 -0.030075599 -0.0072823204 -0.02769025 0.15463793 -0.09566206 0.054099947 0.060281996 0.012647279 -0.056158017 -0.07368847 -0.0856257 0.055822365 -0.064266086 0.11330362 -0.020017907 -0.109678596 0.13390422 0.0656344 -0.04547366 -0.0783937 0.012986827 -0.016229762 0.2622882 0.012140964 0.10892073 0.12064815 0.18892916 0.07245294 0.119199514 -0.035196856 0.008847264 0.050627023 -0.099622585 -0.04347929 -0.12099663 -0.07311592 0.047125734 0.096342474 0.12014787 -0.21315558 -0.11261943 -0.17987555 0.0780274 0.07642275 -0.063727856 0.052071176 -0.07578194 0.024235914 0.2591783 0.2681453 -0.1171352 0.013843588 0.10759996 -0.10653801 0.22011639 0.15374582 0.20302302 0.13915351 0.10577052 -0.018637484 -0.010466703 -0.17044331 -0.11888166 -0.05962765 -0.071331255 0.08461519 0.06842921 -0.031783044 -0.1996098 -0.07799549 -0.04950119 0.08282855
