91 128
2 0.32385796 0.15385443 0.1276965 -0.27342725 0.08473974 -0.022835134 -0.013954563 0.013644931 0.120012544 -0.2285212 0.2743439 -0.04299546 0.14809316 -0.008389489 -0.0409302 0.039483316 0.021278322 -0.064982526 -0.023507793 -0.045774642 0.055895556 0.047371767 0.12188157 0.076199986 0.0021828413 0.007337906 -0.18115221 -0.08907602 0.038303185 0.12194747 0.04574988 -0.08254438 -0.15902369 0.056303192 0.069770016 -0.15772696 0.09208276 -0.05168894 0.016271267 -0.0047507347 0.022135576 0.025278179 -0.0247136 0.113728434 0.14696714 -0.11733944 0.09533425 -0.038386095 0.034299262 0.0008777207 0.07913848 0.03793346 -0.14294724 -0.1031277 -0.17754777 -0.09792196 0.19701402 -0.15706412 -0.003034353 0.041399147 0.07334991 0.006194026 0.13509686 0.09879844 -0.045219615 -0.07340591 0.06215049 -0.04686565 0.0064078486 0.043837205 0.124614775 0.12748954 -0.20400201 -0.0056534195 -0.03975863 0.13096155 -0.016854502 0.04607982 0.12289875 -0.1879808 -0.03654956 -0.23371041 -0.048872 0.18583399 -0.13900597 0.036212318 -0.06191074 0.059480377 -0.116665654 0.023551784 0.018858463 0.17091338 -0.23660737 -0.004763741 0.0075232247 0.056119137 -0.098622926 0.15248568 -0.13366447 -0.24933007 0.042262815 -0.088276714 -0.176638 0.037117343 0.041950032 0.100658834 0.1362844 0.093502864 -0.28478822 0.093059294 0.1847956 0.17372139 -0.0011969019 -0.16595122 -0.080363214 -0.07558826 0.11975258 -0.2991423 -0.0075669964 -0.035493 0.034203336 -0.07152274 0.05523817 0.16165443 -0.047618516 -0.16778983 0.041859295 0.106438234
4 0.2297168 0.13362253 0.113277666 -0.19880868 0.055105664 0.011090743 -0.0498769 0.06603035 0.04876753 -0.15591796 0.22399443 -0.04303566 0.19586326 -0.095417514 -0.0068135434 0.016322363 0.0172576 -0.054035705 0.070544474 -0.052616153 0.05443714 -0.0036008507 0.100857034 0.05169895 -0.050877366 -0.014577553 -0.14170723 -0.05577167 0.0037715223 0.15147096 0.0748799 -0.11200731 -0.13931927 0.09937904 0.05677444 -0.09846914 0.06386918 -0.03955797 -0.032040738 0.0021544786 0.054697532 -0.021369122 -0.079462975 0.15164115 0.1691666 -0.16873871 0.13062744 -0.115475155 0.0050217365 -0.025968209 0.0456167 0.026148995 -0.15057464 -0.11367679 -0.16054873 -0.056428548 0.25063226 -0.16229723 -0.004136119 0.01509749 0.06031037 0.01704479 0.13845825 0.12749954 -0.015998524 -0.06090407 0.08395065 -0.047458883 -0.0059749517 0.07400618 0.09949935 0.143724 -0.21663897 0.025761025 -0.024872495 0.09626988 -0.0075090583 0.08127681 0.08863819 -0.13045117 -0.10691532 -0.19079573 -0.055826202 0.23224127 -0.20061095 -0.0037749244 -0.040032815 0.017123248 -0.08532177 0.047718 0.024575872 0.2076986 -0.21909213 0.05724513 -0.005878045 0.02722842 -0.118014894 0.19473803 -0.18032205 -0.25167853 0.07588391 -0.15966216 -0.15903471 -0.018722115 -0.010052118 0.09602219 0.115306474 0.11533318 -0.28060204 0.1611309 0.23858379 0.14896268 0.0044036824 -0.18859346 -0.033008814 -0.07778015 0.11835252 -0.28310218 0.011170588 -0.059682433 0.028903475 -0.060909737 0.048492156 0.18313439 -0.07004432 -0.15032443 0.039418336 0.12988493
39 0.27303937 0.15439889 0.1615805 -0.2439741 0.0747607 -0.020567304 0.001168173 0.028396413 0.04531419 -0.20123579 0.288155 -0.03563348 0.2370582 -0.06909295 -0.0370506 0.035412896 -0.0015921294 -0.046695326 0.050195094 -0.040188555 0.10299406 0.07274297 0.13261606 0.06978822 -0.065036125 -0.03767248 -0.16498737 -0.09750339 0.02285509 0.15944487 0.092138 -0.16235748 -0.14671707 0.110476255 0.02157381 -0.14727814 0.05372278 -0.029768417 0.01622302 -0.032861438 0.058285054 -0.00584917 -0.054481972 0.14947732 0.2557681 -0.09577961 0.05263111 -0.08887622 0.032877035 -0.050665684 0.06680313 -0.0038366027 -0.19464412 -0.1554305 -0.1837981 -0.06380969 0.23889306 -0.15681364 0.01271886 -0.0032994319 0.036775943 0.033590242 0.14886512 0.13432656 -0.052587375 -0.05933116 0.11328488 0.011719967 0.0081983395 -0.0040041897 0.07628578 0.10607319 -0.2509005 0.037489858 0.031350665 0.10120288 -0.013511751 0.02762882 0.05018743 -0.18333684 -0.07047159 -0.2385499 -0.035465427 0.20197085 -0.17965014 0.04671323 -0.1191251 0.056095008 -0.0864096 0.03447531 0.056048617 0.20529906 -0.23186642 0.024779709 -0.0076838294 0.03905203 -0.16279931 0.18252833 -0.16845499 -0.18363976 0.08682578 -0.12670021 -0.17661081 -0.009983266 -0.031944282 0.087585226 0.16714488 0.14770438 -0.24432722 0.16649254 0.2363591 0.13521607 0.051177282 -0.21865128 -0.046080023 -0.13429864 0.11568427 -0.33145985 0.041532505 0.0012574914 0.059645995 -0.09967106 0.062437255 0.12973206 -0.081315406 -0.17672618 0.03491806 0.11683828
8 0.27589157 0.0830231 0.016031321 -0.29450816 0.098967336 -0.060699735 -0.05960711 -0.06384182 0.2753672 -0.20631012 0.18097329 -0.100392476 -0.036365118 0.10345848 0.06989802 0.07678234 0.12817904 -0.13191868 -0.06060499 -0.009589564 -0.0048055896 -0.04392813 0.11746606 0.107212804 0.17120877 0.0862418 -0.19700475 -0.079467624 0.07092174 -0.09471509 -0.04851063 0.06771913 -0.23549685 -0.01671034 0.14255539 -0.17202446 0.13466102 -0.14682272 -0.039622985 -0.00790786 -0.043622483 0.10311586 0.014116634 0.059335668 -0.08705901 -0.20407435 0.115884885 -0.022527702 0.07624869 0.13891248 0.006106717 0.07523675 -0.039403584 0.03793571 -0.09521975 -0.17908792 0.25652826 -0.11128042 -0.07357764 0.11758388 0.17604221 -0.09979885 0.10490312 -0.03690462 -0.00907201 -0.12034466 -0.040826667 -0.20247261 -0.036532797 0.18948078 0.21444541 0.0930253 -0.059768986 -0.038384415 -0.3165925 0.21728513 -0.065028876 0.045502413 0.2988805 -0.13131255 -0.028724147 -0.16573344 0.023420012 0.18867792 0.012716322 -0.031301986 0.10096908 0.124471255 -0.27163303 -0.0070502227 -0.034535337 0.08752095 -0.2419493 -0.06842131 0.083500385 0.03557953 0.022108126 0.053669304 -0.00012876496 -0.342959 -0.040824834 -0.0004904681 -0.118103504 0.10575217 0.23642862 0.13658327 0.012138923 0.024091939 -0.3851554 -0.049751535 0.02224144 0.2439719 -0.05881185 -0.057507683 -0.05080374 0.06912548 0.1866659 -0.1203691 -0.1412001 -0.0717495 -0.026737718 0.06270728 0.109590486 0.20951663 0.096939884 -0.10172823 0.0075722616 0.08979086
92 0.23719288 0.05127671 0.038942512 -0.27714762 0.05908097 -0.08624739 -0.0755998 -0.026569413 0.2617048 -0.21193373 0.16706955 -0.13240987 -0.0065421094 0.09512158 0.10824116 0.08256898 0.16512537 -0.1431034 0.0003503759 0.012656615 -0.03981875 -0.032621134 0.100159034 0.070828356 0.18825988 0.062591806 -0.17772321 -0.052454118 0.07547096 -0.055106036 0.0039029666 0.0037803547 -0.22785972 0.06997971 0.15255326 -0.14466831 0.14195587 -0.14094685 -0.038601544 0.023899887 -0.02382843 0.07451887 -0.010995936 0.11536056 -0.03320714 -0.19821806 0.16604558 -0.107715905 0.063127525 0.09084146 0.009152849 0.07949805 -0.056687996 0.003862333 -0.11650349 -0.09892255 0.28003624 -0.12238383 -0.0972554 0.13690701 0.17215566 -0.06976406 0.049378503 -0.040820815 0.026351944 -0.14690717 -0.014344346 -0.16792843 -0.01879705 0.20109916 0.21893844 0.070471734 -0.12744153 -0.048016027 -0.29592216 0.14799288 -0.05698755 0.033137094 0.25803882 -0.07729241 -0.079089046 -0.09891931 0.020455496 0.18547969 -0.014362162 -0.05355015 0.10863902 0.08768631 -0.19980289 0.0080852425 0.0126250945 0.119306564 -0.20464641 -0.025502687 0.0023870766 0.02295654 0.057823345 0.03359406 -0.052027836 -0.26983115 -0.017251765 0.0028383338 -0.10392647 0.06993601 0.16475354 0.108305 -0.010505879 0.0050957776 -0.33328754 0.024071453 0.06370393 0.18039255 -0.035821818 -0.05897873 -0.06880462 0.08632475 0.16198257 -0.09555113 -0.18688776 -0.087128654 -0.0025519112 0.08658682 0.022322914 0.17371324 0.046295725 -0.08002456 0.024376102 0.038545698
28 0.25005803 0.13670453 0.15303683 -0.2566353 0.06532555 -0.057131242 -0.017410014 0.022659594 0.06090256 -0.26021498 0.26351604 -0.040340055 0.20791206 0.022167267 -0.010139584 0.123890005 -0.011362498 -0.023640374 0.04274956 -0.0667093 0.08945004 0.113782965 0.12666667 0.05479342 0.020209791 -0.09659208 -0.15359068 -0.1289382 0.072612755 0.10927807 0.05875333 -0.16819687 -0.21236566 0.1085799 0.0069857165 -0.20877472 0.026534932 -0.03457096 0.046457693 -0.07905819 -0.021661744 0.0480096 -0.041186236 0.121121675 0.27607232 -0.03520027 0.0042264494 -0.0694109 0.082350224 -0.024527738 0.044421624 -0.034385286 -0.17987862 -0.11639734 -0.22606388 -0.10005979 0.2620247 -0.17827557 0.011504142 0.007730189 0.032193437 0.037196193 0.1902122 0.09864468 -0.056915194 -0.06914166 0.12025197 0.049786028 0.0044819275 -0.023426468 0.10174319 0.07262107 -0.22754231 0.05755948 0.00060648436 0.16915216 -0.06462385 0.006938398 0.102684684 -0.24981 -0.055934805 -0.29630002 0.00092887855 0.24257514 -0.15170489 0.06509485 -0.13455579 0.14032334 -0.15234685 0.022403244 0.06608133 0.21695122 -0.23357016 -0.0037783063 0.030164044 0.019054849 -0.1846417 0.1369178 -0.16649096 -0.25051534 0.11638938 -0.09792198 -0.20362328 0.037254393 0.019955747 0.081857055 0.17695348 0.16316286 -0.2775606 0.16870092 0.20645186 0.1747938 0.03625079 -0.20983854 -0.02695745 -0.15859869 0.17824757 -0.35869193 0.05023506 0.056960337 0.07043303 -0.09918538 0.11664549 0.14602296 -0.038899288 -0.20196608 -0.012500627 0.12391319
1 0.28905913 0.079575464 0.0755229 -0.2778201 0.07507616 -0.07336408 -0.05998461 -0.013674028 0.21186806 -0.21898478 0.21729206 -0.09469589 0.06349009 0.078568414 0.044599943 0.09090346 0.12860617 -0.13451731 -0.0015288391 0.008448025 0.00080855336 0.004588643 0.13270026 0.067827374 0.13571094 0.05138155 -0.20898569 -0.05430294 0.0666179 -0.023279922 0.024532272 -0.03566122 -0.2139899 0.0761086 0.109163634 -0.14995883 0.13438219 -0.11715222 -0.046266638 0.03674353 0.016209312 0.06285857 -0.0081355795 0.124768294 0.02295749 -0.17610557 0.13748106 -0.09247639 0.044092692 0.07353894 0.018944995 0.05198878 -0.08305375 -0.03481536 -0.13628092 -0.099556684 0.26989657 -0.13522239 -0.08751367 0.116019994 0.14260854 -0.036869247 0.07213353 0.012799973 -0.0051652524 -0.12074377 0.0070961826 -0.13016947 -0.01880323 0.16653423 0.20998035 0.08419724 -0.17121474 -0.04146134 -0.22088738 0.12722896 -0.06329145 0.028465664 0.22049704 -0.1315132 -0.058712095 -0.1522576 0.01835771 0.21054664 -0.05645509 -0.031898405 0.03574169 0.05728851 -0.17918698 0.0052979114 0.02728751 0.13941245 -0.20350252 -0.032673094 -0.003619452 0.035168715 -0.011008164 0.06690796 -0.0650725 -0.24207668 0.020390112 0.009853862 -0.11884359 0.05326445 0.13488722 0.12432294 0.019623617 0.0446842 -0.32899266 0.040238895 0.08557354 0.17931938 0.000625245 -0.10652569 -0.08606149 0.013048498 0.15549658 -0.13536526 -0.13427888 -0.06963251 0.013736518 0.06207372 0.029625483 0.15888503 0.004081117 -0.117265955 0.02468587 0.03715899
17 0.27774405 0.10978757 0.11224899 -0.25184867 0.06577605 -0.0599288 -0.032002583 0.033333 0.13351339 -0.24521166 0.23623839 -0.06692487 0.13208342 0.03423777 0.02137697 0.10393397 0.06458069 -0.07423532 0.028066048 -0.03218324 0.024977025 0.055144146 0.12429266 0.054548 0.07522175 -0.025341997 -0.16081019 -0.08780041 0.070049964 0.059109185 0.04342437 -0.09795419 -0.21072687 0.09749444 0.06726665 -0.17517169 0.08520345 -0.068250425 -0.013212563 -0.0038335496 -0.0073441765 0.028955594 -0.031973485 0.13124704 0.1506942 -0.11846785 0.08553873 -0.09976416 0.056775656 0.008090913 0.03391652 0.015632821 -0.12802358 -0.07189302 -0.18152371 -0.090834685 0.25143796 -0.16291673 -0.04439024 0.06532695 0.09055453 0.0041962466 0.11928723 0.05007288 -0.025060147 -0.10233348 0.05123531 -0.039105423 0.0022853476 0.061876122 0.15572354 0.07391513 -0.19650748 0.00010227552 -0.096905895 0.13400353 -0.055250786 0.02904525 0.15617093 -0.17032637 -0.059890628 -0.21887277 0.0072686435 0.20856522 -0.101221636 0.0096797785 -0.032469958 0.10227213 -0.13121787 0.011000481 0.041076735 0.17663132 -0.20458333 -0.008176678 0.0028876371 0.020938475 -0.09401817 0.09992352 -0.114603415 -0.22113608 0.06899652 -0.027922476 -0.1560248 0.033324264 0.056790426 0.09985114 0.09779705 0.09366507 -0.27138337 0.12394407 0.14768608 0.16239724 0.017128624 -0.13837603 -0.058125667 -0.0710264 0.14628157 -0.22757928 -0.053053815 -0.02209965 0.045696497 -0.018151427 0.040802862 0.13608249 -0.011144214 -0.16487409 0.004916732 0.060877427
33 0.18872361 0.13959876 0.05251436 -0.16472422 0.03583189 -0.049881488 0.056426167 0.1065874 0.09296962 -0.20776185 0.20077291 -0.082029015 0.15289862 -0.08778182 0.13625537 0.0332283 0.06435695 -0.085500896 0.075952016 -0.0019933728 0.039828364 0.048688747 0.08478038 0.10149942 0.037326515 -0.05997763 -0.07613734 -0.1388738 0.06551132 0.06534871 0.062278632 -0.13459976 -0.22903691 0.10211843 0.0897622 -0.18321608 0.023903893 -0.052490667 -0.023701126 -0.0553541 -0.055052422 -0.03954352 -0.06257148 0.1327278 0.14639042 -0.115684666 0.023279004 -0.19793211 0.084387615 -0.011471571 -0.042010516 0.0150161 -0.15050633 -0.08335194 -0.13199392 -0.07537245 0.36597204 -0.15694366 -0.07422949 0.046476945 0.10705509 -0.13331647 0.15853539 0.032783315 -0.008505715 -0.14561294 0.052587137 -0.076246 0.02228555 0.017548483 0.091205455 0.006972451 -0.17211124 0.035777353 -0.13943845 0.15511382 -0.04093502 0.028598828 0.18583298 -0.11522618 -0.17381778 -0.21009642 0.068992674 0.20408916 -0.061523724 0.0151236225 0.013173023 0.23422189 -0.1338599 -0.0006911146 0.036257725 0.22313929 -0.24536963 0.067452915 0.03165605 -0.045158055 -0.1019102 0.11672463 -0.0649985 -0.23381552 0.10377865 -0.099142164 -0.13224691 -0.025858214 -0.021031955 0.10607996 0.100666076 0.12769045 -0.23194501 0.24078111 0.18056019 0.16553499 -0.010065507 -0.10879405 0.07850406 -0.042750526 0.1260801 -0.22804596 -0.10229304 -0.01880667 0.03169345 -0.013343987 0.11301347 0.11036657 0.08439625 -0.22563855 0.02541661 0.12275362
9 0.18303758 0.07117216 0.049237985 -0.19499995 0.04165169 -0.07401963 -0.021086307 0.009578205 0.13463016 -0.16813624 0.2106529 -0.12555271 0.123054884 -0.030685062 0.13280945 0.05464863 0.106117554 -0.12506647 0.11417065 0.032566026 0.03837001 0.021575782 0.10731792 0.10073959 0.072002806 -0.01448993 -0.15197222 -0.08280787 0.049675547 -0.018897627 0.09728232 -0.12532003 -0.21715458 0.13794513 0.06125632 -0.1569577 0.07434888 -0.085747786 -0.06087507 -0.01930541 0.028552124 0.0287744 -0.058525667 0.16884555 0.10840954 -0.158631 0.045433342 -0.2008504 0.07155397 0.024467617 -0.024231864 0.0037302373 -0.13529913 -0.0660676 -0.11703952 -0.06698303 0.3611581 -0.10454815 -0.07204568 0.08219475 0.11519751 -0.09193215 0.06960483 0.021884095 -0.002793706 -0.12906587 0.052102108 -0.10820747 -0.0055835354 0.103840314 0.1511669 0.03312428 -0.21796355 0.029400483 -0.19440217 0.10111837 -0.063126504 0.020150527 0.17282455 -0.096724354 -0.14712724 -0.14087923 0.07753556 0.19352752 -0.06642007 -0.017909182 0.016591782 0.11524996 -0.14467984 0.0024175025 0.05780864 0.19524771 -0.21274094 0.021620454 -0.003322906 -0.004438906 -0.03663808 0.0966549 -0.068971656 -0.18991065 0.08526251 -0.040503956 -0.1078924 -0.009540206 0.035706595 0.084122896 0.030943392 0.08211968 -0.29202756 0.16958609 0.15961933 0.16099472 0.039640535 -0.14376676 0.040673144 -0.0015938188 0.15032448 -0.16903216 -0.13636667 -0.025298784 0.037556395 0.06895032 0.059611354 0.11237178 0.022436043 -0.1434409 0.023163231 0.07613879
117 0.2613287 0.14282061 0.15708321 -0.26952866 0.06933271 -0.03901383 -0.019703574 -0.0035332697 0.05682676 -0.20062955 0.27656305 -0.052798282 0.22008803 -0.035258986 -0.033384863 0.04328513 0.004669419 -0.04803341 0.03397652 -0.056508947 0.097895704 0.06456891 0.121643186 0.070320666 -0.042142995 -0.04271695 -0.18364605 -0.09387266 0.010454185 0.16571681 0.097688176 -0.15642953 -0.14715388 0.11366526 0.020263862 -0.14908712 0.0451981 -0.033487715 0.04862529 -0.048079133 0.050774664 0.01819366 -0.06341457 0.134263 0.24482441 -0.07286347 0.059031993 -0.06788987 0.049479607 -0.033619635 0.07407612 -0.00029088382 -0.19445369 -0.1466185 -0.18159495 -0.063703276 0.21041273 -0.13944122 0.037103206 -8.228343e-05 0.033046395 0.044735003 0.14064288 0.123858005 -0.03774763 -0.055547785 0.11508406 0.016225278 -0.001285517 0.008631067 0.07242138 0.10964028 -0.23773065 0.027245935 0.022842877 0.09944169 -0.012987975 0.016413042 0.04720099 -0.18174827 -0.05682863 -0.21321222 -0.055958334 0.1952724 -0.17359637 0.047465604 -0.11759738 0.052722663 -0.09440276 0.04257043 0.050363723 0.18111192 -0.22249341 0.014301935 -0.011497226 0.034934033 -0.13605621 0.16109559 -0.1677049 -0.20573194 0.08253037 -0.14004174 -0.17455938 0.018522346 -0.017482165 0.0685177 0.14551096 0.13879421 -0.2447985 0.14096098 0.22850186 0.13003233 0.035621885 -0.20787801 -0.046941612 -0.10676574 0.13172954 -0.3384972 0.050819166 0.011601031 0.05812081 -0.09603664 0.06638757 0.1473531 -0.092015006 -0.13534169 0.014472084 0.11148969
19 0.29249388 0.03902241 0.0995907 -0.29282194 0.06769783 -0.12167588 -0.11647355 0.03229777 0.24220929 -0.30344546 0.2122864 -0.11719643 0.06291127 0.17649505 0.073810495 0.21232603 0.17312333 -0.13503179 0.038739167 0.0041975863 -0.05000177 0.050415732 0.14819159 0.043652315 0.24857782 0.0074546863 -0.22986889 -0.07047443 0.12683898 -0.06472599 0.031244725 -0.076470464 -0.29281837 0.1502672 0.104931384 -0.21296027 0.13674232 -0.12062295 -0.063714586 0.036239382 -0.017664937 0.10870073 0.00862118 0.15318546 0.07830721 -0.1215195 0.1386066 -0.13611402 0.08656907 0.09409694 0.013947159 0.020379923 -0.08358604 -0.0068995603 -0.20568591 -0.084940426 0.33023736 -0.16195184 -0.13269217 0.16751505 0.14887932 0.0076582665 0.067523144 -0.02501115 -0.003870439 -0.16078755 0.016400723 -0.07722222 -0.017743023 0.1760645 0.29018632 0.042614516 -0.19927426 -0.03329485 -0.26943374 0.12743896 -0.13493042 0.009838774 0.261214 -0.18139209 -0.05854488 -0.18427964 0.075014696 0.26790038 -0.045749445 -0.048035253 0.020804675 0.0997535 -0.19072261 -0.004858544 0.0768709 0.18091473 -0.16415432 -0.060609613 -0.023239492 0.029249921 -0.010308832 0.016396923 -0.09488946 -0.23715802 0.072133586 0.10731824 -0.14110896 0.08123765 0.16248505 0.1300824 0.012738588 0.046626035 -0.34750205 0.09641589 0.0696995 0.18889332 0.026360735 -0.09365391 -0.11205709 -0.01507194 0.20893255 -0.10507959 -0.16894957 -0.028848333 0.034453742 0.11020253 -0.010677707 0.13880649 0.013382321 -0.15064047 -0.014446142 -0.04094439
14 0.19831425 0.104409546 0.114649646 -0.20511451 0.043990467 -0.05345811 -0.010547184 0.038405485 0.060853567 -0.18472241 0.2440215 -0.069190525 0.19880474 -0.046998765 0.042372312 0.07397093 0.045701645 -0.063125454 0.10334083 -0.015313914 0.078856274 0.080970936 0.112638965 0.07012527 -0.0065539936 -0.07096884 -0.14237814 -0.107388176 0.046793487 0.097841986 0.10788348 -0.18090485 -0.19094682 0.14319782 0.02552002 -0.17354083 0.043186933 -0.0348816 -0.0026501187 -0.056718342 0.020439286 0.022091638 -0.05266276 0.15390225 0.24740934 -0.089350976 0.020907952 -0.1489317 0.07694785 -0.024402665 0.03522249 -0.021164488 -0.18756717 -0.123277135 -0.18413019 -0.06627105 0.30271652 -0.15425883 -0.022574337 0.019625807 0.05017617 -0.007556461 0.12730242 0.07848798 -0.042234484 -0.09060525 0.1020188 -0.0020071715 0.0035196864 0.008282718 0.09915541 0.05054012 -0.23974545 0.048841976 -0.046629217 0.113316305 -0.051824674 0.008510685 0.09346768 -0.15851912 -0.11411882 -0.21210133 0.024969136 0.20738475 -0.1390551 0.031089982 -0.0836949 0.10844711 -0.110107124 0.01962563 0.07234882 0.22275524 -0.20996095 0.02851093 -0.0027943011 0.014688532 -0.12863071 0.13501787 -0.14278856 -0.1898691 0.10770286 -0.092935845 -0.15593176 -0.0071623097 -0.016375529 0.06643536 0.11931988 0.13119254 -0.24803938 0.2003995 0.20778216 0.13874136 0.055716243 -0.1859139 0.008050348 -0.09211877 0.13894673 -0.27536967 -0.011886398 0.023357334 0.07430378 -0.041037578 0.06787404 0.10971592 -0.024190713 -0.17462985 0.0038781702 0.09634823
100 0.27493685 0.03670948 0.04965759 -0.3213654 0.10325508 -0.14884229 -0.027799806 -0.17030096 0.29487464 -0.17660797 0.25022447 -0.12062497 -0.0092595965 0.17074196 0.06260723 0.08106631 0.1830275 -0.17098181 -0.05774114 0.07975707 0.061502032 0.035270803 0.12677784 0.12875076 0.17242123 0.12117649 -0.2698382 -0.06130582 0.058140606 -0.11936115 0.023147289 -0.0063064 -0.19784194 0.06563181 0.116714984 -0.18706006 0.2028171 -0.14418621 0.030904576 -0.025614198 0.026769927 0.15403254 0.049651235 0.111993834 0.013243376 -0.12762961 0.05573555 -0.049546268 0.12389013 0.15390785 0.052251443 0.030252047 -0.13336897 -0.04693264 -0.09567563 -0.11506724 0.26723865 -0.029949958 -0.08352911 0.11525897 0.18375547 -0.08897384 -0.008999918 -0.05771286 -0.049044088 -0.124417536 0.027689436 -0.14535981 -0.0059538907 0.16050886 0.19800016 0.024596253 -0.15568694 -0.06893507 -0.30359277 0.12170274 -0.06595489 -0.058112815 0.2157649 -0.11381241 -0.0029510378 -0.08484493 0.057158418 0.10528939 0.045870975 0.023135588 0.031299207 0.05179773 -0.25632071 0.0006635231 0.06900469 0.07185464 -0.21696472 -0.118742414 -0.010271199 0.08306679 0.08030073 -0.00775387 0.009728726 -0.1685648 -0.06456748 0.060169842 -0.10617399 0.111954555 0.19736753 0.065737344 -0.0050202357 0.007167617 -0.35491693 -0.06682991 0.014511293 0.17325701 0.054208856 -0.10157281 -0.08527122 0.089396924 0.13006729 -0.0966992 -0.17459452 0.0054546753 0.020478617 0.08180089 0.05161705 0.09825531 0.01837409 -0.039239433 0.033230662 0.005199999
87 0.30433735 0.065099224 0.07788137 -0.3133574 0.068538725 -0.10204728 -0.07172801 0.017291512 0.26777205 -0.28425324 0.18941444 -0.11064589 -0.0077448487 0.15403977 0.0631858 0.1387507 0.16523835 -0.12809412 -0.040386878 -0.011017104 -0.06736544 0.020979065 0.11551457 0.04343942 0.21403098 0.037372835 -0.19227393 -0.06710627 0.110319704 -0.013418514 -0.007159209 -0.011359821 -0.25810286 0.0894294 0.16733457 -0.18945912 0.15585645 -0.13185468 -0.008622858 0.027591864 -0.052074857 0.08394852 0.010867056 0.1114214 0.008070097 -0.15341464 0.1796526 -0.0866821 0.08229459 0.0872935 0.041229535 0.08008589 -0.06863781 -0.014496051 -0.18057142 -0.10100185 0.26065317 -0.1739352 -0.10435683 0.15011564 0.1679909 -0.030204518 0.0703173 -0.03748642 0.0122497585 -0.16206059 -0.00560022 -0.12559916 -0.0092380345 0.1792842 0.24618275 0.06817045 -0.15665989 -0.078132585 -0.26581338 0.1670682 -0.07736614 0.018744662 0.27743658 -0.14573899 -0.0495516 -0.16464686 0.016982371 0.2141742 -0.021713896 -0.030133793 0.06501054 0.1145847 -0.19252679 0.001629043 0.030069055 0.14063695 -0.19813898 -0.04924767 -0.006766956 0.034136284 0.031023564 0.0143541675 -0.0809496 -0.28543317 -0.008357626 0.052930545 -0.13778307 0.10178872 0.17469549 0.12903136 0.026561132 0.02291843 -0.32109267 0.03098735 0.052433424 0.18676367 -0.034879133 -0.043076884 -0.13101183 0.03928706 0.16381295 -0.114869654 -0.16709074 -0.05831519 0.010180761 0.054760534 0.006437989 0.16737616 0.047367543 -0.12441094 0.008823109 -0.005678019
29 0.32659954 0.14302808 0.15009835 -0.2841477 0.07505062 -0.036455166 -0.038840026 0.03936917 0.12056991 -0.26965338 0.24723336 -0.029928783 0.12716696 0.053710308 -0.05561522 0.10023553 0.021703742 -0.04065654 -0.032093737 -0.075506054 0.026532223 0.06959835 0.12856677 0.034537785 0.047099933 -0.020468429 -0.15921421 -0.09753998 0.07393762 0.11577433 0.015527631 -0.08006923 -0.188056 0.06693706 0.07673688 -0.18706973 0.08539724 -0.054348323 0.019973036 -0.008792427 -0.023190482 0.030447494 -0.013450003 0.10043831 0.16050445 -0.08911763 0.10242566 -0.023932703 0.045981016 -0.0006200835 0.06611032 0.020362025 -0.124845155 -0.08928375 -0.21256699 -0.09655132 0.18731035 -0.18971024 -0.012472748 0.03526946 0.071169235 0.04840832 0.16011454 0.08660698 -0.04701338 -0.079657644 0.060830764 -0.006933214 0.009311404 0.030065022 0.14419161 0.10839567 -0.17929414 -0.017835574 -0.033294007 0.16668205 -0.036880966 0.03528385 0.14083746 -0.20926492 -0.020723093 -0.26399964 -0.042116594 0.2270672 -0.13031104 0.024656186 -0.06933071 0.09814606 -0.13338146 0.015608735 0.021611251 0.18009037 -0.21442515 -0.0132309925 0.01609982 0.0426773 -0.12594222 0.12739345 -0.1544273 -0.25952372 0.06305234 -0.052278902 -0.19194897 0.06420655 0.06663173 0.10572847 0.15439597 0.10345964 -0.267942 0.0977485 0.15396188 0.17902307 -0.0110701 -0.14616549 -0.10939859 -0.11477155 0.1423931 -0.28419018 0.014288888 -0.0122602945 0.036770966 -0.081259385 0.04738867 0.15963075 -0.031889476 -0.18053044 0.006855007 0.07686512
0 0.21279554 0.075413615 0.04425958 -0.2551426 0.057642676 -0.096487775 -0.01956374 -0.04425928 0.20751305 -0.17706834 0.19940166 -0.12651144 0.06080694 0.032135986 0.121357456 0.039842878 0.12495789 -0.1257535 0.02966933 0.027400972 0.028941475 -0.0031777811 0.093764454 0.11024054 0.106649876 0.03214938 -0.16120256 -0.07887255 0.04686701 -0.028686909 0.051716324 -0.046490934 -0.19802377 0.08503302 0.09367052 -0.14461322 0.09402428 -0.10151533 -0.01894703 -0.028654484 -0.006629098 0.045054797 -0.028434126 0.11722706 0.043237854 -0.1473383 0.07049252 -0.12004492 0.08043747 0.056706205 -0.0029855492 0.040300738 -0.10884419 -0.039468832 -0.093096346 -0.08815464 0.28662106 -0.08802638 -0.06834632 0.07766456 0.14043003 -0.097499244 0.058479093 -0.014142527 -0.00020483704 -0.11906827 0.027850572 -0.13331036 -0.00310051 0.11048234 0.13770393 0.035902657 -0.14183517 -0.014434404 -0.2218283 0.12638012 -0.039192908 0.0063575692 0.18536606 -0.077801295 -0.09323793 -0.10567998 0.04012117 0.14673306 -0.013260951 -0.0065023424 0.055308476 0.10898258 -0.1763366 0.006131074 0.034975532 0.12990347 -0.21366829 -0.0137143135 0.015781695 0.01264791 0.012456743 0.058098815 -0.036372308 -0.21246848 0.012760164 -0.04210825 -0.1009901 0.036353663 0.095676646 0.07750286 0.020811196 0.039845638 -0.28631166 0.07660079 0.10787744 0.15880719 -0.00053756 -0.09408724 -0.0024889638 0.048619878 0.13038287 -0.14934479 -0.13842775 -0.03745247 0.015773134 0.04830858 0.062130027 0.12967186 0.041165225 -0.09207487 0.025426846 0.06629888
22 0.27035233 0.07580635 0.0984011 -0.23603284 0.07375933 -0.06998304 -0.05604447 -0.047568884 0.14815679 -0.18211024 0.26164192 -0.069263786 0.1489205 0.06846948 0.025763195 0.10289188 0.079579346 -0.12486095 0.04085907 0.018731043 0.0699869 0.029268771 0.13838169 0.08384732 0.090921044 0.047784977 -0.22963713 -0.044161804 0.04558953 -0.054778457 0.06431468 -0.07009021 -0.17209846 0.11022746 0.035601366 -0.15462856 0.11285729 -0.08028247 -0.049797308 0.01910391 0.07779097 0.07666758 -0.008754619 0.14569907 0.116837315 -0.12480404 0.04443917 -0.095337875 0.040217996 0.06381581 0.0049167443 -0.018423347 -0.13493645 -0.07378037 -0.1306006 -0.072085775 0.2911735 -0.076387584 -0.06935859 0.0824853 0.10249006 -0.009647906 0.059213214 0.060596503 -0.058570966 -0.08431616 0.055672858 -0.06538906 -0.008992469 0.10701705 0.18420462 0.08563916 -0.22258653 -0.007700821 -0.1597694 0.09372235 -0.06520316 0.0034685335 0.14340594 -0.15711032 -0.050048478 -0.16674176 0.0557449 0.2073853 -0.09038322 -0.0067130052 -0.037264317 0.021059167 -0.17927106 0.018970907 0.06707813 0.17512009 -0.17693081 -0.035523012 -0.014568655 0.05293078 -0.05674189 0.09788605 -0.09176172 -0.16273622 0.07219975 0.0007864383 -0.13158382 0.036868867 0.089023165 0.09381063 0.041604836 0.09203507 -0.3436445 0.09248363 0.13564268 0.18273404 0.06279729 -0.18187016 -0.05619002 -0.06348043 0.15126269 -0.17415102 -0.08454279 -0.017474262 0.025563795 0.048156045 0.032152213 0.11857746 -0.04918744 -0.13201019 0.037567418 0.05513291
64 0.2394546 0.12113471 0.11665656 -0.2368628 0.08025877 -0.041446507 -0.028373504 -0.04814352 0.074564956 -0.16207023 0.26017767 -0.041783273 0.19764178 -0.0017743596 -0.0045616673 0.049944766 0.004304755 -0.06198689 0.029773798 -0.03907175 0.11912076 0.029097348 0.11356557 0.09178871 -0.008682457 0.008301813 -0.18662584 -0.07369633 0.00027014734 0.059055842 0.07169644 -0.102099925 -0.13852793 0.0859427 0.01270836 -0.14270143 0.06382218 -0.04599069 0.015571852 -0.040737905 0.054532252 0.03382856 -0.043913975 0.1251282 0.18354431 -0.09835867 0.022437247 -0.056214586 0.049206566 0.013164519 0.02952224 -0.020223713 -0.15614122 -0.1140646 -0.13915232 -0.08235645 0.23818827 -0.09314446 0.0057843854 0.009193008 0.06454294 0.011345402 0.12068551 0.09496131 -0.0531541 -0.042023625 0.104120575 -0.021683563 -0.0038502237 0.039988223 0.09635257 0.109236054 -0.18938233 0.026999757 -0.05064968 0.11026369 -0.024290396 0.010794116 0.07674891 -0.1599688 -0.043410975 -0.20033367 -0.013027296 0.19394074 -0.13123134 0.033595033 -0.076702274 0.044050775 -0.16151817 0.039899684 0.045585435 0.15907942 -0.21790408 -0.0013933927 0.020729896 0.03587507 -0.123662956 0.15676023 -0.1216594 -0.20822342 0.06861823 -0.11972376 -0.15075357 0.019349333 0.0439221 0.07104234 0.1166391 0.1372097 -0.291059 0.10887755 0.1916884 0.16862218 0.0419246 -0.21456012 -0.022320833 -0.09315893 0.14150777 -0.28777692 0.023094239 0.013922576 0.028911818 -0.05747513 0.104539506 0.14918308 -0.0699237 -0.13827407 0.0316465 0.122045115
91 0.238231 0.10358048 0.083300196 -0.255255 0.074038245 -0.09049327 0.011348686 -0.020686083 0.14300552 -0.23456281 0.24879318 -0.08401774 0.11557801 0.05192828 0.05480775 0.10197163 0.06373519 -0.077705294 0.021658488 -0.014484172 0.073493 0.09084803 0.12003834 0.102448426 0.08659007 -0.040192734 -0.16720311 -0.13965854 0.087681144 0.011505675 0.04697357 -0.113408685 -0.23271243 0.08496156 0.05214703 -0.219476 0.068219535 -0.073349364 0.031353667 -0.07955741 -0.033868734 0.06687234 -0.014831483 0.10753923 0.16891691 -0.07813121 -0.0153959375 -0.09168319 0.121427864 0.03011082 0.024418496 -0.0011179714 -0.15443836 -0.07156793 -0.17044924 -0.12505913 0.29359144 -0.14063215 -0.033535775 0.05222572 0.097089104 -0.05826003 0.13521363 0.022060119 -0.046736486 -0.11076012 0.068637736 -0.03969804 0.0035909885 0.02014252 0.12660776 0.02385828 -0.17955686 0.030881396 -0.1337163 0.17225301 -0.07516228 -0.009636261 0.17228968 -0.19033323 -0.06310112 -0.23223293 0.058164783 0.17892548 -0.04816074 0.0507749 -0.049728762 0.18094885 -0.19409849 -0.006567171 0.049038805 0.16881116 -0.23513338 -0.03441448 0.04140644 0.018246986 -0.09535638 0.07434096 -0.061784644 -0.23145543 0.058351107 -0.036142364 -0.15107524 0.051896315 0.0705428 0.0823906 0.11122935 0.11131018 -0.28310275 0.11365808 0.13017851 0.18082005 0.02610021 -0.1374888 0.004887427 -0.05884982 0.16558275 -0.24171634 -0.058303438 0.037870042 0.050923217 -0.016071964 0.12570703 0.11352072 0.044128 -0.17574571 -0.0034419764 0.088836
48 0.38855436 0.32918736 0.084733374 -1.090082 0.08032657 -0.4732547 0.042586222 -0.7181577 0.82378143 -0.207448 0.7395019 -0.36710277 0.4904262 0.022859255 0.69663626 -0.33749056 0.29531237 -0.45578602 -0.21959314 0.081902176 0.48163253 -0.4221708 -0.058709174 0.53953284 0.14052522 0.53166777 -0.42909107 -0.03087543 -0.3963705 0.22742066 0.35145223 0.07903012 -0.16903986 0.4648518 0.5706518 -0.3436217 0.56443644 -0.3686218 0.5035943 -0.38503358 0.017877512 -0.12462529 -0.2802163 0.49265444 0.33728322 -0.61050266 0.50567687 -0.26891574 0.19405624 0.2270849 -0.041247025 0.15682477 -0.6905808 -0.7463156 -0.040825196 0.014752201 0.78594565 0.1445594 -0.04582274 -0.21102846 0.6456191 -0.35258323 -0.028171344 -0.001800114 -0.0055526774 -0.1346106 0.5211133 -0.45452705 0.1931491 0.19043672 -0.018719586 0.20536926 -0.21295388 -0.4336764 -0.5981067 0.40214837 0.51366466 -0.28876317 0.080516286 0.4547437 -0.25641537 0.25842652 -0.40360707 0.24371313 -0.036754332 0.14595385 0.40530458 -0.07453233 -0.7068124 0.36178747 0.25220463 0.17185818 -0.7895218 0.23051557 -0.167435 0.021525947 0.3028378 0.30497563 -0.41981605 -0.7223021 -0.30332395 -1.1232532 -0.27768388 0.044034474 0.20625047 -0.104629464 0.009224699 0.16281644 -0.7931396 0.1665769 0.59435797 0.28518596 -0.12717246 -0.5634714 -0.08431621 0.5282934 0.03295868 -0.7823988 -0.3148068 0.044358034 -0.18083009 -0.29068792 0.18341564 0.60238147 -0.16824093 0.21945977 0.3013968 0.38589534
51 0.26208383 0.1291901 0.121480376 -0.2535061 0.06679509 -0.04670238 -0.022012785 -0.002300196 0.09381784 -0.18712044 0.25317457 -0.061980043 0.15682466 -0.015669998 0.00083528674 0.029424421 0.04279158 -0.07605432 0.018724442 -0.0328214 0.0721774 0.03318398 0.10526096 0.08308712 0.002363233 -0.0058597135 -0.16422951 -0.0676423 0.013051095 0.10986148 0.07265843 -0.100994065 -0.14779899 0.09757503 0.059849318 -0.15413769 0.08295773 -0.042890865 0.02181186 -0.028653046 0.02928892 0.015176306 -0.03792195 0.12702477 0.17098527 -0.1065187 0.07427789 -0.089460194 0.048919972 -0.0015579346 0.048260696 0.0034838452 -0.1646974 -0.121295966 -0.15410121 -0.059134457 0.23054753 -0.12117181 -0.006669706 0.027565964 0.07390441 0.004815797 0.11120913 0.092150815 -0.04114256 -0.07453066 0.082269646 -0.027193883 0.009800024 0.042843394 0.09864485 0.09688672 -0.20822272 -0.010074802 -0.046786424 0.10134729 -0.020525273 0.012400389 0.090268664 -0.14119036 -0.06020616 -0.18389246 -0.028550478 0.17523615 -0.12550789 0.03737572 -0.051670585 0.053844675 -0.119960226 0.03532681 0.042333946 0.16512656 -0.20901154 0.017910186 -0.011753826 0.041276474 -0.08058512 0.14645831 -0.13595562 -0.20254822 0.05889591 -0.11047735 -0.1419331 0.026582297 0.018900065 0.06951782 0.11507834 0.09602942 -0.25134382 0.11603026 0.18884397 0.14673953 0.015809983 -0.16849677 -0.034788106 -0.06432112 0.10456632 -0.26122156 -0.0044893124 -0.007908871 0.03470927 -0.058131002 0.05255947 0.13969822 -0.050516885 -0.13202067 0.02665932 0.09168344
43 0.2597867 0.116452746 0.10908805 -0.24268799 0.062448774 -0.04269805 -0.034163423 -0.020273762 0.10631692 -0.1494718 0.25639346 -0.06962031 0.15756668 -0.03163348 0.00457457 0.002228804 0.049638387 -0.09749771 0.035320822 -0.0059159077 0.064373285 0.008578 0.10993237 0.08359962 -0.0066104745 0.040202636 -0.17986035 -0.0448448 -0.0009640982 0.09139626 0.09522146 -0.08728928 -0.123051286 0.11222675 0.066008985 -0.11646238 0.10873146 -0.06415814 -0.008369584 -0.0018400056 0.07312718 0.009079745 -0.047204647 0.15270007 0.14776656 -0.14522524 0.10481879 -0.09194373 0.019968318 0.0056799324 0.048272364 0.016369272 -0.16129074 -0.13024247 -0.13278279 -0.04005429 0.23499967 -0.09442093 -0.013773591 0.034333788 0.08463966 -0.008761147 0.06577769 0.099563636 -0.029827476 -0.064825304 0.083296135 -0.0626806 0.012430425 0.073163725 0.11657398 0.110444844 -0.22799003 -0.023687348 -0.073001005 0.0702275 -0.0029529203 0.020957934 0.08076666 -0.111176915 -0.075279325 -0.14120954 -0.035875868 0.16605914 -0.14039028 0.017527333 -0.036808833 -0.005887047 -0.10477624 0.038928326 0.051706143 0.1677769 -0.20782499 0.018915368 -0.03452664 0.046874296 -0.052348986 0.1546985 -0.14234903 -0.18430886 0.049933407 -0.11229042 -0.14109382 0.009127048 0.017298792 0.073140174 0.08419478 0.0839324 -0.28064394 0.112705156 0.19965859 0.14148887 0.027399125 -0.18337831 -0.053733107 -0.038999658 0.0961951 -0.24480958 -0.035101075 -0.03843367 0.022112448 -0.028744552 0.018387157 0.13963565 -0.07724529 -0.114622064 0.051506195 0.0884963
16 0.18026745 0.14263153 0.062022693 -0.1540792 0.021117438 0.022598526 -0.034793746 0.10548474 0.043375533 -0.0843583 0.19921383 -0.10162284 0.21309909 -0.23148243 0.10413241 -0.07971569 0.055259604 -0.1110173 0.15628225 -0.011380477 0.035075877 -0.085028045 0.080400854 0.087316155 -0.088131584 0.010485672 -0.10886286 -0.029110674 -0.045752812 0.15049243 0.141366 -0.120974444 -0.11587825 0.13173603 0.078413025 -0.03743152 0.04770871 -0.048002876 -0.11470081 0.041470155 0.090482995 -0.101722665 -0.12857632 0.19822885 0.096547276 -0.2566822 0.17974126 -0.22948508 -0.039599907 -0.056232776 -0.013798506 0.055064186 -0.12936392 -0.11371765 -0.076710396 -0.007367668 0.30854845 -0.1320063 -0.027661422 0.026829503 0.078601405 -0.060930684 0.08051073 0.13464627 0.03110316 -0.080496065 0.050784968 -0.13081111 -0.0040813587 0.11831019 0.08547068 0.1305349 -0.22654407 0.03597323 -0.08043418 0.036308147 0.022096822 0.11876315 0.08711808 -0.014367405 -0.20646913 -0.085291795 -0.03300351 0.20948319 -0.19608097 -0.059744537 0.05551726 -0.004439544 -0.029145196 0.04643076 0.0077913473 0.21897963 -0.21420138 0.14500183 -0.029254925 -0.0039100624 -0.052026212 0.22498415 -0.15505555 -0.21964812 0.09932911 -0.20449194 -0.08864299 -0.09798099 -0.07727412 0.097467996 0.046226855 0.079401135 -0.24162972 0.23238999 0.27496877 0.12436371 -0.0093204165 -0.16600691 0.05145437 -0.0014930832 0.090781994 -0.21130146 -0.06887535 -0.14094236 0.009362893 0.017752932 0.0062523675 0.1770246 -0.049288366 -0.1415669 0.069650374 0.13418587
90 0.2719774 0.101871006 0.0810282 -0.2804173 0.094467975 -0.09551253 0.026782982 -0.13698116 0.17249672 -0.17157358 0.28473166 -0.08009593 0.09049473 0.06848548 0.014840576 0.025351847 0.06316709 -0.10765842 -0.032248683 0.030533964 0.11796679 0.063964754 0.11117961 0.14817153 0.052773874 0.05462423 -0.21480985 -0.10351745 0.03159141 -0.011932529 0.058194526 -0.06832206 -0.1626341 0.0660595 0.05717008 -0.19971766 0.12555994 -0.07937926 0.06314497 -0.07195507 0.02704525 0.10277019 0.0050789686 0.10518212 0.13918203 -0.06747774 -0.03089274 -0.037791267 0.11903369 0.0722291 0.05142543 -0.0014461866 -0.18565564 -0.10371843 -0.12321455 -0.102765225 0.23690559 -0.051358808 -0.012284424 0.039819226 0.10974918 -0.07609079 0.062174696 0.029512169 -0.080061674 -0.09113828 0.08289763 -0.06914359 0.02597764 0.024001032 0.10285903 0.03725007 -0.18310212 -0.014259539 -0.13419744 0.12392176 -0.034665305 -0.046428293 0.12027352 -0.15859754 -0.01480033 -0.16486213 0.030838193 0.092005365 -0.028439177 0.07604329 -0.06190152 0.09175204 -0.20526063 0.013628578 0.06631247 0.1144558 -0.23699036 -0.06655018 0.0115872715 0.07112438 -0.02002072 0.08441175 -0.035317767 -0.1608489 0.004353925 -0.03283865 -0.1345207 0.07068553 0.081598096 0.03657905 0.08623244 0.06640207 -0.29564738 0.036375217 0.12062039 0.16920626 0.05469103 -0.15824148 -0.022949545 -0.017883837 0.10707104 -0.24291754 -0.06364076 0.04071604 0.04423406 -0.015722692 0.10086062 0.087393224 -0.010977619 -0.1059893 0.044202797 0.081081875
15 0.2356014 0.1198027 0.07736993 -0.21848221 0.05421263 -0.05153505 0.004423536 0.0499747 0.12741278 -0.1887785 0.20942695 -0.09003856 0.115005694 -0.033266682 0.07276559 0.036366835 0.08226652 -0.09496603 0.04112992 -0.0038943125 0.02389916 0.025378028 0.106575824 0.07922054 0.046278656 -0.0021693348 -0.13663471 -0.088791505 0.049572457 0.059887107 0.0542037 -0.0964635 -0.20020992 0.091740556 0.09945249 -0.15712282 0.079837166 -0.07494704 -0.028100096 -0.018928235 0.0014442689 -0.0008924054 -0.050599817 0.13755323 0.10857774 -0.14833762 0.08672413 -0.14599003 0.058497824 0.014570333 0.011344158 0.03652671 -0.12887605 -0.07579483 -0.13736458 -0.07356904 0.2997581 -0.14534652 -0.058015853 0.062480584 0.108815745 -0.06981961 0.10646866 0.04400213 -0.0073286146 -0.12019565 0.046600305 -0.09565283 0.004658791 0.0805463 0.12617573 0.058591757 -0.18641862 0.0006517666 -0.14584869 0.12023959 -0.035354625 0.032645892 0.16482739 -0.110557444 -0.12043248 -0.16970149 0.019816654 0.18593724 -0.08416428 0.0048031113 0.009567845 0.116363496 -0.1250846 0.012332235 0.037097946 0.18189819 -0.2242488 0.024717994 0.0049504465 0.006582881 -0.055806074 0.115594 -0.08534266 -0.22185527 0.05735713 -0.07243607 -0.12371293 0.0049391817 0.034454837 0.10682913 0.07106555 0.08536131 -0.25723422 0.14300713 0.15207861 0.15529183 1.6435864e-05 -0.12139825 0.0010140211 -0.016830355 0.122973084 -0.19863978 -0.08985527 -0.050391555 0.021234926 0.005041113 0.060673483 0.13248995 0.01936106 -0.16049245 0.029051665 0.08783187
13 0.40534645 0.32964048 0.094577715 -1.076557 0.079771586 -0.45830518 0.038978137 -0.6920525 0.8027235 -0.22144386 0.7463565 -0.35577592 0.48105523 0.015665142 0.6737564 -0.32719165 0.2985321 -0.4547848 -0.21295321 0.07760059 0.47006738 -0.40633398 -0.047106497 0.53628 0.13267007 0.516432 -0.4264961 -0.03920162 -0.3799877 0.22708024 0.3511956 0.065461025 -0.1819634 0.4546917 0.5624662 -0.34221283 0.55942947 -0.3681437 0.4822194 -0.37602553 0.021759773 -0.115682766 -0.2788496 0.48377672 0.33419555 -0.6104484 0.49985754 -0.26723126 0.19021717 0.22173153 -0.039213754 0.15037005 -0.68373984 -0.73178184 -0.052513443 0.0046774657 0.79142094 0.12213023 -0.0527955 -0.19706297 0.63760966 -0.34871915 -0.011003745 0.0010701731 -0.003906977 -0.14509763 0.50597125 -0.45473042 0.18988483 0.18987373 -0.0068102186 0.20496398 -0.22811836 -0.4179967 -0.5906014 0.40186208 0.49457085 -0.27647445 0.09227475 0.42489007 -0.26194915 0.22936971 -0.38846862 0.2558793 -0.04199511 0.14480123 0.38725704 -0.06687112 -0.69463056 0.34721127 0.2433956 0.18528038 -0.7880599 0.22184578 -0.16677701 0.028300455 0.29037547 0.31291786 -0.4215718 -0.72517586 -0.291008 -1.0950766 -0.28451532 0.03937616 0.20622273 -0.08791858 0.019918738 0.16106677 -0.7947796 0.17089428 0.5893842 0.29305616 -0.12727377 -0.55823356 -0.0885379 0.50705373 0.040305138 -0.77978694 -0.31071573 0.033923414 -0.17451651 -0.28156143 0.18646915 0.6036413 -0.158959 0.19519016 0.29528737 0.38442126
71 0.25336564 0.13669632 0.12052342 -0.24225324 0.05596854 -0.04344949 -0.03524073 0.023609133 0.09857576 -0.1870914 0.25590074 -0.06856374 0.20644985 -0.04562815 0.03524603 0.038954776 0.03690865 -0.08447946 0.059935063 -0.03187573 0.06923588 0.009036418 0.10607009 0.07508589 0.011095413 -0.0025973925 -0.16807139 -0.0666403 0.005241874 0.099561 0.090503134 -0.11903018 -0.16308405 0.12948777 0.052995823 -0.13484442 0.06627287 -0.050990622 -0.0185162 -0.01487659 0.046973698 -0.015886385 -0.07166956 0.16749862 0.18233871 -0.13114055 0.09330795 -0.12081617 0.023561852 -0.010508015 0.012673343 0.0017594332 -0.15442938 -0.12879986 -0.14251496 -0.04143378 0.2696553 -0.1206355 -0.023601394 0.032859158 0.0740049 0.0026171445 0.109208435 0.097808 -0.023029719 -0.06982448 0.08829516 -0.035164 0.0053618853 0.051990014 0.111065134 0.0948002 -0.21184237 0.011621218 -0.06612377 0.09124297 -0.022317708 0.032043025 0.09396471 -0.12638128 -0.09850586 -0.17168269 -0.016961005 0.21445423 -0.14800544 0.0065375892 -0.036831245 0.04792753 -0.11182905 0.037216943 0.051033366 0.1854814 -0.20842505 0.036762625 -0.015391243 0.016599447 -0.10343789 0.15467854 -0.14824641 -0.20888788 0.093062885 -0.118554026 -0.13725844 -0.0055336445 0.00414332 0.085641794 0.091588326 0.11030057 -0.25965112 0.17341387 0.20955636 0.1467613 0.029914338 -0.1874029 -0.027402492 -0.07822266 0.1226882 -0.25879312 -0.021633362 -0.024859358 0.033827048 -0.02963452 0.047433868 0.14899309 -0.065546125 -0.1548038 0.030375853 0.091768704
24 0.29528713 0.09574405 0.09526913 -0.2925065 0.102483265 -0.07680409 -0.0013647685 -0.15744337 0.19313577 -0.1455137 0.2760854 -0.053355243 0.07333451 0.080898084 -0.033585716 0.007171639 0.073734604 -0.11403057 -0.064188704 0.037620407 0.11031225 0.018168272 0.12009342 0.12696818 0.038386546 0.116568595 -0.24412559 -0.050458543 0.011517263 -0.02082411 0.043008946 -0.01632562 -0.11360688 0.04476182 0.07771559 -0.15200388 0.17530325 -0.0945444 0.041302674 -0.020283526 0.07618018 0.09773819 0.021872077 0.10630941 0.088872075 -0.1183177 0.040716957 0.004413134 0.06839628 0.07990757 0.07451009 0.014113112 -0.15498899 -0.10176008 -0.10404602 -0.09420983 0.18567733 -0.034211136 -0.019247293 0.044459052 0.118608974 -0.038579963 0.03137803 0.04460788 -0.07933237 -0.05817001 0.064640544 -0.09023155 0.01785452 0.08229238 0.12632282 0.08978815 -0.17089996 -0.052834135 -0.1354305 0.10049282 -0.014705716 -0.02662193 0.10442186 -0.12421489 0.01500497 -0.12560771 -0.004557663 0.08622741 -0.042950213 0.055710487 -0.035712164 -0.0056679137 -0.19327052 0.023908516 0.044751074 0.08155407 -0.21832906 -0.073335096 -0.010183602 0.094436415 -0.0023463862 0.09583897 -0.050659228 -0.14597313 -0.040849008 -0.034590423 -0.11833124 0.07610413 0.11244425 0.053126264 0.06939282 0.047722757 -0.30946785 -0.032723755 0.09651739 0.15998366 0.052231666 -0.1668382 -0.08961528 -0.00064475526 0.07435748 -0.19185422 -0.055935297 0.0055156127 0.018490454 -0.014201493 0.049571037 0.10615829 -0.057292048 -0.06400653 0.061799467 0.07129905
57 0.2943708 0.14062423 0.14110783 -0.26816177 0.070783846 -0.0371525 -0.023887195 0.026637562 0.096380785 -0.2276233 0.26787153 -0.045325566 0.1778309 0.0017514963 -0.027579963 0.055069637 0.031701244 -0.06786661 -0.0031121988 -0.05036303 0.061304696 0.04629552 0.115741126 0.06681571 0.0075349202 -0.011723676 -0.1781634 -0.07704448 0.027555196 0.14452249 0.07042501 -0.10897735 -0.15439168 0.10138832 0.07533396 -0.1594885 0.090278074 -0.043636713 0.028236136 -0.017368171 0.027588956 0.009501069 -0.039920844 0.12956375 0.1972849 -0.09211926 0.09755171 -0.07103828 0.044104543 -0.011744359 0.064332046 0.019970512 -0.16613519 -0.13464981 -0.1893903 -0.06627994 0.21506788 -0.15364495 -0.0027413834 0.031294607 0.075464845 0.030453498 0.12924418 0.098473504 -0.03755674 -0.07923449 0.08890563 -0.01189214 0.011424331 0.030899627 0.11088077 0.11021379 -0.22807088 -0.019129936 -0.031038554 0.12120757 -0.010085689 0.02197182 0.0979018 -0.16714206 -0.049496338 -0.22334006 -0.045139235 0.20040001 -0.15317318 0.039455727 -0.07241099 0.06332025 -0.11557542 0.03912347 0.0462201 0.18558256 -0.22170281 0.01560937 -0.018515443 0.04249772 -0.09881979 0.15443702 -0.16654135 -0.22365399 0.060247764 -0.113659784 -0.18028697 0.028856268 0.016684705 0.08772108 0.13789304 0.1165264 -0.26703158 0.1264613 0.2018489 0.1575237 0.010017235 -0.18170437 -0.08216229 -0.090161234 0.118693195 -0.30171818 0.00029148487 -0.015312584 0.035535138 -0.08333645 0.03687239 0.15418133 -0.06278081 -0.15195945 0.03147856 0.08864192
88 0.30849513 0.12970655 0.11912719 -0.29932326 0.09553318 -0.08025777 0.0065682363 -0.08057212 0.15331277 -0.22883265 0.3016533 -0.056773365 0.12983441 0.07022218 -0.01552236 0.06259405 0.03711986 -0.087596014 -0.033827126 -0.014233805 0.10193668 0.07674689 0.12629955 0.12319268 0.049653877 0.022327302 -0.21560308 -0.112918094 0.05086868 0.042147685 0.05340285 -0.08844162 -0.17538665 0.077253744 0.055426 -0.20964928 0.10965626 -0.064288475 0.06049363 -0.061195005 0.017887106 0.082185015 -0.0066874027 0.11565511 0.17851186 -0.06043841 -0.0007478006 -0.027987832 0.10094499 0.048219144 0.06573025 -0.008980819 -0.1828433 -0.11180584 -0.1702649 -0.09144622 0.22477396 -0.10057752 -0.0006638268 0.03024743 0.083707176 -0.019281432 0.11171928 0.067017116 -0.08343294 -0.08205117 0.09050091 -0.025676217 0.024035405 0.0068442733 0.11553362 0.06717734 -0.19429608 -0.010246323 -0.076999575 0.13205032 -0.040902965 -0.020036882 0.1128588 -0.20049198 -0.012231205 -0.21746159 0.011470437 0.14195484 -0.072340146 0.06802631 -0.088119775 0.09781279 -0.17851317 0.011772961 0.056860063 0.14828295 -0.23651367 -0.049150653 0.007887443 0.06381669 -0.07530234 0.108576424 -0.09061306 -0.19105732 0.045814477 -0.037358105 -0.16513646 0.07021105 0.070721984 0.055988215 0.12290133 0.094281696 -0.2914699 0.074384265 0.14121813 0.18135291 0.045277286 -0.1743787 -0.050828837 -0.08160727 0.12246368 -0.28176925 -0.0133615 0.045082785 0.049190216 -0.053904712 0.08748828 0.10417773 -0.036140326 -0.14431266 0.028219152 0.07580207
52 0.18964322 0.1288468 0.06694596 -0.16579638 0.038200643 0.020362869 -0.014027689 0.059903618 0.050066642 -0.1133575 0.21961695 -0.06752591 0.2088766 -0.16222584 0.060799662 -0.022382673 0.021528523 -0.08791419 0.11576741 -0.01417115 0.070419714 -0.036043372 0.09529919 0.08651907 -0.06598011 -0.00833112 -0.1163704 -0.053763576 -0.005168378 0.09921002 0.107419625 -0.12348239 -0.1357875 0.105578296 0.040987056 -0.085429326 0.042228326 -0.042452853 -0.08172869 0.011554458 0.0745225 -0.047690783 -0.085992716 0.15597159 0.12620044 -0.20633364 0.09014951 -0.17258395 -0.010333412 -0.041548863 -0.0019028855 0.017221658 -0.13798526 -0.10037624 -0.09978542 -0.05939292 0.29685488 -0.1392735 -0.024958547 0.013368355 0.06582726 -0.043946344 0.108283594 0.11734179 -0.006851617 -0.06866204 0.06418114 -0.09795951 -0.011285722 0.08216224 0.08270492 0.12228233 -0.21486954 0.04889846 -0.059817545 0.085579894 0.0048960666 0.07991677 0.09325277 -0.072996505 -0.14923598 -0.14926277 -0.013308819 0.21394359 -0.17406821 -0.024639437 0.0010838821 0.02773249 -0.0736545 0.033810277 0.0033102378 0.20476592 -0.21740666 0.09054176 0.010885997 0.0078801215 -0.10887489 0.20462874 -0.13527364 -0.20870708 0.08820677 -0.16253242 -0.113608085 -0.06425176 -0.036153175 0.104020216 0.077767 0.113691434 -0.2625731 0.19070803 0.2340569 0.14206523 0.010825985 -0.17938598 0.038261753 -0.048874184 0.112352945 -0.22891696 -0.024094578 -0.08391697 0.01961325 -0.011321894 0.048123926 0.15690027 -0.029762574 -0.15889032 0.047915895 0.14634126
118 0.22096278 0.12376496 0.116256244 -0.25014454 0.06370524 -0.069908366 -0.004164965 0.015505494 0.087654665 -0.24334559 0.24477388 -0.076171786 0.17384058 0.0058231424 0.032396007 0.097961776 0.028790342 -0.050979886 0.054913662 -0.040295914 0.07750335 0.091700256 0.118592106 0.08392642 0.031417772 -0.08552422 -0.14679247 -0.13879268 0.060624897 0.08117129 0.06764178 -0.16250977 -0.22485478 0.099513955 0.015690176 -0.19904977 0.01367273 -0.046116646 0.031096721 -0.08051048 -0.019828463 0.046584863 -0.048330136 0.115769915 0.22287966 -0.04892226 -0.0052383873 -0.10019281 0.100726984 -0.010893873 0.03225916 -0.015949897 -0.16782798 -0.091249414 -0.18823402 -0.09611923 0.27281666 -0.15309113 -0.0013160799 0.027731005 0.053486306 -0.0113852685 0.16553058 0.06423107 -0.032479975 -0.09370329 0.091804825 0.00821263 -0.0015240527 -0.00069279916 0.095171936 0.042884406 -0.20508383 0.05389063 -0.057153158 0.14905757 -0.068829335 0.0032149665 0.11972139 -0.2090945 -0.081911616 -0.24358171 0.017979722 0.20329389 -0.10476711 0.04221853 -0.09393125 0.16424291 -0.1466143 0.012622738 0.05217315 0.19062752 -0.23212478 0.0012704416 0.026753163 0.0018789672 -0.13382612 0.11052252 -0.11472186 -0.23297049 0.10365105 -0.08008132 -0.16812645 0.030206922 0.01677179 0.07353612 0.13102244 0.13415538 -0.254477 0.1634429 0.17868736 0.16140562 0.031602748 -0.16726366 0.005493012 -0.10518258 0.17245331 -0.29926825 -0.0023756588 0.03762389 0.061091065 -0.054490473 0.11853015 0.12838437 -0.003906412 -0.17423558 -0.014831144 0.107697874
81 0.17539574 0.18848693 0.0400759 -0.14371975 -0.019526042 0.102752045 -0.045401998 0.12175802 0.016786791 0.067487635 0.26442122 -0.13973373 0.33909908 -0.49988076 0.18447083 -0.29078934 0.07400446 -0.20184068 0.25894725 0.03695382 0.08044149 -0.26619467 0.058468997 0.13046327 -0.25605816 0.124983944 -0.11494408 0.08154486 -0.17646475 0.25631684 0.2592746 -0.13442077 -0.0020811 0.22263445 0.12851799 0.106414646 0.10675244 -0.048568446 -0.21402046 0.13643734 0.26128578 -0.24541257 -0.2141816 0.31825578 0.05348809 -0.4783883 0.34602928 -0.40003324 -0.16493203 -0.11903086 -0.040783696 0.10566719 -0.17512466 -0.2115745 0.025441425 0.082806334 0.41582924 -0.10551589 -0.047681786 -0.0027727978 0.12031571 -0.11428724 0.0009490043 0.23754023 0.08907741 -0.0762026 0.07686727 -0.27501443 0.00158294 0.23827298 0.051315747 0.2469662 -0.33309466 0.0017775602 -0.09250404 -0.07121829 0.14131765 0.20068102 0.026751533 0.18337847 -0.34985206 0.07779448 -0.12270124 0.24003804 -0.33782434 -0.13204142 0.17569228 -0.20889 0.06913438 0.11844981 -0.021944769 0.27496853 -0.25922984 0.30755112 -0.11503671 0.013283054 0.00034828717 0.38954622 -0.2486107 -0.22230089 0.09031977 -0.41844058 -0.038890384 -0.23797262 -0.19318086 0.11979158 -0.017269341 0.08814723 -0.29359993 0.34017378 0.45029354 0.086431056 -0.020801283 -0.2375399 0.09453459 0.10348005 0.0077821855 -0.20427592 -0.12056046 -0.29125434 -0.033612475 0.04944811 -0.09333521 0.2533342 -0.14729172 -0.09604573 0.17997505 0.21888052
66 0.1998946 0.10910785 0.078443475 -0.18560895 0.044703957 -0.091647685 0.039881803 0.031226965 0.09664655 -0.20756392 0.23619598 -0.07995378 0.17005667 0.007994881 0.102529734 0.09194973 0.06342748 -0.09862822 0.072716326 0.018836048 0.085616596 0.088415794 0.1139162 0.10833939 0.0789494 -0.05032701 -0.13073446 -0.12527929 0.067642026 -0.0019556803 0.08039974 -0.15247586 -0.22828692 0.14268503 0.040753484 -0.21716438 0.04261469 -0.058231223 -0.0013673105 -0.07299735 -0.022690047 0.014625241 -0.044128053 0.1506647 0.2174236 -0.045471586 -0.045297734 -0.17448793 0.11406794 0.016894583 -0.039696366 -0.047883503 -0.17506056 -0.10137535 -0.14779957 -0.057864312 0.366188 -0.10141081 -0.073010884 0.05823682 0.09324518 -0.09239627 0.126077 0.028187258 -0.04709093 -0.11644623 0.089190595 -0.02712241 0.029126931 -0.008766748 0.113817245 -0.013421246 -0.2123645 0.029169535 -0.1294316 0.11735505 -0.07216147 -0.03260505 0.14391197 -0.15703213 -0.12182436 -0.2075768 0.10227328 0.18810196 -0.048229545 0.040252928 -0.058497276 0.19900762 -0.1624903 0.0022792614 0.09221013 0.21234143 -0.21257943 0.0141432155 0.004308455 -0.01775005 -0.102542914 0.08527847 -0.062794685 -0.15198885 0.12889835 -0.032355286 -0.12892921 0.006884476 -0.0010070719 0.07052647 0.07956593 0.13207267 -0.24294974 0.2273238 0.15631223 0.16309108 0.063973024 -0.15170106 0.05637746 -0.080307014 0.13208409 -0.22379576 -0.091189526 0.04232444 0.05141582 0.010990824 0.10006922 0.059587903 0.025556516 -0.20352252 0.013439456 0.07762955
3 0.17202896 0.079437874 0.07722935 -0.21582974 0.054679096 -0.12608148 0.0706334 -0.07122603 0.11416257 -0.13707355 0.2737426 -0.11950269 0.15625802 -0.02385292 0.10991924 0.0068569197 0.10168279 -0.11738916 0.08386767 0.08793662 0.13473578 0.10992841 0.106717065 0.1636102 -0.00023741159 -0.024817271 -0.17222755 -0.122913934 0.030237006 0.016029771 0.1439102 -0.19152564 -0.17867154 0.15365191 0.02325914 -0.18749332 0.074229 -0.05351917 0.055259474 -0.10490926 0.04500816 0.06097763 -0.028474428 0.15282749 0.2274098 -0.032088615 -0.08164326 -0.16994694 0.14656489 0.017628826 0.033448756 -0.043593556 -0.235957 -0.13775848 -0.11227101 -0.04491683 0.32720998 -0.043652385 -0.02923129 0.027779456 0.09097883 -0.124245055 0.048879575 0.024219478 -0.056832246 -0.11929233 0.12502626 -0.03712349 0.026065579 -0.0120795835 0.05210149 -0.038622282 -0.25378728 0.029168528 -0.1253522 0.07190396 -0.052207716 -0.07060683 0.08986606 -0.12518711 -0.12123675 -0.12766907 0.08952921 0.08426391 -0.0348093 0.08542651 -0.08325837 0.13900141 -0.1387881 0.003628326 0.1239227 0.1815228 -0.23548093 -0.017342435 -0.023070877 0.034236655 -0.029201737 0.07009398 -0.035565186 -0.081725694 0.06552442 -0.047733326 -0.11321049 0.006108065 -0.03439947 0.013849609 0.079095654 0.09020346 -0.23774023 0.15857594 0.17822959 0.10838358 0.09724372 -0.16378744 0.077269614 -0.009933725 0.09165353 -0.23872028 -0.08838441 0.07426421 0.083392516 0.0013799828 0.09351061 0.031746626 0.0020227977 -0.1157275 0.0354887 0.07507616
11 0.07382552 0.04036787 -0.13513438 -0.19580805 0.07259817 -0.09150494 0.016832672 -0.13747399 0.25277665 -0.12705134 0.138633 -0.18805969 0.0030625907 -0.019347765 0.33136293 0.054140728 0.11654233 -0.16267325 0.0928563 0.04311273 0.096956246 -0.07038773 0.07571905 0.22583808 0.17873365 0.012210836 -0.12179787 -0.18839365 0.049436774 -0.2643844 0.006631056 0.003520981 -0.31799695 -0.01849879 0.04599024 -0.19345213 -0.010884723 -0.15505707 -0.081062905 -0.13040277 -0.09313423 0.090575054 -0.07406871 0.05947827 -0.114187695 -0.23174834 -0.11083251 -0.17294236 0.16035432 0.14794251 -0.16038916 0.017386843 -0.055857092 0.09531867 0.027872005 -0.23968145 0.46380183 -0.03166822 -0.08815328 0.08383259 0.17310861 -0.30047116 0.13230498 -0.10240505 0.013085937 -0.15360105 -0.038440723 -0.28182587 -0.052518655 0.1456384 0.12833 -0.03160413 0.0127741285 0.11101948 -0.45070058 0.2639206 -0.08424883 0.03303829 0.3331318 -0.047711004 -0.17476062 -0.11967855 0.17896174 0.17062823 0.1300491 -0.04532782 0.17258587 0.32309943 -0.37889376 -0.037683494 -0.05338083 0.10018275 -0.29397452 -0.018222878 0.19931056 -0.078670226 0.0072322013 0.036869373 0.14791356 -0.35029653 0.026234517 -0.06870007 -0.03162022 0.02530172 0.21229659 0.10291699 -0.06413024 0.064648926 -0.36973834 0.05862244 0.02653957 0.25786668 -0.049195774 -0.060951307 0.2472968 0.12150028 0.25808388 -0.09835092 -0.19631024 -0.009716735 -0.026954653 0.15676416 0.30255002 0.17521062 0.25303409 -0.09974847 -0.037828214 0.19920896
44 0.19045508 0.1255893 0.11114892 -0.21427639 0.030486094 -0.04771494 -0.024176981 0.05823528 0.051183008 -0.18100101 0.22687307 -0.08930758 0.22036158 -0.08873841 0.073907495 0.031057952 0.03803005 -0.0667952 0.11210904 -0.033884283 0.06483887 0.034568425 0.095808215 0.07764818 -0.01748118 -0.067038454 -0.12923482 -0.089762025 0.014135411 0.13709402 0.12780629 -0.17399113 -0.17202483 0.15338767 0.030496389 -0.12925725 0.0126619125 -0.028315935 -0.011522692 -0.039832994 0.034090113 -0.033362098 -0.09656759 0.1593022 0.20876098 -0.10052165 0.07117052 -0.16649702 0.042082854 -0.045462493 0.015380803 -0.0024480312 -0.16632408 -0.12784077 -0.14972575 -0.026699454 0.26914206 -0.13389643 -0.0063241026 0.013167391 0.050126895 -0.004798482 0.10829708 0.09883678 0.0026685596 -0.08303505 0.09776789 -0.013639459 -0.002261315 0.02160444 0.07527646 0.06682541 -0.22721533 0.044315886 -0.028839212 0.072448455 -0.027406236 0.031030487 0.06877369 -0.12127635 -0.13361296 -0.16229257 -0.006850001 0.19225803 -0.15080363 0.014294759 -0.052683588 0.086372174 -0.05929729 0.03066146 0.0560649 0.19983621 -0.19730574 0.06449998 -0.017263414 -0.008569061 -0.10048002 0.13747703 -0.14640345 -0.18832473 0.122019894 -0.13639113 -0.13517193 -0.032690533 -0.05415485 0.060604136 0.096594445 0.11924427 -0.21222688 0.21437398 0.23497644 0.11745812 0.01982495 -0.16917388 0.021592045 -0.06468053 0.12729706 -0.2722793 -0.018022075 -0.015173477 0.05199972 -0.034678925 0.049053013 0.13032977 -0.047570754 -0.14640063 0.010062562 0.09176305
12 0.12396126 0.03793035 -0.10108247 -0.2066713 0.09928755 -0.09208339 -0.008754255 -0.20595422 0.2577004 -0.13306218 0.17848809 -0.14779282 0.0063614715 0.06539413 0.24269488 0.08834674 0.09953176 -0.15496682 0.039854363 0.042593885 0.1340459 -0.0468099 0.11459971 0.21481621 0.1925473 0.060898703 -0.19312938 -0.15185837 0.046278227 -0.3109348 -0.0039932826 0.035018966 -0.29523152 -0.040810358 0.022398759 -0.2028976 0.03443487 -0.16225371 -0.07388256 -0.11306007 -0.04787485 0.1527675 -0.038283266 0.05997317 -0.09920127 -0.21043538 -0.13004324 -0.086897396 0.14256772 0.18979238 -0.13736674 -0.013720008 -0.06327439 0.0790056 0.017393837 -0.2510821 0.43890715 0.014260336 -0.079953566 0.09466697 0.17347941 -0.25000447 0.11816782 -0.07107017 -0.042949352 -0.12289894 -0.016711786 -0.25780025 -0.05493958 0.16185948 0.17331906 0.004963764 -0.022662953 0.087854445 -0.4444011 0.25433505 -0.09336255 0.00021408731 0.31505442 -0.108620726 -0.10092526 -0.14189464 0.17104286 0.17229675 0.12027959 -0.031433344 0.11184747 0.25023142 -0.41743603 -0.023112116 -0.02831462 0.08914379 -0.284142 -0.0789113 0.1931196 -0.032803513 -0.0065759495 0.042036735 0.1376992 -0.32052344 0.022119923 -0.027984228 -0.059300624 0.061643805 0.25336543 0.10623289 -0.05450661 0.07077349 -0.4451032 -0.0150720915 0.012571391 0.2942041 -0.005277319 -0.12113906 0.18225253 0.07500992 0.26998508 -0.116217166 -0.17610766 0.0067285495 -0.027375627 0.15620321 0.30022007 0.17238957 0.18621092 -0.09490251 -0.01640556 0.18561283
35 0.35381705 0.18722367 0.022309583 -0.4155881 0.1362237 0.037111558 0.011792787 -0.11777013 0.37005973 -0.18724328 0.14119714 -0.016927587 -0.14680819 0.04073397 -0.034437418 -0.11843756 0.059865043 -0.061861847 -0.35046542 -0.11346043 -0.007916903 -0.17882524 0.019844433 0.09352488 0.04533946 0.23221934 -0.115162596 -0.05301705 -0.02091153 0.1376834 -0.18734519 0.29164588 -0.09419433 -0.21670192 0.3452137 -0.10866484 0.25073275 -0.19075608 0.104236305 -0.037258085 -0.15040682 0.023858441 0.02222924 -0.038423553 -0.24094078 -0.3596398 0.32978714 0.18300064 0.009143897 0.10505739 0.10748981 0.24410786 0.0028783812 -0.021497495 -0.07915515 -0.27600235 0.07401781 -0.17739734 -0.008913304 0.00715415 0.25422487 -0.12676194 0.20196691 -0.011873988 0.007145019 -0.09079285 -0.06026328 -0.3303411 0.0031517392 0.22787187 0.11207245 0.24798198 0.109340735 -0.15887167 -0.2727956 0.37538737 0.15203206 0.11005817 0.3059901 -0.0018225254 0.041850995 -0.14559355 -0.24079788 0.1446487 -0.0023402148 -0.007363124 0.21747033 0.069727875 -0.32482487 0.07644855 -0.19237198 -0.012009281 -0.38507095 -0.006206268 0.14779857 0.061728027 0.062901005 0.17129798 -0.07347496 -0.57815343 -0.31318223 -0.29391077 -0.17218167 0.14483523 0.310192 0.2075433 0.12938705 -0.004512693 -0.38114 -0.26990542 0.029025136 0.24991876 -0.24606438 -0.014843008 -0.19832428 0.19291173 0.08120352 -0.22872971 -0.041493133 -0.1827318 -0.15572585 -0.1749722 0.16488785 0.40186268 0.103043474 -0.027715636 0.0931153 0.23812285
60 0.3096323 0.1426501 0.024128195 -0.35888788 0.11668017 0.0011744085 -0.00923187 -0.095078535 0.32574445 -0.22060028 0.12603968 -0.029299125 -0.12401522 0.10917087 -0.020402376 -0.013753906 0.06538851 -0.055348206 -0.27656835 -0.09810533 -0.021922462 -0.10695694 0.052371368 0.06608981 0.11261657 0.1526983 -0.11576054 -0.06869371 0.03993477 0.044460468 -0.18176849 0.23028372 -0.14623079 -0.17602673 0.26190218 -0.14386299 0.18741797 -0.15768076 0.081122756 -0.02641335 -0.14715526 0.062760286 0.03609973 -0.038418308 -0.18529828 -0.26799893 0.23132746 0.15901586 0.03521044 0.11016254 0.072653666 0.18045433 0.0073458506 0.022466257 -0.09799802 -0.25513172 0.08876105 -0.1659234 -0.024460318 0.036849458 0.20221421 -0.08728393 0.18171348 -0.040130526 -0.0014844806 -0.08766692 -0.05422883 -0.25159153 -0.00900888 0.18763955 0.14075868 0.18597545 0.08196723 -0.1227337 -0.25677082 0.3438439 0.07969437 0.078553006 0.29827815 -0.06730696 0.047436062 -0.16949283 -0.15586394 0.1546808 0.027812928 -0.0044051735 0.1616566 0.10639228 -0.31524238 0.03378725 -0.14452188 0.0030946652 -0.31037608 -0.04110686 0.13954218 0.04859639 0.032569572 0.10636805 -0.0452995 -0.4846133 -0.22070259 -0.17637847 -0.16048989 0.14011513 0.29584357 0.17501064 0.10181155 0.008302875 -0.35262913 -0.2178999 -0.012830913 0.23609255 -0.19292358 -0.007877565 -0.17015281 0.12642972 0.12346778 -0.18836896 -0.0599962 -0.124557465 -0.11384452 -0.1195703 0.15309289 0.31758976 0.113331854 -0.049778547 0.047261134 0.18332203
84 0.15374522 0.1644645 0.035544593 -0.15126532 -0.029609153 0.06312883 -0.05221354 0.084317975 0.03809218 0.08613104 0.24921924 -0.16041471 0.3264129 -0.4704574 0.21264964 -0.30836707 0.09743801 -0.2146248 0.25400358 0.05977825 0.08073417 -0.26971623 0.029525656 0.13877036 -0.23315164 0.14644921 -0.11714893 0.09547773 -0.20071784 0.2448937 0.27662003 -0.12597793 0.018662788 0.24179615 0.13732424 0.110052675 0.11269809 -0.054775786 -0.19319323 0.12098609 0.26155657 -0.24601004 -0.21766682 0.32425156 0.0444363 -0.44817835 0.34612122 -0.39458832 -0.1569377 -0.10531374 -0.050919082 0.10266338 -0.17565297 -0.22126618 0.050682187 0.11436029 0.39066026 -0.058208793 -0.05059668 -0.008163092 0.12410813 -0.1237148 -0.039393555 0.21848656 0.08168237 -0.07548697 0.0805221 -0.26867574 0.017611623 0.23295791 0.040794898 0.211739 -0.31137902 -0.017885419 -0.11077535 -0.103832215 0.1569049 0.16724317 -0.012519349 0.2264759 -0.34893534 0.14268152 -0.11792413 0.18883187 -0.30382186 -0.12017602 0.17776531 -0.22557999 0.06725729 0.12632881 0.01057971 0.24115504 -0.23586509 0.2963551 -0.14032978 0.009539723 0.05919075 0.3498582 -0.22631887 -0.16219468 0.0768894 -0.40058982 -0.021531776 -0.23121996 -0.20505129 0.0780137 -0.05137181 0.05759646 -0.25583765 0.3219927 0.43270436 0.057042234 -0.01218801 -0.22671938 0.101055495 0.1368335 -0.025873523 -0.1765087 -0.13810475 -0.27933484 -0.047161028 0.054033726 -0.111649685 0.22667663 -0.15966389 -0.049702715 0.19150627 0.18693514
78 0.24175876 0.10213125 0.11318494 -0.22614087 0.07244126 -0.03875425 -0.03400171 -0.03893286 0.08445039 -0.17507236 0.26079226 -0.039749295 0.18439898 0.006862305 -0.0065872534 0.07533477 0.01777506 -0.0743894 0.05150132 -0.019179638 0.10208999 0.042405047 0.13401158 0.07999878 0.008176205 0.00076728314 -0.18922788 -0.0751537 0.0295344 0.023429291 0.073105074 -0.107860886 -0.16405228 0.09698143 0.012918512 -0.16202918 0.073791645 -0.057693806 -0.00993782 -0.027572848 0.05964624 0.046775833 -0.0315056 0.13997765 0.18591493 -0.1051571 0.018536804 -0.07611401 0.048579875 0.01821424 0.02534607 -0.02705222 -0.15384944 -0.103390425 -0.14666285 -0.08357766 0.26672134 -0.10388832 -0.017294226 0.025765702 0.06345806 0.003059035 0.11656189 0.09115035 -0.06436738 -0.055120844 0.091077484 -0.024068823 0.0006500442 0.048009753 0.1256415 0.09442023 -0.21191725 0.031902414 -0.06513429 0.10960489 -0.038527716 0.016479228 0.08958473 -0.17151093 -0.055758387 -0.20905606 0.013685944 0.20434469 -0.13314071 0.02822247 -0.0791433 0.04425907 -0.16035473 0.030432578 0.057434525 0.18271564 -0.20660615 -0.009064846 0.012212315 0.03565387 -0.1225806 0.1463454 -0.12305113 -0.18226387 0.08279482 -0.066554144 -0.15335712 0.016628096 0.041700445 0.078978516 0.10175423 0.12591232 -0.30203465 0.12177409 0.1731027 0.16858238 0.06409108 -0.21212628 -0.029692927 -0.105347425 0.14290309 -0.2583368 9.0359536e-05 0.007600355 0.035695925 -0.027838748 0.07465187 0.124756195 -0.06123895 -0.14245135 0.0281823 0.10041621
116 0.23240362 0.13641119 0.13246192 -0.26312828 0.06262677 -0.06499581 -0.022197258 0.010935413 0.07611938 -0.25236383 0.24450457 -0.061298598 0.18486339 0.02313106 0.011303599 0.105923295 0.012141826 -0.033158235 0.031557597 -0.06520698 0.07607064 0.08048408 0.11418956 0.0665832 0.033093214 -0.085776776 -0.14758834 -0.12490283 0.041547425 0.11711762 0.05570664 -0.14501229 -0.20487306 0.09572682 0.020617235 -0.19245647 0.019973231 -0.042149805 0.06909138 -0.08261462 -0.027022207 0.03546243 -0.06372486 0.1141652 0.23713998 -0.047790866 0.023920868 -0.06772221 0.09187071 -0.010987832 0.046719767 -0.020575244 -0.18009049 -0.11618909 -0.20019142 -0.08818852 0.24737275 -0.14948057 0.015597835 0.014785495 0.045609917 0.023028614 0.1727757 0.07227424 -0.03058017 -0.069795825 0.11915908 0.030437216 -0.00037032427 -0.007346158 0.08086694 0.06947899 -0.19976874 0.03025517 -0.019913934 0.15337324 -0.038590215 0.004230026 0.09268056 -0.20007221 -0.05917864 -0.24090415 -0.029562881 0.20883185 -0.12364943 0.05934877 -0.096118115 0.13527222 -0.14594848 0.027589818 0.056034 0.174938 -0.22346483 0.012484166 0.021698073 -0.0016160817 -0.14361762 0.11672897 -0.15128966 -0.25462282 0.08904261 -0.1336329 -0.17859432 0.04244479 0.021794112 0.06548691 0.14316255 0.14750206 -0.24411668 0.15312481 0.18990652 0.15882881 0.009594783 -0.18737386 -0.025835885 -0.1025788 0.15550107 -0.33168676 0.03269007 0.05026297 0.051120784 -0.097373076 0.1159968 0.14690502 -0.033991706 -0.15153629 -0.01664438 0.11754267
94 0.15123016 0.17809044 0.027810117 -0.1499507 -0.027704332 0.079307884 -0.038127337 0.106542714 0.041855704 0.08617598 0.25578725 -0.15796877 0.33921945 -0.5085665 0.22354029 -0.31951693 0.095321946 -0.21993913 0.26037616 0.060046006 0.08243431 -0.28205025 0.040661257 0.14457999 -0.25414452 0.14624763 -0.10462728 0.09471035 -0.19780245 0.2600572 0.27396336 -0.128069 0.009839024 0.2324608 0.14580758 0.117083244 0.11443262 -0.060218293 -0.2081629 0.12574847 0.26050702 -0.2560143 -0.22215398 0.33432895 0.039426085 -0.48604622 0.3613834 -0.41722354 -0.16661665 -0.11762079 -0.05300965 0.114785925 -0.18215348 -0.22709188 0.050720684 0.102631494 0.4193696 -0.09058189 -0.059831858 -0.005805748 0.13555767 -0.14241597 -0.02207624 0.22094938 0.0966173 -0.08415852 0.075688235 -0.2933501 0.013979822 0.24222106 0.03909934 0.23163037 -0.31763053 -0.014416889 -0.110416576 -0.08105175 0.16351223 0.18651445 0.01855247 0.22506422 -0.369288 0.12749393 -0.12836686 0.21322936 -0.31665948 -0.13090107 0.20028 -0.22161017 0.0679742 0.12086602 -0.012743756 0.26736313 -0.25455284 0.31677064 -0.13082565 0.0026845452 0.044405166 0.37967417 -0.24123164 -0.19923835 0.07395004 -0.43618253 -0.024338078 -0.24920644 -0.20932315 0.10245442 -0.043667953 0.063713446 -0.2774074 0.34305805 0.454304 0.06709981 -0.030843308 -0.23346758 0.10897702 0.13903973 -0.01951961 -0.19146399 -0.13937907 -0.3018723 -0.042113606 0.05891663 -0.10981074 0.2497302 -0.14484082 -0.07633703 0.19281375 0.20882247
26 0.24718672 0.12794638 0.108077034 -0.22025116 0.053188138 -0.04007676 -0.0051196488 0.011171326 0.07958011 -0.17474377 0.26429325 -0.065394044 0.18728778 -0.03547029 0.03189916 0.039275985 0.024529114 -0.08560432 0.05963014 -0.018322665 0.088154964 0.039670277 0.11099806 0.090862274 -0.003069866 -0.010048984 -0.16423838 -0.08719085 0.023767399 0.07217862 0.09095179 -0.12447904 -0.16595842 0.114392176 0.034456514 -0.1543969 0.062874466 -0.04456127 -0.008326135 -0.032340266 0.035822306 0.0033749137 -0.048086207 0.14816436 0.18956688 -0.11062477 0.0316965 -0.1187136 0.047961686 -0.004240464 0.010398499 -0.015247773 -0.16555472 -0.11832524 -0.1466435 -0.06300118 0.2805324 -0.11464779 -0.018980905 0.02091206 0.06462194 -0.023501242 0.11453254 0.095828936 -0.045178548 -0.0746596 0.08258697 -0.034532934 0.0047077546 0.025734182 0.096774735 0.07342339 -0.21333641 0.021836394 -0.060485877 0.10432203 -0.032388143 0.021179607 0.0982178 -0.14996004 -0.09613499 -0.195199 0.01868124 0.18959348 -0.12775052 0.030955046 -0.05794493 0.0733807 -0.12737785 0.0268628 0.052891545 0.19107293 -0.20686273 0.025808591 -0.0011439949 0.021826202 -0.10598338 0.15075204 -0.11860563 -0.18301335 0.0932613 -0.09641063 -0.13582686 0.0026530153 0.0014193888 0.073129945 0.10351916 0.11743067 -0.26449397 0.16540448 0.20173876 0.15535788 0.03776085 -0.18667805 0.005944174 -0.08722267 0.12032436 -0.25598451 -0.020381348 -0.002012055 0.035466544 -0.033979394 0.068105124 0.12321892 -0.03777368 -0.16765146 0.029000333 0.10813301
49 0.07389632 0.02212096 -0.13896537 -0.217701 0.09196554 -0.098949924 0.01633243 -0.22773898 0.27827817 -0.117721826 0.16205205 -0.1821552 -0.010400569 0.02471905 0.3033632 0.06616992 0.119577594 -0.1643262 0.06301713 0.060028065 0.14659908 -0.0595369 0.096775 0.2501964 0.1738239 0.036566626 -0.16101101 -0.190705 0.04401623 -0.3310436 -0.002931259 0.022902353 -0.31583714 -0.052204486 0.022916153 -0.20956963 0.018406589 -0.17150322 -0.062666595 -0.14878334 -0.06732063 0.1575826 -0.056279935 0.045572124 -0.117359206 -0.23349226 -0.16514973 -0.12100346 0.18112168 0.18712726 -0.15390244 -0.0051682624 -0.079714485 0.092705816 0.041357633 -0.28170803 0.4759244 0.013558561 -0.06811153 0.070907615 0.18534759 -0.31423083 0.12855227 -0.11013686 -0.024330711 -0.13929038 -0.019725738 -0.29172674 -0.056976188 0.1560092 0.1332302 -0.027325599 0.012939664 0.11573314 -0.48345768 0.2830453 -0.08159347 0.007924915 0.32915422 -0.075172305 -0.14003561 -0.12888376 0.19456609 0.15334672 0.15933579 -0.026396768 0.14369775 0.3030579 -0.44939476 -0.041684624 -0.04147958 0.08424342 -0.32145488 -0.071473956 0.22249293 -0.058173217 0.01005442 0.04067982 0.17354935 -0.34619993 -0.0011257497 -0.05872236 -0.05100544 0.054007452 0.25683248 0.09817172 -0.05815337 0.06775984 -0.4390792 -0.016522266 0.0044657765 0.2900492 -0.02290395 -0.0975337 0.24507447 0.11838295 0.27844024 -0.123192675 -0.19083013 0.023478767 -0.029020688 0.14969106 0.34415787 0.17714584 0.24802387 -0.07175979 -0.032825317 0.22279967
10 0.15757199 0.09239584 0.09613588 -0.33945504 0.081275634 -0.22532894 0.23792829 -0.20589297 0.20795567 -0.13372314 0.32541218 -0.18321966 0.06328036 -0.03559687 0.15948734 -0.12154736 0.17305918 -0.122392885 -0.010425345 0.16813193 0.20535685 0.2136123 0.068200484 0.24178249 -0.077838756 -0.051950384 -0.14568418 -0.21149077 0.03191438 0.13149843 0.17255645 -0.24825892 -0.17253244 0.14055681 0.10011916 -0.25937593 0.13289915 -0.07307334 0.27178568 -0.27085048 -0.021485114 0.09978715 -0.00063092844 0.11720786 0.31345686 0.03505363 -0.16077185 -0.16151173 0.2846432 -0.023730207 0.16268528 0.008835659 -0.3771721 -0.23554032 -0.11879898 -0.07977767 0.28811398 -0.03034228 0.025509767 -0.04763127 0.12843972 -0.24234228 0.01372906 -0.06883536 -0.07455661 -0.17463164 0.1899313 -0.049691245 0.08888037 -0.11490607 -0.094453074 -0.14822446 -0.26237807 0.0036154047 -0.107078664 0.12239847 0.0154671585 -0.19464742 0.04964852 -0.06978724 -0.11182687 -0.08389592 0.045242615 -0.1240181 0.077326424 0.2300771 -0.109557725 0.2605888 -0.16146965 0.0048391265 0.17601381 0.11440406 -0.3619673 -0.059960548 -0.036567606 0.058930337 0.06030767 0.007909745 0.018343095 -0.053033978 -0.110207945 -0.13359131 -0.14650287 0.041116484 -0.072190315 -0.057405453 0.15758963 0.067881726 -0.14734355 0.07211428 0.17014267 0.03471294 0.113492504 -0.13116041 0.08804148 0.13118057 0.003063722 -0.32536355 -0.10057366 0.15386698 0.13061708 -0.13422538 0.15774517 -0.013369359 0.07495427 -0.037978712 0.046672862 0.108699635
82 0.1541915 0.18619932 0.04761981 -0.16887766 -0.020235017 0.050722815 -0.010989072 0.10067459 0.050378352 0.05211036 0.2673195 -0.15442397 0.33013716 -0.46652377 0.21406406 -0.2911517 0.09101997 -0.19836406 0.23219779 0.049919076 0.08674715 -0.23983248 0.035285376 0.1512984 -0.23153436 0.11798452 -0.10004186 0.058923118 -0.17558672 0.2701965 0.2645111 -0.1454103 -0.0063462732 0.23704302 0.13989955 0.08445463 0.106337346 -0.056680445 -0.15636984 0.090505295 0.22362801 -0.25086853 -0.21173193 0.319263 0.0838262 -0.4344067 0.31882924 -0.39878106 -0.12628406 -0.11542016 -0.037453786 0.09797337 -0.20015602 -0.24242853 0.023884442 0.09234441 0.4028654 -0.08832279 -0.04722911 -0.02230056 0.13171414 -0.13408507 -0.0129778655 0.20581608 0.08738712 -0.08113179 0.092951916 -0.25677133 0.022167834 0.19136667 0.017406551 0.19731092 -0.31100562 -0.014791381 -0.09052467 -0.067764 0.15666541 0.14515571 0.0052349437 0.20363642 -0.3454587 0.1050406 -0.11774522 0.1907346 -0.2844832 -0.09975362 0.17383476 -0.17131121 0.065920524 0.11512674 0.013102195 0.25524095 -0.25777146 0.29360765 -0.13082959 -0.002839394 0.02921049 0.34452838 -0.2282819 -0.18770985 0.06705635 -0.4174002 -0.03530678 -0.22537565 -0.20910253 0.08621578 -0.017710138 0.07437969 -0.24933407 0.34143347 0.436538 0.058753442 -0.02603798 -0.22465488 0.10517995 0.12799187 -0.020243414 -0.21549788 -0.13208978 -0.24993743 -0.026544545 0.027028704 -0.08805274 0.22344607 -0.12774007 -0.074324764 0.17714284 0.20169769
110 0.24030751 0.08817423 0.07434994 -0.2528314 0.074280724 -0.074511856 -0.019640349 -0.059296302 0.16916335 -0.17696132 0.23608732 -0.080980375 0.10183526 0.0382261 0.04633603 0.054322314 0.08459261 -0.115292154 0.00852101 0.014498552 0.06503325 0.022478556 0.11879812 0.097151116 0.06912633 0.045776103 -0.19356899 -0.06817555 0.041543003 -0.012537201 0.043604735 -0.06253141 -0.17342573 0.07562204 0.07253811 -0.15424274 0.11159681 -0.08888553 -0.0006692504 -0.020200191 0.031207912 0.06375373 -0.016576227 0.11797019 0.092863075 -0.1320529 0.05347989 -0.07691964 0.07142964 0.057728067 0.022725837 0.01580028 -0.12937137 -0.07094551 -0.11549314 -0.08765635 0.26232433 -0.090286605 -0.04965825 0.06407164 0.11486736 -0.05705689 0.078793794 0.026676996 -0.031373367 -0.090700515 0.04780846 -0.08909632 0.0007305548 0.094272465 0.13445869 0.065256216 -0.16528487 -0.013814944 -0.16165765 0.11513677 -0.043689072 0.0011661568 0.1535438 -0.12122797 -0.06151599 -0.14691237 0.023739357 0.16165665 -0.059031874 0.008712948 -0.0044783163 0.06464692 -0.17520478 0.01755308 0.04101625 0.13352844 -0.20854394 -0.028572476 0.0029041455 0.040368598 -0.030025968 0.08527354 -0.059339397 -0.19568756 0.023682484 -0.04264286 -0.11625445 0.03956872 0.08547157 0.080556355 0.053885393 0.06902081 -0.30122012 0.06479927 0.11786399 0.1655325 0.028272863 -0.14120908 -0.036202405 -0.010440944 0.13364233 -0.17990422 -0.08760482 -0.017627414 0.022814242 0.01783069 0.067248456 0.12905616 -0.0037036058 -0.10545484 0.036378946 0.07357463
65 0.24999695 0.12944096 0.09024522 -0.2669151 0.07243974 -0.069436915 0.023353279 -0.020812051 0.14166789 -0.1967319 0.25033665 -0.08344164 0.11131631 -0.0032716189 0.04893974 0.02168237 0.060198605 -0.075835295 -0.0014866366 -0.012606816 0.07774637 0.053344533 0.10039813 0.11656847 0.018994711 -0.01019515 -0.15279905 -0.12193556 0.035012458 0.08715648 0.057935722 -0.104024276 -0.18543494 0.07836426 0.0799731 -0.18963908 0.08857888 -0.061762456 0.05559948 -0.07705295 -0.021575032 0.033795327 -0.03249986 0.11062248 0.16153997 -0.0937839 0.036333624 -0.086474046 0.10207501 0.017554324 0.044407386 0.0203504 -0.17532562 -0.10532436 -0.15607141 -0.09409048 0.2577741 -0.119442925 -0.009089305 0.022823947 0.096013024 -0.061894763 0.12458256 0.043124314 -0.03475673 -0.09378867 0.082745 -0.055355746 0.018324856 0.01991203 0.08235252 0.048644733 -0.17557946 0.002377191 -0.10014359 0.14551575 -0.022613063 0.0015271424 0.1332874 -0.14005192 -0.077917814 -0.19380878 -0.002273756 0.140561 -0.070763044 0.055100173 -0.042088896 0.13929029 -0.15265436 0.011819421 0.045368485 0.15848438 -0.24859208 -0.0053456794 0.023034867 0.029168565 -0.066467054 0.10994683 -0.079607636 -0.22581191 0.024490496 -0.09928853 -0.14300764 0.03419759 0.036176916 0.06713564 0.11558845 0.08471038 -0.24548303 0.10489381 0.16021305 0.15324193 0.0038936627 -0.13330299 -0.0045713037 -0.025236527 0.11427164 -0.27121258 -0.04002427 0.01228597 0.03865862 -0.057161536 0.106607646 0.12936413 0.01697203 -0.13888441 0.01915783 0.10361882
86 0.22648124 0.134418 0.10180066 -0.23348953 0.047027595 -0.05498186 0.0023460258 -0.006035351 0.08145721 -0.1634756 0.26526022 -0.080131 0.1936764 -0.06489554 0.060271326 0.004297658 0.022807121 -0.07790815 0.06656262 -0.017716482 0.09186578 0.036100417 0.094941154 0.109773755 -0.022280458 -0.015831243 -0.13963418 -0.093453646 0.002432094 0.110158786 0.11675641 -0.14328116 -0.14179382 0.12712279 0.03991523 -0.14260578 0.06056595 -0.03858523 0.01962773 -0.051220544 0.035495654 -0.017366037 -0.06979374 0.14809899 0.21247676 -0.101187915 0.035740264 -0.13155721 0.05553814 -0.018237153 0.023773862 -0.007815817 -0.18293364 -0.13813835 -0.13204306 -0.03716221 0.26607102 -0.10367262 0.002641877 -0.0014227532 0.06280501 -0.027401874 0.09383608 0.092863426 -0.035622664 -0.062098302 0.106235564 -0.026785724 0.020658713 -0.004207734 0.067713484 0.058166534 -0.21004876 0.020306926 -0.035698555 0.08694366 -0.013297143 0.005857297 0.05926661 -0.113438025 -0.10190551 -0.16877627 -0.0058644805 0.15903454 -0.12330081 0.04267914 -0.04943429 0.07140183 -0.10393744 0.024419991 0.06498339 0.18066432 -0.21234387 0.045289252 -0.0140308915 0.020986948 -0.086379945 0.14765345 -0.12475446 -0.17092988 0.08836564 -0.1272677 -0.130299 -0.0097843185 -0.02588977 0.04560603 0.1068844 0.109430745 -0.21853115 0.18425827 0.21649082 0.1303515 0.031298093 -0.18369211 0.016680693 -0.06382569 0.09790648 -0.27494824 -0.0122343255 0.0059385775 0.042285983 -0.050789595 0.055481613 0.11304522 -0.04599535 -0.14378105 0.032932907 0.10201812
83 0.16830859 0.17948127 0.029063376 -0.18400648 -0.022223474 0.05112041 -0.05449907 0.08029221 0.07098734 0.07215474 0.26942202 -0.17393136 0.3488368 -0.47164503 0.24855472 -0.30611202 0.114423275 -0.22699352 0.25232667 0.060952775 0.089469954 -0.29007798 0.034996137 0.15496378 -0.21691748 0.16651367 -0.12701577 0.09087761 -0.21236947 0.24957764 0.28716856 -0.11758724 -0.009442503 0.2547989 0.15928261 0.10102487 0.12984958 -0.07414176 -0.19815429 0.11549387 0.2528196 -0.25838444 -0.2319665 0.35396013 0.04729843 -0.4896419 0.3745872 -0.41945195 -0.15271764 -0.08428632 -0.059936836 0.10685554 -0.18987806 -0.24406934 0.044718206 0.1080115 0.44592744 -0.068655215 -0.0651852 -0.008193653 0.15809911 -0.14369641 -0.029882904 0.21764426 0.08743691 -0.08454054 0.08907395 -0.30117372 0.013576959 0.25507027 0.05782606 0.22982018 -0.31882244 -0.029443247 -0.14922267 -0.0733383 0.16904865 0.16297972 0.013494196 0.23304299 -0.36924773 0.13965537 -0.12216961 0.22504143 -0.31139854 -0.13086286 0.21071707 -0.22220977 0.034752615 0.13832204 0.01153334 0.2588209 -0.2657507 0.30913758 -0.13400139 0.000725872 0.06126183 0.36987054 -0.24569012 -0.21304734 0.0767113 -0.44180113 -0.03191404 -0.22825612 -0.1872432 0.08662311 -0.059462678 0.06337199 -0.2993541 0.33318767 0.45933473 0.07474063 -0.02538643 -0.2451399 0.09849308 0.15109272 -0.0042400598 -0.20367314 -0.16312201 -0.29168397 -0.05658555 0.059725627 -0.101130724 0.26442543 -0.15604277 -0.05417097 0.19617158 0.20411873
105 0.39210752 0.22679232 0.02663394 -0.4535977 0.15466094 0.06981576 0.031562727 -0.10258711 0.3958129 -0.21272245 0.11947567 0.019253628 -0.2016895 0.057326548 -0.09761138 -0.13817531 0.041122317 -0.019716261 -0.45438948 -0.1614082 -0.03261562 -0.18141727 0.008811268 0.056640804 0.025094224 0.24407527 -0.073992655 -0.06797399 -0.007477765 0.20331104 -0.27023453 0.35953197 -0.07889169 -0.29725564 0.40331542 -0.122894354 0.28418842 -0.19070183 0.16146694 -0.040117968 -0.21676426 0.018230341 0.051388793 -0.09189043 -0.2817047 -0.37616012 0.38451958 0.27877384 7.475924e-05 0.097419254 0.1517971 0.2955422 0.03083348 -0.018711293 -0.10678446 -0.32113186 -0.011619613 -0.2357763 0.011256096 -0.02619595 0.26256058 -0.12067303 0.25088218 -0.026820702 0.01263765 -0.08697821 -0.07494648 -0.34837425 0.020121971 0.22173375 0.08865661 0.28390583 0.17829014 -0.20333992 -0.24066202 0.4515588 0.2017069 0.12574086 0.33782586 -0.013749578 0.0910276 -0.18861893 -0.31845507 0.14495216 0.0070673926 0.011432041 0.23694877 0.08275926 -0.35104355 0.08025484 -0.24221154 -0.041498046 -0.41928592 -0.01662746 0.18044695 0.07760092 0.050172303 0.18936567 -0.08889378 -0.663246 -0.39027405 -0.3369293 -0.21562837 0.1665607 0.35341352 0.23825654 0.18876584 -0.0056275274 -0.37825266 -0.3496527 -0.008073116 0.26235768 -0.3091265 0.027405933 -0.2683439 0.2009601 0.058256917 -0.26705098 -0.00036664878 -0.20241264 -0.18776523 -0.2628209 0.19579874 0.4538257 0.13088854 -0.033735014 0.10039937 0.274136
104 0.23790444 0.107791916 0.08878153 -0.24406604 0.058994222 -0.06402206 -0.012616112 -4.7494075e-05 0.14506584 -0.21422932 0.21739972 -0.0662412 0.1049114 0.025090782 0.039849877 0.07078747 0.061541196 -0.077694625 0.0023726262 -0.028884236 0.034362815 0.04457319 0.09944712 0.077440135 0.063202694 -0.016774999 -0.13347428 -0.092972025 0.050210442 0.06293865 0.047119886 -0.08127237 -0.19043122 0.09031187 0.08874313 -0.17733285 0.090103604 -0.073441155 0.022295076 -0.04128941 -0.02931515 0.038024202 -0.02653178 0.10882353 0.13100727 -0.11707415 0.07248922 -0.077120185 0.07199408 0.0175195 0.039261047 0.01901618 -0.14008208 -0.08670441 -0.16146818 -0.09689391 0.2511743 -0.14554363 -0.026884949 0.03497117 0.09830116 -0.023813535 0.11110979 0.036383048 -0.027302587 -0.10169451 0.067305215 -0.06127152 0.0067884093 0.041556224 0.12185388 0.05769481 -0.16899021 -0.012564701 -0.116489254 0.15929726 -0.024832506 0.0062330253 0.14709406 -0.1362749 -0.0636189 -0.19551508 -0.009690271 0.1864688 -0.079519875 0.021346226 -0.014920136 0.11575788 -0.15279889 0.015423623 0.03743763 0.16867837 -0.21918695 0.0052043786 0.015444476 0.015252655 -0.06283534 0.104688756 -0.109391764 -0.24413161 0.034619268 -0.07498303 -0.15704803 0.03912294 0.06351106 0.08709896 0.10087556 0.08630905 -0.26713255 0.10411586 0.13949236 0.15868017 -0.0053041624 -0.12365807 -0.038809147 -0.036394544 0.13016187 -0.24238917 -0.05678192 -0.008736559 0.031221695 -0.041095715 0.05973691 0.14266507 0.011645144 -0.13483173 0.015180716 0.08034392
41 0.25226894 0.09027612 0.08750966 -0.22422357 0.0666794 -0.07685131 -0.021098109 -0.0039538406 0.1354168 -0.19994004 0.23777646 -0.07412041 0.1429753 0.04707553 0.045080293 0.09020246 0.082401596 -0.10998451 0.02578625 0.003979705 0.052414604 0.042336788 0.12501474 0.08589381 0.08630759 0.010225226 -0.17973262 -0.07592353 0.051289104 0.004697277 0.067561984 -0.0883033 -0.19279715 0.10840683 0.066601075 -0.1722549 0.094548956 -0.080543585 -0.021856263 -0.010036623 0.023543356 0.040239237 -0.024238173 0.14504237 0.13146542 -0.10792846 0.055806972 -0.11394211 0.05835557 0.04414816 3.7372956e-05 -0.0017651751 -0.14240086 -0.09021791 -0.14410731 -0.06893004 0.29719445 -0.10490964 -0.06633112 0.070188135 0.11239518 -0.03769282 0.08883304 0.041107018 -0.037911978 -0.10587205 0.06176501 -0.05959961 0.006804731 0.07720629 0.15592827 0.056565817 -0.20453666 -0.011770704 -0.14878087 0.10702573 -0.046142705 -0.007308644 0.15280797 -0.14319281 -0.07908767 -0.17508186 0.037817948 0.20168346 -0.07586013 0.00877918 -0.027821824 0.08431171 -0.16732585 0.021937367 0.06663395 0.17594491 -0.19531995 -0.013285802 -0.0061880862 0.021304907 -0.05625312 0.092173085 -0.084029995 -0.18520485 0.0653924 -0.03346414 -0.13014568 0.028536921 0.062605076 0.09390431 0.060254566 0.09070031 -0.29258102 0.12153879 0.13585393 0.16537683 0.03952652 -0.15720618 -0.035394333 -0.047443535 0.13664082 -0.19961743 -0.091702975 -0.011842009 0.028796792 0.012273834 0.0502349 0.114309296 -0.022736372 -0.14570335 0.029516691 0.05426705
72 0.18697767 0.10827932 0.066189155 -0.19528276 0.03892959 -0.021928737 -0.03220576 0.028726723 0.08776147 -0.13961527 0.21459948 -0.0816279 0.18451846 -0.089975715 0.08546912 0.016961768 0.0453931 -0.09347153 0.09793248 -0.01544745 0.066754065 -0.020052029 0.09127247 0.090993345 -0.004297247 -0.0060722027 -0.13457015 -0.06350915 0.0062635206 0.06467373 0.09948085 -0.109090015 -0.15728432 0.122055285 0.05036364 -0.112642616 0.052434433 -0.055849746 -0.047382824 -0.010737564 0.045465086 -0.022032943 -0.07491002 0.15182015 0.12660989 -0.16473176 0.07848451 -0.15993541 0.02651046 -0.008932046 -0.010017152 0.012048606 -0.13730307 -0.09017681 -0.11174647 -0.055212967 0.293494 -0.11999407 -0.03725326 0.031623077 0.07778772 -0.039524 0.09710785 0.0872972 -0.0121564865 -0.08277376 0.06910353 -0.08392347 -0.003452812 0.0779799 0.106075354 0.09106443 -0.19438183 0.03168833 -0.10058728 0.09610258 -0.017896589 0.054382365 0.109191075 -0.08539154 -0.12923808 -0.14312887 0.002624979 0.20368657 -0.13100508 -0.013639462 0.007868323 0.05967135 -0.106928505 0.030464832 0.028348353 0.1890197 -0.20598683 0.063062094 -0.00053984975 0.006049616 -0.07807934 0.15765963 -0.12115241 -0.20966896 0.089283556 -0.1293775 -0.10956205 -0.029715974 -0.0031788314 0.08656195 0.061446585 0.100731276 -0.26951432 0.17759831 0.20588072 0.14473857 0.013769399 -0.16136126 0.023035152 -0.038397998 0.12854147 -0.21623652 -0.054265782 -0.050442453 0.022068609 0.0024770726 0.054726686 0.1512412 -0.0248655 -0.14080349 0.036770545 0.10907986
76 0.2673766 0.062368326 0.07865209 -0.28389627 0.067849755 -0.102741666 -0.07536175 -0.027417868 0.21948619 -0.21451631 0.21274993 -0.11106384 0.07556817 0.105110854 0.07702135 0.10905254 0.14847827 -0.13783234 0.01588507 0.015666718 0.002903642 0.008956731 0.1166177 0.066502206 0.15823819 0.04845321 -0.20733742 -0.04215353 0.061618842 -0.025133476 0.0430434 -0.042799428 -0.21083671 0.11791547 0.11163497 -0.15660557 0.14435613 -0.11809084 -0.024006559 0.026238404 0.0153024215 0.0685528 -0.013064633 0.14621964 0.05756641 -0.15288875 0.14172912 -0.10619079 0.054390345 0.07272207 0.015133492 0.035713833 -0.103251554 -0.055131007 -0.13862048 -0.06708796 0.27312917 -0.11278462 -0.09460475 0.1150272 0.14189397 -0.027003517 0.04266533 -0.008759909 -0.0062014465 -0.12159808 0.026999898 -0.09853611 -0.0034055698 0.15297334 0.2081557 0.06315595 -0.18165563 -0.05121622 -0.2274838 0.1127868 -0.056702275 0.0074621765 0.19446522 -0.11343105 -0.059815865 -0.11934018 0.02326482 0.2045992 -0.04915586 -0.032492936 0.030374385 0.047709327 -0.17384757 0.022904377 0.058108326 0.14146201 -0.18098556 -0.035626937 -0.031530745 0.031012563 0.0067710695 0.042670317 -0.08577823 -0.20964858 0.025657019 0.013423256 -0.12227243 0.0558708 0.12592483 0.09842715 0.013481932 0.04111736 -0.32305616 0.062499464 0.09763608 0.16707595 0.013844479 -0.10757051 -0.09459978 0.021429619 0.1420602 -0.13276371 -0.13866052 -0.041672427 0.022051645 0.06103756 0.0037724657 0.14193022 -0.011361061 -0.094015494 0.028402034 0.008682333
46 0.3988906 0.0036613722 0.08401617 -0.3714569 0.1945232 -0.15995394 -0.083102316 -0.5054973 0.32818362 -0.04592437 0.4017243 -0.030965252 0.04305282 0.33682442 -0.12283014 0.049900476 0.16624936 -0.26761055 -0.15820308 0.17770056 0.24584882 -0.032062422 0.21205223 0.21864331 0.14396559 0.41663998 -0.5265589 0.07481585 -0.04419466 -0.36141023 0.037175864 0.1338044 -0.06305887 0.027101582 0.045249708 -0.1916329 0.38040754 -0.20009285 0.02169054 0.046178762 0.28374633 0.32691795 0.13400593 0.16895784 -0.0037730914 -0.14427799 -0.032330573 0.12160134 0.07838378 0.32279646 0.070810385 -0.07379053 -0.19502157 -0.12953694 -0.028990762 -0.109783754 0.27470887 0.20836943 -0.09946501 0.13989477 0.22362098 -0.06691264 -0.12750562 -0.0045559695 -0.2032548 -0.029865747 0.08560373 -0.19169983 0.017695945 0.26519617 0.29647237 0.15395465 -0.2407193 -0.16789396 -0.3799698 0.030751582 -0.037894852 -0.14529249 0.13120347 -0.14830428 0.16410823 -0.028118575 0.07995026 0.08256371 0.029299213 0.04465688 -0.05684614 -0.25165248 -0.449374 0.066246845 0.14204437 0.02317144 -0.2284955 -0.2500358 -0.058512468 0.23378141 0.13345534 0.069501914 0.022947954 -0.031704027 -0.12810779 0.105110444 -0.117130436 0.17418003 0.31593123 0.04239306 -0.06842691 0.020389086 -0.6168577 -0.26944244 0.00569092 0.26715446 0.21685632 -0.3162441 -0.20889641 0.040222466 0.09636398 -0.09941684 -0.1656942 0.046762805 -0.025390787 0.13824753 0.039779406 0.08543727 -0.19558848 0.05906043 0.16194922 0.022123536
53 0.35960332 0.29553324 0.08134203 -0.9747777 0.07542013 -0.41780293 0.039330166 -0.6365172 0.73932266 -0.1981099 0.66873884 -0.3313786 0.43187553 0.016796438 0.6162316 -0.30293658 0.2718503 -0.41189167 -0.19740105 0.07674015 0.42963123 -0.3755873 -0.04671194 0.48897052 0.11650724 0.4751861 -0.38837004 -0.03183604 -0.3493141 0.20433944 0.3128455 0.06369948 -0.15804237 0.411467 0.5109569 -0.3137003 0.5107972 -0.32918596 0.44242927 -0.34117204 0.017904185 -0.105647795 -0.25198138 0.43892565 0.29666093 -0.5529342 0.45134977 -0.23707376 0.17187871 0.20114668 -0.031625602 0.14189455 -0.6210916 -0.66271514 -0.04244517 0.0007193001 0.7164268 0.11280599 -0.04515598 -0.18459812 0.5788362 -0.31612203 -0.018686479 -0.00015864722 -0.002260153 -0.13197245 0.46254954 -0.41153917 0.1731765 0.1781813 -0.01202278 0.18184423 -0.19849946 -0.38335794 -0.5401081 0.36084265 0.44697177 -0.25376397 0.08819396 0.39161596 -0.23673336 0.2174735 -0.3568001 0.22482869 -0.03129865 0.12571232 0.35781914 -0.06340233 -0.63872975 0.31993824 0.22379218 0.16761315 -0.71391505 0.19598837 -0.14722414 0.025722573 0.2666782 0.28430718 -0.37944576 -0.65388465 -0.26703516 -0.9969782 -0.25160912 0.037732057 0.18649362 -0.08106884 0.015828399 0.14481059 -0.7175463 0.15387183 0.5274998 0.2626649 -0.11213898 -0.5060546 -0.07975303 0.46481857 0.03561476 -0.70316833 -0.28725922 0.034640744 -0.1624574 -0.2596685 0.16653448 0.54611135 -0.14778179 0.18466844 0.26962855 0.35124922
31 0.18830721 0.13644807 0.09053553 -0.18865483 0.022401635 -0.05861639 0.04339177 0.08379696 0.0728003 -0.1864363 0.22284995 -0.09126575 0.18534084 -0.10618428 0.11876673 0.01373516 0.05368684 -0.08523501 0.10206947 0.001055014 0.062056836 0.04894578 0.08106318 0.10342553 -0.0056818044 -0.06452185 -0.08880831 -0.11799802 0.039889544 0.113718875 0.10852248 -0.17215712 -0.19446702 0.15594639 0.07231856 -0.16438505 0.038424883 -0.042694315 -0.0047211596 -0.060377717 -0.010676094 -0.051102582 -0.07907804 0.1583059 0.2079874 -0.09734211 0.040899765 -0.21024062 0.07708295 -0.046043985 -0.004122263 3.2242548e-05 -0.18387899 -0.12519453 -0.14216416 -0.03434421 0.3353649 -0.143453 -0.045388084 0.025108574 0.083635665 -0.0829707 0.12598799 0.059316456 -0.0105979815 -0.11976461 0.096721776 -0.03889472 0.028324278 -0.002698164 0.06570163 0.016132297 -0.21557218 0.031078288 -0.07597476 0.10882479 -0.025212122 0.016311545 0.10978368 -0.09402115 -0.1656166 -0.17156829 0.027467921 0.17683531 -0.10097949 0.03078651 -0.024400655 0.16443183 -0.08130017 0.01473461 0.0645536 0.22422694 -0.22433263 0.08017551 -0.012200863 -0.024238925 -0.09414284 0.13169788 -0.10873561 -0.18368302 0.108814634 -0.12099797 -0.12470094 -0.036396816 -0.06053657 0.06955026 0.10232464 0.12293816 -0.19150831 0.25707224 0.21931094 0.117934994 0.012809227 -0.13987659 0.0634272 -0.04209522 0.10194106 -0.24670453 -0.063771136 -0.008381835 0.049744528 -0.034484066 0.061697766 0.09695258 0.014263863 -0.18877178 0.029468872 0.10189172
61 0.403868 0.0011087828 0.09991604 -0.39619398 0.18960053 -0.18179993 -0.102379024 -0.5010758 0.34450743 -0.045229487 0.41405678 -0.060236305 0.064248055 0.3323827 -0.10535631 0.05052989 0.19485854 -0.29106933 -0.13304967 0.20408677 0.23539439 -0.049874596 0.2144399 0.20666178 0.15702753 0.4366532 -0.5500048 0.09908109 -0.05880304 -0.36089155 0.059678692 0.12470681 -0.06673737 0.07638229 0.05969937 -0.1840642 0.40722293 -0.2111117 0.010022596 0.0665883 0.31194803 0.3159274 0.13528648 0.20691068 0.00894336 -0.17051809 0.007402323 0.081408754 0.07562311 0.32398555 0.064159 -0.06527884 -0.22079735 -0.14431047 -0.025672454 -0.08173533 0.3132893 0.21718079 -0.113146745 0.15340093 0.2485117 -0.054885905 -0.1481646 0.00917355 -0.19531278 -0.04659107 0.102280125 -0.19544297 0.020174464 0.29312888 0.31419408 0.1638725 -0.29158318 -0.19286577 -0.40257668 -0.002121006 -0.04475789 -0.14550087 0.119474076 -0.13100463 0.13994348 0.011604039 0.06968413 0.09127067 0.0047123097 0.039249856 -0.044027388 -0.28998885 -0.44107077 0.08610655 0.16102634 0.029066198 -0.22591464 -0.24137343 -0.10803559 0.24007651 0.15049483 0.07834785 -0.0034692576 -0.018679699 -0.11806553 0.10014576 -0.10584757 0.16905563 0.30559123 0.042481285 -0.091615096 0.017330902 -0.63231134 -0.23913932 0.022946842 0.258297 0.23480538 -0.3304841 -0.22928742 0.048151214 0.086183526 -0.086119115 -0.19097404 0.022152666 -0.02153196 0.16438732 0.007920886 0.08160166 -0.22224475 0.06953669 0.17853205 0.00038971798
85 0.13524246 0.15894645 0.017937653 -0.142239 -0.029169312 0.06287553 -0.048042376 0.07949119 0.061786596 0.081974864 0.23460928 -0.16579702 0.30177748 -0.45617566 0.23426102 -0.29524127 0.10585668 -0.21476963 0.25022128 0.068138674 0.07869046 -0.27294868 0.0278313 0.14725512 -0.2020857 0.14330487 -0.11106852 0.086657405 -0.18423246 0.20926127 0.25626498 -0.10353205 -0.0056873616 0.23003359 0.1459975 0.09771755 0.10429066 -0.066954866 -0.20114389 0.108601235 0.23583572 -0.23469515 -0.21686424 0.31409535 0.02082409 -0.46044078 0.33671865 -0.4016402 -0.13834304 -0.08976773 -0.07032626 0.10665358 -0.15916932 -0.19803704 0.056864 0.092135616 0.4181693 -0.060808256 -0.06612229 0.007531188 0.14802048 -0.15242101 -0.037158333 0.19082865 0.085966974 -0.09210682 0.06563372 -0.29183364 0.0074082534 0.2476065 0.051900823 0.20557737 -0.29447365 -0.017452845 -0.15411137 -0.07375643 0.14792831 0.16250952 0.032853946 0.2251412 -0.35425243 0.13579148 -0.097779624 0.19353956 -0.27204016 -0.13316381 0.20550062 -0.19002713 0.041065928 0.11498031 -0.005088424 0.24352022 -0.25164515 0.28851116 -0.12038905 -0.007151995 0.06136968 0.33908883 -0.19776763 -0.195722 0.065977305 -0.39311686 -0.017696539 -0.22587438 -0.16971475 0.09813547 -0.05738372 0.053771336 -0.27979603 0.31562078 0.411811 0.06900051 -0.029671498 -0.21668321 0.11575362 0.156865 -0.0054030637 -0.1632154 -0.16632254 -0.2812959 -0.05101368 0.07202251 -0.08971667 0.23549564 -0.12869462 -0.062252223 0.18025401 0.19072102
120 0.13345222 0.16710064 0.026321208 -0.13815294 -0.0283672 0.08039134 -0.041554708 0.09703682 0.042162932 0.07962497 0.22172636 -0.13037738 0.29843426 -0.44896656 0.18031675 -0.28501323 0.07413052 -0.18579584 0.21724717 0.03487433 0.06233564 -0.26914254 0.027973626 0.122763276 -0.2273877 0.13637243 -0.0822378 0.08897802 -0.17678438 0.2379265 0.23052387 -0.08969831 0.015380356 0.1989867 0.13405603 0.10901862 0.11023636 -0.059330072 -0.17898174 0.11535489 0.22124511 -0.23732431 -0.20083119 0.2893744 0.028993448 -0.45251837 0.33711055 -0.35255724 -0.16057324 -0.09975678 -0.03842718 0.10651328 -0.15170677 -0.2046455 0.04050675 0.07708053 0.35821 -0.09477572 -0.051933035 -0.013753264 0.12713766 -0.12108028 -0.013504902 0.19725725 0.08654925 -0.06122178 0.06424917 -0.26669505 0.00902004 0.21728936 0.03646734 0.22348344 -0.26684773 -0.025762422 -0.091337375 -0.054905973 0.15467522 0.1706836 0.016623104 0.20889653 -0.31927842 0.107297815 -0.13872185 0.20144245 -0.2928284 -0.12481803 0.19309348 -0.2056164 0.059585012 0.11281323 -0.028903257 0.23554589 -0.22987953 0.2930227 -0.10931124 0.0042230226 0.029225828 0.34447804 -0.22974777 -0.20437959 0.04785273 -0.4099476 -0.024822243 -0.22155957 -0.17282127 0.10227686 -0.033017896 0.05745469 -0.2534291 0.29366168 0.4013756 0.062156726 -0.042420983 -0.20488565 0.075889625 0.124748796 -0.01371434 -0.18041717 -0.109014094 -0.27379587 -0.048078414 0.04097089 -0.09583586 0.23993845 -0.12623616 -0.067467816 0.17336851 0.19792663
124 0.13571309 0.094003804 0.08392594 -0.39690182 0.102722205 -0.260221 0.29172415 -0.3070779 0.2677894 -0.1156234 0.35961556 -0.19685623 0.03605879 -0.0065533523 0.17232345 -0.15951903 0.18075205 -0.11392523 -0.072666466 0.18519579 0.26973197 0.23814479 0.043047156 0.28803962 -0.098254874 -0.03600561 -0.14236219 -0.2480202 0.004540304 0.14549954 0.1569004 -0.23127314 -0.15817781 0.101855755 0.13219991 -0.28283378 0.15913479 -0.08714256 0.3881915 -0.36483032 -0.06459159 0.13651903 0.018206641 0.08082008 0.3369525 0.07129531 -0.21028326 -0.107627206 0.3473019 -0.001978825 0.20282528 0.015398194 -0.4369906 -0.27822277 -0.12054878 -0.117144965 0.27877682 0.004643861 0.062302645 -0.09185869 0.16016199 -0.28523397 0.021868672 -0.11232325 -0.088795595 -0.1634078 0.23550823 -0.04821577 0.097310714 -0.15126342 -0.1536139 -0.17356342 -0.22538006 -0.0114527345 -0.11547638 0.17416859 0.06615279 -0.2501438 0.03640617 -0.05987986 -0.091592185 -0.069854036 0.01497045 -0.1892386 0.13431379 0.29578426 -0.11888097 0.28945705 -0.22651312 0.0081437575 0.18837723 0.072321855 -0.4233024 -0.09187275 -0.016163245 0.07771211 0.08117353 -0.013184854 0.046183083 -0.073042266 -0.19832629 -0.21427748 -0.16190997 0.08259021 -0.05277346 -0.09828317 0.19873492 0.07098594 -0.15907727 0.010015689 0.1757593 0.023568084 0.110515535 -0.14509332 0.096005335 0.1887419 -0.013595254 -0.39079556 -0.086668804 0.21860681 0.12584238 -0.20732847 0.23228158 0.0020863125 0.089074805 0.02231048 0.05556417 0.1562518
96 0.17229673 0.09188795 0.088017546 -0.25459594 0.052760314 -0.10456561 -0.017134398 -0.039374713 0.1470644 -0.20413926 0.2273308 -0.10422189 0.15505093 0.029388573 0.103770114 0.08422654 0.06728139 -0.07176968 0.069570236 -0.0009469653 0.08988589 0.049156617 0.10207902 0.09838225 0.07167422 -0.039192338 -0.1498935 -0.12232125 0.027593488 0.021106977 0.09315411 -0.13609494 -0.21840383 0.11672041 0.044294823 -0.18930116 0.05299991 -0.07480916 0.046288352 -0.10326353 -0.008033827 0.04960483 -0.05649319 0.13828331 0.20269091 -0.08657471 0.010838834 -0.121956 0.095474355 0.020620551 -0.0015878198 -0.015425039 -0.17193106 -0.11702751 -0.14980301 -0.0927476 0.31378463 -0.08854738 -0.030798107 0.02941692 0.09104945 -0.054297063 0.11803924 0.025741348 -0.028950868 -0.08829771 0.10985518 -0.033284202 -0.00078161445 0.03838583 0.105114646 0.0325009 -0.1777824 0.03285323 -0.13228185 0.15309434 -0.036345776 -0.027879385 0.13335784 -0.13019352 -0.10413849 -0.17919877 0.032804802 0.18618791 -0.06948637 0.032615803 -0.044525187 0.14849481 -0.19724622 0.022450903 0.08371919 0.17351304 -0.22856161 -0.0072287573 0.022754367 -0.011113078 -0.08442377 0.10165643 -0.11377528 -0.22557122 0.07256634 -0.12236975 -0.13902132 0.024576928 0.051775202 0.06517983 0.0877772 0.10477976 -0.27526343 0.14198132 0.16249323 0.15813492 0.04143722 -0.18491808 0.018948846 -0.04107551 0.15678409 -0.27824098 -0.049873836 0.055514928 0.043889854 -0.024362944 0.12776639 0.14819157 0.004891297 -0.128637 -0.0074351234 0.106595
