115 128
17 -0.030529598 -0.102616645 -0.1444462 0.10591815 0.026955154 0.31200597 0.06437562 0.102499396 0.008853643 -0.056737002 0.23565811 -0.25933245 0.0024425676 -0.025550101 0.0287472 0.021847999 -0.09561321 -0.04007979 0.04591612 0.070184484 -0.10463492 0.10480587 -0.124557294 -0.051387455 -0.051441897 0.011175387 0.029711992 0.05689657 -0.034261554 -0.10922704 -0.086649984 -0.1016169 0.13652068 0.06414717 0.21812032 0.02002226 -0.0554924 0.04804534 -0.13284685 -0.12870497 0.0011343197 -0.03519896 0.068111 -0.06412736 -0.07505015 -0.09211929 0.025336014 0.017428875 0.050034765 0.17249337 -0.047745015 0.17338404 -0.10637164 -0.023210652 0.2584016 0.052634858 -0.137776 -0.17716627 -0.069405966 -0.021641068 0.10400555 -0.1997863 0.10151403 0.16071232 0.051731154 -0.007276694 -0.10628364 -0.008623234 0.038817957 -0.15518507 -0.009994302 0.17296971 0.15935655 0.022021223 -0.0328385 0.19661964 -0.11347086 -0.031503074 -0.1779296 0.09225142 -0.058492247 -0.0131614115 0.00033666214 0.09034405 0.17660567 0.05509927 -0.16646622 -0.089691624 -9.139752e-05 -0.072493315 -0.23030524 0.09387888 -0.1947954 -0.18388322 0.019990284 -0.01853304 0.13703726 0.055898074 0.031312693 -0.10883629 -0.15766832 -0.1303011 -0.1023142 -0.109291926 0.017364463 0.11704756 0.19213161 -0.03503453 -0.01911262 0.117605194 -0.01596796 0.0605585 0.025321176 0.01977344 -0.060590167 -0.07818864 0.10097119 0.07444035 -0.089915715 -0.089118734 0.12343141 0.024431199 0.09791386 0.27503327 0.086030334 0.13319553 0.0021615182 0.00096777885
8 -0.08282772 0.051878925 -0.16743118 0.08298479 -0.100513406 0.21505405 -0.06407892 -0.03398322 -0.0372239 -0.050955765 0.087417744 -0.26824337 0.07162866 -0.13768862 0.15917075 -0.036142923 -0.09080226 -0.026202787 -0.028940842 0.10948264 -0.00215639 -0.09124405 -0.09120124 -0.36527798 -0.07090811 0.066839464 -0.006696681 -0.07019605 0.008372099 -0.09200949 -0.11743464 -0.058539413 0.14249925 0.04083562 0.0027162759 -0.061160535 -0.01575217 0.18538581 0.027350146 -0.02755126 -0.012007222 0.004293845 -0.065023035 0.10713956 -0.16895369 -0.11508385 0.08849074 0.0736359 -0.17315426 0.15568371 0.13621071 -0.030140469 -0.17905463 -0.08164465 0.31946382 0.022668611 -0.050907113 0.11136013 -0.11964538 -0.04744702 0.102200784 -0.23668803 0.12062871 0.099680096 0.14388303 -0.05162036 0.014393652 0.0404523 -0.008108258 -0.07734087 -0.1014657 0.047876958 0.086907305 0.05392947 0.07817387 0.20707528 -0.042572316 -0.10234975 -0.17700681 0.015732167 -0.07052432 0.04384534 -0.046886206 0.02478577 0.25383523 0.052183673 -0.18249337 0.054887224 -0.07772906 0.11768917 -0.23700398 0.040232494 0.006033698 0.031957842 -0.078293614 0.011587403 0.11049984 -0.017334392 -0.021522118 -0.1656471 -0.15807459 -0.06626068 -0.032066144 0.010590324 -0.061324283 -0.00218621 0.17765 -0.24283884 -0.083150044 0.072082855 0.0211354 -0.046274386 -0.21128774 0.05653734 -0.089335516 -0.05087218 -0.13742119 0.07741589 0.097468525 -0.07763067 0.096496604 -0.12262431 0.05764091 0.31152132 0.13677101 -0.019363986 0.01741867 -0.10983992
9 -0.0028981555 -0.13061742 -0.12765937 0.10175676 0.017947108 0.26344356 0.017425766 0.084600255 0.02821163 -0.06720788 0.22193597 -0.21849558 0.0139439665 -0.037405897 0.036131512 -0.010464707 -0.09970958 -0.036573492 0.045372166 0.06447195 -0.064201854 0.09433591 -0.13944729 -0.050973758 -0.014500254 0.011238579 0.022631204 0.029023478 -0.03205281 -0.104130656 -0.07501667 -0.049781393 0.14680314 0.069381 0.14511439 0.00012708761 -0.055337746 0.03859668 -0.07420861 -0.14126143 -0.028477244 -0.055802476 0.057675052 -0.014188007 -0.07834592 -0.0419628 0.023282025 0.06170856 0.023241006 0.13544175 -0.006534009 0.14300898 -0.077396475 -0.016419789 0.21722983 0.03844674 -0.14626227 -0.10258663 -0.04459215 -0.023583975 0.09624364 -0.15773301 0.104135364 0.15421847 0.11281793 -0.019337896 -0.08001569 0.026926097 0.008511787 -0.11335268 -0.011977326 0.1638841 0.14754175 0.008960152 -0.036917403 0.1938894 -0.092196666 -0.06050833 -0.18378273 0.09348597 -0.059683677 0.03680345 -0.06146806 0.106961064 0.20800659 0.05729691 -0.17383206 -0.03536971 0.0024274082 -0.0556069 -0.20959991 0.0738622 -0.16426486 -0.1817988 -0.013048003 -0.00564018 0.12956005 0.064832956 0.028293677 -0.1347823 -0.15479922 -0.14459549 -0.09393836 -0.061451625 0.04933074 0.09649255 0.19425474 -0.026705664 -0.0501318 0.12762605 -0.033175886 0.077539854 0.014493921 0.026147233 -0.012581063 -0.054313023 0.08026235 0.091524005 -0.09884627 -0.077855125 0.115873925 0.044768833 0.14063288 0.3127479 0.068072155 0.12235289 0.0017820454 0.0055045635
12 -0.05930251 -0.13571823 -0.10636146 0.19101346 -0.009299982 0.2594582 -0.31042445 0.07537153 0.0085794665 -0.32087886 0.07316544 -0.21544999 -0.060472976 0.027873898 0.061095648 -0.24962743 -0.07745325 -0.003513659 -0.099547766 0.036686093 -0.19718224 0.00089887244 -0.046161905 -0.21888813 -0.032248557 0.07984617 0.009630279 0.16172995 -0.030546732 -0.105428 -0.17545539 0.02933355 0.11914241 0.058881775 -0.113776244 -0.11576598 -0.12155741 0.091833636 -0.051763516 -0.0010979816 -0.08100945 0.13706549 -0.07358417 0.01775999 -0.19426985 -0.121081404 -0.094591394 0.061010636 -0.04032762 -0.010493857 0.28959054 0.046924915 -0.26703545 -0.15844479 0.109320104 0.031142928 -0.16730188 0.006016398 -0.057654362 0.05733388 0.18536362 -0.21325898 0.24799909 0.24880837 0.14904937 -0.17435148 0.008822053 0.08829702 -0.06908267 0.05770186 -0.12375471 0.07147984 0.23459731 -0.039319333 0.04053264 0.05417277 -0.09831515 -0.16655603 -0.0434917 -0.11125967 -0.011046377 0.053237956 -0.01864646 0.24876022 0.35925844 0.11430527 -0.2269646 0.12832616 -0.042809308 0.08441808 -0.034419138 -0.076176286 -0.07585474 -0.23799388 0.103440545 -0.14202444 0.12650494 0.09559916 0.011274668 -0.16694142 -0.14861272 -0.12295717 -0.14659505 0.13979882 0.04938875 -0.14559743 0.21084522 -0.19464685 -0.07762207 0.066301666 0.070855066 0.067670904 -0.1476803 0.0032890306 -0.0675539 -0.0073458604 -0.17149006 0.12127111 -0.05608874 -0.24929927 0.21367455 -0.008718675 0.057959016 0.48933363 0.2354304 0.038583335 -0.060658175 0.019055476
2 0.028959291 -0.1313041 -0.14621618 0.04266658 0.03482228 0.24524583 0.048096195 0.1287211 0.061187115 -0.068033196 0.21344335 -0.18844144 0.00011452097 -0.05693594 0.02162518 0.0035897226 -0.072520375 -0.05394887 0.03477454 0.058676958 -0.030513097 0.14147662 -0.20490482 -0.050719127 0.026379166 -0.00648617 0.039113108 -0.00816558 -0.06543423 -0.03626459 -0.025216246 -0.0178835 0.1368083 0.03517971 0.16760343 -0.01684887 -0.06202491 0.024764227 -0.06291247 -0.14845149 -0.05909433 -0.06629751 0.03472406 -0.032777086 -0.019588217 -0.08060824 0.054365214 0.05589833 0.045328498 0.18255566 -0.031470574 0.13691759 -0.07051343 -0.041838456 0.26616693 0.016345646 -0.15961552 -0.07995183 -0.041814573 -0.042702843 0.15625642 -0.16977766 0.10001225 0.17829193 0.08676147 0.013769982 -0.12280618 0.019829817 -0.0036007 -0.08566501 -0.012858934 0.16934942 0.18485528 -0.01078723 -0.05793842 0.1942542 -0.14523539 -0.040884353 -0.14266035 0.085591756 -0.11546416 0.04871241 -0.08139622 0.12108112 0.14778715 -0.02819524 -0.20933539 -0.05276897 -0.04577605 -0.022819718 -0.24822263 0.055502035 -0.14928564 -0.14310545 -0.03306935 -0.017643914 0.10184613 0.09247935 0.07410698 -0.15993762 -0.1359126 -0.12683964 -0.06984394 -0.07306042 0.030587938 0.10962547 0.21158998 -0.03847683 -0.013137976 0.092859015 -0.03168252 0.111431904 0.035042327 0.021400567 0.016158205 -0.044388086 0.06505793 0.09268314 -0.11316865 -0.05974619 0.12946063 0.080486245 0.16202912 0.2739643 0.024126668 0.11301106 -0.0027424193 -0.04076583
14 -0.082392246 -0.0233049 -0.110159785 0.10485495 -0.019619817 0.30737925 0.12594284 0.075953536 -0.01567593 0.010407365 0.24552608 -0.22528873 0.05786354 -0.048418824 0.044387776 0.0975056 -0.105775364 -0.06155708 0.10484747 0.06846483 -0.0980537 0.04209851 -0.10539959 -0.062674865 -0.084580675 0.0053059654 0.015437811 0.0016591997 -0.00402063 -0.17753172 -0.09986552 -0.12229378 0.19673271 0.101561725 0.26724845 0.040413044 -0.03420866 0.034067165 -0.10627466 -0.1292842 0.073539 -0.031032804 0.08728193 -0.07664539 -0.08938495 -0.1412217 0.052693937 0.0058573843 0.02794783 0.19897279 -0.073209554 0.1484777 -0.0853517 0.022945097 0.28212637 0.08481227 -0.118458785 -0.14930318 -0.027445273 -0.035678957 -0.025808863 -0.1569692 0.07349685 0.07864505 0.1258681 -0.01366352 -0.022129195 -0.01870184 0.07737697 -0.15886983 -0.0072218413 0.19129393 0.08181136 0.083269335 0.008012538 0.19402634 -0.005083591 -0.074770406 -0.2501369 0.17046666 -0.01891384 -0.022654483 -0.023023965 0.036410965 0.17822373 0.11038665 -0.12840702 -0.08545407 -0.009869468 -0.07536015 -0.26597703 0.15087074 -0.14775929 -0.13493633 -0.029998917 0.029764874 0.20876092 -0.00089125603 0.0029850747 -0.12349567 -0.18407464 -0.14502074 -0.045023687 -0.1518329 -0.0059774835 0.14386362 0.16770177 -0.08697205 -0.021920638 0.13791746 -0.06667841 0.030334558 -0.036579154 -0.0070368294 -0.107550606 -0.07488124 0.1285424 0.0911467 -0.0126340315 -0.09804378 0.08579643 0.015710445 0.07854051 0.27463123 0.091851264 0.16791016 -0.0030743235 -0.0013736151
11 -0.10215302 -0.07572428 -0.09110829 0.12466591 0.025117107 0.23265743 -0.11236826 0.18577683 0.033046257 -0.22135681 0.033172876 -0.18339981 -0.006643884 0.07725218 0.048046727 -0.12084393 -0.08999273 0.03561824 -0.028101897 -0.027498184 -0.16306652 0.071566015 -0.03458838 -0.06737654 -0.008216685 0.01050612 -0.014774132 0.10078511 0.037484657 -0.06850502 -0.10503077 -0.027776644 0.1282978 0.050472997 0.1148796 -0.079185896 -0.030892853 0.05769422 -0.07445792 -0.043402065 0.025793608 0.030622663 -0.03735745 -0.12771395 -0.0697311 -0.1470147 -0.062470578 0.020047791 0.04487989 0.120077215 0.08880743 0.12042425 -0.22636636 -0.0916125 0.22956839 -0.0053040967 -0.15951487 0.007928491 -0.07864832 0.03702494 0.09122007 -0.17982306 0.22719364 0.21342526 0.077709064 -0.08586005 -0.10551337 0.051388938 0.0003583355 -0.038503684 -0.056480605 0.16256477 0.25177228 -0.02273849 -0.0114759 0.104930334 -0.07816359 -0.19035682 -0.096076995 -0.00010100055 -0.038845982 0.019332236 -0.0018869787 0.2103624 0.26638836 0.043832596 -0.14262128 0.024087483 -0.051908057 0.02862629 -0.12918091 0.008600926 -0.099102095 -0.22519988 0.11093003 -0.10624483 0.13871364 0.11576573 0.014584217 -0.17177537 -0.13542104 -0.087632015 -0.08708952 -0.0022089747 -0.016599203 0.026632506 0.17378391 -0.105729595 -0.016981231 0.11753447 -0.035816826 0.117231905 -0.07476271 -0.035026 -0.055250064 0.008258445 -0.040990476 0.07564665 -0.032687828 -0.1510373 0.16467083 0.015973506 0.0067465175 0.37564144 0.1385621 0.05557486 -0.054065537 0.027639983
10 -0.020223774 -0.13228174 -0.0734332 0.043259215 -0.020905739 0.2815227 -0.0014780634 0.09921515 0.064639166 -0.13161607 0.14036229 -0.1405834 -0.02866949 0.061412573 -0.075335056 -0.068730615 0.010662836 -0.06565848 -0.06576112 0.028494745 -0.20841318 0.113233924 -0.13369201 0.05427666 0.009329089 0.024261335 0.09069251 0.13462839 -0.108638145 -0.12234516 -0.11874324 -0.018969793 0.16771638 -0.040264376 0.045241147 -0.0008638778 -0.058825456 0.062075105 -0.14397159 -0.2659046 -0.12955561 0.042742364 -0.08920545 -0.052889124 -0.13811475 -0.039828405 -0.08985676 -0.05380807 0.12083416 0.034609154 0.04523575 0.030880844 -0.20945576 -0.1873797 0.22940144 0.035930324 -0.27751952 -0.00021689595 -0.0654303 0.07596234 0.13048826 -0.23889646 0.24856795 0.2828625 0.03438678 -0.056450035 -0.14547555 0.07411021 -0.058227234 -0.05643048 -0.07160632 0.058168337 0.37122363 0.029764514 -0.053812582 0.14066488 -0.20038746 -0.12598349 0.02115657 0.0046306048 -0.056822967 -0.00073988386 -0.12413618 0.2336117 0.1868424 -0.092931345 -0.16370311 0.020702273 -0.096067816 -0.01933505 -0.113136895 -0.016689211 -0.1348353 -0.28865808 0.13567123 -0.12089524 0.099962726 0.13516718 -0.012028798 -0.14722782 -0.1088175 -0.14716546 -0.09281188 -0.16183995 0.08260681 0.049955547 0.22784694 -0.160172 -0.016457524 0.011828208 -0.015910547 0.1669934 0.020998249 -0.015306347 -0.03220331 -0.075321905 -0.09052207 0.048922706 -0.098766044 -0.08286192 0.16092022 0.10243817 0.049276352 0.37983808 0.10780698 0.043833934 -0.01514753 0.0012960617
4 0.013757977 -0.13763843 -0.1669977 0.09976167 0.029894328 0.33420807 0.07684294 0.11556268 0.03403361 -0.09303349 0.2887684 -0.24859478 -0.015782103 -0.031113334 -0.0025575173 0.005616505 -0.07495873 -0.0589081 0.038183037 0.07562427 -0.09522112 0.15377595 -0.1665729 -0.055685863 -0.058826655 0.03573842 0.05537128 0.060149156 -0.05739955 -0.0981676 -0.06775483 -0.08757076 0.16043438 0.07497996 0.20215957 -0.0042022937 -0.09133565 0.023637293 -0.15371291 -0.10471134 -0.023652941 -0.020574985 0.058668494 -0.058493264 -0.07539724 -0.11492485 0.03492766 0.014774044 0.07593737 0.15673675 -0.048103735 0.19331665 -0.08432967 -0.024115402 0.24188556 0.062258914 -0.14343357 -0.22553682 -0.032308165 -0.022236127 0.14179903 -0.203377 0.07764411 0.17521185 0.05891671 0.0055380785 -0.116968624 -0.029188022 0.02148454 -0.13382733 -0.029544305 0.16479304 0.15551136 0.04705252 -0.0090741785 0.19711325 -0.13597248 0.011909166 -0.16075428 0.09820721 -0.057450145 -0.0121884225 -0.00016317765 0.083783455 0.12456009 0.05177249 -0.21494779 -0.10687052 0.009374238 -0.07754761 -0.22151709 0.07082358 -0.19304761 -0.1801337 0.016132824 -0.02865403 0.13361801 0.08926517 0.07303078 -0.1293432 -0.15879291 -0.1524286 -0.103590176 -0.08782298 0.036657922 0.10245258 0.22252397 -0.027269382 -0.028870199 0.09810062 0.011613763 0.096048996 0.051081803 0.02789167 -0.045557644 -0.07746388 0.08738251 0.109743915 -0.14416014 -0.1282677 0.15457875 0.05008763 0.14736758 0.26832685 0.101496704 0.17264436 -0.015093393 -0.009284146
29 -0.0754542 -0.10029649 -0.11433569 0.13707386 0.02819679 0.32836226 0.027841019 0.15272734 0.028069884 -0.13416363 0.19689544 -0.24273928 0.0040007564 0.033800755 0.023573104 -0.01737543 -0.09966147 -0.020782793 0.040382557 0.03156956 -0.1566796 0.11025648 -0.09073343 -0.005338875 -0.046787735 0.011579701 0.011345595 0.09472855 0.0013934246 -0.1315503 -0.105615824 -0.104689926 0.17562108 0.08677423 0.22200492 0.003450565 -0.05123467 0.02497161 -0.14990115 -0.11888855 0.034063134 -0.0057922937 0.043504465 -0.13372692 -0.08296697 -0.13030773 -0.024615759 0.004257798 0.10075924 0.15061776 -0.020791681 0.18755063 -0.15281036 -0.033772606 0.2541167 0.04285882 -0.17279036 -0.1516804 -0.05724301 0.019003967 0.06375302 -0.18429703 0.15675834 0.18980283 0.056353174 -0.034127716 -0.12484288 0.0032642023 0.045012187 -0.1255993 -0.018007277 0.19495071 0.21794371 0.0251949 -0.029229507 0.1519208 -0.086510256 -0.088214174 -0.14708146 0.08650977 -0.027736094 -0.027605183 0.01546042 0.14927678 0.19956599 0.07095076 -0.144756 -0.07550556 -0.00031161707 -0.077689484 -0.17122214 0.08325546 -0.18260032 -0.23869303 0.08797913 -0.053827673 0.17336781 0.08867567 0.024449563 -0.14433268 -0.16889946 -0.13777964 -0.102356195 -0.10143626 0.013813451 0.109960884 0.19911495 -0.050465215 -0.014384164 0.12124669 -0.036309093 0.102109246 0.002052404 -0.020560777 -0.084699236 -0.05581195 0.07649335 0.08331688 -0.081770204 -0.13730346 0.1524974 0.038737465 0.055337504 0.32991013 0.11754124 0.15374619 -0.027454553 0.03986001
3 -0.10458801 -0.045518845 -0.0663764 0.095369145 0.012127183 0.21172899 -0.11598177 0.16668525 0.036237795 -0.18050894 0.020242019 -0.1572529 -0.0002951968 0.057921764 0.050601263 -0.09085422 -0.10094592 0.014993698 0.005267903 -0.025484433 -0.14996015 0.051171426 -0.038860034 -0.05130075 -0.00454805 -0.00044331106 -0.023115564 0.06799558 0.03287273 -0.07654585 -0.0972341 -0.02789512 0.15010099 0.05859264 0.122918785 -0.059006512 -0.010208938 0.046924524 -0.04563932 -0.07058649 0.026225217 0.02454287 -0.03487732 -0.11322664 -0.057882767 -0.14338568 -0.053837758 0.030026909 0.021251012 0.12711951 0.09750818 0.10337631 -0.22935326 -0.087567925 0.25622445 0.01010447 -0.1664337 0.044562805 -0.07569517 0.03938624 0.06270172 -0.15729441 0.22415514 0.19550397 0.11616996 -0.090184726 -0.05369785 0.06344032 0.01630918 -0.031163607 -0.051525276 0.1562923 0.24140278 -0.008791439 -0.008166953 0.104197316 -0.03947617 -0.21290395 -0.12179746 0.0216415 -0.049777143 0.039051946 -0.03863359 0.20430088 0.29226035 0.04147095 -0.12860832 0.052944213 -0.07716345 0.054502405 -0.17177598 0.021742709 -0.0853947 -0.22047326 0.0743016 -0.08971272 0.16233504 0.090159915 0.007396099 -0.1854048 -0.15596497 -0.09957052 -0.055230323 -0.025841193 -0.013738117 0.045820672 0.18443649 -0.13627097 -0.021088772 0.12644118 -0.053511154 0.10949048 -0.09324365 -0.05669283 -0.055426225 0.004084354 -0.03258979 0.082318746 0.004106432 -0.14005356 0.15140289 0.030376319 0.014240923 0.3942552 0.12472918 0.038132485 -0.061147474 0.020427547
5 0.3063642 -0.25513446 -0.15480952 -0.15565892 -0.04156957 0.028462682 -0.08200235 -0.0021404296 0.16644776 0.08757867 0.2939395 -0.08062081 0.07700476 -0.34196106 0.09544489 0.050442126 -0.10539055 -0.18739007 0.18151769 0.123785295 0.31459242 0.14077751 -0.536771 -0.21037267 0.21114388 -0.043248523 0.059009086 -0.32532316 -0.2271433 0.06145953 0.10836326 0.22297539 0.1657646 -0.03732685 0.01087724 -0.09318579 -0.029219573 0.078746624 0.26196885 -0.3925231 -0.2715575 -0.30879253 0.04478317 0.3463043 0.0335789 0.13471457 0.22152485 0.3370509 -0.22592886 0.27581796 0.0812926 0.0016436486 0.070943035 -0.0414024 0.42165193 -0.0049795383 -0.2679369 0.28966278 -0.0063876105 -0.17271253 0.31103915 -0.1416499 0.08304283 0.18631886 0.47128525 0.017877989 0.031602953 0.1598237 -0.17132176 0.00040032575 -0.027999718 0.22561692 0.18221611 -0.011660381 -0.08113287 0.45090392 -0.1958038 -0.16976567 -0.41593343 0.19758193 -0.35615352 0.40195203 -0.51438355 0.15174258 0.39753455 -0.16979724 -0.46122345 0.17745644 -0.1895959 0.1479237 -0.67067164 0.017559439 -0.06995616 -0.09815358 -0.43118486 0.12759338 0.072467975 0.0970555 0.1205574 -0.26231298 -0.20535229 -0.24102463 0.045799308 -0.009168638 0.1793763 0.18778268 0.34432635 -0.08281895 -0.08851585 0.16590413 -0.19636525 0.18281555 -0.013622592 0.11746754 0.32790923 0.043823358 0.053878486 0.20182453 -0.12885001 0.105474755 0.082498185 0.20816901 0.56169194 0.5319515 -0.14882037 -0.009082559 0.04358358 -0.22223264
22 -0.19548005 0.11021471 -0.014732643 0.1079138 -0.10642181 0.22005787 0.016885437 0.04560676 -0.01723733 0.008154671 0.120677195 -0.11706907 0.098854624 -0.052319545 0.070377514 0.10515609 -0.13162662 -0.08269894 0.18379655 0.0019635686 -0.1345024 -0.081844345 -0.017059714 -0.09714965 -0.101690434 0.010242916 -0.019683806 -0.032726992 0.043315303 -0.25054106 -0.15752648 -0.07722989 0.25800925 0.13605413 0.22637272 0.025032658 0.039058656 0.031196518 -0.036264338 -0.079791464 0.1880692 0.0327062 0.053112347 -0.1047748 -0.10513744 -0.21308848 0.045308605 0.01753451 -0.051930204 0.16904421 0.025845813 0.07287875 -0.14949682 0.032114748 0.31672007 0.109801985 -0.11317044 0.0044508846 -0.0009673524 0.0010302875 -0.17139632 -0.09610299 0.11605363 0.03983482 0.24218424 -0.085306264 0.13741146 0.020469919 0.12735598 -0.08033883 -0.037604798 0.19060583 0.042884268 0.15982759 0.07852779 0.122998364 0.15042958 -0.23392272 -0.33480027 0.18938424 0.040408168 -0.0008713779 -0.06255518 0.05324877 0.30004928 0.18659738 -0.06345225 0.021728525 -0.10196797 0.03247851 -0.35241807 0.16505481 -0.0544448 -0.13972591 -0.06841796 0.020155419 0.2987892 -0.066992745 -0.049808223 -0.15494174 -0.24582353 -0.14664523 0.034740876 -0.1621871 -0.032851852 0.12872241 0.13849303 -0.20670532 -0.022345651 0.1542602 -0.13537946 -0.0042373594 -0.20663731 -0.0998449 -0.1592372 -0.0243635 0.049496133 0.09766196 0.15027595 -0.1353922 0.029561818 -0.011572481 0.008823129 0.355226 0.12746261 0.112489186 -0.051415075 0.004116424
0 -0.065138444 -0.100975804 -0.099865004 0.1340447 -0.019605905 0.26761082 -0.15369809 0.094877 0.021808384 -0.21506073 0.08449394 -0.19091292 -0.027029837 0.034709245 0.025744373 -0.15238692 -0.050471533 -0.021830792 -0.06758237 0.022603575 -0.18359376 0.03694621 -0.07465028 -0.11862481 -0.02248062 0.052681163 0.034891807 0.118226916 -0.033003014 -0.11055849 -0.14381208 -0.014281149 0.14978601 0.03664109 -0.011477271 -0.07322462 -0.07881878 0.08511846 -0.08408083 -0.0832067 -0.061394278 0.08179146 -0.07589022 -0.03200929 -0.15611638 -0.11094202 -0.06932488 0.014504673 0.019944081 0.035913054 0.16278811 0.050473813 -0.24334499 -0.14954892 0.19167708 0.034859512 -0.18444172 0.014910525 -0.06708293 0.053177986 0.13391298 -0.20720807 0.2282895 0.23292358 0.09741946 -0.11439874 -0.062179048 0.06807036 -0.033035927 -0.00631475 -0.09361456 0.08204833 0.26172125 3.708023e-05 0.016769838 0.0999076 -0.09762519 -0.15183483 -0.033627868 -0.039634418 -0.026472094 0.021956109 -0.034020234 0.2038853 0.26256746 0.039297353 -0.17792697 0.06378125 -0.06582486 0.03872708 -0.075952284 -0.0268301 -0.080221124 -0.21225363 0.10955924 -0.1130706 0.12178812 0.106033355 -0.0109214485 -0.14948797 -0.13802707 -0.11575591 -0.10511991 0.0026240284 0.031888872 -0.040692244 0.19752538 -0.17940916 -0.045609873 0.04740199 0.01951519 0.09132989 -0.093232036 -0.007931708 -0.06894193 -0.023422236 -0.12373591 0.07855524 -0.049776625 -0.17904948 0.17497285 0.011492671 0.034343082 0.3990764 0.18034498 0.040019285 -0.03923316 0.0057809292
1 0.016857969 -0.100270346 -0.14647415 0.057334248 -0.016054196 0.22188476 -0.020904774 0.049692784 0.025130419 -0.060344726 0.16652131 -0.22026145 0.030292314 -0.08949618 0.07904185 -0.032080837 -0.07589395 -0.035479344 -0.00067303976 0.07949992 -0.010410436 0.0520802 -0.17476274 -0.15373084 0.015199139 0.02237038 0.025498562 -0.035472106 -0.048425257 -0.056307692 -0.060124982 -0.018240051 0.11789218 0.02078318 0.06403428 -0.0410453 -0.044604734 0.091903046 -0.0025243352 -0.14198783 -0.076285765 -0.0670805 0.0010466591 0.060211375 -0.08421893 -0.027248513 0.057886574 0.09193311 -0.05225738 0.14152133 0.051625356 0.0546022 -0.08660104 -0.0590012 0.23976307 0.011628309 -0.13757148 0.028118424 -0.07119319 -0.049227636 0.14827539 -0.17792957 0.120959595 0.15257172 0.11177758 -0.016021801 -0.0743919 0.05106685 -0.039507415 -0.07966899 -0.03236685 0.11771447 0.17241746 -0.007522966 -0.034364376 0.20798731 -0.1206108 -0.074084915 -0.13795334 0.050893486 -0.099274494 0.07255116 -0.10771014 0.105052814 0.201403 -0.010758168 -0.19181076 0.009755797 -0.043511078 0.019304115 -0.22378598 0.033195157 -0.0961411 -0.09859353 -0.057251044 0.0031623924 0.086264566 0.06087909 0.022846136 -0.1373512 -0.12211121 -0.11101817 -0.06628568 -0.021567522 0.027115893 0.050738428 0.18316472 -0.087967336 -0.050828565 0.100198254 -0.025681075 0.05406803 -0.03555559 0.058489766 0.022196578 -0.034868307 -0.0025329676 0.077827655 -0.05515536 -0.03287639 0.10683062 0.0193141 0.14719623 0.31799528 0.051325228 0.040718455 0.02563574 -0.06128482
87 -0.03800825 -0.1027102 -0.100237854 0.09550349 0.027767092 0.22364816 -0.041246936 0.12623571 0.029009419 -0.113409236 0.12093491 -0.21465726 0.02847022 0.014560135 0.058228616 -0.053511526 -0.09785043 -0.0015945279 0.018886559 0.034068324 -0.07324183 0.059999406 -0.101414055 -0.057140227 0.017592652 -0.007394914 -0.012485742 0.026720814 0.013539151 -0.09264606 -0.09452811 -0.052504316 0.1145569 0.051654864 0.13194808 -0.038368776 -0.022140855 0.04337166 -0.037370984 -0.13091984 -0.0033955455 -0.042977087 0.01419871 -0.04532087 -0.07218918 -0.06349029 0.00022765933 0.075714186 0.02066881 0.14708059 0.0337218 0.11604649 -0.12796351 -0.04570352 0.23842932 0.010172489 -0.15200627 -0.008949007 -0.06793 -0.019858891 0.07225906 -0.14184362 0.16182962 0.18105198 0.09889097 -0.054224424 -0.08053958 0.055164736 0.011362897 -0.08400227 -0.01404929 0.1672691 0.18537243 -0.024492558 -0.052244272 0.17066948 -0.06575016 -0.13351057 -0.15922596 0.062332828 -0.06823355 0.06701853 -0.088874646 0.155191 0.27627343 0.03987801 -0.1396637 0.014901024 -0.023121122 -0.024257537 -0.18728708 0.06399282 -0.1501573 -0.20269369 0.01513856 -0.02997144 0.13303126 0.07778776 0.0007259588 -0.14057785 -0.15260725 -0.12364315 -0.07488391 -0.04723253 0.0259744 0.072554864 0.15800047 -0.06697181 -0.029987033 0.13410978 -0.06005502 0.10454271 -0.018481825 0.006436733 -0.014316707 -0.019512959 0.043627422 0.07631765 -0.046312027 -0.07760685 0.11942714 0.030540608 0.083895884 0.3376778 0.06732426 0.07848252 0.001441926 0.017076362
15 0.0045233876 -0.13781705 -0.09331231 0.04559832 -0.0031274813 0.27421877 0.044961486 0.09478141 0.056256875 -0.09542999 0.18384555 -0.15923832 -0.011213113 0.027496815 -0.046261936 -0.019626152 -0.012354326 -0.06370419 -0.020681104 0.039481014 -0.14464071 0.1285857 -0.16074722 0.025370518 -0.0062422445 0.01864368 0.07437023 0.10060273 -0.095219694 -0.11198702 -0.09049482 -0.03922292 0.16259404 -0.0060444484 0.110711336 0.0057075676 -0.06256005 0.048538346 -0.13193206 -0.22758551 -0.08940578 0.0023040387 -0.03512089 -0.048561107 -0.105387434 -0.04628869 -0.03911909 -0.025448171 0.1038254 0.081144236 0.0016368858 0.07912042 -0.15369877 -0.11790311 0.23166211 0.043613046 -0.23415428 -0.061780564 -0.044165503 0.038179122 0.1275388 -0.21272604 0.19082646 0.24038817 0.04349381 -0.02337732 -0.14745885 0.038491927 -0.034926996 -0.08748023 -0.05030713 0.1037924 0.30521354 0.030349357 -0.05437406 0.15629013 -0.17775701 -0.071541354 -0.026409423 0.04475647 -0.06254998 -0.004625796 -0.084610626 0.18968382 0.15364128 -0.056815863 -0.17569013 -0.02674615 -0.0569158 -0.036995757 -0.14762846 0.015864823 -0.14443982 -0.24651402 0.08298787 -0.07532099 0.11422121 0.1140538 0.008376152 -0.14827648 -0.12465278 -0.14602038 -0.08154731 -0.14351715 0.06709186 0.07496335 0.22103876 -0.112581916 -0.02848674 0.040709823 -0.020155748 0.14485782 0.03291107 0.0060641277 -0.03388955 -0.07989415 -0.020326314 0.07095163 -0.111421995 -0.084746845 0.14867334 0.08229307 0.09015678 0.3302113 0.0870256 0.08033291 -0.015211688 -0.0035281777
45 -0.009583235 -0.19632357 -0.14406326 0.18944614 0.011751533 0.26222005 -0.40559688 0.081121415 0.025049852 -0.41874 0.050113484 -0.23565409 -0.10570562 0.024795113 0.053720567 -0.36914214 -0.041162696 0.005677895 -0.19434437 0.0454907 -0.19732235 0.022496797 -0.081144705 -0.28739634 -0.0069499034 0.11572157 0.039926425 0.19032604 -0.06940407 -0.040272273 -0.15222986 0.077288695 0.11160086 0.011960228 -0.2312856 -0.17845228 -0.16767567 0.12725143 -0.043807495 0.010720225 -0.18234329 0.17934935 -0.15614672 0.06897832 -0.23043115 -0.11431487 -0.122113496 0.07767904 -0.049715083 -0.05048858 0.38506246 0.019159712 -0.33959278 -0.24428582 0.10183867 0.0010464902 -0.19485553 0.06406637 -0.09423624 0.08053229 0.3205436 -0.2915277 0.3096446 0.33635682 0.13596438 -0.21020146 -0.04073915 0.111533985 -0.14986773 0.10789988 -0.18133597 0.018913526 0.32034355 -0.07891741 0.052212246 0.044589814 -0.18519193 -0.15470219 0.06466221 -0.21403539 -0.04790179 0.08037906 -0.01970966 0.30814484 0.37647933 0.047779895 -0.3118119 0.1754761 -0.055109017 0.13987744 0.038867753 -0.16452199 -0.048839666 -0.23589167 0.14681396 -0.20887253 0.05583273 0.15680803 0.027168043 -0.195004 -0.11855796 -0.09889809 -0.18134266 0.2348193 0.056399763 -0.21999328 0.24990639 -0.23936836 -0.1016809 0.019355224 0.14247039 0.103235304 -0.15894459 0.04529761 -0.03175244 0.0076915734 -0.29717818 0.12928855 -0.11320127 -0.28088653 0.26563978 -0.009819999 0.06831864 0.52823836 0.270852 -0.013445014 -0.066317506 -0.009060344
19 -0.046107028 -0.08556253 -0.09939359 0.09302494 0.020441676 0.24545212 0.03146407 0.12667522 0.025298294 -0.0640358 0.17461453 -0.20054698 0.029351685 -0.0033206511 0.04124311 0.014232831 -0.10387596 -0.026866468 0.07562897 0.024995381 -0.08609157 0.07969174 -0.11357008 -0.021742735 -0.01213047 -0.016765572 -0.0014832892 0.02515074 0.0013824903 -0.11667829 -0.08407239 -0.07192233 0.13636874 0.0687979 0.20781668 -0.00087628234 -0.025038788 0.025347507 -0.078768454 -0.13392955 0.032213625 -0.04922632 0.05496655 -0.08031512 -0.0544149 -0.09102164 0.010844673 0.04089668 0.047673628 0.16770473 -0.02704563 0.14886731 -0.10787644 -0.0065487204 0.24691917 0.03275889 -0.14909492 -0.083689936 -0.048583962 -0.017974399 0.035693735 -0.12903567 0.1284167 0.14887957 0.09962219 -0.023220852 -0.08144823 0.022791069 0.038617074 -0.10807155 -0.0023653687 0.20116949 0.15936592 0.011236773 -0.048351333 0.17138828 -0.0610464 -0.114902034 -0.19489318 0.11425111 -0.05008783 0.023808118 -0.05422093 0.1362649 0.22439641 0.057051655 -0.14308302 -0.044694614 -0.02040158 -0.05313346 -0.23410182 0.09876772 -0.1672952 -0.21119139 0.014635052 -0.013896417 0.1717422 0.062224846 0.017533045 -0.13570403 -0.1667221 -0.12992199 -0.06771991 -0.10051551 0.01979009 0.11925913 0.16667938 -0.04899603 -0.015627231 0.13563535 -0.068842515 0.09245697 -0.0030970648 -0.010168096 -0.04505293 -0.0387728 0.09340055 0.08015455 -0.046438895 -0.08872842 0.10497783 0.045875747 0.08952999 0.30930704 0.06477227 0.11878245 -0.0118990755 0.018572686
33 -0.030553196 -0.1502822 -0.14398788 0.11371748 0.05141038 0.28176355 -0.027654428 0.16672061 0.03393023 -0.13718057 0.14706096 -0.2145816 0.00021736466 0.014095519 0.039622523 -0.0633864 -0.06735751 -0.017752953 -0.011412843 0.011742446 -0.14376913 0.11961617 -0.15224251 -0.024313176 0.039605945 -0.009374907 0.03370912 0.07469888 -0.059219833 -0.056911875 -0.065439224 -0.020277875 0.11657588 0.025338674 0.11995648 -0.035854373 -0.059540417 0.03522819 -0.074367896 -0.13253479 -0.056513082 -0.00624929 0.02713739 -0.07098763 -0.055527106 -0.070002675 -0.033283792 0.035964068 0.07283439 0.13043684 0.025558535 0.13275005 -0.14780909 -0.07423905 0.20951952 0.009665994 -0.17852752 -0.05025275 -0.05734601 -0.011881982 0.1418674 -0.16314688 0.1857018 0.20936596 0.070010744 -0.038896434 -0.13537823 0.048124053 -0.023666328 -0.08296932 -0.036122248 0.17261422 0.24201089 -0.049814444 -0.069887556 0.17314708 -0.13663512 -0.11018497 -0.09725571 0.029423812 -0.086056136 0.02810727 -0.045532715 0.17071566 0.20509103 0.0034403687 -0.19477414 -0.00874597 -0.036222976 -0.03407043 -0.13787459 0.036567044 -0.1594047 -0.20258501 0.06321728 -0.047630757 0.117509864 0.11659393 0.04407787 -0.1412907 -0.12738435 -0.11523497 -0.122992285 -0.045796186 0.029642843 0.065818466 0.20232421 -0.04886172 -0.008223495 0.103430934 -0.026532423 0.11524219 0.001730608 0.028701477 -0.02783014 -0.025648747 0.033416014 0.061921924 -0.111261584 -0.09688694 0.16863562 0.073388755 0.08033166 0.32848513 0.071263194 0.08211614 -0.010527626 -0.0020937566
97 -0.09886297 0.069928125 -0.17144574 0.097735986 -0.116910316 0.21395804 -0.111121744 -0.05540418 -0.06321112 -0.051956482 0.07830483 -0.2783424 0.08455182 -0.17829344 0.19506821 -0.060248006 -0.10654235 -0.017670391 -0.016641686 0.121618494 0.013207725 -0.14469142 -0.080345884 -0.42833215 -0.07010073 0.071014255 -0.013393912 -0.106169745 0.015536154 -0.09141693 -0.12048868 -0.020733511 0.1433947 0.04886302 -0.04047389 -0.07671981 -0.009861881 0.18766412 0.07619169 -0.014602796 -0.0107235415 0.004834368 -0.059443798 0.147135 -0.18547817 -0.1076711 0.1070138 0.11649088 -0.23411031 0.15227826 0.1763413 -0.056266062 -0.1688694 -0.06595945 0.30536622 0.023314968 -0.03323068 0.15363728 -0.113879435 -0.06430096 0.090037696 -0.22467895 0.106047675 0.06819865 0.26263878 -0.098202735 0.13618256 0.07819546 -0.017028442 -0.05730239 -0.13115545 0.038798362 -0.004455201 0.053673293 0.13699976 0.25177568 0.02073355 -0.15059814 -0.27405924 0.014936787 -0.07929653 0.10211398 -0.09901255 -0.028536752 0.36519158 0.10723551 -0.20455666 0.12881549 -0.08419209 0.14576437 -0.25503233 0.046163224 0.026044272 0.06494473 -0.12355706 0.029510442 0.11177891 -0.048475847 -0.027869584 -0.15613961 -0.15641019 -0.06369092 -0.028404063 0.06998914 -0.06385978 -0.026700612 0.15375331 -0.26165757 -0.10187388 0.09536335 0.008942713 -0.08414738 -0.25848293 0.067158416 -0.07275357 -0.025026947 -0.14733373 0.08106529 0.12706232 -0.078615345 0.07691429 -0.13109744 0.06747446 0.3391152 0.13378179 -0.027968666 0.021762745 -0.12634227
16 -0.07853999 -0.07229912 -0.12796235 0.12857845 -0.030516278 0.33195016 0.054800287 0.06047169 0.0037983037 -0.061191767 0.22807285 -0.23282014 0.017154861 -0.036445845 0.021456309 0.017204368 -0.085580565 -0.05498777 0.046643503 0.065379575 -0.15151207 0.045348994 -0.08664802 -0.06493937 -0.08278145 0.038601033 0.02703168 0.0674876 -0.03448869 -0.17108665 -0.12205164 -0.097547 0.19067796 0.08214076 0.16680391 0.02786874 -0.050691534 0.06032442 -0.1391968 -0.11638128 0.006695899 0.013321 0.042416606 -0.049683526 -0.13103996 -0.09686505 0.0017462716 -0.005867772 0.032411955 0.1268362 -0.005176162 0.12774083 -0.13255055 -0.03300097 0.23448652 0.07718904 -0.14270937 -0.14047492 -0.053902995 0.010873915 0.05955786 -0.19710885 0.11774245 0.14172967 0.09575921 -0.03343416 -0.042094626 0.007769234 0.03598189 -0.12944196 -0.05089978 0.13435256 0.15023698 0.06683613 0.009968869 0.16908593 -0.064993 -0.056180067 -0.16590723 0.07248638 -0.017612854 -0.03293839 0.0071549714 0.08159221 0.18276344 0.088839725 -0.15110253 -0.04696233 -0.0086604655 -0.052395374 -0.18041998 0.09452386 -0.14956859 -0.17992471 0.038815062 -0.025899788 0.1816988 0.03174158 0.011680531 -0.13282123 -0.16779901 -0.14151883 -0.09158476 -0.10859778 0.015107651 0.08890756 0.19353473 -0.09273212 -0.047278292 0.096097514 -0.0006282085 0.031312045 -0.04573163 0.0039519467 -0.10052767 -0.08683685 0.04618247 0.08143803 -0.051541377 -0.10940194 0.12660733 0.00292898 0.07193936 0.31318778 0.12319685 0.12799723 -0.021586781 -0.0035551721
49 0.014237883 -0.12903847 -0.10543284 0.09105796 -0.009576477 0.21424149 -0.14365652 0.06082653 0.03500242 -0.1941635 0.12183319 -0.15886337 -0.035605866 -0.014165846 0.014520518 -0.15112416 -0.033783186 -0.04150928 -0.061179586 0.052686367 -0.114133105 0.057846326 -0.12028499 -0.14784646 -0.014570069 0.0658756 0.049561188 0.075167716 -0.07485214 -0.07796223 -0.09884594 0.027331963 0.14453256 0.029824393 -0.046319634 -0.09006572 -0.10151003 0.07276063 -0.05556327 -0.067385755 -0.10333398 0.070192546 -0.07121207 0.024130583 -0.14278577 -0.09070758 -0.03687109 0.045872282 -0.00861622 0.029323049 0.17165817 0.05291881 -0.19206738 -0.12885745 0.16646095 0.03320446 -0.17103525 0.0032438484 -0.041701693 0.028046062 0.17493652 -0.21221878 0.17730743 0.22258186 0.12764469 -0.106325135 -0.037980016 0.05748768 -0.062115315 0.011820064 -0.096675776 0.062355574 0.21317087 0.0032383217 0.027172254 0.11468097 -0.114157826 -0.10698083 -0.039014965 -0.03779607 -0.048025515 0.054002352 -0.070849456 0.17243066 0.24332736 0.022707295 -0.22857317 0.069820784 -0.053868443 0.05623644 -0.10854044 -0.035741895 -0.07350716 -0.16819336 0.039480634 -0.09756044 0.087234475 0.102086365 0.017529864 -0.15104568 -0.1285456 -0.121466495 -0.09040657 0.049610414 0.050405186 -0.052033886 0.20833482 -0.15922211 -0.064384505 0.04205161 0.0447501 0.09029218 -0.065794386 0.023908775 -0.026200235 -0.015800878 -0.123976514 0.10333831 -0.08792351 -0.17181826 0.16205318 0.029127514 0.102712505 0.3761495 0.1571858 0.04677884 -0.034674242 -0.018216176
92 -0.07929935 0.021601709 -0.13718282 0.087265104 -0.0503983 0.23634619 0.0047895806 0.017771434 -0.029600197 -0.032007225 0.13106482 -0.2612283 0.085137 -0.09269398 0.13926792 -0.000107538945 -0.10780091 -0.023721887 0.025779648 0.10045921 -0.009042619 -0.053808603 -0.07708248 -0.24062914 -0.0564633 0.028076213 -0.013774548 -0.057639692 0.037820745 -0.117405675 -0.10384149 -0.08137968 0.14139876 0.07204007 0.10211064 -0.028632816 -0.0075761187 0.11617817 0.0070523117 -0.074103 0.031698648 -0.03773393 -0.00096893293 0.0400535 -0.124679066 -0.094339475 0.08279963 0.08401392 -0.10003368 0.17277777 0.047908302 0.03853342 -0.11416484 -0.011084092 0.29148313 0.029632322 -0.07159989 0.026395256 -0.08765301 -0.059881803 0.02856606 -0.17347857 0.09052672 0.08955928 0.16884097 -0.04371889 0.026529832 0.032714263 0.03060522 -0.107929274 -0.053930767 0.11235515 0.035750706 0.04723858 0.04941191 0.22759505 0.004119536 -0.10535104 -0.24380204 0.095799446 -0.065900855 0.06381809 -0.08476681 0.0059676813 0.28306612 0.08597072 -0.15282719 0.027629953 -0.032739226 0.0328121 -0.24169736 0.09770188 -0.071408086 -0.0362944 -0.06701384 0.0361775 0.13564727 -0.011552818 -0.023102999 -0.1486811 -0.16288763 -0.09124101 -0.030329138 -0.030365968 -0.030980106 0.060009655 0.14207485 -0.15267295 -0.06190526 0.120101556 -0.034962334 -0.008117545 -0.12580101 0.03582326 -0.07663905 -0.042868234 -0.01499671 0.07587211 0.06848888 -0.07055867 0.070356704 -0.06548753 0.065747604 0.27741802 0.08531813 0.05590398 0.024878427 -0.053634882
74 -0.04547833 -0.12911183 -0.1203647 0.17164849 -0.024789434 0.22653182 -0.3737171 0.052909903 0.015671166 -0.3488359 0.03150388 -0.2074435 -0.056426488 0.0025088307 0.076321065 -0.30180317 -0.056939952 -0.002992111 -0.13492079 0.033798583 -0.18165293 -0.031243056 -0.060827624 -0.28578672 -0.02015984 0.099164054 0.023765389 0.14092165 -0.052810337 -0.07664156 -0.16962847 0.075453386 0.12413232 0.031128742 -0.20212251 -0.15766355 -0.122267075 0.13103321 -0.006465424 0.010603228 -0.12340654 0.15930212 -0.13000758 0.068373844 -0.22550449 -0.11180359 -0.089041665 0.08079285 -0.09149294 -0.03479298 0.36190036 -0.0019723484 -0.31326398 -0.20179014 0.1283013 0.026216896 -0.17514895 0.098612696 -0.07193704 0.064294346 0.232167 -0.2409716 0.27900237 0.27503568 0.15946287 -0.19845495 0.008359275 0.10740495 -0.11089483 0.08923466 -0.15631942 0.035998996 0.26350138 -0.041183166 0.059355795 0.043227777 -0.11709148 -0.18297279 0.011420249 -0.15639198 -0.024390483 0.07124062 -0.040961042 0.26737022 0.36480698 0.069361515 -0.25814024 0.17741165 -0.076059036 0.14137061 -0.020913992 -0.122266665 -0.020489633 -0.19930749 0.088617444 -0.16219531 0.087089635 0.09931976 0.0006673952 -0.17464525 -0.12932618 -0.099773124 -0.13551849 0.19573832 0.03606112 -0.19144136 0.21531393 -0.25205606 -0.09960664 0.03913844 0.09196042 0.069719054 -0.19765882 0.023364708 -0.0543191 0.021338623 -0.26530075 0.11554052 -0.045487892 -0.2539042 0.22179155 -0.022668075 0.05078457 0.50971866 0.24525997 -0.020827854 -0.054443024 -0.013554648
28 -0.022046931 -0.077681124 -0.12222 0.07889338 -0.0038821388 0.27420968 0.069335245 0.08159005 0.01984893 -0.036426898 0.23354585 -0.21445844 0.03223564 -0.04641076 0.02200216 0.02602428 -0.074455895 -0.06850556 0.044701457 0.07041661 -0.07616396 0.08558586 -0.15107107 -0.0717814 -0.029732762 0.01991062 0.041576453 0.010099076 -0.04955631 -0.12582202 -0.07946081 -0.06522943 0.16868784 0.05126393 0.17358153 0.0058288677 -0.052544687 0.04840759 -0.097424224 -0.14947143 -0.012415816 -0.03716984 0.033637837 -0.036794975 -0.08887072 -0.09351481 0.047855154 0.030595854 0.028358491 0.15749848 -0.034175284 0.12648615 -0.08368491 -0.033327263 0.26407018 0.054473005 -0.14734195 -0.096809424 -0.034788568 -0.025787098 0.08115902 -0.18324864 0.09460578 0.15356743 0.080715634 -0.012292962 -0.090605535 0.0074130557 0.024600923 -0.12315508 -0.014719198 0.15826711 0.15027088 0.04454706 -0.023481978 0.19576816 -0.096434124 -0.054312974 -0.1707987 0.113468826 -0.057884276 0.008454534 -0.06536936 0.08596415 0.16978398 0.032281015 -0.16794191 -0.06168369 -0.0393247 -0.045717366 -0.25372607 0.087166406 -0.15195169 -0.15882637 -0.025362149 -0.0019323378 0.13883533 0.050917722 0.022959577 -0.13352002 -0.16635895 -0.1462904 -0.07176596 -0.11919491 0.027241364 0.11133324 0.1920352 -0.07885033 -0.028633658 0.1034035 -0.037378486 0.07881618 0.0006564914 0.013316984 -0.051423274 -0.06804661 0.060723964 0.08225623 -0.06966539 -0.07493571 0.11113128 0.04374315 0.11829495 0.28626063 0.0770716 0.12954397 0.011011478 -0.02119922
88 -0.10991132 -0.08629386 -0.049624413 0.110048644 0.043917164 0.18159463 -0.14115752 0.23290946 0.057877913 -0.22085103 -0.027014092 -0.12887841 -0.004425 0.105841644 0.0410927 -0.112075545 -0.10691633 0.044873185 0.015404611 -0.068159446 -0.17294642 0.088246875 -0.035416182 0.02087926 0.041935164 -0.037685916 -0.036147665 0.08861904 0.049183924 -0.05132452 -0.08023207 -0.004797925 0.13248377 0.054914806 0.15116467 -0.073277555 -0.00537176 0.0195999 -0.039186 -0.07338803 0.04133738 0.013079616 -0.026381755 -0.16897278 -0.01960608 -0.14452703 -0.091498055 0.03727252 0.066923894 0.14064164 0.094845794 0.13165486 -0.24460378 -0.089391895 0.24801102 -0.010450473 -0.18449335 0.055577982 -0.07692122 0.047857545 0.05917133 -0.13581395 0.26681322 0.2131986 0.099300936 -0.08642191 -0.10451251 0.07283909 0.005256483 -0.022515005 -0.03058433 0.20565544 0.30333054 -0.04784692 -0.053631224 0.08868308 -0.05453249 -0.26477444 -0.105286166 0.014927515 -0.05707041 0.044580493 -0.02319749 0.26450348 0.3024982 0.024113502 -0.123240456 0.053985268 -0.073029004 0.040369257 -0.1493943 0.018692363 -0.1086067 -0.27434355 0.11458216 -0.10395317 0.16360433 0.13162608 0.017956888 -0.18744299 -0.14901443 -0.09513262 -0.06202033 -0.013802039 -0.0063081547 0.061997112 0.18156157 -0.097155064 0.005028549 0.14893216 -0.08270047 0.1531197 -0.07026436 -0.06754954 -0.024161493 0.039661776 0.0006102401 0.075241566 -0.02038456 -0.14275068 0.1612597 0.060078517 -0.0012754534 0.40592903 0.106070414 0.041818697 -0.07589089 0.04650898
6 0.2838575 -0.22532028 -0.14362916 -0.15579619 -0.043438006 0.02928358 -0.05585435 -0.008634238 0.14332195 0.10110091 0.27896702 -0.0829697 0.085378975 -0.3297467 0.09908874 0.060227502 -0.09284626 -0.18277512 0.17461428 0.11551887 0.30405462 0.12093273 -0.50949544 -0.21915634 0.1916127 -0.03516398 0.061077904 -0.3152514 -0.21881804 0.06139568 0.10818375 0.2128391 0.15574798 -0.04168008 0.018609473 -0.088299066 -0.020885173 0.07864378 0.24823071 -0.37423182 -0.2497766 -0.2948492 0.0416411 0.32885292 0.030319922 0.120152794 0.22440708 0.3142986 -0.23340209 0.2752466 0.068372965 -0.0031353505 0.068050236 -0.035613302 0.4097417 -0.0005003172 -0.250702 0.2835138 -0.005231159 -0.17019396 0.29016823 -0.14130792 0.07253989 0.15714893 0.45617515 0.016945073 0.047600463 0.14669807 -0.15569389 -0.0066000735 -0.034585044 0.2140203 0.14507169 -0.0010064589 -0.06123809 0.45024225 -0.16991787 -0.15835834 -0.4173939 0.20015855 -0.3475776 0.38369876 -0.49443132 0.12207559 0.38168406 -0.15270554 -0.43137568 0.16874845 -0.1921475 0.14686236 -0.64980596 0.027387496 -0.058692176 -0.071537904 -0.43126085 0.13376285 0.067767166 0.08054953 0.11406581 -0.23890541 -0.19388545 -0.21717432 0.049793262 -0.014086717 0.15642646 0.18508522 0.3169772 -0.090390705 -0.08606695 0.15801282 -0.18584466 0.15997072 -0.027572487 0.11854067 0.29747418 0.035165947 0.054807223 0.19033307 -0.10257115 0.105941035 0.0748949 0.1859396 0.5258935 0.49497947 -0.13917609 -0.012813735 0.0452353 -0.21688338
100 0.05272593 -0.07058807 -0.11620839 0.007532847 -0.030305952 0.1332508 -0.021916805 0.014238454 0.034609687 -0.0030026617 0.14835559 -0.14927162 0.057940204 -0.12665105 0.093404315 0.008253331 -0.08313063 -0.06376353 0.05283048 0.07893918 0.075498596 0.021264799 -0.19463909 -0.18273857 0.034672298 0.003733186 0.006386977 -0.10491454 -0.044153593 -0.042215586 -0.029950341 0.015641931 0.11874769 0.029305693 0.06360785 -0.04672759 -0.02830702 0.07870662 0.070239805 -0.15040764 -0.056331925 -0.09699829 0.010774026 0.103767425 -0.05653292 -0.023917157 0.10249933 0.13244587 -0.10805511 0.16556373 0.0555214 0.022465453 -0.052602056 -0.024585634 0.27553785 0.01386798 -0.12460923 0.09173561 -0.04498211 -0.080774985 0.10689091 -0.1315249 0.08696065 0.107811294 0.22991611 -0.021999054 0.018926857 0.05781011 -0.033761043 -0.052177362 -0.03811662 0.12840648 0.07678344 0.014172803 0.003835955 0.2348803 -0.051670548 -0.10885445 -0.24037266 0.10598897 -0.13526654 0.14333515 -0.1897026 0.05911752 0.26332572 -0.0029539664 -0.22162062 0.06825704 -0.06992403 0.055133328 -0.3038373 0.047981083 -0.06409345 -0.054409362 -0.13763233 0.045722768 0.09405346 0.02500897 0.025096534 -0.15487894 -0.14364557 -0.123155534 -0.005282274 -0.020748474 0.03349828 0.07025219 0.16853924 -0.103830494 -0.049531534 0.101410985 -0.06988402 0.057033285 -0.0659453 0.052045036 0.044987813 -0.01205082 0.008616774 0.103691585 -0.009505182 -0.02171148 0.06362365 0.032150246 0.189649 0.30583876 0.011601121 0.029695917 0.01890189 -0.08297852
30 -0.17364278 0.14311859 -0.19714789 0.13605332 -0.13689968 0.2713696 -0.08602869 -0.05287002 -0.10263997 -0.0625047 0.07418818 -0.35514036 0.10571789 -0.17113593 0.24322693 -0.05092744 -0.121623665 0.0072625643 -0.030307855 0.14128624 -0.01472274 -0.181864 -0.022080623 -0.5192498 -0.14095996 0.099925354 -0.03771177 -0.095532976 0.07193468 -0.13077717 -0.16946276 -0.098096326 0.16288987 0.084385194 0.007872807 -0.08453842 -0.0020413185 0.23164731 0.04310275 0.060262743 0.0679453 0.03499897 -0.065873064 0.107601404 -0.2173884 -0.18702601 0.122613996 0.08727322 -0.25243032 0.1827183 0.17175633 -0.043943904 -0.21905021 -0.055050373 0.36801004 0.033307247 0.013269493 0.11596766 -0.13829412 -0.0672829 0.05247413 -0.27284643 0.1025011 0.056281064 0.22796366 -0.095485136 0.12848118 0.04399772 0.027520504 -0.09676696 -0.14309038 0.034993187 -0.034367196 0.091741376 0.17797694 0.2554256 0.053916942 -0.14150614 -0.29315603 0.02535665 -0.04796244 0.04907323 -0.022351122 -0.07225944 0.35727295 0.15680546 -0.17893508 0.086780265 -0.06742258 0.15562919 -0.26149872 0.07841474 0.045616534 0.1196353 -0.100830324 0.028990837 0.14370637 -0.08125397 -0.048280332 -0.17264467 -0.1796769 -0.04805612 -0.0272731 0.059056297 -0.1188542 -0.04096465 0.14380011 -0.3135131 -0.107197866 0.10108457 0.032907885 -0.12997846 -0.31462476 0.06491315 -0.15893257 -0.04859524 -0.1692043 0.08322021 0.19135933 -0.1230357 0.085580945 -0.21138139 0.0027172545 0.31847864 0.19130474 -0.012630592 0.02368263 -0.12439378
75 -0.027578667 -0.10820398 -0.16266452 0.15539068 -0.03088385 0.2461407 -0.31251276 0.04591448 0.0061710686 -0.32088125 0.04905882 -0.2422899 -0.05383636 -0.027479531 0.10588164 -0.28611627 -0.058302853 0.010939953 -0.15259913 0.07405289 -0.1341816 -0.013277786 -0.088868715 -0.34105438 -0.026271943 0.10757369 0.014195133 0.10006183 -0.042022124 -0.048161827 -0.14404343 0.053822476 0.117892265 0.03403836 -0.1800459 -0.15981753 -0.121367715 0.13949823 -0.004268182 0.025257798 -0.12378312 0.12699711 -0.12925372 0.08274374 -0.21613714 -0.11420891 -0.04835897 0.08606236 -0.098344445 0.0073871403 0.31850535 -0.0027998895 -0.28137228 -0.19390379 0.16497052 0.008529093 -0.1418184 0.0811493 -0.092828654 0.02975429 0.24507359 -0.2743251 0.24354589 0.25397664 0.15580581 -0.1707958 -0.010506178 0.086463176 -0.10803231 0.053442176 -0.16782524 0.025263483 0.2308408 -0.040854838 0.07752296 0.10383474 -0.12998047 -0.13903983 -0.016762367 -0.13387164 -0.049962256 0.075094655 -0.035015218 0.19701451 0.34227547 0.068737306 -0.27603018 0.14252718 -0.054238215 0.13685982 -0.042959798 -0.11072282 -0.017158976 -0.121508345 0.069434606 -0.12916848 0.058394898 0.10150982 0.020310078 -0.17605683 -0.12512094 -0.08025686 -0.13296808 0.19898969 0.012565855 -0.17348133 0.21610303 -0.23353958 -0.106537744 0.031672534 0.10542465 0.039690986 -0.17790192 0.05118497 -0.043106474 0.003797369 -0.26293567 0.11613206 -0.044649433 -0.22851938 0.21884918 -0.05164002 0.06497783 0.464587 0.23180121 -0.011941016 -0.038004555 -0.048675057
103 -0.0038079645 -0.15538917 -0.08879865 0.13442719 -0.002786376 0.19145414 -0.28686547 0.06989318 0.035829104 -0.28050998 0.06960307 -0.1610613 -0.06254917 0.016500872 0.025120134 -0.24287702 -0.05574027 -0.020901162 -0.08885722 0.027004063 -0.15825959 0.035254147 -0.08494143 -0.17328037 0.0020938455 0.07629124 0.030741839 0.12494559 -0.06516268 -0.070607185 -0.1209185 0.06750594 0.13274337 0.029158778 -0.12864934 -0.12221858 -0.11787655 0.084569424 -0.034462545 -0.037261736 -0.12116371 0.10952451 -0.092196025 0.04146363 -0.16871272 -0.08238301 -0.086806156 0.07101561 -0.0337857 -0.022420933 0.26889703 0.032557677 -0.244135 -0.16739216 0.12444154 0.02315166 -0.19297443 0.055606943 -0.05320713 0.05684251 0.20653388 -0.21217425 0.23451683 0.2604251 0.14998227 -0.16159643 -0.019491622 0.09680441 -0.09074619 0.075184815 -0.12112842 0.06093214 0.25792763 -0.031327866 0.029210147 0.06457621 -0.122295 -0.164763 -0.013734572 -0.105310924 -0.03298783 0.08027954 -0.062809266 0.24699122 0.3219267 0.048810646 -0.23554307 0.13678707 -0.069744095 0.09617545 -0.062337153 -0.088528246 -0.06166153 -0.22099915 0.07403429 -0.1371402 0.08879958 0.11548051 0.01825173 -0.16754097 -0.12855999 -0.11824203 -0.12492915 0.13101515 0.066965334 -0.12097596 0.2061369 -0.17706019 -0.075041145 0.04575986 0.062206108 0.096572645 -0.111193195 0.009528985 -0.01628971 0.012640013 -0.18561834 0.11402856 -0.083187774 -0.20552103 0.18774602 0.020165563 0.089474246 0.4508744 0.18763185 0.017115379 -0.050641816 0.003064687
86 -0.15116397 -0.025520707 -0.05431723 0.13430403 0.017464701 0.22260696 -0.137095 0.19584645 0.02050381 -0.21221454 -0.0033336324 -0.1758797 0.01775338 0.09256621 0.06829624 -0.1045681 -0.11523983 0.040352684 0.0147781605 -0.04091337 -0.18123339 0.035336167 -0.0004351429 -0.0627073 -0.020827549 -0.006063521 -0.04539298 0.08475049 0.07497227 -0.10407688 -0.12925307 -0.0379446 0.16428475 0.078617975 0.15551318 -0.0741074 -0.0043166075 0.053030685 -0.04712195 -0.035495147 0.0828162 0.043520804 -0.033464067 -0.16324887 -0.06896027 -0.1905884 -0.06873283 0.02118299 0.036675822 0.14601327 0.10306066 0.12302636 -0.26315513 -0.07965898 0.2842725 0.0061407154 -0.15192227 0.040503107 -0.08508195 0.051246453 0.016600395 -0.15888591 0.24731989 0.19029824 0.11751318 -0.1057889 -0.0648466 0.061375424 0.032387458 -0.04370094 -0.0447331 0.19136292 0.25123033 -0.0010754172 -0.005269413 0.09135375 -0.009049373 -0.2614518 -0.14396593 0.03419305 -0.022671998 0.027322294 -0.004764924 0.2157963 0.32485238 0.07743071 -0.11153268 0.042951155 -0.073085815 0.052436337 -0.1653967 0.034991134 -0.083374955 -0.2350405 0.09940766 -0.100532815 0.18443808 0.09073769 -0.0066513433 -0.19476344 -0.17298397 -0.087755844 -0.061806507 -0.0197672 -0.039345164 0.05037224 0.17909291 -0.14699613 -0.005887743 0.15377346 -0.07631482 0.111837216 -0.11866794 -0.07641146 -0.082725294 0.020429129 -0.030949784 0.07664777 0.032672595 -0.17424864 0.15596546 0.008066812 -0.03218433 0.417108 0.16076364 0.057132922 -0.07116781 0.043579493
39 0.023022803 -0.11332773 -0.11541238 0.03418648 0.023148103 0.2986526 0.1987446 0.11409298 0.052196056 0.012607996 0.31877083 -0.1922883 0.022675455 -0.04226723 -0.03524685 0.115924135 -0.07516207 -0.09941332 0.13024792 0.06849526 -0.04950926 0.17240635 -0.19945659 0.04718174 -0.042097986 -0.001296975 0.06043745 0.0088108685 -0.05573986 -0.12981774 -0.03665435 -0.100964956 0.2009063 0.081429884 0.3134278 0.04863368 -0.060712304 -0.0060811355 -0.14779034 -0.19912805 0.011856601 -0.08624786 0.09847656 -0.09349582 -0.03248328 -0.10588137 0.06979688 0.006141101 0.10796168 0.20091756 -0.15136747 0.20820951 -0.018450089 0.025318865 0.2926193 0.071728796 -0.15787742 -0.22338618 0.0017786034 -0.027903352 0.05664484 -0.15314299 0.038305294 0.13866198 0.07915982 0.04396523 -0.120963566 -0.034403734 0.062385023 -0.17175715 0.021328859 0.2131513 0.14316024 0.082706876 -0.03828992 0.22046183 -0.106570385 0.0027925665 -0.22088608 0.20526229 -0.06515518 -0.00341973 -0.05988233 0.067129314 0.09828686 0.0179538 -0.17569366 -0.14342467 -0.007890367 -0.11917817 -0.32014084 0.12794457 -0.21246737 -0.20347986 -0.040047053 0.014277002 0.17471087 0.06437555 0.06812307 -0.13597023 -0.1849283 -0.18271905 -0.04514938 -0.19798717 0.052885994 0.20155866 0.21019495 -0.008424715 -0.010439045 0.1215418 -0.06671941 0.12439951 0.09578959 -0.006873454 -0.034533568 -0.08306017 0.17911309 0.102894135 -0.12723126 -0.07260159 0.11277411 0.09539046 0.16899332 0.2314411 0.039728504 0.21029584 -0.0038056767 0.005587826
60 -0.16821824 0.118516296 -0.20602171 0.14427966 -0.13390324 0.28717235 -0.12484583 -0.07193361 -0.094112776 -0.0994805 0.068692185 -0.36951542 0.0977851 -0.17051712 0.251559 -0.093485884 -0.12334422 0.018138595 -0.055989917 0.1478686 -0.01828952 -0.19817276 -0.008189222 -0.5275195 -0.14932841 0.10926384 -0.034529243 -0.075786464 0.06511804 -0.12652256 -0.17565216 -0.090626255 0.1537302 0.08143664 -0.040212408 -0.082360044 -0.023876645 0.22930866 0.04176273 0.078477554 0.0443095 0.05687126 -0.07628267 0.13000691 -0.24140592 -0.16673036 0.09626608 0.091738485 -0.25119442 0.15768851 0.21787854 -0.048084654 -0.2359391 -0.06375763 0.32515973 0.029369468 0.009554399 0.11470803 -0.14086129 -0.057215583 0.0687327 -0.27666315 0.11627911 0.064408705 0.26546907 -0.12576036 0.16155495 0.056322332 -0.00086889474 -0.087159745 -0.17301077 0.009797351 -0.048012666 0.07416232 0.20351416 0.2535592 0.06074691 -0.14418365 -0.280054 -0.011149919 -0.044799592 0.07055879 -0.023600291 -0.08109035 0.39700124 0.1817107 -0.2072036 0.13084006 -0.046058156 0.15573269 -0.19622569 0.057462238 0.03927597 0.10296807 -0.06357501 0.010740223 0.13365602 -0.07027953 -0.057792895 -0.16787943 -0.16874145 -0.04371497 -0.048516013 0.10635817 -0.11540805 -0.06811038 0.1473304 -0.31789073 -0.12341718 0.092213616 0.05384556 -0.13722257 -0.32232738 0.07758705 -0.15808435 -0.04631087 -0.19508268 0.084812626 0.17324989 -0.14287218 0.098969385 -0.21808782 -0.0018326176 0.350012 0.213071 -0.010184284 0.013211188 -0.12746656
64 -0.020078933 -0.11304837 -0.11195779 0.095292926 0.024011489 0.2729008 0.048158705 0.123890944 0.0348864 -0.07108538 0.2310096 -0.1791845 0.012002678 -0.011098075 0.0020095885 0.030223923 -0.07662525 -0.064044334 0.07213057 0.036664918 -0.101405255 0.11976452 -0.14763726 -0.0017677664 -0.019296678 0.0058234273 0.040950224 0.049182944 -0.044895936 -0.11397655 -0.06938764 -0.057499338 0.16242431 0.07089932 0.19874331 0.0059479377 -0.053695664 0.008121172 -0.11100044 -0.14308023 0.006727126 -0.025434054 0.060915872 -0.0815613 -0.053101785 -0.09754994 0.018371273 0.02641258 0.077495255 0.14720184 -0.038788915 0.16033995 -0.08252871 -0.018581495 0.2344726 0.056400932 -0.15998761 -0.13908066 -0.012309091 -0.006911156 0.07127991 -0.14624338 0.10910118 0.1595961 0.1005228 -0.021554291 -0.085235916 0.003591463 0.02610468 -0.110648885 -0.012881121 0.1876601 0.16846724 0.03799543 -0.039102975 0.16863042 -0.08678664 -0.06643092 -0.17873345 0.113168225 -0.04972194 0.012530066 -0.056995235 0.123784885 0.17704368 0.051966645 -0.181347 -0.06559569 -0.029376753 -0.065719396 -0.2377512 0.08089874 -0.17069992 -0.21131913 0.0020325675 -0.0223178 0.16080873 0.072174534 0.03947211 -0.1383911 -0.16967717 -0.15309826 -0.08033746 -0.12116574 0.04834137 0.119624995 0.20509966 -0.05037221 -0.013889041 0.10848084 -0.052772067 0.110558316 0.021288002 -0.0048384694 -0.046074253 -0.05517463 0.1012443 0.09876514 -0.10395669 -0.110995695 0.1256516 0.08112366 0.11967493 0.3081076 0.072685964 0.15090881 -0.01866 0.009482051
57 -0.048023608 -0.094476074 -0.09905705 0.093752965 0.03426694 0.29597187 0.11725076 0.16249217 0.037398577 -0.050048567 0.23842505 -0.20427364 0.0092997365 0.0047818264 -0.0063067228 0.06933499 -0.114959225 -0.05051396 0.11436364 0.019862168 -0.10841849 0.14214928 -0.1260855 0.047898285 -0.044091452 -0.016597921 0.011335105 0.044603337 0.00021890865 -0.12521894 -0.06928087 -0.10701839 0.18509278 0.096200615 0.31591046 0.027716666 -0.038119655 -0.0011203703 -0.14084889 -0.15627006 0.06466531 -0.049038354 0.08399967 -0.14701535 -0.029938314 -0.14049534 0.013388259 0.0018252197 0.11010118 0.20636569 -0.10099103 0.20588005 -0.0929448 0.012916935 0.29220232 0.056229826 -0.16556448 -0.18049505 -0.03234168 -0.005767944 0.02970271 -0.15031193 0.11166172 0.14811131 0.0871155 0.0037242535 -0.113100864 -0.018405112 0.07296716 -0.15257193 0.009113074 0.2408099 0.1869667 0.050511 -0.04799223 0.18301083 -0.07950508 -0.08723103 -0.21617182 0.16557543 -0.04600092 -0.020606488 -0.009636754 0.13067539 0.17295362 0.05942227 -0.14602916 -0.111773305 -0.013017319 -0.0939171 -0.2803788 0.12516859 -0.20556429 -0.24148254 0.028438134 -0.021845974 0.20790659 0.06840531 0.04519782 -0.1562664 -0.1886754 -0.16235906 -0.05778032 -0.1678119 0.020841042 0.18027614 0.20909746 -0.019517975 -0.0021300754 0.1523816 -0.07311955 0.11015076 0.033555806 -0.03378676 -0.06056385 -0.068585604 0.15838656 0.103897214 -0.08352999 -0.1097492 0.12769507 0.074472986 0.10445117 0.3084116 0.06669786 0.18261483 -0.035281096 0.030587574
65 0.07739015 -0.18961865 -0.056543164 -0.021570444 -0.014086222 0.24185564 0.03421004 0.087630965 0.10802934 -0.09725088 0.17919302 -0.07460576 -0.040839903 0.047249462 -0.12124375 -0.03539534 0.047145054 -0.10898969 -0.050467845 0.027255189 -0.15791067 0.18179022 -0.22893819 0.10960466 0.052202903 0.015517516 0.12823226 0.12092834 -0.17486094 -0.09528807 -0.06397265 0.024893563 0.18217027 -0.062337186 0.033513967 0.01070577 -0.08295702 0.03373658 -0.1358994 -0.34460035 -0.19331683 0.011609156 -0.095759995 -0.024381837 -0.11196228 0.008712143 -0.07498391 -0.04375159 0.15360819 0.01673182 0.024523228 0.02084128 -0.16950758 -0.19599131 0.23233844 0.04330753 -0.33027083 0.0026794544 -0.026385639 0.07363631 0.17460304 -0.23017843 0.24716404 0.3068873 0.078321174 -0.037318494 -0.15064183 0.073835485 -0.096334554 -0.047945824 -0.07308853 0.06319656 0.40013698 0.04190598 -0.06750083 0.17982262 -0.24074529 -0.10439293 0.03013118 0.033118922 -0.101136066 0.0419761 -0.20083225 0.24304439 0.16185342 -0.15137206 -0.2243889 0.026360989 -0.12149368 -0.021504382 -0.15080245 -0.03914445 -0.14336123 -0.3077621 0.10585024 -0.11054774 0.0918181 0.17219557 0.012774981 -0.16482212 -0.10709112 -0.18661852 -0.0715134 -0.19656456 0.14224905 0.078868784 0.2688065 -0.1426226 -0.022271546 -0.012544891 -0.03046915 0.21469422 0.08293757 -0.0014811802 0.025437621 -0.08678538 -0.0795511 0.06813875 -0.1618282 -0.059750773 0.15517002 0.16585928 0.13659061 0.38463962 0.06600694 0.048825357 -0.024691802 -0.018935071
31 0.035706125 -0.11992419 -0.068432786 -0.028901644 -0.04590599 0.22285935 0.060585987 0.063466676 0.07454991 -0.028118433 0.1523295 -0.096079074 0.0064302343 -0.0058964696 -0.05945257 0.0042244922 0.023947326 -0.09810809 -0.024026599 0.040904302 -0.112128 0.123758115 -0.20508723 0.045788735 0.033249304 0.0059378403 0.107416235 0.04624607 -0.1376439 -0.08974639 -0.0723527 0.0067991735 0.16192198 -0.05448273 0.058630392 0.010033057 -0.039512202 0.06949462 -0.08545869 -0.30674672 -0.14195843 -0.022195952 -0.07046999 0.0014908509 -0.09769645 0.009361208 -0.02843748 -0.028051753 0.07819486 0.06144143 0.0097463485 -0.00088048115 -0.1525961 -0.16329336 0.27092087 0.043552104 -0.26209232 0.048318338 -0.043846093 0.029431077 0.13527066 -0.21314721 0.20712668 0.24053766 0.0877098 -0.019200724 -0.11447774 0.07129428 -0.07550027 -0.07677387 -0.062705785 0.066304155 0.3278989 0.054747913 -0.055522777 0.20234461 -0.19097273 -0.116388924 -0.029224677 0.05374535 -0.09962277 0.034377288 -0.1882417 0.1684033 0.1533081 -0.13303585 -0.18940116 0.027238578 -0.12146213 0.0035023172 -0.1924062 -0.008252732 -0.09760768 -0.21138771 0.04825365 -0.06300857 0.091203175 0.12227243 -0.011967009 -0.14896977 -0.10173241 -0.15270478 -0.040633097 -0.19316486 0.090088375 0.08693029 0.23514222 -0.15790968 -0.020869736 0.010695093 -0.048763536 0.15552506 0.034094114 0.010311384 0.017322807 -0.07422366 -0.06628239 0.053201254 -0.08992149 -0.018726699 0.12446002 0.11603303 0.106617264 0.33483478 0.043380205 0.016483143 0.004350454 -0.04981689
46 -0.1659763 0.15511051 -0.14850481 0.096247934 -0.13052203 0.22223715 -0.06772101 -0.055979766 -0.08592831 -0.035680834 0.051936503 -0.28335428 0.10960358 -0.17163572 0.22187138 -0.040832616 -0.13430719 -0.013940422 0.0022747144 0.13499498 -0.004418315 -0.19931501 -0.012927922 -0.46485725 -0.13410048 0.078112274 -0.04059052 -0.11908106 0.077101335 -0.13193876 -0.1414094 -0.08061114 0.17944722 0.09070689 0.012952831 -0.058725543 -0.0011493696 0.19399835 0.058248125 0.052907348 0.0644969 0.027508346 -0.07009257 0.10235777 -0.19344713 -0.17926174 0.09465689 0.07980032 -0.25958523 0.1947699 0.17482968 -0.047791585 -0.20602904 -0.02834013 0.3336947 0.04132994 -0.011830705 0.14474958 -0.12717378 -0.06540768 0.008044005 -0.23718125 0.10197663 0.023662182 0.28312206 -0.11283986 0.17827821 0.04148539 0.02467349 -0.070062004 -0.13397856 0.044043753 -0.04772616 0.08203969 0.17770399 0.24118602 0.08655521 -0.1854668 -0.30941924 0.04682977 -0.03819348 0.06225688 -0.053393275 -0.051422913 0.3943811 0.17143878 -0.16122049 0.124313526 -0.07749166 0.16607028 -0.2658085 0.09921713 0.03808617 0.07933557 -0.12085464 0.03360691 0.17467047 -0.09245687 -0.053121477 -0.18856692 -0.1868452 -0.058370236 -0.0014179905 0.060539532 -0.109026104 -0.0017628728 0.14667548 -0.31595284 -0.10395211 0.11977727 0.0019368931 -0.12325226 -0.32570866 0.0327471 -0.14872165 -0.034361664 -0.14444584 0.09942831 0.20638928 -0.1244924 0.06707099 -0.16956632 -0.0038042506 0.35149387 0.18389632 0.0037643227 0.012303262 -0.118871644
26 0.00077933434 -0.13860108 -0.09059439 0.089851454 0.023566216 0.26732787 0.059428997 0.11670925 0.064889684 -0.046012715 0.26327214 -0.16400295 0.010376193 -0.030463021 -0.019556554 0.050473068 -0.10886823 -0.08952591 0.123566926 0.036118906 -0.08780488 0.13449109 -0.15668665 0.045129117 -0.011177875 -0.006618805 0.03125496 0.02497046 -0.048833124 -0.13397162 -0.06389682 -0.04983199 0.18522258 0.082060225 0.22683673 0.028695783 -0.043657348 -0.010717611 -0.1075902 -0.18361431 0.0038302904 -0.059463482 0.08996331 -0.065677136 -0.0365063 -0.06983232 0.019911667 0.044554114 0.07975035 0.15204953 -0.057431187 0.18008295 -0.048880666 0.005794475 0.23326558 0.062465586 -0.17605495 -0.14883104 -0.0023356664 -0.006889393 0.051246632 -0.11410327 0.09269871 0.15949923 0.09821703 -0.0039382703 -0.08644157 0.00033915427 0.050117537 -0.10323626 0.017790463 0.20777301 0.17841873 0.043570302 -0.062115714 0.15451692 -0.082306236 -0.059244186 -0.18926276 0.15168904 -0.051701136 0.020440405 -0.06593202 0.14203145 0.15264753 0.045676135 -0.15638463 -0.07723896 -0.019049453 -0.07761126 -0.27850366 0.10052497 -0.18912856 -0.24427809 -0.02733757 -0.00470819 0.1746543 0.0691812 0.04537946 -0.14311777 -0.18698816 -0.1751682 -0.057686068 -0.13263457 0.062374208 0.15872122 0.20954953 -0.0072144233 -0.018876089 0.13203844 -0.0706637 0.11848017 0.037532788 -0.024374705 -0.011950878 -0.05288828 0.1449421 0.10322932 -0.10752737 -0.08618181 0.10679682 0.10466077 0.16662681 0.32186437 0.03821097 0.16221204 -0.021225344 0.023562452
25 -0.06792054 -0.07837081 -0.11433643 0.111233965 -0.009508322 0.31002432 0.07056396 0.087526664 0.013672728 -0.049817316 0.2338282 -0.22030267 0.017569575 -0.02997905 0.021745743 0.038880993 -0.09445303 -0.054077014 0.07341976 0.056498576 -0.11849073 0.07151936 -0.11540597 -0.04109482 -0.06336411 0.014817797 0.028061572 0.042081933 -0.02815341 -0.15758087 -0.09643738 -0.088902466 0.18559478 0.083529495 0.20520741 0.03131763 -0.044629935 0.037929825 -0.12505169 -0.13545662 0.019204011 -0.017964851 0.06029404 -0.071735464 -0.09390634 -0.100977436 0.021543894 0.01094091 0.048706636 0.15162072 -0.03661647 0.15125054 -0.10822593 -0.011195544 0.24954937 0.06887327 -0.14497809 -0.14150307 -0.037956838 -0.003989843 0.043931022 -0.1686679 0.1050594 0.13962746 0.093035184 -0.023359029 -0.06945759 -7.094741e-05 0.053104818 -0.13086978 -0.021064524 0.1712128 0.15625936 0.060665283 -0.014012816 0.1730629 -0.06790588 -0.062310774 -0.18631144 0.116081685 -0.0248664 -0.017846508 -0.018388066 0.09345498 0.17662649 0.07959868 -0.147289 -0.07060147 -0.015612076 -0.065026134 -0.23034249 0.10229518 -0.16473337 -0.1960012 0.008848406 -0.015887585 0.18481413 0.042135075 0.02138825 -0.1358831 -0.17753343 -0.15429436 -0.08103773 -0.1197576 0.019442605 0.11969344 0.2006547 -0.06792073 -0.032077987 0.12006468 -0.038074754 0.057884548 -0.01711552 -0.0068668798 -0.08093569 -0.075518675 0.085751735 0.093124494 -0.058653604 -0.096948475 0.122893676 0.029272106 0.100720115 0.30780524 0.09016448 0.14718795 -0.018852025 0.001512255
20 -0.21549484 0.114007734 0.04907081 0.14669876 -0.13338915 0.19067389 -0.039463576 0.013830351 -0.016588353 -0.00096925383 0.12634064 -0.053802695 0.107917264 -0.04151341 0.054354273 0.11816817 -0.15461954 -0.13019057 0.24528416 -0.023599423 -0.16209306 -0.12176767 0.013125982 -0.09458257 -0.11717893 0.027976617 -0.021157073 -0.020742668 0.04785846 -0.32832107 -0.19481336 -0.060710967 0.31196514 0.19772567 0.21042061 0.018044198 0.036825523 0.005528632 -0.016367473 -0.07462742 0.22629514 0.08101837 0.08330002 -0.09749875 -0.1402198 -0.2450479 0.04580648 0.051109318 -0.07242424 0.1328192 0.078131996 0.063696384 -0.14685854 0.05523294 0.29407734 0.15664311 -0.12614445 0.0068910588 0.06239912 0.023246469 -0.26050875 -0.04925557 0.10859816 0.026799431 0.31915087 -0.13921241 0.21756615 0.028270682 0.16448386 -0.03881656 -0.03268318 0.2198849 0.01660832 0.20869118 0.10242819 0.07346469 0.23080267 -0.27837676 -0.38205725 0.24106158 0.08732632 0.022224544 -0.101123564 0.07984906 0.35892895 0.25527838 -0.06564203 0.050887883 -0.11962093 0.03907871 -0.40048093 0.18375473 -0.041001134 -0.18914728 -0.106793985 0.030393584 0.3654074 -0.09546456 -0.07007624 -0.16779791 -0.30108732 -0.1906712 0.06041835 -0.16832808 -0.0033533026 0.11305403 0.14108962 -0.23790918 -0.03033269 0.1764369 -0.16024056 0.003612448 -0.2617368 -0.13547629 -0.18873875 -0.008690218 0.057024777 0.13102382 0.17986277 -0.19764343 0.014088317 0.010536494 0.03495616 0.42102066 0.15191783 0.1496462 -0.08313892 0.038128152
67 0.056310583 -0.15846752 -0.06861532 -0.031298444 -0.01262487 0.23694958 0.09727886 0.09841018 0.09473445 -0.045338396 0.17796426 -0.08892823 -0.009776459 0.038701404 -0.11007881 0.008773552 0.043469377 -0.108869985 -0.02654426 0.029846074 -0.13792126 0.1809392 -0.23157308 0.11408805 0.049003385 -0.003494845 0.12055534 0.08238765 -0.15244402 -0.09011094 -0.05870856 -0.0037998913 0.17487857 -0.06262004 0.10359517 0.015116725 -0.04796594 0.040748063 -0.12984458 -0.3512786 -0.15539752 -0.019029023 -0.07240507 -0.041347392 -0.08356685 0.0004970688 -0.04141644 -0.044892926 0.14752135 0.074186325 -0.032084934 0.030884435 -0.14994346 -0.16436446 0.278245 0.03980766 -0.30421165 0.0069733043 -0.04023686 0.043493804 0.1483805 -0.22384794 0.22640604 0.27966157 0.06729159 -0.005775135 -0.1675659 0.06492658 -0.07238962 -0.082951084 -0.05521877 0.0824435 0.37475368 0.046003357 -0.07665613 0.21168724 -0.22242533 -0.103318244 -0.0067740004 0.07269932 -0.11190375 0.027590532 -0.19548868 0.19951095 0.1370692 -0.1649493 -0.20254333 0.0011522593 -0.11609031 -0.036029793 -0.18833266 -0.0027438635 -0.13666713 -0.2677409 0.08121139 -0.081062034 0.092777155 0.15771331 0.005687645 -0.16203038 -0.10871739 -0.1683026 -0.04931167 -0.23897317 0.110004954 0.12161512 0.25181067 -0.13238953 -0.006615735 0.0029820167 -0.05348388 0.20695366 0.08892082 0.0021979178 0.014642791 -0.090081565 -0.040686544 0.056966588 -0.1398161 -0.032554753 0.14232038 0.15105544 0.1163608 0.33803952 0.031628624 0.045433324 -0.008348322 -0.027911248
85 -0.1032919 -0.07498977 -0.11243637 0.15839055 -0.023367506 0.33064234 0.013777573 0.08056082 -0.008925839 -0.08288335 0.21154162 -0.24680911 0.017510902 -0.02304199 0.037433468 0.0023066925 -0.11705611 -0.027683556 0.0656714 0.054728452 -0.1561331 0.039162528 -0.06400669 -0.06266029 -0.08281363 0.02020834 0.0020835411 0.06663163 -0.010780776 -0.17405325 -0.12824202 -0.09127842 0.1837672 0.09616026 0.179116 0.023293443 -0.044182453 0.05480641 -0.13379672 -0.11241279 0.031851675 0.010003057 0.058635987 -0.06821154 -0.12238727 -0.1031908 -0.014362564 0.013289045 0.02902132 0.14180385 0.012265227 0.15611805 -0.15393846 -0.03088547 0.24053183 0.07402273 -0.13858277 -0.12875316 -0.06767498 0.01445974 0.036423646 -0.18594116 0.13278219 0.14237161 0.080957085 -0.054230686 -0.05265103 0.016018735 0.048307136 -0.12584648 -0.030414274 0.15891486 0.16634648 0.05169197 -0.004714436 0.14543638 -0.047720633 -0.095957555 -0.17391801 0.06893288 -0.0033304335 -0.032730833 0.026282463 0.11934693 0.21744896 0.116040275 -0.13053802 -0.051661078 0.003081983 -0.05450509 -0.18029112 0.093744986 -0.15388428 -0.20020038 0.04636073 -0.032508876 0.1893769 0.033203445 0.0032875715 -0.1280669 -0.16980761 -0.13806444 -0.09531088 -0.07996287 0.010285765 0.08346421 0.18425032 -0.07986193 -0.037509404 0.1239328 -0.011861045 0.028734582 -0.058975954 -0.014253469 -0.09552978 -0.071328185 0.06197202 0.07701874 -0.03334942 -0.11731954 0.12690105 0.00019149046 0.05715602 0.33945906 0.13247244 0.119451106 -0.032624904 0.01790005
23 -0.23934719 0.16362768 -0.013939482 0.1354526 -0.14226666 0.23210262 -0.0051681497 -0.009857753 -0.04898931 0.005021848 0.10387754 -0.14119162 0.11459574 -0.070756175 0.10419139 0.09627424 -0.14623073 -0.087311216 0.17488387 0.027991708 -0.13203596 -0.1590887 0.03130768 -0.1979282 -0.1421582 0.043755952 -0.032984994 -0.051132504 0.076644205 -0.29092515 -0.18639047 -0.10322882 0.28368276 0.16890053 0.18920866 0.015875421 0.037805334 0.06562412 -0.023391401 -0.03085259 0.21385048 0.06984078 0.03570129 -0.07488075 -0.16722049 -0.23922826 0.060527436 0.035447758 -0.10859852 0.15459159 0.0751078 0.030387899 -0.16674155 0.044925142 0.32505196 0.12603448 -0.08444717 0.02372083 -0.008531429 0.0021513237 -0.21158771 -0.11449562 0.098989524 0.020600226 0.27962324 -0.124174386 0.20020536 0.015553578 0.14836687 -0.077386804 -0.059837382 0.1654391 -0.009994726 0.18999974 0.13219127 0.13222359 0.2021532 -0.24499089 -0.36411765 0.19548443 0.06586384 0.008457725 -0.06088003 0.0100449445 0.35847464 0.23803918 -0.06581035 0.04801938 -0.10199233 0.058410764 -0.35249525 0.18521725 -0.022014368 -0.09848392 -0.0884554 0.030852254 0.32404226 -0.10165089 -0.075597726 -0.17869109 -0.27492255 -0.14671868 0.04029018 -0.1387935 -0.055091117 0.09735969 0.13335076 -0.27062184 -0.044382934 0.15316927 -0.114001736 -0.048183452 -0.2826875 -0.09484854 -0.20919284 -0.03903485 0.004361484 0.105244435 0.21132389 -0.16938435 0.020659128 -0.06702469 -0.015690286 0.37289312 0.16430677 0.10738185 -0.0457849 0.0002117896
91 -0.027095456 -0.08947146 -0.092756495 0.09540377 0.0056696264 0.23473547 -0.0033812704 0.095900655 0.025541851 -0.0692831 0.18827069 -0.16658264 0.017779551 -0.029748399 0.02780831 0.005857938 -0.083952874 -0.05772138 0.07020219 0.029387524 -0.0909485 0.06935506 -0.12129135 -0.042871363 -0.011102722 0.007487315 0.020394204 0.020775625 -0.039561193 -0.110269845 -0.0786742 -0.030879442 0.15744577 0.07071306 0.14695756 -0.009523607 -0.045130856 0.019200785 -0.06469545 -0.11617686 0.006184837 -0.018404549 0.053397734 -0.037443507 -0.0735071 -0.090964936 0.018517068 0.04932914 0.015969798 0.13469577 0.0116948895 0.12178967 -0.08967865 -0.017147763 0.22221729 0.047775757 -0.15021765 -0.06367925 -0.021367835 -0.020684397 0.05450214 -0.13368663 0.1069212 0.13388065 0.119112566 -0.041711234 -0.050829362 0.027168691 0.019303542 -0.0741019 -0.014285363 0.17410642 0.15419458 0.023167275 -0.031772226 0.14505069 -0.064388424 -0.098946944 -0.17138602 0.08958674 -0.03858865 0.02324283 -0.063313745 0.12783244 0.20445062 0.060913198 -0.15543371 -0.025994034 -0.043199837 -0.026669642 -0.22725129 0.07940832 -0.13229884 -0.17999442 -0.020895183 -0.0126432385 0.15580867 0.045260265 0.028097223 -0.13226016 -0.16266061 -0.13639264 -0.066855304 -0.074086376 0.03873094 0.090677746 0.17304944 -0.06838157 -0.022634096 0.11136955 -0.04974947 0.07051528 -0.03332827 -0.009198946 -0.035918374 -0.03626537 0.06155923 0.09290396 -0.056969102 -0.10164762 0.10337066 0.05956333 0.1105085 0.31692752 0.0729742 0.114975795 -0.010352906 -0.006282474
89 -0.11400935 -0.048828386 -0.10417704 0.14618455 -0.016509142 0.2528823 -0.1672023 0.112803236 0.0028544546 -0.22391392 0.020654289 -0.22816 0.0017587898 0.03920944 0.09425353 -0.1622377 -0.09092971 0.02760949 -0.062191825 0.023828644 -0.15862417 -0.000859495 -0.026911901 -0.17568348 -0.02307109 0.03661679 -0.021147834 0.08345052 0.03243839 -0.09445819 -0.14019722 -0.027849715 0.13542615 0.056098394 0.019224448 -0.08815463 -0.0462853 0.1008402 -0.03916617 -0.033598363 -0.004902594 0.063115075 -0.07165901 -0.044513408 -0.14212313 -0.13666682 -0.054753497 0.045395494 -0.028501565 0.08789331 0.17046382 0.061474588 -0.2551787 -0.115859725 0.23245063 0.0041134446 -0.13942648 0.060311917 -0.09889079 0.030126164 0.09922069 -0.20433111 0.22987935 0.20543084 0.10335902 -0.11658223 -0.05245995 0.07723524 -0.010615603 -0.021785114 -0.091188915 0.1103376 0.23548502 -0.019616218 0.018916266 0.10337688 -0.0553541 -0.18863347 -0.07505488 -0.03380682 -0.034385495 0.031321686 -0.015904944 0.19322197 0.3145756 0.062469345 -0.15935318 0.076966114 -0.055265967 0.066476874 -0.0985742 -0.004655908 -0.067832634 -0.17086089 0.093395285 -0.0975836 0.13343506 0.08510255 -0.02133969 -0.16558082 -0.1391863 -0.08362953 -0.08623722 0.04892801 -0.02122474 -0.03370569 0.17132892 -0.17609687 -0.051428128 0.09277261 0.002559872 0.06854076 -0.1332083 -0.005683276 -0.07657576 -0.00050267414 -0.107679695 0.07193711 0.01550437 -0.16959484 0.16542414 -0.031417396 -0.0027575651 0.40294275 0.17336008 0.021151459 -0.037671436 0.0031358243
24 0.012411435 -0.049257796 -0.11192673 0.05196436 -0.06622535 0.1549907 -0.09579346 -0.0043398384 0.01988728 -0.06100108 0.13348356 -0.15358445 0.0464942 -0.12460708 0.09248643 -0.036768302 -0.06994992 -0.078143775 0.028409816 0.06892299 0.010088225 -0.021008322 -0.17166063 -0.23469675 0.0018959409 0.040155374 0.020772476 -0.06558864 -0.05979325 -0.06911917 -0.061176438 0.037114188 0.14325675 0.036390398 -0.006511936 -0.059885908 -0.040623162 0.08986119 0.04991835 -0.102417454 -0.056323867 -0.022615029 -0.006823153 0.11226738 -0.10868974 -0.061346848 0.07340726 0.11744254 -0.1237781 0.123514496 0.12904677 0.004631691 -0.10948505 -0.06055343 0.25872052 0.040277854 -0.12248024 0.098328605 -0.040696003 -0.04878561 0.113566756 -0.16044264 0.106273666 0.12148936 0.23339379 -0.06555485 0.0433355 0.06426232 -0.04572763 -0.011219162 -0.080126375 0.10243611 0.09282382 0.04470298 0.04595334 0.19281223 -0.036295008 -0.11298855 -0.19799723 0.05578595 -0.10153078 0.12111568 -0.1518225 0.073804356 0.2839331 0.028320592 -0.23387092 0.09542032 -0.088522226 0.08284588 -0.27069303 0.030826224 -0.025552787 -0.054626163 -0.11803087 0.017029364 0.10283908 0.022144312 0.0074084112 -0.1461681 -0.1462917 -0.11330191 -0.02647381 0.0075871293 0.031826697 0.02387073 0.18738814 -0.16296537 -0.058395125 0.07454982 -0.035092704 0.034856487 -0.13197698 0.040716484 0.0016741178 -0.011289513 -0.06469778 0.10745199 0.005786715 -0.07539301 0.090751626 0.006218238 0.1622137 0.34658176 0.06791908 0.01850285 -0.0022307618 -0.08002317
61 -0.20330098 0.1692963 -0.18273425 0.14074035 -0.14085943 0.28067327 -0.10425968 -0.0463406 -0.10844122 -0.088650994 0.06682069 -0.32659787 0.10544035 -0.16732033 0.24228354 -0.07230165 -0.14983873 -0.003896865 -0.017320637 0.14117195 -0.040287793 -0.22278583 0.017198574 -0.5317637 -0.16838633 0.10597952 -0.044237483 -0.08508303 0.09309931 -0.16056357 -0.17160746 -0.09109503 0.18241334 0.10770611 0.0077443044 -0.08316507 -0.02306493 0.2069169 0.031805508 0.11230314 0.09595478 0.08642256 -0.08114418 0.08219095 -0.23135674 -0.22871448 0.09299466 0.07728936 -0.26909697 0.19304307 0.20359609 -0.036486153 -0.24915554 -0.03969204 0.3308524 0.04724445 0.012105603 0.099174574 -0.1353715 -0.061241362 0.017846555 -0.2681212 0.11704607 0.034963146 0.31701028 -0.14695045 0.23261613 0.029509436 0.034591485 -0.076303385 -0.166115 0.04428493 -0.08728218 0.11239787 0.22608848 0.23721525 0.11514854 -0.19448003 -0.34065735 0.018635742 -0.026243573 0.057277873 -0.022918385 -0.090744056 0.443885 0.23184024 -0.19664478 0.13584885 -0.07738888 0.17605777 -0.23749547 0.08973319 0.030109016 0.09085599 -0.08582195 0.005902735 0.19704245 -0.10213174 -0.04917833 -0.19809084 -0.21503963 -0.046375625 -0.030692235 0.09238436 -0.12022478 -0.04656672 0.1511834 -0.35095564 -0.119500145 0.11812088 0.03694689 -0.14091739 -0.36948332 0.04190051 -0.19834466 -0.044237092 -0.18269141 0.1113245 0.21959236 -0.18433048 0.092568494 -0.21325578 -0.036323566 0.3719972 0.24277878 0.020365853 -0.013285655 -0.106980875
104 -0.014354972 -0.085349396 -0.13517904 0.07519687 0.016619477 0.24400258 0.023478944 0.113021396 0.032613564 -0.07462245 0.1633852 -0.20786281 0.029532442 -0.03838028 0.06334065 -0.0067005674 -0.07924894 -0.027670657 0.03221182 0.04378064 -0.051757004 0.08156986 -0.14805844 -0.09404993 -0.0034958886 0.008455073 0.01595147 -0.010077069 -0.023197845 -0.06679085 -0.051921234 -0.050526828 0.12976706 0.049199708 0.16069232 -0.032777704 -0.037256997 0.04423762 -0.04860238 -0.107827686 -0.003161041 -0.045169216 0.029498653 -0.037275538 -0.05011166 -0.09166317 0.036050394 0.05710262 0.019189153 0.17488144 -0.0063115526 0.123616315 -0.093043976 -0.02916516 0.2553741 0.019044392 -0.12741253 -0.045895528 -0.05216595 -0.040564906 0.101073265 -0.1592051 0.10855209 0.1450717 0.097053275 -0.010314632 -0.09544797 0.020878868 0.003262336 -0.10017625 -0.022568937 0.16258049 0.16071242 0.008404646 -0.026982266 0.20006911 -0.0888443 -0.08033409 -0.16489103 0.08724222 -0.087101005 0.047288712 -0.06165827 0.0929703 0.17939286 0.0185739 -0.1802207 -0.03374985 -0.030521305 -0.017673202 -0.22780485 0.07222433 -0.12534513 -0.12343913 -0.023175016 -0.0045749405 0.12027092 0.07527102 0.039858434 -0.14138511 -0.14697015 -0.11282295 -0.0608014 -0.061239198 0.0068728225 0.09874502 0.17938057 -0.068077534 -0.014591523 0.113305025 -0.046272926 0.083664015 -0.02011878 0.025117658 -0.023932477 -0.02977872 0.053207543 0.08363834 -0.056739364 -0.08313942 0.122354686 0.031662002 0.111338295 0.2907602 0.0599359 0.09945824 0.0015695269 -0.030859517
32 -0.18318826 0.13599943 -0.1917915 0.15147273 -0.15281482 0.25961888 -0.17065348 -0.065154515 -0.09891981 -0.11522575 0.0310448 -0.33573633 0.089253314 -0.169567 0.2518295 -0.113729365 -0.124689974 0.009678633 -0.060491014 0.13051133 -0.033240683 -0.21839163 -0.008000823 -0.5599477 -0.13130563 0.120538235 -0.037795592 -0.076371066 0.066686705 -0.13119024 -0.18420605 -0.057055194 0.17281859 0.078432746 -0.07381276 -0.110443726 -0.019494453 0.24297935 0.059240617 0.08491329 0.037667677 0.08384744 -0.114113756 0.13236408 -0.25795257 -0.19224405 0.09383455 0.100182705 -0.27488407 0.1473774 0.26445678 -0.08003301 -0.26453722 -0.091350116 0.33601204 0.030666051 -0.010084703 0.17331195 -0.1474974 -0.047709223 0.0763033 -0.28448308 0.14625116 0.07549506 0.27429417 -0.15169665 0.1685524 0.07099827 -0.003186984 -0.05028189 -0.17898029 0.017411985 -0.012523916 0.077125095 0.20220302 0.23747276 0.060439155 -0.18499723 -0.2704373 -0.025599461 -0.044158578 0.07519966 -0.038861383 -0.03052089 0.4304738 0.1781652 -0.21145897 0.15198642 -0.092421934 0.19678316 -0.21829735 0.042058192 0.06554567 0.09840982 -0.07844733 0.00019249706 0.15131263 -0.06906885 -0.061906602 -0.19441204 -0.1879878 -0.04637132 -0.041115705 0.11607746 -0.11451295 -0.09380379 0.16301347 -0.3609427 -0.12293119 0.09057914 0.047368165 -0.13346618 -0.3741115 0.061948236 -0.16855945 -0.03325497 -0.24704991 0.10098534 0.20002694 -0.16497357 0.10781976 -0.21805286 -0.0072663603 0.4007683 0.23339629 -0.032874502 0.0030441794 -0.13383737
55 0.3125769 -0.24341123 -0.18432355 -0.14863253 -0.054997012 0.03999052 -0.08507228 -0.02904701 0.15037964 0.09775237 0.3111434 -0.119402006 0.08357222 -0.3972637 0.12787078 0.042738803 -0.123483926 -0.1861913 0.17930295 0.1449169 0.34972322 0.110784955 -0.5481168 -0.30323902 0.19256136 -0.025282737 0.054699473 -0.3570868 -0.22555661 0.07156748 0.10596111 0.21847473 0.16015683 -0.032840796 -0.00040559354 -0.10651873 -0.04256899 0.10394626 0.2824337 -0.37002522 -0.28025538 -0.31631562 0.042219277 0.38649663 0.023907904 0.13233066 0.25579488 0.36076477 -0.285966 0.3002903 0.0955494 -0.007530806 0.07302466 -0.043544248 0.4334293 -0.005516653 -0.2449505 0.29923126 -0.016427234 -0.20365295 0.33876872 -0.1650951 0.058171097 0.16534515 0.50330985 0.014656032 0.069813445 0.14930412 -0.17079487 -0.0026561895 -0.03920414 0.21963002 0.13424447 -0.0091757905 -0.05655886 0.48458824 -0.18873118 -0.16142029 -0.45386195 0.20005307 -0.37710488 0.41094667 -0.51465243 0.113298275 0.42113772 -0.14937337 -0.48847952 0.18403165 -0.18429016 0.1671742 -0.70106244 0.0164063 -0.062308423 -0.056512635 -0.47932777 0.14473298 0.07113028 0.06948459 0.12005727 -0.26750544 -0.20891218 -0.24026974 0.044922546 0.026700085 0.16524318 0.17084575 0.34460247 -0.093873695 -0.10712076 0.17959502 -0.17881428 0.14433727 -0.041275878 0.14822309 0.32585213 0.033506893 0.047544036 0.21675083 -0.11714908 0.10585729 0.074004665 0.17782511 0.586378 0.54062045 -0.13977383 -0.023327582 0.052425425 -0.2539893
13 -0.08029778 -0.07821848 -0.1137894 0.13355811 -0.012908416 0.22034194 -0.24236757 0.10695357 0.0052477675 -0.2502808 0.017163359 -0.2136377 -0.014679547 0.01919632 0.09032155 -0.20529114 -0.07694917 0.026323743 -0.08139644 0.015863633 -0.14842498 -0.0017435795 -0.047960006 -0.20790838 0.0015414376 0.042437058 -0.010472673 0.085116334 -0.0038014555 -0.06485193 -0.1307706 0.024446342 0.11965617 0.029503217 -0.049322613 -0.118938684 -0.060629442 0.11285109 -0.008283231 -0.025939325 -0.052435618 0.07732438 -0.08855247 -0.005838437 -0.13833864 -0.112772465 -0.06200459 0.061858643 -0.0491222 0.0600116 0.21862917 0.038933396 -0.26386803 -0.14284642 0.20181419 -0.0016978356 -0.14814976 0.09989456 -0.09296836 0.035425223 0.15746911 -0.20490879 0.24483743 0.2250418 0.13364178 -0.13950792 -0.029784758 0.09878418 -0.051486 0.01725615 -0.10768267 0.08089498 0.23341009 -0.043145303 0.021779442 0.10533297 -0.0848237 -0.20004517 -0.06837986 -0.080802724 -0.05293875 0.063275926 -0.04443928 0.20823081 0.3374906 0.05353012 -0.19208348 0.11961977 -0.075905345 0.102377415 -0.08551699 -0.04591438 -0.04791649 -0.17181183 0.077245876 -0.10766465 0.10504257 0.09194092 -0.006867374 -0.16877574 -0.12963934 -0.08486562 -0.10587565 0.09275692 0.0032315992 -0.070470475 0.18273461 -0.18944849 -0.057514023 0.08519869 0.018191308 0.071478866 -0.14444602 0.002426523 -0.04372641 0.015821118 -0.15720214 0.08466279 -0.008898585 -0.17410907 0.18226852 -0.016347297 0.022374159 0.43646067 0.1772818 0.00011605177 -0.038784478 -0.011905573
37 0.30962053 -0.25590485 -0.16772443 -0.15450057 -0.026446633 0.050677057 -0.039169464 0.0031752551 0.15704973 0.105523504 0.3152766 -0.10757338 0.07312516 -0.34980872 0.09914374 0.06350902 -0.111456394 -0.18551219 0.18676946 0.12927485 0.3281938 0.15518478 -0.5422614 -0.22112037 0.19510737 -0.037934985 0.059749 -0.32622483 -0.21516095 0.064637415 0.116640046 0.20137823 0.15688202 -0.032405324 0.051671673 -0.08367563 -0.039790962 0.07939128 0.24386823 -0.38953808 -0.26295012 -0.3268305 0.058190256 0.33252004 0.04819991 0.12849686 0.24043807 0.3265241 -0.22061415 0.3017209 0.041581795 0.018222336 0.08472666 -0.028840227 0.42967755 -0.006754445 -0.25435963 0.2564101 -0.010311627 -0.19073975 0.3202272 -0.14553532 0.058571573 0.17052492 0.45252126 0.035327982 0.019780587 0.1390876 -0.15526257 -0.021448974 -0.015143987 0.23648189 0.15527679 -0.014128155 -0.07913705 0.47256404 -0.20331036 -0.14309797 -0.43386307 0.22306976 -0.36726898 0.39292273 -0.5045436 0.12777838 0.36953396 -0.16858041 -0.46312222 0.1447334 -0.17933717 0.12631741 -0.68244404 0.02611185 -0.08773054 -0.08870445 -0.44320187 0.14203744 0.06959707 0.091393664 0.12925242 -0.25108862 -0.20534092 -0.23549138 0.040692147 -0.021648798 0.16591185 0.20691873 0.33605838 -0.057084505 -0.080167934 0.17899376 -0.1931422 0.17522247 0.00907402 0.13353851 0.3232421 0.027246084 0.08036514 0.20454119 -0.14098175 0.111362964 0.07226855 0.20184752 0.5679144 0.5031336 -0.15631494 0.0018049561 0.050680872 -0.22617207
44 0.0686905 -0.16709618 -0.153346 0.028761733 0.054801017 0.2792258 0.12502778 0.13657501 0.07032245 -0.062518954 0.2578322 -0.19019176 -0.0011437318 -0.021985292 -0.022870168 0.03087353 -0.047942806 -0.06778676 0.034974966 0.06364608 -0.03269813 0.19655983 -0.21891755 0.0067450954 0.006432487 0.004568614 0.06536686 0.028621845 -0.07583384 -0.0449124 -0.012669001 -0.05718251 0.14384653 0.03638245 0.20432307 -0.010048632 -0.079468995 0.016094925 -0.11561554 -0.17732768 -0.062987454 -0.07296513 0.0357488 -0.056726884 -0.022480559 -0.07164848 0.048823882 0.02501533 0.10858582 0.17412804 -0.090518914 0.17103587 -0.061188642 -0.034778032 0.26779032 0.025149332 -0.17311122 -0.15953279 -0.020919787 -0.030406494 0.15912284 -0.18213454 0.088215664 0.19379078 0.06376183 0.038586836 -0.17294545 -0.010529594 -0.0050225803 -0.13094386 -0.0103636775 0.17287181 0.20393956 0.019765688 -0.058243245 0.24148816 -0.16964772 -0.0011353446 -0.13522255 0.12900402 -0.11515148 0.032629166 -0.07514916 0.102153316 0.10247947 -0.04644509 -0.233814 -0.10174735 -0.013752221 -0.07589305 -0.24549486 0.06686217 -0.19065525 -0.1781789 -0.0030591488 -0.016311703 0.10314501 0.12463049 0.0845767 -0.15383254 -0.14371644 -0.1514361 -0.07032552 -0.12143803 0.060427383 0.14543921 0.23150101 -0.010186834 -0.010168602 0.08125281 -0.030717704 0.15166377 0.10565944 0.038436245 0.0063478947 -0.06300316 0.100941926 0.10226344 -0.16574714 -0.07732882 0.14906377 0.09852146 0.18051523 0.24430181 0.031682063 0.15598094 -0.0049154367 -0.023898043
27 -0.09928482 -0.09742135 -0.07387205 0.14689527 0.018764453 0.33720893 0.05560708 0.14155486 0.040473156 -0.11178797 0.22101565 -0.18545286 -0.009553552 0.060274057 -0.04018805 0.022000208 -0.10303252 -0.05813472 0.08045912 0.017916363 -0.20487437 0.11270454 -0.06533363 0.08053729 -0.06272063 0.014144174 0.028254004 0.1307727 -0.0049133915 -0.20673963 -0.12974598 -0.11074921 0.22189267 0.11257837 0.25478092 0.038431827 -0.05530723 -0.004030271 -0.1857251 -0.13450219 0.058725808 0.022251666 0.05718131 -0.17183821 -0.09341121 -0.14090051 -0.03914239 -0.019870415 0.14254636 0.112457775 -0.039922904 0.21015045 -0.14165469 -0.017975248 0.2316128 0.079804815 -0.18982674 -0.2119106 -0.018822886 0.056365866 -0.0026155831 -0.15932554 0.15141284 0.18624966 0.047835603 -0.041355167 -0.116545744 -0.008968813 0.08652709 -0.1266735 0.00077760225 0.20594344 0.23621568 0.065634176 -0.037406936 0.113270335 -0.059876308 -0.09463687 -0.14639087 0.12437815 0.023508435 -0.053889204 0.017434098 0.1675106 0.1671037 0.09414612 -0.10841826 -0.09979859 -0.0048065037 -0.097774014 -0.200102 0.11284947 -0.21366712 -0.30260178 0.09301159 -0.060877983 0.21990345 0.07987173 0.009525791 -0.15538609 -0.2023275 -0.1836101 -0.093356 -0.16276127 0.03881364 0.12422364 0.20655264 -0.051927973 -0.016997132 0.12840207 -0.04428529 0.11913431 0.017450908 -0.06052829 -0.114890106 -0.07313952 0.11680649 0.094092846 -0.08996916 -0.15894344 0.14174251 0.07032696 0.06704162 0.3546143 0.12348003 0.19303213 -0.050468795 0.07552823
36 0.31754175 -0.24663198 -0.18724002 -0.17365533 -0.060657058 0.060603626 -0.020387365 -0.010834652 0.1740939 0.15206803 0.34312573 -0.10859321 0.11019806 -0.4126787 0.12957604 0.11211699 -0.13074952 -0.21307659 0.23172511 0.14915945 0.36921078 0.13469103 -0.5996094 -0.2662076 0.21433726 -0.050076056 0.055586006 -0.40136975 -0.2299928 0.04459258 0.120585985 0.21503703 0.20469764 -0.023228377 0.07497395 -0.088552944 -0.021890635 0.09251989 0.28812304 -0.43848902 -0.25830904 -0.36839855 0.07595251 0.37136805 0.046977196 0.122369096 0.2876206 0.36789548 -0.27209088 0.35671118 0.051171165 0.009669965 0.08921697 -0.023456112 0.5233054 0.012595016 -0.28513527 0.30835152 -0.009259524 -0.21657844 0.3093887 -0.15660574 0.060732637 0.16748871 0.5507012 0.04090787 0.05942915 0.16303886 -0.14917393 -0.039123353 -0.022286845 0.2779793 0.15509014 0.021128869 -0.079052545 0.550888 -0.18217106 -0.18870433 -0.53522396 0.2825929 -0.40540364 0.4410707 -0.58031726 0.1149508 0.44112456 -0.17216864 -0.51426035 0.16886845 -0.21139412 0.15137942 -0.8149638 0.06878907 -0.08511427 -0.06914911 -0.5241031 0.18054602 0.112479694 0.08137754 0.12141172 -0.29617637 -0.24488199 -0.27268225 0.07923518 -0.046739243 0.17606348 0.24959926 0.38029048 -0.1032674 -0.09966562 0.20836453 -0.24472816 0.183209 -0.027994586 0.13906449 0.34245002 0.03511228 0.10451509 0.22454458 -0.10684998 0.13131313 0.06444561 0.21854398 0.628273 0.5801256 -0.17564 0.0073291813 0.05980073 -0.2605057
35 -0.1541113 0.072491154 -0.17049819 0.17672141 -0.11939836 0.27254707 -0.23964883 -0.053819552 -0.0675765 -0.20562461 0.041339386 -0.30546308 0.036655534 -0.11564129 0.20530696 -0.17990844 -0.09146927 0.008438551 -0.10743931 0.12115035 -0.08769985 -0.17571293 -0.009620497 -0.5069582 -0.12757614 0.13133964 -0.018800884 0.00096812064 0.03507749 -0.12058821 -0.18740988 -0.03515967 0.1584971 0.073600054 -0.1297971 -0.11766113 -0.05270441 0.20582846 0.019913128 0.08394583 0.010262491 0.13079788 -0.1142269 0.10706222 -0.26813567 -0.18759668 0.04505399 0.07804302 -0.2249939 0.0913719 0.2994815 -0.060984608 -0.28662163 -0.13497834 0.2764959 0.04068163 -0.027629828 0.124001525 -0.117907465 -0.009713502 0.116669126 -0.287625 0.17706606 0.12897898 0.24322249 -0.16649023 0.14261737 0.07413957 -0.0330472 -0.01693995 -0.19914 -0.0060023232 0.038231745 0.068759955 0.20109713 0.16729817 0.031851992 -0.16261645 -0.19817913 -0.08079064 -0.031087091 0.066330485 -0.018656919 0.014560232 0.40435743 0.17126371 -0.23371795 0.15950863 -0.06337242 0.18193233 -0.12536801 -0.011430628 0.065824054 0.04042958 -0.012318641 -0.061529286 0.11334648 -0.03150979 -0.03992509 -0.16499345 -0.16120449 -0.043731373 -0.06251116 0.14690128 -0.08707638 -0.144567 0.17668183 -0.33652705 -0.116595134 0.053266436 0.08645117 -0.086690806 -0.3259351 0.046989076 -0.15401363 -0.022419836 -0.26965275 0.10763986 0.12728441 -0.1988232 0.14446346 -0.18432973 -0.014055641 0.40852976 0.26416686 -0.020185702 -0.020353768 -0.09231474
18 0.32669643 -0.2624122 -0.17901109 -0.17576255 -0.03923306 0.03332419 -0.05532974 -0.0074305693 0.16859448 0.12340893 0.32213345 -0.10405122 0.09292399 -0.38811147 0.11816318 0.07634011 -0.12071734 -0.19462165 0.20337068 0.13661008 0.35722393 0.14133844 -0.5856534 -0.24692 0.22117355 -0.04539523 0.06689732 -0.37199917 -0.23726085 0.07194652 0.12728265 0.22640944 0.16712682 -0.036641896 0.035739895 -0.09594849 -0.028933398 0.09174813 0.28014392 -0.42085603 -0.28391883 -0.34793794 0.062392585 0.37623426 0.047883365 0.14318168 0.2617578 0.36237162 -0.2610886 0.3198259 0.06705476 0.0045748693 0.09474404 -0.033018798 0.47128394 -0.003194409 -0.27159354 0.31184456 -0.008787782 -0.2106746 0.33833405 -0.1548909 0.06260217 0.17787752 0.51412666 0.03634874 0.038822647 0.15711415 -0.17586103 -0.01991059 -0.022341082 0.24720803 0.15742749 -0.013772984 -0.08267348 0.5220538 -0.20847395 -0.17173974 -0.48088098 0.23719518 -0.3982379 0.43716073 -0.5591247 0.13046834 0.4133724 -0.17867716 -0.49795377 0.17946889 -0.20302738 0.15262227 -0.7476877 0.037082274 -0.08366172 -0.07575239 -0.4920927 0.16071245 0.07632445 0.08950183 0.13304345 -0.2787455 -0.21922795 -0.2539117 0.057425547 -0.015368022 0.17923936 0.22061777 0.358816 -0.07770951 -0.09502658 0.18934636 -0.2100992 0.17715287 -0.012872323 0.14366257 0.34850633 0.035082046 0.07762945 0.21383108 -0.12792847 0.13284212 0.07033744 0.21487254 0.6102379 0.54338586 -0.17356396 -0.014029411 0.05735787 -0.2481466
105 -0.10648532 0.03820343 -0.17697054 0.14746334 -0.11774769 0.26475877 -0.21400724 -0.05365728 -0.050359458 -0.19604267 0.060813908 -0.28214386 0.020666895 -0.107808806 0.16400513 -0.17268927 -0.06239948 -0.015772112 -0.11343472 0.11583505 -0.08008146 -0.13886054 -0.040977113 -0.46547294 -0.10927805 0.13062397 0.00021415313 0.0101189995 0.009569451 -0.10758019 -0.17603908 -0.018775478 0.15059349 0.05007671 -0.13946356 -0.11959279 -0.06713468 0.20485693 0.009819029 0.047499318 -0.030596122 0.11933938 -0.11899861 0.124081776 -0.2551303 -0.16226557 0.04529842 0.066236846 -0.19587778 0.071485415 0.27946484 -0.05784609 -0.27163455 -0.14700195 0.26099956 0.03427723 -0.05385777 0.1023172 -0.115136094 -0.0011840764 0.15590537 -0.28576282 0.17529102 0.15290704 0.23029208 -0.14329566 0.1265378 0.07221106 -0.05545195 -0.01876616 -0.19702001 -0.01993489 0.05146611 0.070783876 0.18505058 0.18119699 -0.018557698 -0.13115898 -0.1766272 -0.073235735 -0.045105334 0.07422343 -0.036403295 0.016944071 0.36940598 0.12804076 -0.2587154 0.15318213 -0.06410464 0.16056648 -0.12731686 -0.036499918 0.05357616 0.020181715 -0.005357209 -0.063948825 0.10194586 -0.006326757 -0.024717685 -0.16883798 -0.15057148 -0.058561422 -0.07308568 0.12067416 -0.055743296 -0.13438118 0.19262107 -0.3167956 -0.11489906 0.038400605 0.09346669 -0.050958686 -0.2802396 0.05629195 -0.12580265 -0.04123511 -0.26660067 0.097362086 0.08186693 -0.18835013 0.15510559 -0.15421176 0.012160061 0.38992882 0.24525847 -0.025904523 -0.011226741 -0.09151945
90 -0.15456119 -0.0013479734 -0.08148953 0.12899444 -0.019888673 0.26325867 -0.06683864 0.13752316 0.0033919192 -0.16742416 0.04252593 -0.19742806 0.011998544 0.061017673 0.048644803 -0.07087127 -0.092821 0.008730354 -0.0033952617 -0.0016134311 -0.19314528 0.014768701 -0.009281599 -0.0930567 -0.053211775 0.017972188 -0.016936777 0.09529451 0.043316256 -0.13236399 -0.13815263 -0.07139572 0.17612703 0.06981589 0.13913935 -0.03935436 -0.019468052 0.07341891 -0.09110093 -0.058817398 0.06489041 0.06802362 -0.04274569 -0.13244973 -0.11341036 -0.1892628 -0.053704467 -0.009151016 0.03548998 0.12283347 0.09333759 0.09204336 -0.2571129 -0.087169886 0.27849826 0.027461011 -0.15142441 -0.00028441017 -0.0788316 0.051914632 0.026896669 -0.19993232 0.2263987 0.18080859 0.10759605 -0.103998266 -0.042661365 0.044392075 0.037271574 -0.064666234 -0.06993101 0.13239612 0.21550691 0.034262918 0.02670215 0.11573744 -0.027460974 -0.20303178 -0.13595335 0.027073953 -0.008372854 -0.01018098 0.0008521307 0.16952372 0.30297598 0.08205371 -0.12510887 0.024432113 -0.06600525 0.03818824 -0.15243435 0.052445307 -0.09270764 -0.20466155 0.105747364 -0.0901557 0.19611347 0.071096845 -0.015964665 -0.18078567 -0.17027895 -0.10772779 -0.06827798 -0.06023446 -0.03682149 0.041155215 0.18187891 -0.18946853 -0.022758733 0.1145456 -0.027491137 0.07254018 -0.120067954 -0.055674594 -0.12316254 -0.035898626 -0.050867245 0.07656148 0.031439606 -0.1751038 0.15005091 -0.018541742 -0.032535885 0.38314897 0.16666324 0.065547906 -0.06033459 0.018829197
98 -0.123134986 0.08028402 -0.17955536 0.13321123 -0.12117252 0.24873476 -0.14085785 -0.049630698 -0.069914825 -0.10117266 0.06794701 -0.31023338 0.078183666 -0.14133869 0.21070756 -0.107945465 -0.10850642 0.0070618438 -0.06153501 0.12345138 -0.03675081 -0.15658145 -0.039762765 -0.4619312 -0.10193178 0.09836471 -0.029116377 -0.06539197 0.040204067 -0.11534192 -0.15879375 -0.052647352 0.14076425 0.0639485 -0.056025915 -0.09571789 -0.032210056 0.19968228 0.046143066 0.032010585 0.004535736 0.048126835 -0.0790487 0.12621616 -0.21575113 -0.13908163 0.07064905 0.09355512 -0.2233669 0.1277909 0.21123482 -0.049838923 -0.2169373 -0.08223387 0.2952915 0.02096592 -0.03582807 0.1414429 -0.12311352 -0.045310967 0.08878715 -0.2510652 0.13145329 0.08687613 0.24743198 -0.1183312 0.124313265 0.07647695 -0.015607712 -0.0589953 -0.15266155 0.023798663 0.009269638 0.054395575 0.15999462 0.23072867 0.024350619 -0.16126008 -0.2408614 -0.017919373 -0.055196334 0.083929 -0.05396199 -0.01494273 0.38106474 0.13769709 -0.20039089 0.13718688 -0.06627878 0.15169716 -0.19611415 0.03055862 0.035074234 0.05994633 -0.065559015 -0.0062117265 0.11375226 -0.038500194 -0.042780526 -0.15605596 -0.15575281 -0.05516539 -0.045090836 0.09119851 -0.07588616 -0.06436821 0.1459194 -0.28430894 -0.10500416 0.08315714 0.039658677 -0.09589634 -0.27397302 0.0625967 -0.109325886 -0.027009144 -0.18624534 0.07982038 0.13250461 -0.1200655 0.09820739 -0.16552022 0.022811102 0.3596519 0.18915886 -0.02417643 0.015082099 -0.11070375
122 -0.1149519 -0.115753114 -0.08859474 0.17539373 0.043878328 0.31156316 -0.13148263 0.20177315 0.033976063 -0.26334292 0.07961698 -0.21838537 -0.03268353 0.11011686 0.018799873 -0.13940735 -0.09965889 0.018708289 -0.028283421 -0.018673068 -0.24261613 0.08975502 -0.025088517 -0.022054965 -0.022862956 0.02142864 -0.0091175195 0.16853939 0.024161043 -0.11544695 -0.15169658 -0.05538838 0.1673778 0.077291474 0.13596945 -0.05563514 -0.05618724 0.03458056 -0.13293648 -0.070394725 0.025181735 0.0743292 -0.027755637 -0.16911876 -0.10629352 -0.16449842 -0.104950465 -0.00045957635 0.101089954 0.09581057 0.09736788 0.15714578 -0.26057112 -0.10362057 0.21912307 0.019973578 -0.19856992 -0.07020541 -0.06984933 0.0663068 0.08606474 -0.18994704 0.25847602 0.25710753 0.050708864 -0.10557679 -0.122294925 0.04827663 0.017631948 -0.04975112 -0.059640795 0.17045279 0.30606535 -0.026239594 -0.033130586 0.07371162 -0.0913109 -0.18212742 -0.06504842 -0.0027778458 -0.01480015 -0.007824943 0.02046253 0.2587595 0.2846635 0.07187459 -0.14649664 0.007009681 -0.032101553 -0.008413533 -0.09296556 0.013521999 -0.1548477 -0.30698675 0.1668564 -0.13766538 0.17461383 0.12463535 0.010980428 -0.17811222 -0.16258085 -0.124792516 -0.11879988 -0.030036047 0.013363391 0.020344751 0.20562568 -0.11538465 -0.014752862 0.11770852 -0.010216663 0.13602503 -0.0536864 -0.054336786 -0.093890555 -0.01507634 -0.025483534 0.091928564 -0.06637097 -0.20989926 0.20397152 0.036433663 -0.002543115 0.43265674 0.18067394 0.10179126 -0.068186015 0.06600957
78 -0.0051852227 -0.15326506 -0.08887222 0.09119776 0.032840185 0.26223987 0.028792012 0.12735912 0.05433133 -0.09710699 0.22188291 -0.16667095 -0.025382116 0.015108073 -0.031557467 -0.0004362181 -0.07396231 -0.056262143 0.06113271 0.021358684 -0.12344839 0.14417386 -0.13859923 0.055760965 -0.010046271 0.0035677452 0.035520114 0.077243716 -0.059055023 -0.10460966 -0.069779165 -0.04015679 0.1636383 0.06312738 0.18183546 0.01150764 -0.06092741 -0.0061076516 -0.12625237 -0.16652595 -0.029036267 -0.02614866 0.054754753 -0.085041836 -0.06011283 -0.06664178 -0.027388284 0.016157562 0.101860456 0.113739476 -0.028870067 0.16773522 -0.10113 -0.042902034 0.2019325 0.05394929 -0.19594847 -0.14312956 -0.014858189 0.021933556 0.09227024 -0.14270994 0.12768349 0.18569534 0.06605114 -0.02339555 -0.11346109 0.012841805 0.017989479 -0.09055624 -0.0127833355 0.18017383 0.22450072 0.0209226 -0.061972637 0.13544989 -0.11924998 -0.06339172 -0.11687514 0.08263996 -0.04591721 0.0049873437 -0.04322113 0.17515415 0.16408838 0.028713752 -0.16518141 -0.062139113 -0.023772055 -0.0744309 -0.19344132 0.063161746 -0.19056927 -0.27235305 0.04267302 -0.056367632 0.1517579 0.09918178 0.04218009 -0.13573812 -0.15310137 -0.16005099 -0.086492196 -0.11014283 0.06402169 0.107878804 0.20970918 -0.019386087 -0.021113344 0.10140301 -0.039044093 0.12931634 0.052681487 -0.021062052 -0.025637927 -0.05336474 0.09298942 0.09941049 -0.13756064 -0.10393053 0.14211915 0.1029057 0.12521051 0.32848558 0.07085996 0.13842468 -0.036938757 0.033892326
