101 128
12 -0.08182528 -0.049801137 0.056186248 0.1804802 0.046743236 0.072338924 -0.08255895 -0.17041558 -0.06558482 -0.08353663 -0.018514393 0.09963279 -0.061007317 -0.0038419887 0.20005961 0.023316799 -0.06736681 -0.07167106 -0.23999159 0.07814302 0.033542626 -0.14351632 -0.0021881962 0.28684947 0.066446744 0.091628164 0.113016225 0.13781916 0.16016749 -0.20396209 -0.17288747 -0.24803345 -0.28007787 0.09475673 0.038968377 -0.010352701 0.012602864 -0.11536873 -0.01969956 0.020352237 0.057919122 -0.076363556 0.097832404 -0.07242672 -0.17447436 0.020282395 0.021865414 0.17685239 0.021875216 -0.067885034 -0.23174566 0.1993808 0.093286835 0.06400461 -0.024704114 0.08805164 0.12963659 0.03625409 0.11009951 -0.11370129 0.04871695 -0.008575972 0.09235438 0.16563785 -0.053089183 -0.24297772 -0.10627691 0.15665823 0.14463566 -0.036142793 0.10828039 -0.13425358 0.027622137 0.053980332 -0.16339926 -0.27527606 0.14780924 -0.16046503 0.06533648 -0.06973098 -0.18316284 0.18139723 0.12400293 0.13061139 -0.025798846 0.13997051 0.0748488 -0.036811497 -0.06584452 -0.22548547 -0.0104913395 0.037961625 0.027311064 0.22859707 0.020608278 0.075578995 -0.17931513 0.002406847 0.11425994 0.18513194 -0.05048617 0.18174236 -0.047920443 -0.12610787 0.015075933 -0.04924894 0.21265957 0.07573209 -0.041319504 0.27166992 0.13471194 -0.02881557 -0.05431356 -0.04526261 0.08616143 0.11848538 0.24622081 -0.10655849 0.06785003 0.078265525 0.25353274 -0.14762057 0.008860898 -0.14876495 0.07323779 -0.14690867 0.18828788 0.058005154
17 -0.1514232 0.014246615 0.09483223 0.14768364 0.17099279 -0.0048230547 0.056738973 0.025826 -0.15631877 0.06380151 0.050553847 0.09611426 -0.10992145 0.0535633 0.16084038 -0.088162914 -0.24429868 -0.1555765 -0.11136479 -0.0010384835 0.16511318 -0.10635782 -0.1745598 0.23108715 0.00814125 0.06371328 0.06760086 0.17429031 0.09873661 -0.1713197 -0.0060632466 0.052421242 0.0059374897 0.091797456 0.00050639716 -0.22497381 -0.092638366 -0.057431605 -0.044200085 -0.08903572 0.012112005 -0.058344766 -0.048832264 -0.15807565 -0.19204338 0.0021813232 0.18602052 0.09201563 0.25317773 -0.07043665 -0.049568854 -0.09682388 0.09584201 -0.112102255 -0.0027970918 -0.22064209 0.14048426 -0.047605842 0.2580194 0.0038178845 -0.18329662 -0.0005774955 -0.02471996 0.044264186 -0.043192405 -0.21048336 -0.038784146 -0.02560994 0.03984802 -0.19571209 0.14714433 -0.09933109 0.09987944 0.10072173 0.03266217 -0.3154174 0.12352698 -0.116639644 0.078086264 -0.10763177 -0.055613652 0.09512392 -0.13241534 0.15657137 -0.051808666 0.16835171 -0.006774011 0.07607144 -0.057580303 -0.082855836 0.032138426 -0.07768435 0.11281584 0.19694975 0.13516286 0.0024956379 -0.05479901 -0.12954447 0.11896453 0.15200883 -0.021247922 -0.09584538 -0.07923841 -0.12875131 0.010842967 0.1379921 0.2117476 0.016095346 0.03722832 0.21728587 0.06850926 0.13877216 -0.081418544 -0.10413186 0.27389556 0.07058347 0.22030327 -0.042084407 -0.13692452 0.09746289 0.16241689 -0.0922712 -0.077273384 -0.07705607 0.14411241 -0.035235308 0.08310222 0.00010371694
14 -0.13233012 -0.0036351804 0.06390411 0.13320245 0.14967448 0.01524234 0.020602327 -0.018308744 -0.14675492 0.07321781 0.08077926 0.11269129 -0.075015105 0.071264505 0.17209622 -0.056965407 -0.22770575 -0.105443954 -0.18245654 0.01096501 0.12427896 -0.10359015 -0.11642077 0.20043822 0.017922834 0.057740502 0.12134534 0.16377246 0.084524386 -0.16855206 -0.046265475 -0.0063612806 -0.090007424 0.07030955 0.04003723 -0.185852 -0.10195777 -0.07423695 0.020446539 -0.0649793 0.03518846 -0.103449844 0.012046542 -0.109198354 -0.19022943 -0.0008468002 0.13911045 0.14984518 0.15357791 -0.05310502 -0.031284794 -0.062271472 0.10876927 -0.0904392 -0.02230312 -0.1719059 0.14550559 -0.050716996 0.21218409 -0.04030868 -0.15003997 -0.0036250763 -0.00719158 0.063771024 -0.014338517 -0.2224879 -0.034727972 0.0021420908 0.04741374 -0.13585535 0.110515915 -0.11110612 0.08691072 0.071900934 -0.023730237 -0.30829632 0.12470692 -0.12417239 0.076512106 -0.14815126 -0.07381999 0.07333452 -0.089454845 0.17224151 -0.049845014 0.14480896 0.00992812 0.029860687 -0.051746704 -0.12251303 -0.01023572 -0.088755414 0.10411428 0.21559167 0.12774798 0.04060339 -0.08899562 -0.12964639 0.10197821 0.12920587 -0.052187134 -0.04024991 -0.08271026 -0.07690203 0.0011853531 0.08447586 0.22161858 0.02239316 0.015383371 0.2140421 0.08939393 0.1048974 -0.08492574 -0.094107635 0.24310578 0.058854833 0.22812116 -0.04421379 -0.0634123 0.094404496 0.1709333 -0.102613024 -0.03581418 -0.08597819 0.07958274 -0.035063993 0.13511793 0.00033679584
22 -0.112588055 -0.040641725 0.050013725 0.11436471 0.17497145 0.04315294 -0.030825302 -0.014486488 -0.12107217 0.05549536 0.09046712 0.14344586 -0.041953027 0.086289175 0.14693575 -0.00073167426 -0.23602378 -0.09808915 -0.18444726 0.025335016 0.08217938 -0.11260343 -0.06335289 0.1995784 0.01991441 0.014051206 0.13336666 0.121228255 0.078926675 -0.19546916 -0.01758162 -0.011419466 -0.13700825 0.07609575 0.016557336 -0.2004474 -0.109417334 -0.02777006 0.0747723 -0.09697123 0.04426624 -0.10012609 0.009607987 -0.08102661 -0.21528646 -0.012281912 0.14814855 0.14575244 0.13209765 -0.038337115 0.020139266 -0.0011247098 0.115215465 -0.067835696 -0.042704687 -0.18123832 0.13931276 -0.009127374 0.1465898 -0.036095552 -0.14765655 0.008336691 -0.08786481 0.029898131 0.019629445 -0.20937045 0.021109965 -0.060139544 0.055366103 -0.14114083 0.10883981 -0.072012745 0.0343552 0.06602887 0.003120848 -0.3027145 0.124611676 -0.14171082 0.10037565 -0.12710112 -0.043323815 0.058315374 -0.08146205 0.21900113 0.019940512 0.12923734 0.010576292 0.025473326 -0.050989848 -0.08749499 -0.036720335 -0.11004318 0.1250709 0.19608293 0.12729123 0.043951817 -0.09539428 -0.13767801 0.13442944 0.11726959 -0.0641991 -0.07149251 -0.09590692 -0.07274533 -0.025116818 0.10977793 0.19359913 0.016299555 0.04735371 0.17988804 0.069761865 0.06342187 -0.084528476 -0.09585171 0.20855252 0.04591852 0.16893242 -0.0323207 -0.03321384 0.08759259 0.14132406 -0.06747251 -0.048387468 -0.06644923 0.08642735 -0.041046236 0.10261524 -0.026226664
91 -0.114807 -0.022404509 0.049770247 0.09883916 0.19751173 0.042639412 -0.012675851 -0.007992845 -0.13675141 0.06968447 0.1162949 0.14369053 -0.06087018 0.1003317 0.1747423 -0.002971476 -0.26725835 -0.08941145 -0.21854015 0.026959198 0.09140405 -0.11149571 -0.082696036 0.19648376 0.023724146 0.013832142 0.16879591 0.15498215 0.090261616 -0.20650691 -0.020826124 0.014980657 -0.1263656 0.07012967 0.036004275 -0.22173545 -0.14566097 -0.04403649 0.10530881 -0.10652491 0.06339816 -0.119436406 -0.0030755047 -0.08595826 -0.23719537 0.027035587 0.16401945 0.16088489 0.13450895 -0.041179452 0.04194168 -0.055975594 0.13129868 -0.08523208 -0.0635573 -0.20845228 0.168372 -0.0039480133 0.15482865 -0.00883517 -0.17969763 0.000977594 -0.079144575 0.019925052 0.021865044 -0.21893248 -0.00963578 -0.049026318 0.05228955 -0.14394334 0.10414498 -0.08560283 0.030950496 0.04486976 0.031276602 -0.277043 0.111409135 -0.15743436 0.101064555 -0.1558397 -0.021356545 0.034844063 -0.120967194 0.21171087 0.006156012 0.13520966 0.0019251523 0.017497903 -0.066621296 -0.068077885 -0.030793458 -0.13380893 0.12602401 0.20979697 0.12786193 0.049576096 -0.09777218 -0.13145006 0.11659736 0.10774456 -0.04276317 -0.09202648 -0.08737269 -0.054063965 -0.014125271 0.117713176 0.19875067 0.031314872 0.050055314 0.19136716 0.07801631 0.06932884 -0.09919096 -0.11721703 0.22349118 0.044036098 0.18960491 -0.036314417 -0.041961163 0.0924294 0.15813251 -0.07538093 -0.045007404 -0.051882926 0.08634953 -0.016532164 0.10861599 -0.031667396
11 -0.06644291 -0.040119324 0.049602784 0.108450055 0.059538957 0.056265593 -0.10410752 -0.11225617 -0.07662915 0.0055611013 0.0623921 0.1215237 -0.018121466 0.06342839 0.17514873 0.06359219 -0.1192881 -0.0052510826 -0.27571234 0.05262193 0.00834238 -0.11117099 0.027118968 0.15864453 0.048044767 0.05279742 0.16237721 0.08963944 0.075263605 -0.1735128 -0.13794708 -0.16381803 -0.2571877 0.05957218 0.07213292 -0.044128876 -0.06701338 -0.06908393 0.09210314 -0.00438414 0.06678345 -0.11713937 0.09821965 -0.017049406 -0.16752642 -0.02857059 0.041494153 0.21236743 -0.037445523 -0.023514807 -0.05754341 0.10520486 0.09984143 -0.014895134 -0.025034692 -0.030444192 0.13884933 -0.0045815622 0.07888245 -0.105417825 -0.0032004016 0.0011591603 -0.0009363312 0.10016055 0.007147036 -0.23302807 -0.0020433418 0.07025736 0.096454844 -0.019883407 0.058093384 -0.1009017 0.024044348 0.021390015 -0.14324015 -0.26631913 0.1275577 -0.14257127 0.055900127 -0.12889734 -0.12404596 0.09219194 0.077503964 0.21392377 0.012801557 0.0955756 0.045197032 -0.055931218 -0.03490123 -0.18010978 -0.08367879 -0.045586377 0.06820121 0.20921864 0.05795862 0.070207916 -0.16709009 -0.09830831 0.11218675 0.11665376 -0.10087735 0.090931684 -0.07140466 -0.032235775 -0.027119808 -0.02692717 0.1940037 0.043809284 -0.03213946 0.2288739 0.115869574 -0.012506129 -0.06198411 -0.06750449 0.12225142 0.0679551 0.19236498 -0.08353561 0.081357464 0.08434691 0.18033993 -0.11233779 0.01656977 -0.12287418 -0.0016306456 -0.0682276 0.1718301 0.0012561181
8 -0.18863922 0.13409676 -0.045061976 0.1106737 0.085471466 -0.1595472 -0.12648806 -0.16098934 -0.20234099 0.11472879 -0.04061894 0.11170779 0.19903852 0.1610788 0.1537476 -0.08882251 -0.19385502 0.049924765 -0.2936336 -0.047912106 0.09041253 -0.059599556 0.142546 -0.03728184 -0.009910668 0.12813452 0.026434781 0.038270958 -0.027022162 -0.18847127 -0.1926093 -0.20079362 -0.21801358 0.077340394 0.16581962 -0.10132548 0.06288948 -0.13650659 -0.0903212 0.060548715 -0.08765151 -0.072996646 0.116384126 -0.01903128 -0.03975734 -0.18964961 -0.137346 0.18447259 0.058788 0.0026347702 0.012691894 -0.033629667 -0.00081653986 -0.103727914 0.040444262 -0.24804886 0.18840884 -0.16155583 0.1501411 -0.30120775 0.051856298 0.06245426 0.10069791 0.22615469 -0.0006187398 -0.119955815 0.11218689 -0.0646721 0.002749437 -0.036696862 -0.02189483 -0.2384975 0.07613339 -0.04046742 -0.21264677 -0.15912947 0.021908633 -0.0038442581 -0.007836841 -0.22126068 -0.0864766 0.14303681 0.04915724 0.16988684 -0.0008189939 0.04935824 0.016543575 -0.06809143 0.14927074 -0.23428418 -0.10859151 -0.008334368 -0.01862395 0.057133753 0.07203963 0.018936176 -0.17634061 -0.19392848 0.18782277 -0.051546507 -0.22311552 0.1392969 -0.14553417 0.05512198 -0.03575669 -0.025278034 0.07927642 0.019405743 -0.04592868 0.23810816 0.10425593 0.049678512 -0.11294812 -0.05623908 0.24162693 -0.06163818 0.17921035 -0.091869 0.047145642 0.12442329 -0.08982262 -0.09138342 0.10069488 -0.16411854 -0.17792326 0.06960443 0.28116554 -0.096499875
4 -0.12079933 -0.005238951 0.06539133 0.12887028 0.16077887 0.015521614 0.02534692 0.0017047769 -0.13892889 0.05981916 0.06015482 0.10308585 -0.090508625 0.072095275 0.17200805 -0.04412443 -0.2258986 -0.11642259 -0.16078861 0.017236391 0.1228568 -0.10781245 -0.12891322 0.20819668 0.016081776 0.03587009 0.103365414 0.1600309 0.08482538 -0.16510102 -0.020244628 0.010261726 -0.065093845 0.07280945 0.023912862 -0.19706209 -0.109534934 -0.064330935 0.014799332 -0.063738406 0.03198061 -0.102215335 -0.02997561 -0.11878964 -0.18685392 0.022085203 0.14471729 0.11595783 0.17938112 -0.053764433 -0.018870238 -0.0713779 0.09877714 -0.08041366 -0.025000738 -0.16533822 0.13734217 -0.019398613 0.20556228 -0.016020453 -0.15200281 -0.0014546639 -0.02291089 0.04571016 -0.022062946 -0.20277245 -0.035153084 -0.0017678475 0.04032125 -0.14786287 0.12242798 -0.08622406 0.06450783 0.07111092 -0.0029257506 -0.28182152 0.12607513 -0.12762052 0.07474808 -0.14412013 -0.046872757 0.0777349 -0.1109318 0.16334489 -0.031605788 0.13501036 -6.2134466e-05 0.037106592 -0.06201101 -0.08733758 0.010316013 -0.09460255 0.107206725 0.18933068 0.12034846 0.025806008 -0.072167724 -0.11967649 0.10294353 0.114519574 -0.044078898 -0.06276504 -0.08403879 -0.089069806 -0.0015839012 0.11133375 0.19109377 0.027288197 0.03706237 0.18868044 0.076425284 0.10294598 -0.09506785 -0.094204895 0.24450317 0.052996334 0.2162577 -0.052996762 -0.0786243 0.08577862 0.16097079 -0.09128568 -0.037962418 -0.06233742 0.09484807 -0.03657104 0.1177244 -0.015427455
3 -0.023587253 -0.018364204 0.030442791 0.062408846 0.08931411 0.08215931 -0.05434545 -0.098710835 -0.09259058 -0.041287623 0.08105586 0.07963218 -0.08701947 0.054762684 0.16813146 0.036028814 -0.12358925 -0.03850398 -0.23196898 0.059111807 0.0034882787 -0.1130618 -0.0069677657 0.14127886 0.029207498 0.027031949 0.20387694 0.16620363 0.123399355 -0.16267528 -0.121080965 -0.095579244 -0.19632903 0.07497948 0.029202126 -0.09498494 -0.08743394 -0.10274779 0.14805569 -0.05151174 0.07387082 -0.13544491 0.04605901 -0.055274278 -0.23477156 0.07573181 0.07886221 0.20082818 0.016414858 -0.019209668 -0.06956754 0.035533715 0.14432561 -0.012166079 -0.08820647 -0.05333781 0.20396999 0.04413494 0.07561775 -0.03701147 -0.09290379 -0.0019495595 0.017500516 0.0727869 0.0053830924 -0.24099997 -0.102432445 0.09304362 0.12579931 -0.05053439 0.08185256 -0.13673471 0.03213297 -0.0327334 -0.063581795 -0.25934193 0.12279117 -0.19054519 0.094073184 -0.14222334 -0.093023926 0.09290191 0.0034627782 0.19370249 -0.04631142 0.10622973 0.06020556 -0.011080595 -0.11559022 -0.13472119 -0.009084013 -0.09564561 0.07005455 0.25245354 0.06327408 0.09689377 -0.17256927 -0.056964874 0.11942153 0.122108325 -0.051012952 0.017501667 -0.083050124 -0.07637026 0.014826222 0.013719004 0.20253958 0.08978526 0.0016184978 0.23739088 0.14408404 -0.004545684 -0.052928522 -0.12665899 0.12505978 0.07731923 0.21785116 -0.090971544 0.041266263 0.077002056 0.20020327 -0.09445207 -0.0033220688 -0.10613335 0.05398265 -0.04291456 0.15037955 -0.016777359
1 -0.13932852 -0.013549887 0.062489204 0.12835339 0.16602844 0.017295238 -0.03175742 -0.042840544 -0.12846155 0.057758465 0.07203182 0.13856342 -0.024935944 0.07572604 0.16855341 -0.018481394 -0.22587104 -0.08607702 -0.19862837 0.015616734 0.10580917 -0.116233826 -0.06685615 0.19722952 0.02587131 0.046269048 0.12634695 0.12713864 0.09148994 -0.20030575 -0.05460537 -0.042127628 -0.12819901 0.07352266 0.034844134 -0.1688179 -0.08309759 -0.051123753 0.02873192 -0.06328807 0.033294108 -0.07720981 0.016731463 -0.08652718 -0.17972295 -0.024308212 0.12365016 0.14834584 0.119760826 -0.047202084 -0.012140564 -0.0040344484 0.09238372 -0.07147054 -0.019779386 -0.16637765 0.13834926 -0.035610694 0.16081023 -0.054565363 -0.10417701 0.0062581873 -0.038333632 0.06967154 0.0059797964 -0.1960998 0.009059913 -0.025539884 0.04840115 -0.12379264 0.0997833 -0.08737708 0.041326366 0.055796362 -0.03226993 -0.25271884 0.102814905 -0.10932343 0.06764333 -0.1055097 -0.046834584 0.06479916 -0.043527693 0.17054616 0.0076693716 0.13047516 0.008213201 0.008963996 -0.02733557 -0.10333907 -0.03881291 -0.07248453 0.09017401 0.17331053 0.10667664 0.026136333 -0.08318923 -0.12037961 0.10661236 0.102159284 -0.04977982 -0.02331632 -0.0729162 -0.059291486 -0.0131523255 0.084411524 0.1720679 0.022108812 0.02453353 0.19560246 0.06778058 0.05815784 -0.08344116 -0.08183176 0.19303085 0.049209625 0.16978875 -0.039802358 -0.029858299 0.08811395 0.12830651 -0.077216 -0.03795602 -0.069518246 0.06441264 -0.030798826 0.1016873 -0.01156223
9 -0.14757308 0.015670959 0.056031477 0.13041815 0.13327457 -0.0022696569 0.025224574 -0.022863371 -0.14560524 0.060302638 0.04798621 0.09244661 -0.06570252 0.057910066 0.1565479 -0.08446371 -0.21323454 -0.10479707 -0.15266566 -0.0051395083 0.14249589 -0.09540454 -0.11541419 0.18162341 0.011166601 0.07992439 0.08369818 0.15301849 0.084337376 -0.15709707 -0.066656634 -0.0033156765 -0.043460343 0.07156315 0.034539577 -0.16732514 -0.061497193 -0.08850889 -0.02918747 -0.04683643 0.006535065 -0.06918789 0.008331957 -0.11496114 -0.159764 -0.011691104 0.11665039 0.12140831 0.16856903 -0.05064877 -0.062244713 -0.058340807 0.08848953 -0.08626808 -0.004442553 -0.16241772 0.14755967 -0.07418146 0.22739449 -0.04517519 -0.12032531 -0.00523063 0.027544806 0.08704599 -0.0399985 -0.19286163 -0.037848108 0.0022556612 0.044589937 -0.13316587 0.10331143 -0.121081896 0.10423592 0.068302006 -0.024613572 -0.27862725 0.10262327 -0.099731065 0.057854053 -0.12087497 -0.076621056 0.089251116 -0.078287855 0.13288103 -0.06643969 0.13682303 0.005301308 0.030731773 -0.03175907 -0.10842136 0.0021161558 -0.06210834 0.06985182 0.17887461 0.10947103 0.0252568 -0.0796158 -0.10667821 0.09370207 0.11081467 -0.040940873 -0.025625795 -0.06876012 -0.0822231 0.011522659 0.075427465 0.19988349 0.021916343 0.011972498 0.21220456 0.08490169 0.104170054 -0.0708069 -0.07801691 0.23455137 0.050097324 0.22306366 -0.042611293 -0.08887472 0.08364968 0.14657423 -0.10843947 -0.03300992 -0.08864472 0.074271075 -0.031670216 0.12964725 0.011067045
49 -0.06548392 -0.07687051 0.078586504 0.17464048 0.052568857 0.11716781 -0.09650387 -0.17515443 -0.05344569 -0.10172835 0.007268771 0.10073252 -0.1019681 -0.012045459 0.20243922 0.07069011 -0.059248358 -0.07889191 -0.2415301 0.10794756 0.015003356 -0.17407747 -0.018331006 0.32952413 0.082549185 0.07874651 0.162251 0.16200523 0.19869936 -0.21826677 -0.18857831 -0.25940293 -0.30472878 0.09942946 0.01808081 -0.010636115 -0.015950048 -0.097448 0.03690602 0.0031504862 0.08551167 -0.09059318 0.086507425 -0.06832003 -0.22361274 0.041744433 0.07532278 0.19611922 -0.012855732 -0.053531136 -0.24575573 0.24604358 0.12792896 0.08253423 -0.040541127 0.1258178 0.12943567 0.07431228 0.08899888 -0.077909306 0.0403213 -0.02243127 0.062298387 0.15657707 -0.045274276 -0.287506 -0.1265564 0.18825813 0.18686637 -0.026823383 0.12624522 -0.1132395 0.0061211865 0.04929889 -0.1629974 -0.30222332 0.17697959 -0.20228584 0.07430927 -0.055265136 -0.18915984 0.17729118 0.14357796 0.1617422 -0.016962338 0.14787073 0.092020564 -0.028144777 -0.11086226 -0.22591676 -0.008276463 0.023445355 0.06554789 0.26775932 0.028899373 0.08872852 -0.18258122 0.02044101 0.10615823 0.22213162 -0.036350265 0.1691318 -0.041761562 -0.14401665 0.014592009 -0.046650063 0.23224543 0.090539694 -0.035032846 0.28405994 0.1407508 -0.058091033 -0.042462956 -0.063395865 0.061539434 0.14322378 0.2391934 -0.11579331 0.09396783 0.0853087 0.29753834 -0.13916606 -0.014280394 -0.14634253 0.109500885 -0.1661991 0.16540463 0.063711725
26 -0.16491273 0.05550788 0.08355126 0.18597795 0.1475883 -0.021676615 0.04262513 -0.024863329 -0.18891145 0.029123012 -0.0013906446 0.07566731 -0.101125576 0.064134635 0.18549387 -0.119576596 -0.23270352 -0.15784791 -0.120795004 0.01610063 0.1651276 -0.12493673 -0.15832801 0.23020369 0.0036891985 0.077706836 0.05519528 0.19058472 0.1257248 -0.18382528 -0.07243489 -0.014591794 -0.021972205 0.11050199 0.011071925 -0.20180607 -0.052518353 -0.11082432 -0.074438676 -0.05300488 -0.008300054 -0.057350136 -0.055725306 -0.17017278 -0.19028582 0.017881846 0.12126328 0.076123886 0.26962906 -0.0674648 -0.11045306 -0.077211484 0.08468394 -0.085323535 -0.009020223 -0.17861441 0.16578098 -0.03209938 0.26270002 -0.038238354 -0.1344605 0.0046880366 0.054704193 0.105549484 -0.0748799 -0.18470128 -0.07604217 0.030928519 0.058327626 -0.16039848 0.12869312 -0.13026161 0.09225352 0.06520953 -0.0059402674 -0.26443017 0.10833905 -0.11327265 0.053384833 -0.11662341 -0.0652325 0.14703701 -0.09682815 0.11545331 -0.0756739 0.14148252 0.007120413 0.07130794 -0.0706154 -0.094162986 0.08430572 -0.033650786 0.05733004 0.15625699 0.08708769 0.009313776 -0.06316966 -0.08323466 0.12097189 0.12514071 -0.033087645 -0.04766956 -0.07743309 -0.1444856 0.025828557 0.11673923 0.15964624 0.035848007 0.03680863 0.2145487 0.07579272 0.11696607 -0.07608259 -0.097914085 0.24642216 0.05707246 0.22514907 -0.073268466 -0.12775351 0.09278912 0.12190495 -0.085628204 -0.03241919 -0.08394141 0.1284431 -0.022162385 0.108311586 -0.00882016
13 -0.030847723 -0.0007822163 -0.0031739562 0.12637702 0.025131673 0.07346113 -0.11788993 -0.2118298 -0.09999148 -0.1267211 -0.015424115 0.046041965 -0.046242174 0.022408584 0.18063623 0.03830961 -0.04769252 -0.033134833 -0.27093384 0.09214794 -0.023371862 -0.15463701 0.087542586 0.19479482 0.040313 0.08473667 0.1725539 0.16026625 0.19178812 -0.23806295 -0.25049585 -0.29861245 -0.346425 0.12568492 0.03867389 -0.03394494 0.01438649 -0.15747464 0.05453947 0.017024405 0.06402136 -0.12937851 0.08068868 -0.06549986 -0.251503 0.042730086 -0.0154500855 0.2184682 0.001572673 -0.011227695 -0.2200333 0.19456367 0.12075862 0.0944718 -0.070710875 0.039179605 0.21098691 0.09565178 0.05868502 -0.15086044 0.044869866 0.009284117 0.11677792 0.21485402 -0.04060658 -0.24430549 -0.13411613 0.18642153 0.1990221 -0.0038227988 0.09037834 -0.19889429 0.011211083 -0.06854498 -0.18596302 -0.22713606 0.14737593 -0.21082051 0.086071305 -0.13689566 -0.16188534 0.23273851 0.12070648 0.1698254 -0.01728449 0.09731027 0.09100042 -0.030273579 -0.10312575 -0.23637149 0.029156104 0.00044529373 0.019865368 0.23046184 -0.00034541788 0.115151264 -0.23105213 0.015389048 0.16817766 0.13304968 -0.09711947 0.16842714 -0.10310648 -0.13134618 0.03632108 -0.056151714 0.14992286 0.1224075 -0.023421684 0.3055637 0.17713273 -0.07619017 -0.056235343 -0.09772212 0.06899123 0.08922183 0.23559412 -0.14918908 0.10075423 0.0986236 0.1862364 -0.103540674 0.06467943 -0.16966163 0.02893434 -0.08638494 0.23280519 -0.013906498
2 -0.11013223 -0.01570223 0.06029782 0.12866409 0.15441938 0.03737718 -0.02182524 -0.04403284 -0.13538249 0.027314994 0.07545901 0.11631141 -0.06395922 0.07308555 0.1715296 -0.008182681 -0.21129853 -0.09444292 -0.19499028 0.027538221 0.083143935 -0.119809754 -0.07306206 0.20342621 0.018104345 0.023658857 0.14304113 0.16003555 0.102152094 -0.18301679 -0.054771427 -0.041513745 -0.13632628 0.077026226 0.015121784 -0.1651897 -0.0919701 -0.0744509 0.056823146 -0.062961936 0.039878406 -0.10854481 0.0064397124 -0.08924352 -0.2145358 0.015437313 0.12085165 0.14932573 0.118403174 -0.03938834 -0.03224102 -0.0033803694 0.108368054 -0.052291606 -0.036901664 -0.12846366 0.15301086 0.0019558687 0.14932534 -0.042464435 -0.12603828 0.010444399 -0.020796383 0.0597492 -0.0022119582 -0.19979858 -0.031141667 0.011808498 0.06386824 -0.108197674 0.115612626 -0.088930905 0.037539434 0.03786248 -0.0300958 -0.2728102 0.12348481 -0.13928238 0.07691649 -0.121962264 -0.057170693 0.080720365 -0.052501548 0.18219364 -0.0172664 0.11689326 0.020129256 0.021210743 -0.0752989 -0.10378341 -0.0021352773 -0.08732935 0.0972914 0.19849886 0.10148906 0.0436136 -0.09228742 -0.10428639 0.117934 0.11624624 -0.04997294 -0.039146435 -0.082514495 -0.08252597 -0.005424501 0.08391779 0.19047657 0.037564076 0.027707774 0.19836771 0.0840675 0.060482234 -0.08179236 -0.095139235 0.19475068 0.054751176 0.18893133 -0.056752525 -0.022684546 0.085311666 0.1578974 -0.08325347 -0.033470504 -0.0714919 0.08060055 -0.04664841 0.11883747 -0.021761231
10 -0.13748781 -0.04654449 0.055329077 0.12660474 0.07460021 0.03759915 -0.029343367 -0.022236364 -0.04667639 0.13681597 0.11250113 0.1415113 -0.019602934 0.042793322 0.12434049 0.023557032 -0.18778372 0.033798803 -0.25402802 -0.020437969 0.09553231 -0.047297847 -0.058660362 0.15889753 0.041859765 0.12681888 0.10374767 0.08436233 -0.03007299 -0.11614112 -0.07252205 -0.059937626 -0.12508395 0.0035495067 0.12796208 -0.030747278 -0.07378939 -0.033150114 0.016593337 -0.019797293 0.035294216 -0.07775867 0.15407017 -0.015827032 -0.06358897 -0.1267608 0.10991848 0.21834332 -0.042548522 -0.028322091 -0.05656477 0.021660179 0.089215785 -0.08118035 0.04676198 -0.096314885 0.036621477 -0.1520497 0.16824038 -0.0691509 -0.028302044 -0.05055395 -0.006476614 0.03755077 -0.0024918746 -0.24642701 0.061928656 0.0040499214 0.014196168 -0.05625136 0.029088847 -0.055269793 0.14291784 0.13394643 -0.14220653 -0.35080346 0.11178172 -0.059850156 0.032142125 -0.13171338 -0.16758145 0.02599627 0.010195797 0.20566009 -0.041174814 0.13231654 -0.0052573937 -0.050183177 0.06216753 -0.19240047 -0.15411079 -0.04438501 0.12636296 0.21361947 0.11500757 0.027407723 -0.1190962 -0.18906534 0.049266137 0.15819281 -0.0817756 0.07490068 -0.06386211 0.05575606 -0.027229238 -0.049993552 0.298268 -0.023594964 -0.085156 0.20651774 0.10366605 0.08750071 -0.059490994 -0.01171302 0.23013745 0.07607719 0.23746023 -0.018278291 0.005289105 0.09368197 0.25550488 -0.17247835 -0.031077709 -0.1350758 -0.01909147 -0.102102324 0.19556184 0.06371196
0 -0.09338758 0.016782321 0.024490066 0.114930764 0.09101329 0.019871654 -0.061323863 -0.10217358 -0.12278828 0.00046408403 0.03343329 0.09095335 -0.024472428 0.06821808 0.17126155 -0.00075618987 -0.15787888 -0.045594346 -0.22571248 0.04393547 0.051013496 -0.11660394 -0.0016044799 0.16177814 0.022273194 0.059880722 0.1277112 0.13913085 0.103353515 -0.18350619 -0.13510764 -0.13256846 -0.19665067 0.083594054 0.05212723 -0.10938098 -0.04432816 -0.09673741 0.037262283 -0.018721791 0.037849396 -0.10675535 0.050289255 -0.06041187 -0.18826474 -0.0027211716 0.04357438 0.16645883 0.067695305 -0.023457408 -0.07201516 0.044658687 0.09521843 -0.02022949 -0.037113313 -0.08616658 0.16268046 0.006726782 0.12411754 -0.09513476 -0.045365628 0.013660513 0.034643847 0.122295335 -0.016568061 -0.20617826 -0.048573717 0.053544853 0.09484682 -0.06304522 0.07413942 -0.13670906 0.0363892 0.0039608367 -0.094821766 -0.24052075 0.108762935 -0.13999732 0.06326193 -0.14240578 -0.09002889 0.12623093 0.008600438 0.17158143 -0.016923653 0.098814055 0.035365406 -0.0113930125 -0.0474186 -0.15529042 -0.01831335 -0.044675026 0.059114695 0.19289432 0.06402878 0.059968248 -0.14389645 -0.08053854 0.12903875 0.09480819 -0.08681102 0.04736398 -0.08944526 -0.07321589 -0.001482937 0.025221657 0.16173574 0.05508891 -0.0027574385 0.222323 0.113691166 0.021665085 -0.0712954 -0.088899635 0.15978134 0.042436335 0.19958007 -0.090242505 0.018737663 0.09572727 0.13550213 -0.09847688 0.009644283 -0.10907874 0.025685998 -0.03710633 0.16819948 -0.026977781
45 -0.04511028 -0.038628533 0.039398566 0.14265703 0.0018438529 0.105217285 -0.11143093 -0.22291943 -0.0655074 -0.13236082 -0.021103345 0.059963886 -0.071829975 -0.012535162 0.18446973 0.03915881 -0.011250167 -0.047683492 -0.25359493 0.10445786 -0.0061147045 -0.16941297 0.052426953 0.24586396 0.06387841 0.104534045 0.17307134 0.16988565 0.20278087 -0.2142993 -0.25565225 -0.30900565 -0.33024305 0.10132614 0.040580485 0.023275493 0.03603618 -0.14999336 0.030539906 0.031171769 0.06407015 -0.10401674 0.11857431 -0.06269973 -0.2050705 0.04090834 -0.011419238 0.20676434 -0.03785212 -0.036348067 -0.2826823 0.24090058 0.12404898 0.096139796 -0.056030624 0.14143847 0.1842724 0.062242802 0.07215867 -0.13232972 0.07823771 -0.010646308 0.13869172 0.22411762 -0.057782322 -0.2701845 -0.165625 0.22283436 0.20492238 0.010294397 0.09683979 -0.17823987 0.034796823 -0.014422843 -0.21444537 -0.26987988 0.15225045 -0.1986677 0.06756056 -0.07809429 -0.19834363 0.2107292 0.17893152 0.13603954 -0.049871307 0.120865256 0.11348119 -0.033365257 -0.10165712 -0.27061808 0.008109438 0.039481945 0.0107543785 0.26301923 0.0083242105 0.114322215 -0.2220012 0.04654511 0.12286038 0.19094881 -0.06549039 0.21819478 -0.06752355 -0.14058618 0.043440245 -0.09635005 0.21935946 0.117289744 -0.050065666 0.32494658 0.17983375 -0.08157225 -0.026011517 -0.07391046 0.04389404 0.12686875 0.2628313 -0.12752001 0.115760244 0.08003772 0.25170103 -0.14018874 0.03501354 -0.17237487 0.057451244 -0.13710177 0.22066098 0.044230983
19 -0.16561657 0.0035296108 0.069069594 0.15878318 0.15201643 -0.023337256 -0.010262837 -0.014179771 -0.13458449 0.09984893 0.050771646 0.13254836 -0.009234976 0.07565547 0.16278857 -0.04082588 -0.2384349 -0.08295406 -0.17366578 -0.011474264 0.1364271 -0.091968715 -0.088974744 0.19525057 0.024660826 0.072344035 0.060991004 0.111496285 0.04918543 -0.17293486 -0.03933866 -0.026912816 -0.081660986 0.06386365 0.049302086 -0.1613055 -0.06581365 -0.036118858 -0.052029904 -0.050010677 0.0077494294 -0.05868592 0.024653858 -0.09523137 -0.14144155 -0.07303686 0.119858764 0.12323417 0.16328785 -0.06067936 -0.007957167 -0.025507998 0.06461511 -0.102134064 0.025477028 -0.19820283 0.09243998 -0.07900074 0.20822145 -0.070016876 -0.098573506 0.0066104042 -0.028144484 0.07138893 -0.0147824995 -0.18049544 0.04670735 -0.05236304 0.012880958 -0.13718064 0.09629419 -0.083224334 0.061790895 0.10918369 -0.04264724 -0.2797179 0.10438382 -0.07760663 0.053925127 -0.11392124 -0.06609517 0.07482397 -0.06202078 0.16938272 0.0083906045 0.13772711 -0.012775697 0.015672527 0.017559951 -0.11708732 -0.047994472 -0.048645277 0.103707545 0.15562785 0.12248295 -0.009498411 -0.06100645 -0.15100901 0.11248557 0.105482556 -0.07274533 -0.014868798 -0.079467855 -0.055142228 -0.023973558 0.092258826 0.1807801 -0.0069729355 0.0016025405 0.18677537 0.050153363 0.10876125 -0.10034444 -0.06060238 0.24300277 0.03823095 0.18007931 -0.03882321 -0.06220041 0.10505164 0.11807548 -0.09937031 -0.04599072 -0.0898234 0.055128925 -0.036051612 0.12252883 -0.006472941
54 -0.032965496 0.0042905705 0.01636832 0.12945922 -0.0016665338 0.06643835 -0.1075689 -0.21058558 -0.08905139 -0.12089188 -0.030019585 0.047679856 -0.053890973 0.014015802 0.19213575 0.024170501 -0.018743295 -0.03203894 -0.25771073 0.09383396 -0.01375638 -0.14920771 0.05833115 0.19326617 0.04709638 0.086353704 0.15646453 0.15687658 0.1723351 -0.19894958 -0.24615134 -0.28887352 -0.31834534 0.10145638 0.04796691 0.009495975 0.023324028 -0.16495256 0.039628383 0.0488191 0.053616233 -0.12204753 0.09504838 -0.05246842 -0.19770823 0.03448978 -0.04175406 0.20129207 -0.021780532 -0.018987741 -0.24162726 0.1857087 0.102577224 0.07482433 -0.052623462 0.09988597 0.1900202 0.05883135 0.074091956 -0.15307456 0.071489476 0.0047571207 0.15113918 0.21528558 -0.058938388 -0.24787863 -0.15234812 0.20849013 0.18883905 0.019112635 0.07223091 -0.19322842 0.027273348 -0.04196288 -0.2116574 -0.23688322 0.14223725 -0.18339923 0.05467576 -0.11962823 -0.17761755 0.21960758 0.14953168 0.14395471 -0.053553425 0.09306323 0.09728565 -0.04227061 -0.09531593 -0.2520333 0.020421505 0.024242494 -0.0017447306 0.23188514 -0.003962251 0.10699878 -0.21926081 0.01860774 0.13307844 0.14591296 -0.0865021 0.19899955 -0.07744963 -0.11904949 0.031683553 -0.08795558 0.17501222 0.11906535 -0.047565565 0.3139628 0.1757506 -0.06310193 -0.039256483 -0.08034225 0.07069435 0.09349458 0.25193143 -0.14856084 0.09876258 0.082082465 0.20459387 -0.12783608 0.06258447 -0.1716109 0.028414473 -0.1020836 0.23138823 0.012336808
86 -0.060374495 -0.07214686 0.07059498 0.1725163 0.020894377 0.11045093 -0.12400622 -0.19187598 -0.04596177 -0.10523661 -0.0064510945 0.10199316 -0.073835604 -0.011332494 0.19037831 0.07347831 -0.037483554 -0.05010327 -0.25751266 0.099621974 2.3404224e-05 -0.16392718 0.027169956 0.29151243 0.07558542 0.094088934 0.15795748 0.14339343 0.17679943 -0.21339788 -0.20934896 -0.2882284 -0.33253783 0.09310631 0.034423467 0.02874758 0.0072977827 -0.10676372 0.02771392 0.023591237 0.072736084 -0.09217633 0.11892173 -0.04772625 -0.18861368 0.009416746 0.033507872 0.21329632 -0.051507246 -0.04365971 -0.25153527 0.25947154 0.11284091 0.08884536 -0.021438913 0.13335732 0.12908015 0.05403202 0.071623154 -0.118315116 0.07821074 -0.019315166 0.084374964 0.17914416 -0.042622767 -0.27156878 -0.10249988 0.19210534 0.18313913 0.0056155184 0.10809845 -0.12004628 0.014641882 0.030410111 -0.2056229 -0.28666145 0.16680188 -0.17715152 0.05476036 -0.056805357 -0.19717424 0.18443978 0.17412966 0.16460425 -0.012123103 0.1359266 0.099387236 -0.040105015 -0.0789169 -0.24676608 -0.02098479 0.036807068 0.042313606 0.24343139 0.020716816 0.09011653 -0.19272862 0.0112234345 0.10876643 0.20769794 -0.060185686 0.20703717 -0.05257303 -0.12228615 0.013308192 -0.08462858 0.21802364 0.08787661 -0.049234573 0.28715461 0.14274512 -0.06875645 -0.039575305 -0.047600914 0.046456095 0.13331035 0.23536299 -0.11285343 0.119323276 0.08210225 0.2773265 -0.13648298 0.015130506 -0.1627514 0.06891456 -0.16970263 0.18944362 0.061918758
15 -0.12578921 0.01519441 0.06999735 0.1264764 0.15582183 0.0060193795 0.08426383 0.02398834 -0.1657937 0.0850451 0.084826104 0.08744076 -0.1218809 0.06616054 0.16482472 -0.108900726 -0.24528733 -0.13633808 -0.13123213 -0.0038186854 0.16019088 -0.09425035 -0.17662749 0.18883741 -0.0052762227 0.057526007 0.1123242 0.19771923 0.08425634 -0.13347174 -0.015909737 0.067264624 0.0076452536 0.06715159 0.023222769 -0.21358386 -0.115369834 -0.08666647 0.00355412 -0.07939105 0.022880156 -0.10511058 -0.026567793 -0.13994706 -0.19174406 0.033630956 0.1711857 0.11495747 0.22014952 -0.052728377 -0.04478228 -0.13857028 0.1261887 -0.12075795 -0.02765253 -0.20509206 0.16152273 -0.06383403 0.25866342 0.004943066 -0.20750515 -0.01773088 0.014138467 0.049103614 -0.04144931 -0.2076707 -0.0793996 0.0059469747 0.037712682 -0.15816005 0.11418411 -0.11820096 0.13219397 0.0736345 0.017717408 -0.3279672 0.11965547 -0.120893076 0.07848038 -0.1655733 -0.06411492 0.07719115 -0.15341672 0.14384669 -0.10465341 0.1514273 -0.0032592104 0.064323924 -0.07926789 -0.085306786 0.038024675 -0.1053554 0.102882735 0.22083329 0.13889357 0.03703349 -0.06751008 -0.12790239 0.087334104 0.13278955 -0.022175865 -0.09815049 -0.07905057 -0.0988794 0.032354698 0.109183215 0.23560457 0.02552572 0.028665101 0.2110859 0.0976691 0.14346866 -0.077442266 -0.10972552 0.27627137 0.055663016 0.2561799 -0.033198055 -0.13550922 0.080811925 0.17610322 -0.107072465 -0.04954398 -0.07332531 0.107482225 -0.018639995 0.12109125 0.006883466
53 -0.041490354 -0.023475153 0.045837175 0.1510092 0.0067285257 0.090005815 -0.09004177 -0.20165062 -0.08005875 -0.121441856 -0.020300256 0.047401004 -0.0964094 -0.0036514495 0.18978551 0.024604937 -0.029610306 -0.059007812 -0.2412162 0.09720017 0.007378444 -0.15721256 0.025261229 0.24561897 0.0470354 0.09801736 0.16752332 0.17305326 0.19795874 -0.20868568 -0.23725219 -0.2710459 -0.2930164 0.104824424 0.024318006 -0.00055014517 0.0077453004 -0.15245382 0.04052984 0.024838889 0.066523895 -0.102306746 0.085996546 -0.070501015 -0.22025396 0.048868444 0.013108343 0.19390085 -0.0066423 -0.03127794 -0.26618072 0.19635649 0.1254637 0.08614764 -0.04781324 0.10302799 0.17915203 0.066872865 0.08860023 -0.11029985 0.04892227 -0.009803061 0.13491082 0.20509255 -0.06128445 -0.266272 -0.16461557 0.22094688 0.19924873 -0.0049700765 0.100500576 -0.17536068 0.04485844 -0.018733583 -0.18789735 -0.26970583 0.15376298 -0.19888175 0.06271132 -0.08807009 -0.19242474 0.21888584 0.1420022 0.14396963 -0.05680801 0.119949155 0.09679759 -0.025016852 -0.115146875 -0.24194214 0.030235676 0.023119915 0.019490387 0.25870344 0.008647904 0.110951394 -0.20225821 0.03814843 0.122089855 0.18601742 -0.05554054 0.18283647 -0.063156076 -0.14757402 0.042535298 -0.07460058 0.19710751 0.11609034 -0.037412956 0.3158013 0.17420262 -0.060546927 -0.032407235 -0.07860659 0.058489677 0.12081803 0.25438142 -0.13480857 0.084959105 0.08128417 0.24602298 -0.12401815 0.03263703 -0.16379534 0.07331316 -0.12049219 0.19958925 0.03667938
103 -0.055589404 -0.02435713 0.025874179 0.13046378 -0.0036503295 0.056128036 -0.14000556 -0.21813542 -0.0630951 -0.102319136 -0.031882633 0.076784015 -0.0081040915 0.011094848 0.17692615 0.046999298 -0.017528182 -0.01516856 -0.26103494 0.079488955 -0.012212358 -0.140361 0.085463785 0.19608757 0.057373926 0.09241202 0.1270207 0.11341381 0.15572366 -0.19552366 -0.2381154 -0.3142652 -0.33036077 0.09353176 0.051056538 0.029879121 0.042926814 -0.116733894 0.006720796 0.052178588 0.045817558 -0.085132144 0.121394984 -0.03235996 -0.15785512 -0.015401793 -0.039990105 0.19995725 -0.048953 -0.02482931 -0.21162486 0.23005189 0.076375514 0.0730225 -0.02381595 0.10024377 0.15643278 0.029482191 0.048017822 -0.18056972 0.11565756 0.00832302 0.11234338 0.22068672 -0.040976565 -0.22569782 -0.07985188 0.17104688 0.16972263 0.020935008 0.0731641 -0.16351971 0.007610843 -0.011448907 -0.22481239 -0.22572564 0.128462 -0.14588453 0.038612466 -0.08015863 -0.18040518 0.1957114 0.19100063 0.1403448 -0.008897602 0.1018129 0.097022556 -0.06323587 -0.04385187 -0.25750756 -0.03452328 0.045465034 0.001386841 0.2105924 0.0055536972 0.085637525 -0.20946231 0.0103825 0.12371745 0.13605021 -0.08852434 0.2250319 -0.060971756 -0.10110038 0.011353443 -0.09556317 0.16285561 0.091731794 -0.05179956 0.2885643 0.14323354 -0.076288424 -0.045641325 -0.045159895 0.040882014 0.08972751 0.21276839 -0.115800634 0.13695405 0.07669436 0.1825791 -0.12262472 0.050371837 -0.16292301 0.008319445 -0.10953288 0.20633885 0.024899378
25 -0.1488732 0.007000407 0.089756 0.16266985 0.17132914 -0.00040160003 0.047380302 0.02767543 -0.147684 0.07355514 0.06049421 0.104341544 -0.10466742 0.05975872 0.16777301 -0.06969973 -0.25169143 -0.13167053 -0.12872855 0.004893981 0.15188885 -0.09787879 -0.16922857 0.23221725 0.0058316253 0.05331489 0.069633365 0.16254014 0.07080155 -0.15466589 -0.0028769833 0.040561758 -0.018728241 0.07089402 0.010609787 -0.19894661 -0.10726192 -0.058800574 -0.021729268 -0.07522727 0.020747572 -0.07887315 -0.031077458 -0.13193265 -0.18368006 0.0042842035 0.16893451 0.09339231 0.21565321 -0.059702322 -0.03584473 -0.08591793 0.09647318 -0.09752212 0.0006704165 -0.18484944 0.111124605 -0.044949535 0.23145327 0.005358427 -0.16720137 -0.005217774 -0.015030827 0.03054507 -0.02920705 -0.19279175 -0.01992984 -0.013544872 0.031080674 -0.15931143 0.11871846 -0.0729103 0.08283191 0.10254021 0.0143197095 -0.2997926 0.12302611 -0.107763834 0.06587302 -0.122749716 -0.06347026 0.08353324 -0.12382657 0.15930383 -0.043717522 0.13970457 -0.009912438 0.053021897 -0.057243876 -0.06763092 0.019936092 -0.07468559 0.11658258 0.17012756 0.11791883 0.0056020883 -0.04552513 -0.13310163 0.09515451 0.13750884 -0.035664834 -0.081368014 -0.07337665 -0.091795646 -0.0067209317 0.114542976 0.19422285 0.005639024 0.030582774 0.17430122 0.061865006 0.12594798 -0.07972623 -0.08026491 0.25701603 0.05690845 0.20668879 -0.038345702 -0.11717441 0.09199156 0.16469772 -0.08987119 -0.057031054 -0.058936022 0.11620906 -0.04285818 0.09088692 -0.002806352
75 -0.0484861 -0.021781916 0.029094877 0.14905639 -0.008508732 0.07009143 -0.1419814 -0.24113587 -0.07277578 -0.11210034 -0.043447394 0.08297555 -0.015595369 0.0136905685 0.19855653 0.046635665 -0.010198436 -0.02249647 -0.2842441 0.09636736 -0.007663011 -0.16169731 0.0858615 0.22238085 0.065106854 0.10585804 0.14834271 0.13081786 0.16829479 -0.21152656 -0.26213273 -0.34118667 -0.35812727 0.09130836 0.062339783 0.044202223 0.047241587 -0.141829 0.008933369 0.061198305 0.049025428 -0.09244909 0.13647296 -0.0356713 -0.16838615 -0.0064719333 -0.061209608 0.21393205 -0.06614667 -0.03125194 -0.24755228 0.25178015 0.09047668 0.088105634 -0.029964332 0.13393308 0.16655585 0.04136589 0.06232425 -0.1842516 0.1222106 0.0006725259 0.13732569 0.24074826 -0.047669463 -0.24523313 -0.11117934 0.19601408 0.1845386 0.035251617 0.06712232 -0.17358464 0.013126631 -0.01902381 -0.25124213 -0.2449383 0.13806921 -0.17037554 0.04146439 -0.092519455 -0.19634199 0.2054616 0.20415635 0.14150736 -0.028501151 0.104332425 0.11049266 -0.06311856 -0.0634304 -0.28707868 -0.023127103 0.053668644 -0.002948755 0.22173151 0.0028024681 0.10242183 -0.22242963 0.024255306 0.13241863 0.15096469 -0.09792556 0.24877873 -0.07039216 -0.106581435 0.016642198 -0.10898687 0.18139441 0.10828425 -0.06101081 0.30558956 0.16002725 -0.084202036 -0.038270958 -0.05820244 0.039652385 0.09553603 0.23861462 -0.13370657 0.14007966 0.08124401 0.20937769 -0.13540496 0.05975646 -0.17809926 0.011874879 -0.12931117 0.23778507 0.032794293
92 -0.18369558 0.0921086 -0.0018720953 0.11510759 0.14351456 -0.09179917 -0.05350548 -0.08382084 -0.19742663 0.12871973 0.038278826 0.11692267 0.08732725 0.13321176 0.17152677 -0.07789135 -0.2620126 -0.012679567 -0.24904487 -0.030850368 0.12589599 -0.08152787 0.013279622 0.06597468 -0.0035985028 0.090565294 0.08065566 0.109324954 0.010419179 -0.18804681 -0.120841816 -0.08180468 -0.12496521 0.06682426 0.11661942 -0.16571675 -0.026284935 -0.102032244 -0.04214123 -0.010886684 -0.0394613 -0.08568826 0.0529215 -0.06657242 -0.11248286 -0.11580648 0.007735403 0.1664767 0.1225819 -0.018574929 0.02341934 -0.075317174 0.050330583 -0.12085554 0.011895619 -0.25095323 0.17515743 -0.11477833 0.20264965 -0.16915528 -0.06212759 0.03700832 0.04116405 0.13999729 0.005582188 -0.16157661 0.058693215 -0.072404146 -0.0020996132 -0.092271484 0.029054563 -0.17067483 0.08279369 0.011556835 -0.10906437 -0.220802 0.052995257 -0.047860526 0.035854477 -0.20222756 -0.06214358 0.09715971 -0.04347512 0.17298786 -0.0051678885 0.08336138 -0.008185563 -0.019730182 0.06616569 -0.15632865 -0.07327755 -0.058945064 0.046570405 0.11414217 0.10219101 0.015462574 -0.12194933 -0.18241657 0.14683965 0.008535266 -0.14925525 0.011395571 -0.118968815 0.01977857 -0.019679893 0.049476516 0.13740204 0.0076569 -0.009163956 0.21628577 0.08643495 0.087663755 -0.1078305 -0.080036156 0.267735 -0.023756655 0.18629886 -0.062405873 -0.021334657 0.12490668 0.013364074 -0.09701862 0.023154829 -0.119417965 -0.06913215 0.04357697 0.21255113 -0.06642172
74 -0.07322646 -0.05765537 0.044134818 0.17091344 -0.01002612 0.082285784 -0.1425209 -0.21034564 -0.041490737 -0.087212116 -0.03211328 0.09738114 -0.018632062 -0.0011318324 0.18053131 0.07526291 -0.011648099 -0.015439698 -0.2733224 0.08881588 -0.0056444947 -0.14960259 0.06824769 0.25288665 0.080232754 0.10714906 0.1317572 0.10907285 0.14711271 -0.20908117 -0.23580766 -0.338391 -0.3574399 0.07894065 0.058226492 0.05780235 0.044275325 -0.11279951 -0.008526687 0.06564863 0.052015588 -0.08089414 0.14869757 -0.02260343 -0.13726325 -0.037538774 -0.030653665 0.21567123 -0.07617784 -0.043632448 -0.24932212 0.28323972 0.07391948 0.09487566 0.0015835445 0.14868045 0.11084403 0.020443173 0.06217707 -0.17507085 0.13348666 -0.0033979234 0.11149899 0.21471328 -0.044461116 -0.24569312 -0.075457394 0.18274648 0.16097435 0.030680763 0.08290127 -0.12957802 0.01187019 0.035697598 -0.2528109 -0.2562041 0.14635134 -0.14313957 0.03025055 -0.055253092 -0.2019754 0.18924145 0.2203357 0.13902773 0.00018176762 0.106087424 0.10151991 -0.07333511 -0.031582482 -0.27756503 -0.05327674 0.068660155 0.020317558 0.2115184 0.007994578 0.0786148 -0.20188363 0.008189675 0.10752486 0.17180036 -0.09061915 0.25837114 -0.053371213 -0.08908836 0.0020852352 -0.108528696 0.2047768 0.07707476 -0.07153257 0.2855425 0.13465343 -0.079775915 -0.04222983 -0.015051595 0.038766954 0.1095473 0.22443944 -0.11550472 0.14470544 0.07773247 0.2355634 -0.14613046 0.034804072 -0.17104594 0.019328715 -0.16684525 0.21631816 0.05479941
33 -0.061632853 -0.0023132325 0.034961022 0.06927492 0.14445342 0.052962977 -0.0068617053 -0.042441525 -0.14272803 0.00994557 0.09958013 0.094676875 -0.094875276 0.07986679 0.17402202 -0.010091608 -0.1971399 -0.07157412 -0.20527178 0.03239466 0.058520585 -0.11326671 -0.0640845 0.1392253 0.005336851 0.0055959127 0.18168405 0.184438 0.108325325 -0.17294319 -0.061702505 -0.018946562 -0.12788774 0.08617564 0.020500517 -0.19188681 -0.12920238 -0.09057117 0.13416845 -0.08158841 0.058514576 -0.13838232 -0.012193795 -0.09001262 -0.2551683 0.07537311 0.12339785 0.17460923 0.11513981 -0.017193254 0.0063163033 -0.06777007 0.14194527 -0.06035309 -0.07334183 -0.17100382 0.21189353 0.025882093 0.12995043 -0.015471553 -0.17155442 0.010997127 -0.023641871 0.040883552 0.007631982 -0.2288609 -0.059589624 0.029843166 0.083468795 -0.12293125 0.10645775 -0.12910151 0.046385605 -0.021606596 -0.0069244346 -0.2778781 0.12855622 -0.17518753 0.10952428 -0.17614032 -0.04596084 0.08360557 -0.093579054 0.21482994 -0.049117886 0.11741854 0.02619876 0.02079391 -0.116354086 -0.09026181 0.007232666 -0.13719288 0.10465419 0.23915493 0.10244182 0.076053225 -0.13168105 -0.1106293 0.13073649 0.10582744 -0.04433782 -0.07241837 -0.10469219 -0.085766 0.012153098 0.08436584 0.18171549 0.06479152 0.04509754 0.21924792 0.12106696 0.05942453 -0.06667894 -0.14076261 0.19777398 0.053071667 0.2142449 -0.06820337 -0.02679023 0.08882411 0.1582359 -0.07428699 -0.011314772 -0.079280905 0.07104165 0.0031847763 0.12926173 -0.043672785
44 -0.15392922 -0.00014660635 0.08842678 0.1481321 0.14947963 -0.012373626 0.07922263 0.0684377 -0.13566342 0.13930637 0.07809966 0.10325377 -0.09950117 0.07104856 0.14855206 -0.07536682 -0.2528868 -0.10764491 -0.12411437 -0.03449383 0.1706136 -0.058912642 -0.19079584 0.20014185 0.0014356438 0.05813254 0.044294134 0.14501247 0.0057737473 -0.10039817 0.028240288 0.086272 0.02532239 0.03761516 0.0421735 -0.18562731 -0.1133401 -0.048865445 -0.043618422 -0.053498324 0.013031888 -0.08336526 -0.011625582 -0.11894548 -0.13121463 -0.042381443 0.1709728 0.104405075 0.19690003 -0.06176355 -0.0067688785 -0.13370831 0.07951634 -0.13344997 0.035387196 -0.20686223 0.07066023 -0.10719559 0.26519194 -0.0038758684 -0.17177655 -0.015325621 -0.022094171 0.0037408066 -0.028978048 -0.18938479 0.012675303 -0.03842459 -0.017913273 -0.163154 0.10579112 -0.050447237 0.12392207 0.13830158 -0.00070259627 -0.332775 0.12183312 -0.07258227 0.0488942 -0.15603147 -0.07581027 0.040171545 -0.15742548 0.15643397 -0.06504409 0.14233257 -0.036909163 0.041707657 -0.019418675 -0.079614416 -0.00744973 -0.08923382 0.12783399 0.17089006 0.14079161 -0.010111073 -0.032521635 -0.18269527 0.075752504 0.13562573 -0.045489617 -0.0893484 -0.079515636 -0.05551333 -0.01753928 0.11255194 0.23974942 -0.020037465 0.002775317 0.16767378 0.058586635 0.18031739 -0.09351181 -0.062580526 0.32263455 0.044721857 0.24150062 -0.022272345 -0.13641983 0.08724751 0.1885545 -0.12290153 -0.05518511 -0.06540545 0.08834587 -0.04748678 0.12569624 0.018309044
52 -0.116966926 -0.008582356 0.061472036 0.13134411 0.1415048 0.022926923 0.036572453 -0.013882174 -0.14757632 0.047020134 0.06641481 0.09299865 -0.09109617 0.060449865 0.17590603 -0.06564615 -0.21086416 -0.12626146 -0.15624037 0.019534873 0.1283355 -0.10811245 -0.12577645 0.2009085 0.0078076157 0.053193904 0.1123087 0.17270085 0.11428145 -0.16379474 -0.055098265 -0.0042687426 -0.069010004 0.08035612 0.013424 -0.19178791 -0.08978734 -0.08056958 0.0054796776 -0.064159766 0.03269852 -0.096052036 -0.0073545803 -0.11971936 -0.21028171 0.0314416 0.14225665 0.13012841 0.19016162 -0.058466204 -0.049849626 -0.059359193 0.11196469 -0.07429089 -0.036125053 -0.16142984 0.15541837 -0.022264225 0.206177 -0.020164225 -0.15861605 -0.0032747083 -0.0023382478 0.076060615 -0.028493077 -0.20462668 -0.06504708 0.022027299 0.0638147 -0.13684705 0.12408739 -0.11545249 0.07073524 0.05175524 -0.0056510787 -0.29325572 0.12424081 -0.13716401 0.08455484 -0.13327473 -0.06069443 0.092033885 -0.10260783 0.1476283 -0.05721522 0.14168938 0.013912617 0.04134422 -0.07021064 -0.09750629 0.022542858 -0.08781568 0.092282325 0.21037257 0.11870741 0.03257694 -0.086087465 -0.0984159 0.10366884 0.12193293 -0.031093134 -0.050353806 -0.076048404 -0.11328009 0.020554498 0.106090754 0.19412094 0.03914006 0.030417442 0.20897982 0.084122516 0.094278686 -0.07689587 -0.09258491 0.21957497 0.051991615 0.2269072 -0.04367451 -0.07473064 0.08431928 0.16525495 -0.09118467 -0.03651072 -0.080296665 0.09660972 -0.03216184 0.11696723 -0.0010507568
88 -0.05828772 -0.020956988 0.055232838 0.07690069 0.12696712 0.066811696 -0.0033012717 -0.04599869 -0.11067766 -0.011732939 0.08486464 0.08348431 -0.11115527 0.04970111 0.15473513 -0.0112278545 -0.15720665 -0.08169555 -0.17318659 0.03975837 0.060284443 -0.11509537 -0.07573761 0.16498019 0.021432929 0.013862373 0.16382244 0.17466646 0.11883573 -0.15290846 -0.066472575 -0.024478046 -0.11625005 0.08484091 0.010447188 -0.149403 -0.10668736 -0.0882275 0.10567376 -0.07171908 0.051277056 -0.1179253 0.00012659619 -0.090320736 -0.2287964 0.08257693 0.12697956 0.1582009 0.09494194 -0.033647675 -0.05275548 -0.027565273 0.13945755 -0.038462214 -0.06468389 -0.10536131 0.18975656 0.029814534 0.12708971 0.0015314908 -0.14869979 -0.005642502 -0.0054930076 0.046532612 -0.010665608 -0.22532955 -0.09125529 0.062056705 0.10292463 -0.10530075 0.10530721 -0.118446015 0.060552754 -0.009166706 -0.011590018 -0.27151474 0.12553386 -0.1694919 0.0987768 -0.13595694 -0.066753626 0.0867135 -0.059503146 0.17562322 -0.06431677 0.13156277 0.029580224 0.027145697 -0.11851591 -0.08917251 0.02555273 -0.1004432 0.08860422 0.23767145 0.08437436 0.07025169 -0.12429672 -0.069027826 0.10736762 0.12624122 -0.018391138 -0.041812453 -0.07339965 -0.10148035 0.02508105 0.060090475 0.19623098 0.06633827 0.03148939 0.21384183 0.11729952 0.044928703 -0.04762941 -0.12698303 0.15708853 0.075769715 0.21190949 -0.069837995 -0.027078645 0.07649282 0.19071244 -0.08320208 -0.023442391 -0.088020794 0.097625844 -0.029388957 0.107214205 -0.0070736096
39 -0.110165775 0.034808982 0.03933937 0.12076119 0.11949514 0.005987503 0.05319548 -0.045391884 -0.1730904 0.015432101 0.03186523 0.0523222 -0.10266314 0.052029595 0.17241324 -0.115309075 -0.18555485 -0.13486262 -0.14322941 0.018390577 0.132891 -0.11686313 -0.116195604 0.17187841 -0.0033951858 0.0708106 0.11166281 0.2083463 0.14064439 -0.16065319 -0.0867775 -0.020022023 -0.054235123 0.10028559 0.009891206 -0.19733745 -0.063929155 -0.13528493 -0.010681299 -0.051795915 0.011879367 -0.099114105 -0.019904971 -0.1459689 -0.21686251 0.058615703 0.11045184 0.1200178 0.21967748 -0.048927426 -0.10437296 -0.08539791 0.11951816 -0.074139714 -0.04541206 -0.16236785 0.20129775 -0.0259531 0.23529887 -0.04387989 -0.16159783 -0.000837997 0.06594554 0.120938085 -0.064135075 -0.20441872 -0.124160565 0.059497707 0.08169084 -0.14410637 0.120195374 -0.17763525 0.10549696 0.013957059 -0.02307461 -0.28727007 0.122079216 -0.15119183 0.08650996 -0.1579472 -0.07410327 0.13719708 -0.10568041 0.12188457 -0.11118608 0.14425203 0.02252296 0.06268865 -0.09775361 -0.123360015 0.07089695 -0.07535566 0.056172363 0.22421743 0.10339687 0.05295563 -0.09936982 -0.07283136 0.12243244 0.116047844 -0.031932253 -0.04171006 -0.08923734 -0.14108619 0.050868824 0.09433488 0.19804446 0.067672096 0.035508856 0.25228554 0.12423376 0.09911935 -0.06479903 -0.123146966 0.23186766 0.057130016 0.2650318 -0.06853191 -0.10330025 0.090106964 0.14940183 -0.09478137 -0.018525437 -0.10533193 0.100156985 -0.012995578 0.15213904 -0.010605287
51 -0.1610828 0.05231421 0.06935735 0.14378263 0.18107301 -0.03988429 0.05414946 0.027445493 -0.19036454 0.10202099 0.055155303 0.098224185 -0.062046956 0.09439912 0.16598672 -0.10477003 -0.27816743 -0.12129969 -0.13376643 -0.015543476 0.16987993 -0.09362489 -0.15130405 0.17032349 -0.007818202 0.051892955 0.05782702 0.16381504 0.052932404 -0.15846936 -0.018831268 0.051224522 0.009726011 0.07591163 0.03286543 -0.22731668 -0.093903005 -0.07396514 -0.040889207 -0.06449244 -0.0024014397 -0.082431145 -0.049797352 -0.13844155 -0.17211427 -0.016816804 0.13559838 0.09289903 0.25136545 -0.049661204 0.0092532355 -0.14996606 0.077609085 -0.13493343 0.0057079275 -0.25778815 0.1410328 -0.0689851 0.25828627 -0.030525895 -0.17959729 0.0124353515 -0.008261628 0.048125852 -0.034900248 -0.17419367 -2.2485328e-06 -0.04183532 0.0022403537 -0.17453735 0.10556259 -0.1089725 0.08985868 0.074775085 0.011175625 -0.27783033 0.10350361 -0.078490466 0.058434304 -0.15588732 -0.029730741 0.08904688 -0.1511084 0.1578985 -0.04744562 0.12468268 -0.025518777 0.054735623 -0.03404551 -0.06539443 0.028806657 -0.090978816 0.09897729 0.1448903 0.12843949 -0.0035354262 -0.039520204 -0.16357481 0.11402672 0.089476936 -0.06272246 -0.10281024 -0.09264909 -0.08066909 -0.0025807268 0.1414351 0.16998109 0.0034001074 0.035704635 0.17745009 0.059047606 0.15094632 -0.09535688 -0.09862241 0.29255432 0.02119088 0.20582497 -0.047428366 -0.13303664 0.10277321 0.09230131 -0.08593175 -0.037111394 -0.068312615 0.07923524 0.011956436 0.10413157 -0.03344771
29 -0.09398522 0.0059436047 0.051774506 0.09551956 0.1027255 0.041989215 -0.014009162 -0.06758069 -0.123108 0.0018898033 0.05969125 0.08669402 -0.08159598 0.0442281 0.15638083 -0.02776889 -0.15559506 -0.06459262 -0.18899576 0.026674408 0.07773142 -0.11460275 -0.05779227 0.15693882 0.017869633 0.063447826 0.1422525 0.1706669 0.10877996 -0.15958138 -0.103118315 -0.062535144 -0.11487231 0.0811138 0.037105262 -0.12167145 -0.063573 -0.10417873 0.049139913 -0.04762273 0.031334292 -0.09951817 0.0349273 -0.08998172 -0.18463635 0.028000217 0.094528005 0.16867892 0.088636756 -0.0345772 -0.09233973 -0.007441255 0.1202264 -0.04414068 -0.03728994 -0.10819903 0.18100907 -0.01792827 0.15215346 -0.04456718 -0.09729696 -0.005141435 0.034598082 0.0862559 -0.029504454 -0.22790733 -0.07511019 0.06350753 0.09428164 -0.09190524 0.093113676 -0.13672842 0.08224811 0.020687122 -0.057506196 -0.28553712 0.111262366 -0.13992962 0.07730507 -0.13323878 -0.09965512 0.106559664 -0.029525373 0.17018978 -0.07270846 0.13630098 0.034565315 0.015481859 -0.073661886 -0.13666898 -0.0011610497 -0.06300716 0.0749923 0.23059855 0.085345194 0.06120664 -0.13317296 -0.08101332 0.107453264 0.1337556 -0.037162703 0.0051853517 -0.081314966 -0.084451064 0.023471976 0.031142255 0.21641122 0.057811018 5.1344105e-05 0.2417875 0.12192719 0.05442362 -0.04812474 -0.10594927 0.17777297 0.07643858 0.23282668 -0.06718603 -0.024741415 0.08498363 0.18865028 -0.10156475 -0.020325277 -0.11659039 0.06985999 -0.040538616 0.15120316 0.011066134
43 -0.15367189 -0.0011842614 0.08865635 0.15989469 0.16840215 -0.00072177127 0.014774714 -0.0027508836 -0.13917165 0.08207753 0.06423239 0.12674806 -0.07179603 0.07065603 0.1732597 -0.046187326 -0.2441161 -0.11092528 -0.1674587 -0.00073334365 0.13818702 -0.09470297 -0.13561767 0.22950193 0.014704406 0.065977745 0.07871437 0.1490973 0.069334544 -0.16840571 -0.018748736 0.0035682977 -0.05832112 0.070242755 0.02751032 -0.18298519 -0.09515187 -0.05683722 -0.018051615 -0.06959139 0.026512414 -0.0677192 -0.005962155 -0.11785408 -0.17462054 -0.030345475 0.1550062 0.12584515 0.17910716 -0.064029306 -0.037184548 -0.051794667 0.08608378 -0.09369681 0.005906829 -0.18523516 0.110288434 -0.051963188 0.22411565 -0.017806832 -0.13340175 -0.008985994 -0.02660118 0.041543152 -0.02082381 -0.20113446 0.0003452818 -0.02725152 0.024209313 -0.15303566 0.11333381 -0.08264846 0.081976496 0.09679129 -0.012418959 -0.2943021 0.11676026 -0.10375129 0.06273752 -0.10893658 -0.07078273 0.07903878 -0.091904044 0.17364417 -0.030275328 0.14881888 -0.014327815 0.031067379 -0.03388493 -0.09403325 -0.009057332 -0.06632586 0.10853666 0.17814746 0.115982294 0.007985558 -0.05830699 -0.14249009 0.10493973 0.13424574 -0.040153444 -0.050795343 -0.07476607 -0.07601688 -0.011652063 0.09906627 0.19689865 0.0064388392 0.014160292 0.19568011 0.05779341 0.10952018 -0.08410094 -0.07610794 0.24904692 0.060486294 0.19180593 -0.042597562 -0.08856578 0.093719184 0.15861234 -0.097154096 -0.05287224 -0.07974508 0.09464632 -0.046929117 0.10049615 -0.001910159
47 -0.054463234 -0.068319194 0.04534234 0.15763928 0.007094507 0.1000348 -0.15242304 -0.2142203 -0.039155606 -0.098825194 -0.00827714 0.1035578 -0.0345064 -0.0046882965 0.18598895 0.097184084 -0.021386635 -0.0056395973 -0.29060033 0.09459647 -0.01868241 -0.1564925 0.07485443 0.2535753 0.081144705 0.1053096 0.15954116 0.12046689 0.15951516 -0.21699175 -0.23262967 -0.32905015 -0.3752697 0.083843924 0.055787925 0.05201663 0.025955535 -0.10874168 0.031191412 0.042340033 0.06959472 -0.09909278 0.15698361 -0.020720882 -0.17963836 -0.016717214 -0.004092364 0.23595093 -0.09372975 -0.036228083 -0.23743822 0.28369 0.1023288 0.10188237 -0.021408642 0.13486242 0.12596957 0.045869406 0.046412744 -0.15568584 0.12005056 -0.011510327 0.09050115 0.20167743 -0.027153445 -0.27565083 -0.0903417 0.19523327 0.18327789 0.027728695 0.08164237 -0.1380338 0.008095549 0.01958405 -0.243144 -0.27947444 0.15663965 -0.17693709 0.055728823 -0.07399968 -0.20995374 0.19047615 0.20484547 0.17311494 0.0031256997 0.12232508 0.102321625 -0.07454964 -0.06165356 -0.27254862 -0.057092357 0.044771977 0.04013427 0.25111577 0.0077153863 0.09264134 -0.21914378 0.0033630228 0.121856116 0.18919306 -0.0873376 0.2464371 -0.06186719 -0.09625014 0.002559328 -0.10997988 0.21974614 0.09214086 -0.06849689 0.30353782 0.15090364 -0.085919194 -0.04335836 -0.0392648 0.037767023 0.12047588 0.23653437 -0.11936586 0.15803628 0.09302948 0.269301 -0.14367314 0.030459959 -0.18236451 0.029238645 -0.15915012 0.22489397 0.054519705
27 -0.17885403 0.025278317 0.10859592 0.1777312 0.19871728 -0.002367216 0.08798755 0.0375797 -0.18682528 0.0653549 0.0608288 0.09580961 -0.14908132 0.049579877 0.17734964 -0.121985 -0.28374895 -0.17940573 -0.09394616 -0.006986647 0.20144133 -0.12176635 -0.22622685 0.2660722 -0.0052492977 0.07104676 0.07101189 0.21120667 0.112177834 -0.16854975 -0.00938459 0.07257183 0.053409815 0.0920325 -0.0036769044 -0.2378144 -0.10155332 -0.08443338 -0.056105893 -0.0938041 0.0053669056 -0.06386258 -0.06465655 -0.18940254 -0.20264629 0.024375742 0.20077375 0.07670254 0.29002798 -0.08007546 -0.08578959 -0.122333296 0.112078734 -0.113914825 -3.9249193e-05 -0.21808878 0.14555255 -0.051764302 0.2942452 0.027321694 -0.20637617 -0.007269434 0.0108373035 0.04980059 -0.06167191 -0.20873006 -0.07160285 -0.0003699864 0.03112742 -0.19799538 0.16129403 -0.10190886 0.117971644 0.11197507 0.046786144 -0.3279236 0.12127651 -0.11458418 0.07248757 -0.109402396 -0.059468664 0.105049275 -0.16042054 0.13727045 -0.091570765 0.17274845 -0.01206934 0.09951949 -0.085864484 -0.05562461 0.07863248 -0.073837414 0.10966 0.19001262 0.13024841 -0.00042104395 -0.024439774 -0.11807669 0.09564398 0.16229044 -0.0033951513 -0.11385751 -0.07517155 -0.13778247 0.030195508 0.15478627 0.22496435 0.02093557 0.040436458 0.21182491 0.073833704 0.1673117 -0.07678638 -0.10745989 0.2967616 0.075811945 0.24083799 -0.039941683 -0.17792337 0.09681771 0.17555115 -0.09602763 -0.08305274 -0.068444304 0.17253421 -0.034519304 0.076424785 0.010208625
5 -0.30698866 -0.2693987 0.15116438 0.29908624 0.18748523 0.0481471 -0.2659658 -0.007225208 0.05588622 0.3253515 0.20250012 0.4465759 0.20522976 0.12908436 0.18930912 0.32301006 -0.33604133 0.15466093 -0.5022686 -0.046701897 0.08868076 -0.058837745 0.040184204 0.3772919 0.16774629 0.14015087 0.09106322 -0.13129021 -0.16300716 -0.268772 -0.00047946 -0.2059164 -0.43735737 -0.060377613 0.21914038 0.016529681 -0.122927494 0.18473923 -0.036049932 0.008541058 0.10130755 -0.062636554 0.34571674 0.14383431 -0.008914838 -0.46392334 0.18585664 0.38412666 -0.23694392 -0.088183515 0.15046784 0.35496974 -0.001059647 -0.07909643 0.200681 -0.11968523 -0.20596273 -0.2314355 0.09292147 -0.21367583 0.15857463 -0.047911435 -0.3101577 -0.03060046 0.1537612 -0.32917717 0.5105745 -0.21944267 -0.08272148 -0.037753675 0.047125813 0.1779151 -0.029832099 0.3888106 -0.2967935 -0.47820804 0.18640503 0.02850787 0.004251749 -0.06642344 -0.22332662 -0.100095555 0.17808938 0.437355 0.3182204 0.20033363 -0.07031758 -0.22468062 0.30869734 -0.26549777 -0.5081643 0.0059136376 0.2925444 0.1805887 0.19418488 -0.09321652 -0.12271757 -0.4104258 0.07242404 0.20315528 -0.22262442 0.2187632 -0.05370283 0.2275748 -0.25591886 -0.060091335 0.38011846 -0.18155979 -0.16452838 0.15088862 -0.047780205 0.040975966 -0.19485481 0.14469156 0.24804571 0.062724754 0.11864387 0.048261527 0.23037733 0.1655382 0.33441716 -0.22912025 -0.077150464 -0.14579375 -0.112318546 -0.27188262 0.22401583 0.12273284
119 -0.18810141 0.1892965 -0.058190577 0.087161735 0.10535009 -0.1717068 -0.099562444 -0.15544398 -0.25531667 0.11837548 -0.021391138 0.089433275 0.1923969 0.18009272 0.17989272 -0.12580104 -0.23907134 0.033258684 -0.29535958 -0.04324116 0.10915034 -0.07170897 0.12951945 -0.0666454 -0.025075562 0.118595 0.061400987 0.0919501 0.0042921226 -0.19976096 -0.21761057 -0.17173497 -0.18712153 0.091403775 0.15673581 -0.15198256 0.04622922 -0.16670015 -0.07982787 0.04683209 -0.08567189 -0.08388204 0.086802565 -0.045940906 -0.08762952 -0.16049412 -0.13754965 0.1729965 0.11623639 0.0061734235 0.036580242 -0.09797949 0.017445145 -0.13813837 0.006890815 -0.300411 0.24878208 -0.14976965 0.19321336 -0.29861343 0.006599445 0.0854652 0.12224999 0.24988481 -0.007678217 -0.11435969 0.0706005 -0.07191542 -0.0039378763 -0.04873706 -0.018336615 -0.2762302 0.080226384 -0.076353654 -0.18089435 -0.1462309 0.001888932 -0.015663028 0.0045663635 -0.24967955 -0.045464054 0.14807488 0.0022063395 0.15626618 -0.019866236 0.04024169 0.008303965 -0.052442335 0.12110511 -0.20620637 -0.07247918 -0.03881341 -0.037358038 0.061275013 0.07156174 0.027735926 -0.15899897 -0.18716626 0.19164933 -0.088704765 -0.22055669 0.077768795 -0.1541388 0.04770584 -0.0107872235 0.018588228 0.055060487 0.034337446 -0.023677684 0.2512781 0.11379419 0.072871976 -0.11890179 -0.0877992 0.26740783 -0.083901815 0.1782583 -0.09728465 0.013832219 0.13721284 -0.12159883 -0.08834031 0.1030807 -0.15099968 -0.17351499 0.12460136 0.28400442 -0.12926611
105 -0.21353883 0.26442084 -0.113150835 0.09772282 0.062220775 -0.24782896 -0.18772544 -0.24910097 -0.31588072 0.10540636 -0.08537521 0.09267004 0.29604283 0.24218331 0.22543769 -0.15976796 -0.2183038 0.07886189 -0.3843913 -0.043757558 0.080174215 -0.09237566 0.2534487 -0.17203656 -0.0518848 0.15878786 0.0600974 0.058647472 0.00075302087 -0.25873932 -0.33741316 -0.30563295 -0.29655388 0.1414417 0.21357578 -0.13600332 0.10687904 -0.23811848 -0.10527522 0.114913166 -0.13628013 -0.10706442 0.1420431 -0.02307355 -0.089163095 -0.2250898 -0.2673199 0.23055983 0.10354095 0.03670042 0.020566927 -0.08132473 -0.016594205 -0.13851406 0.023726184 -0.3617523 0.3408603 -0.18188927 0.19010548 -0.45134255 0.09488037 0.12735975 0.19691162 0.3745081 -0.017101064 -0.11257592 0.09734826 -0.058297515 0.025433887 -0.013214709 -0.068653196 -0.4066806 0.08117976 -0.15941493 -0.30814004 -0.12651396 -0.0013405895 -0.014474659 -0.008081215 -0.31914377 -0.0538562 0.24401394 0.080913395 0.19290003 -0.019395394 0.015118095 0.030880217 -0.10824079 0.17880683 -0.3021343 -0.088979125 -0.013170877 -0.100904204 0.03273446 0.044291213 0.045580667 -0.2388415 -0.20660678 0.27746654 -0.1649491 -0.32842234 0.19384223 -0.19890001 0.07013708 -0.01993635 -0.025995176 0.010924041 0.070338875 -0.04300325 0.3317654 0.1550209 0.038565695 -0.13846254 -0.09990285 0.2861899 -0.12671307 0.21922176 -0.15356717 0.06280445 0.1644406 -0.23674767 -0.09239126 0.18523538 -0.22196622 -0.27280876 0.17999364 0.38756168 -0.19542713
6 -0.24519545 -0.19453603 0.11661188 0.2586996 0.15879679 0.033765413 -0.19770059 -0.025322722 0.018175907 0.23351432 0.13685893 0.34342027 0.15001974 0.09408055 0.17472647 0.23050521 -0.26619187 0.09576919 -0.39679527 -0.021370055 0.08177746 -0.06079038 0.033264644 0.31878507 0.12996867 0.10917182 0.06897512 -0.075000055 -0.093717106 -0.23136625 -0.020341666 -0.18409926 -0.3533132 -0.025273487 0.15375486 -0.008011596 -0.08676223 0.11737938 -0.03589789 0.0029425526 0.08049883 -0.048523292 0.25581613 0.087909624 -0.033198494 -0.33502236 0.13466254 0.29262322 -0.14271826 -0.0789216 0.09310794 0.27947336 0.008232932 -0.056738745 0.14168791 -0.10186271 -0.128706 -0.16951092 0.088787094 -0.17790222 0.1049059 -0.031461246 -0.22061133 0.00607217 0.097962394 -0.26196608 0.3693699 -0.15519841 -0.041779134 -0.043255247 0.04693794 0.116927214 -0.027135104 0.28782067 -0.22405805 -0.37711892 0.1486317 0.0024866448 0.0071081817 -0.049328264 -0.16855678 -0.044629663 0.13419713 0.33710217 0.2347413 0.16571881 -0.043013904 -0.16489351 0.22136724 -0.2137928 -0.36518037 0.004609189 0.21788272 0.15322833 0.14322229 -0.056836344 -0.10326973 -0.29997456 0.078165695 0.15932502 -0.16681404 0.17288053 -0.04654789 0.1466122 -0.18426996 -0.03419719 0.29549548 -0.12852591 -0.11771431 0.1410883 -0.019094413 0.03964473 -0.15739955 0.10147004 0.19070132 0.056182425 0.111082494 0.026906967 0.16609292 0.13549753 0.25569382 -0.17987137 -0.058165193 -0.12984903 -0.06412852 -0.21226908 0.17827725 0.086890645
16 -0.10496007 -0.011955028 0.07721355 0.10188207 0.15735133 0.033814467 0.04252542 0.0072985357 -0.12531073 0.05497656 0.095940806 0.100727215 -0.11847231 0.060072117 0.15306033 -0.053651284 -0.2103414 -0.11007074 -0.14366499 0.003986109 0.12158175 -0.09495 -0.14767517 0.18632744 0.009902567 0.029451218 0.12586026 0.17185849 0.0883499 -0.12920353 -0.014043328 0.050859828 -0.037508607 0.062249456 0.012535436 -0.19319539 -0.11877968 -0.06737677 0.043595467 -0.08381148 0.038550332 -0.101698235 -0.017953517 -0.11542765 -0.19812611 0.034597 0.1692255 0.13266559 0.1621167 -0.04811517 -0.02338006 -0.09212748 0.12065767 -0.0922518 -0.03259136 -0.17111707 0.14907861 -0.030887878 0.20370837 0.0098123895 -0.18017653 -0.0143468855 -0.022269586 0.026372163 -0.018833103 -0.21831688 -0.057021935 0.0062342146 0.045571275 -0.14638947 0.11599275 -0.09098822 0.09777208 0.06508288 0.0100423265 -0.30563924 0.12519875 -0.13054742 0.08114171 -0.13577528 -0.059848674 0.05494933 -0.117360204 0.16805333 -0.0696466 0.14784689 0.00077121134 0.048550382 -0.08508914 -0.07726443 0.007458282 -0.10729341 0.11328448 0.22168018 0.12300731 0.03515629 -0.07757824 -0.12197837 0.08639328 0.13267732 -0.015861975 -0.084501 -0.07436151 -0.09209233 0.008520501 0.098603584 0.2211593 0.025290322 0.028771728 0.20237316 0.08537302 0.109912015 -0.06462161 -0.106342666 0.23132414 0.065002024 0.21669452 -0.040129755 -0.08550552 0.0737067 0.1868865 -0.09159499 -0.051577292 -0.06925504 0.10695926 -0.035654157 0.10290995 0.0077117886
117 -0.11105419 0.02826492 0.096349485 0.15052599 0.16149889 -0.008852295 0.13163948 0.08821066 -0.167263 0.14189947 0.096296676 0.094398804 -0.16342214 0.11307048 0.17069167 -0.11370056 -0.28242177 -0.14371514 -0.13931845 -0.009486703 0.16523607 -0.07107639 -0.25660405 0.20392631 -0.0057953484 0.014523669 0.07400123 0.19616954 0.0004477295 -0.07419366 0.05407992 0.122919165 0.045690205 0.043190513 0.025452917 -0.22293481 -0.18019098 -0.0723294 0.031000659 -0.062260237 0.04046499 -0.14901029 -0.07658317 -0.1355658 -0.16759795 0.03647957 0.16697676 0.0910544 0.24252477 -0.04259316 0.030143097 -0.23549394 0.109582305 -0.15428947 0.014251555 -0.20424445 0.100589275 -0.073469125 0.29178858 0.025428973 -0.24539642 -0.0067197443 -0.009532674 -0.027289927 -0.04216961 -0.19517274 -0.047124635 -0.014793146 -0.017688677 -0.17186275 0.09049774 -0.06501942 0.13645269 0.10670094 0.025445394 -0.3595121 0.14951636 -0.09526796 0.06135267 -0.22524469 -0.044664215 0.048546825 -0.21573266 0.18529166 -0.114623554 0.10588669 -0.023954438 0.06588394 -0.09938079 -0.0656568 0.04808411 -0.13640466 0.14433807 0.1906785 0.1478111 0.021322444 -0.032935612 -0.20335224 0.082469024 0.1224553 -0.06454411 -0.15754241 -0.103318624 -0.07550808 -0.022602817 0.14257905 0.22964741 -0.0082866885 0.0441458 0.15458263 0.08124751 0.19599181 -0.09408716 -0.0948271 0.35319656 0.032388274 0.26359415 -0.058977805 -0.17460313 0.06938216 0.1816985 -0.106199235 -0.042215537 -0.038825598 0.09363263 -0.019400682 0.11246191 -0.032070845
20 -0.11758972 -0.011480615 0.049150016 0.106240384 0.16981947 0.021434192 -0.015147048 -0.017093724 -0.14742391 0.08000293 0.11625346 0.15326536 -0.03367175 0.111753345 0.16883938 -0.032420803 -0.25437036 -0.08706753 -0.22963688 0.014611362 0.09731519 -0.099373564 -0.05767893 0.16889559 0.01694786 0.039525267 0.16052951 0.14230485 0.07509922 -0.19103801 -0.031235768 -0.0028396924 -0.13296928 0.05556779 0.041852493 -0.20377156 -0.12376044 -0.044772033 0.09067457 -0.09209825 0.050962854 -0.12255304 0.024156528 -0.07297809 -0.20202982 -0.018371498 0.12598643 0.16273174 0.12889239 -0.03597952 0.039499942 -0.052034065 0.1185367 -0.10221171 -0.048481233 -0.21587726 0.17226139 -0.05083354 0.17568155 -0.040531747 -0.1628686 0.00592614 -0.06301937 0.050852 0.027300099 -0.20430501 0.0053970604 -0.06917368 0.03988776 -0.13140073 0.08455743 -0.10666627 0.06379269 0.049050212 0.000766331 -0.29608 0.09704884 -0.13226229 0.08653155 -0.15169552 -0.030924268 0.04441498 -0.10333921 0.20185229 -0.004690342 0.12995203 0.006857516 0.016367659 -0.0382484 -0.11070954 -0.04487856 -0.12179853 0.102528386 0.20779698 0.13965812 0.054003503 -0.104063034 -0.14864154 0.120291054 0.091762 -0.06179456 -0.06808511 -0.09452496 -0.047135603 -0.019599559 0.09735634 0.19879447 0.028567292 0.03789158 0.20566306 0.085101485 0.07666694 -0.087634794 -0.097343184 0.23197557 0.028792057 0.18333931 -0.024258154 -0.03568262 0.08587849 0.12038672 -0.07884768 -0.027198367 -0.060676135 0.05333531 -0.013579317 0.11792905 -0.029302469
50 -0.1483417 0.039616995 0.06601928 0.15360747 0.14651129 -0.017239492 0.0412738 -0.000868864 -0.16813862 0.071406536 0.04883445 0.0865505 -0.08132191 0.07248796 0.16953777 -0.093302794 -0.24110407 -0.11909391 -0.14678201 -0.002695139 0.14962645 -0.093900606 -0.1369764 0.1897797 0.00021733477 0.06923677 0.07494178 0.17080328 0.07716745 -0.15514523 -0.042982943 0.016125979 -0.02155313 0.0786124 0.03045773 -0.19055314 -0.07744281 -0.08818111 -0.03405742 -0.06299342 0.006394826 -0.076826595 -0.019923901 -0.13243382 -0.1785566 -0.0012887262 0.12925251 0.10335004 0.22027296 -0.05516372 -0.0508136 -0.097839296 0.09310939 -0.101232834 -0.0047729188 -0.19982773 0.14039357 -0.048477467 0.23667774 -0.030907983 -0.14974652 -0.0007052115 0.015453018 0.06317563 -0.0447317 -0.18264577 -0.039599143 -0.006466124 0.030977251 -0.14559025 0.1029971 -0.113578506 0.09133151 0.07019443 -0.0037924638 -0.280191 0.10695614 -0.09869982 0.06061155 -0.13635573 -0.06194057 0.101541445 -0.117473274 0.14449026 -0.06358742 0.13501209 -0.007425308 0.051492628 -0.045743342 -0.088133305 0.035125922 -0.06667904 0.08507787 0.16537037 0.10853225 0.009496907 -0.06274503 -0.12441455 0.10339269 0.1121239 -0.046889983 -0.06579184 -0.07790978 -0.09416234 0.015011218 0.103622206 0.17809124 0.018953038 0.024214935 0.19612668 0.07454734 0.12539914 -0.081228554 -0.089269854 0.25355238 0.041731846 0.21225625 -0.052532695 -0.113971785 0.09294229 0.13286075 -0.09755376 -0.039528254 -0.08419969 0.09416454 -0.012452842 0.11151436 -0.009424586
58 -0.1417696 0.03312022 0.053432953 0.12787177 0.15245225 -0.014533439 0.01497022 -0.02512718 -0.1713196 0.0616218 0.059163563 0.09654596 -0.052611884 0.08001992 0.1677538 -0.08763888 -0.23737754 -0.107283026 -0.161869 0.0025276975 0.12936299 -0.10350972 -0.09982921 0.17028116 -0.0027620466 0.05682896 0.09642779 0.164475 0.0874094 -0.17300357 -0.055034235 -0.00060619303 -0.06624045 0.08541409 0.030683678 -0.19804549 -0.07469572 -0.084899694 -0.005604049 -0.062483642 0.010788081 -0.088394955 -0.0065583754 -0.11900741 -0.18718296 -0.0077978717 0.116749264 0.12002314 0.1927317 -0.04771846 -0.033489082 -0.085071966 0.09832605 -0.10138287 -0.021303976 -0.2100263 0.16881543 -0.051732823 0.2173611 -0.051459648 -0.14772896 0.013401245 0.007303989 0.082390025 -0.027012872 -0.19280912 -0.03376158 -0.014208692 0.043779306 -0.14291142 0.09820265 -0.13612328 0.08953179 0.042686813 -0.012227809 -0.27265298 0.09839418 -0.11373835 0.06991936 -0.14097156 -0.052581366 0.095520124 -0.09612672 0.15589528 -0.049269374 0.12827648 0.0013919638 0.042441707 -0.044533476 -0.104016066 0.015838163 -0.08014483 0.07860845 0.18289407 0.11215094 0.03236722 -0.08679417 -0.12570079 0.12032875 0.099139564 -0.054321676 -0.05457618 -0.09043376 -0.08541656 0.009416802 0.096313015 0.18117498 0.027905256 0.029649545 0.21184173 0.087828554 0.103675336 -0.077303156 -0.09971372 0.24167961 0.03875474 0.20567866 -0.05123596 -0.087761 0.08964313 0.116194375 -0.08748206 -0.028647255 -0.08383653 0.06813519 -0.006130644 0.12448423 -0.022446852
40 -0.10745207 -0.03342702 0.030292107 0.0884141 0.06349231 0.03615356 -0.039371364 -0.044549026 -0.060532227 0.07870449 0.09290395 0.11632653 -0.018354215 0.04774716 0.11780652 0.020198494 -0.15022402 0.027095152 -0.23019183 -0.010735388 0.06497718 -0.05689557 -0.012565959 0.120834105 0.033892505 0.1070149 0.11336597 0.09391432 -0.0064849593 -0.10969973 -0.094374485 -0.070032656 -0.1338571 0.014288399 0.11041208 -0.031178966 -0.05232793 -0.059425306 0.04271903 -0.013533682 0.03457849 -0.09533711 0.12859017 -0.009729028 -0.082633026 -0.08788109 0.06524218 0.19545811 -0.03864703 -0.0138711585 -0.0636789 0.024805093 0.091017745 -0.060796186 0.011995506 -0.07704696 0.08122662 -0.107620694 0.12613362 -0.075699896 -0.01957008 -0.033566073 0.018843066 0.057496674 -0.00028077175 -0.22123784 0.02812536 0.015292038 0.044729285 -0.034217373 0.034278944 -0.084221296 0.112793766 0.077769645 -0.12394941 -0.3004196 0.09527709 -0.0769639 0.040413227 -0.1388054 -0.15115137 0.038071442 0.011729181 0.18804125 -0.042268924 0.09958812 0.01408228 -0.038796254 0.028055998 -0.17013034 -0.10273478 -0.047984447 0.09021938 0.19784828 0.08803174 0.038404606 -0.1428805 -0.14427568 0.0695248 0.12680237 -0.08977745 0.07051983 -0.073729366 0.032077547 -0.018067092 -0.050921224 0.25663316 0.013834104 -0.0739405 0.20632944 0.11915505 0.04972353 -0.055898905 -0.04452492 0.19922422 0.059459936 0.22477765 -0.03491928 0.018626695 0.076169476 0.20868726 -0.146 -0.00010446104 -0.11926189 -0.02578296 -0.07438218 0.20305747 0.03573106
24 -0.17030592 0.15539268 -0.04028777 0.107271 0.077590525 -0.14604421 -0.10236135 -0.15207398 -0.22046886 0.09419925 -0.030436454 0.08937387 0.1499818 0.15715872 0.18095297 -0.108994156 -0.20018338 0.022001231 -0.28499013 -0.019313894 0.08728215 -0.081920706 0.109730065 -0.031864807 -0.021176329 0.11886312 0.06451383 0.084631376 0.014601618 -0.19093893 -0.21426646 -0.17680608 -0.19459602 0.09395708 0.14415967 -0.12254615 0.04044853 -0.15983039 -0.06521306 0.04744498 -0.0703085 -0.084444225 0.09587479 -0.042844485 -0.08952575 -0.14598644 -0.1161821 0.1786804 0.101392865 0.00024984378 -0.006747437 -0.059883274 0.027519027 -0.12021655 0.015672637 -0.25789368 0.23309927 -0.14125286 0.18162006 -0.27936333 0.016900605 0.06625461 0.11387809 0.23956037 -0.023995847 -0.13630806 0.05702491 -0.038368315 0.02253006 -0.04637319 -0.011757249 -0.26553807 0.09114776 -0.057932463 -0.19901496 -0.1823478 0.030770956 -0.042897243 0.004146342 -0.23475042 -0.06816782 0.15775006 0.030173276 0.1649155 -0.027667562 0.056464426 0.021800403 -0.05227352 0.09812946 -0.21808214 -0.06851014 -0.031610526 -0.021032255 0.08569427 0.06944131 0.034477327 -0.1722489 -0.17533883 0.18875599 -0.046668857 -0.2118829 0.10588771 -0.14255455 0.025440881 -0.014668672 -0.0004015176 0.09110704 0.04309516 -0.029742163 0.26556134 0.12464357 0.05916981 -0.11063753 -0.083509915 0.25106296 -0.049159467 0.2068777 -0.103296965 0.013204125 0.123598084 -0.068275675 -0.10242811 0.0931697 -0.1641446 -0.13883895 0.08291923 0.27375814 -0.10489611
104 -0.19945017 -0.08355436 0.08364319 0.15089084 0.20413874 -0.012833995 -0.041479547 0.055308506 -0.087041855 0.22380516 0.1395029 0.22828269 0.040931366 0.120659314 0.15358159 0.04867093 -0.3076997 -0.018394403 -0.24448639 -0.044604395 0.13541046 -0.051644642 -0.09551259 0.20040445 0.052486677 0.04982717 0.08010357 0.03357469 -0.06639727 -0.1599036 0.048930746 0.03356885 -0.11455377 0.0075576953 0.10022141 -0.16441457 -0.13899887 0.050109915 0.0059366818 -0.05990464 0.03680874 -0.07970328 0.086994424 -0.017647952 -0.09619619 -0.16765168 0.17893459 0.18540905 0.05532747 -0.055297695 0.13628857 -0.02794375 0.053172566 -0.1381692 0.06274213 -0.23115513 -0.0019509266 -0.13510433 0.1757538 -0.054347772 -0.11065045 -0.012874237 -0.16313715 -0.037762318 0.06305547 -0.20394662 0.1960048 -0.15747923 -0.06177222 -0.13758047 0.072973005 0.02316029 0.0455435 0.18190387 -0.04502155 -0.3280909 0.114407 -0.036339156 0.04538751 -0.14272436 -0.06156926 -0.05113643 -0.08902949 0.25289553 0.08157924 0.14261149 -0.060405556 -0.048333373 0.09239672 -0.09065914 -0.18587789 -0.101779684 0.18086325 0.15198243 0.16616589 -0.029707918 -0.05399581 -0.2699131 0.07659356 0.10021525 -0.108878314 -0.049723998 -0.07006216 0.072549045 -0.10036249 0.083602265 0.24210413 -0.077086404 -0.011265858 0.123403266 -0.0024332814 0.124972135 -0.1302686 -0.011176743 0.28005642 0.021569807 0.15466373 0.022332726 -0.014221295 0.10341017 0.17058319 -0.12029699 -0.063810974 -0.05787219 0.0003080162 -0.06525395 0.12718803 0.019591622
48 -0.026328713 -0.0028308262 -0.002242059 0.11802012 0.013659419 0.083225206 -0.110271424 -0.19985498 -0.086074986 -0.10433626 0.0065896837 0.04650319 -0.049226545 0.0152712595 0.182046 0.046680227 -0.049990136 -0.011624128 -0.2767163 0.09356262 -0.022534154 -0.1394106 0.07347675 0.18637599 0.034829836 0.0869512 0.17327939 0.15440129 0.17188218 -0.20951083 -0.23381716 -0.2701262 -0.3265132 0.094780006 0.049503624 -0.008584576 -0.0061327 -0.15166612 0.08054171 0.017552918 0.074758574 -0.13582751 0.10371962 -0.040287815 -0.23180293 0.038306776 -0.013517433 0.21351103 -0.030062558 -0.006069092 -0.20182198 0.18015198 0.12125592 0.07892175 -0.072550416 0.055052947 0.18977754 0.075862244 0.061137542 -0.13278049 0.04686014 -0.002835109 0.11558425 0.19984627 -0.0337118 -0.24688967 -0.13176005 0.19088988 0.18674596 0.0138631305 0.06932898 -0.18012191 0.018017318 -0.04717448 -0.1904669 -0.24357212 0.13809198 -0.20190306 0.08137453 -0.13006465 -0.1667491 0.20790635 0.11513477 0.17124 -0.027970698 0.09390095 0.08440191 -0.041596953 -0.09644901 -0.23241779 0.001453105 1.977128e-05 0.026562328 0.24480104 0.0061117695 0.118076764 -0.21405016 -0.001472566 0.1384724 0.1386342 -0.09208713 0.1648322 -0.084466405 -0.10900173 0.03106693 -0.07258437 0.171333 0.117341556 -0.041874327 0.296173 0.17761406 -0.066379786 -0.045691576 -0.09616814 0.07495661 0.083635256 0.23716721 -0.13591497 0.10427383 0.09901984 0.20905131 -0.114025 0.055561904 -0.1612954 0.022362592 -0.08078933 0.22112016 -0.0045950348
23 -0.10424963 0.02676497 0.032910407 0.0934357 0.16729037 0.01755584 0.025422469 -0.021102663 -0.17554483 0.051942237 0.09421084 0.11028553 -0.07067544 0.09728253 0.17828666 -0.09136088 -0.25017875 -0.11415486 -0.19541389 0.025950741 0.10425205 -0.10944395 -0.08703005 0.1544817 -0.0030808784 0.035144795 0.16368212 0.18452424 0.11012379 -0.18729346 -0.046851184 0.021635756 -0.07766247 0.07637494 0.019516774 -0.22384697 -0.116533384 -0.095527455 0.08143517 -0.10030552 0.035688728 -0.11857669 -0.014018345 -0.111827776 -0.22253525 0.04492207 0.11594149 0.13005121 0.18235658 -0.031907473 0.00034791167 -0.106210254 0.13278265 -0.10556257 -0.07390392 -0.21702571 0.22530474 -0.02289515 0.2025224 -0.02584481 -0.19487874 0.013124265 -0.010468043 0.07166159 -0.01180542 -0.1967289 -0.073602155 -0.027494404 0.06713594 -0.13804421 0.08685392 -0.15016364 0.08365065 0.0053896657 0.025085466 -0.2868814 0.09203578 -0.15040354 0.09848235 -0.16528058 -0.021919895 0.080503516 -0.128877 0.17174649 -0.059050985 0.12405304 0.020122835 0.043420896 -0.08455422 -0.094095506 0.023904454 -0.1255357 0.075350195 0.20834884 0.1248909 0.068670526 -0.10315433 -0.11155354 0.12846091 0.08371252 -0.044745732 -0.093086295 -0.09961085 -0.089204125 0.02313766 0.11499489 0.18416144 0.054088086 0.053480595 0.2183466 0.10873134 0.08260164 -0.07165207 -0.13952918 0.2319988 0.030399991 0.21306989 -0.041785475 -0.086487494 0.07848802 0.10808819 -0.06360445 -0.023447596 -0.06877271 0.07450011 0.013807153 0.11216946 -0.04342179
100 -0.1964524 -0.009882304 0.0353495 0.14432539 0.13149557 -0.050973527 -0.10834873 -0.04268608 -0.09598799 0.1885054 0.0774795 0.19577594 0.12644033 0.123644575 0.13735574 0.046088215 -0.24784088 0.056695502 -0.29817557 -0.048417076 0.10028543 -0.044143416 0.0361527 0.112662576 0.04060134 0.1091491 0.060844894 0.020958994 -0.07103317 -0.16957437 -0.07613661 -0.10263064 -0.20306216 0.01231165 0.1539947 -0.08779128 -0.0433633 -0.006198471 -0.035465863 0.0017024607 0.0031716528 -0.070734486 0.15019487 0.019275475 -0.045348406 -0.22675687 0.04009203 0.21903446 -0.010598612 -0.026152339 0.07572189 0.03334846 0.03074874 -0.104392275 0.07651671 -0.20997666 0.038847707 -0.16892606 0.14424261 -0.18039264 0.008767459 -0.0004563862 -0.062229827 0.06864604 0.050353575 -0.19586779 0.19911431 -0.115980305 -0.035968706 -0.06337415 0.011637823 -0.05938802 0.059507225 0.1167303 -0.16731073 -0.27761766 0.087204695 -0.0053479015 0.012879557 -0.16915302 -0.11070245 0.025867062 0.014624219 0.24206953 0.07669923 0.107295744 -0.026471304 -0.077888496 0.14670677 -0.17925824 -0.20525852 -0.03885778 0.12113423 0.11958323 0.12008641 -0.011831134 -0.120858826 -0.25382423 0.110825524 0.06414002 -0.17860927 0.074121475 -0.09902803 0.09906281 -0.09199863 -0.00725468 0.20875156 -0.05556099 -0.063041724 0.17768344 0.051001843 0.076002695 -0.12001641 -0.007115612 0.25177088 -0.0002561733 0.16670462 -0.025475185 0.0573775 0.12688716 0.09790155 -0.12856205 -0.0008017629 -0.1307418 -0.10400952 -0.038300507 0.21297383 -0.0043884614
64 -0.11527663 0.038132153 0.025744246 0.08387058 0.1676778 -0.0006459757 -0.0018189233 -0.03573148 -0.17230591 0.058793824 0.07338383 0.10016548 -0.038515188 0.10482288 0.16560495 -0.07119463 -0.24458401 -0.085198775 -0.19763689 0.0075518023 0.10099401 -0.10976444 -0.06480952 0.12440299 0.0013153821 0.0410273 0.13488047 0.1593049 0.08944686 -0.19063565 -0.06525495 -0.009744548 -0.093252026 0.094030425 0.04794897 -0.22524162 -0.10763309 -0.08743931 0.06838969 -0.076422565 0.019435085 -0.11011228 -0.018344995 -0.108394675 -0.21764521 0.022566143 0.104698755 0.14581344 0.17244266 -0.025052337 0.020391885 -0.101288565 0.11831167 -0.10322919 -0.051335584 -0.23036094 0.2098359 -0.031810887 0.18364513 -0.05423426 -0.16177346 0.018656753 -0.011536172 0.07704861 -0.00710706 -0.20055935 -0.029060517 -0.026367867 0.05639137 -0.14673343 0.08487617 -0.15048839 0.06683323 -0.0015906636 -0.0067327633 -0.25686523 0.10564943 -0.13585497 0.08821592 -0.19069032 -0.0266696 0.08068102 -0.10599683 0.1892975 -0.039176002 0.1074975 0.010049406 0.02678897 -0.055726245 -0.09377322 -0.0025351108 -0.12068962 0.086365014 0.18910559 0.11270732 0.056470156 -0.11316222 -0.13898563 0.14154291 0.07241348 -0.08129119 -0.078025036 -0.10812723 -0.0653903 0.009428387 0.107227415 0.16290933 0.039381273 0.048805248 0.21400169 0.10905173 0.07717513 -0.082080804 -0.12759821 0.24211039 0.03279954 0.20541333 -0.070138946 -0.06431112 0.09969192 0.0968325 -0.074409395 -0.01318473 -0.08125499 0.048145335 0.03288559 0.13693288 -0.054664552
90 -0.04593967 -0.05391823 0.05756174 0.10002809 0.08396013 0.092342466 -0.076571554 -0.09537461 -0.09018058 -0.046137244 0.07561541 0.10637685 -0.0788309 0.055922505 0.18888733 0.052001365 -0.12327323 -0.051654607 -0.24418013 0.07056611 0.006350456 -0.127638 -0.012189097 0.1825871 0.04788902 0.024163974 0.19214702 0.1320421 0.13985825 -0.19522713 -0.11243804 -0.1286081 -0.23844989 0.0853699 0.019623918 -0.08325862 -0.08994648 -0.082670994 0.12809083 -0.040409815 0.08081636 -0.13285741 0.053249683 -0.053690765 -0.24090007 0.060934514 0.09728455 0.20813787 0.008150861 -0.03487625 -0.07347784 0.09617655 0.12669158 0.0054044877 -0.06578588 -0.040847443 0.18824057 0.066473946 0.074235424 -0.040495552 -0.07026382 -0.003147554 -0.015027 0.07072092 0.00010165052 -0.25582325 -0.06815651 0.10485891 0.1409315 -0.04793384 0.10231173 -0.118235335 0.014359826 -0.015664997 -0.07728253 -0.27365682 0.15163244 -0.20261383 0.09833682 -0.12904942 -0.09991775 0.11177035 0.034534913 0.21416004 -0.011969602 0.12592937 0.049556922 -0.023789965 -0.10371094 -0.14485101 -0.024794566 -0.08115093 0.077666365 0.25125274 0.061598703 0.092306614 -0.17196152 -0.06392231 0.12575215 0.13647231 -0.0556094 0.03839067 -0.06295816 -0.09306673 0.0043971417 0.015234463 0.19389902 0.07430993 0.0051386706 0.23787628 0.124230675 -0.014558243 -0.06625788 -0.10966698 0.11124855 0.09281448 0.2158662 -0.091520034 0.059954654 0.083178334 0.2149633 -0.097122855 -0.0017274274 -0.11752541 0.062226474 -0.06656172 0.1409416 -0.0004549352
31 -0.08457058 0.0048492914 0.022017283 0.080126375 0.04692608 0.040505372 0.006074009 -0.060848974 -0.09789376 0.03741269 0.07340496 0.060073733 -0.07936512 0.024717847 0.1238634 -0.046616353 -0.13704494 -0.01033251 -0.20330292 -0.0024726025 0.08368909 -0.06874296 -0.049757835 0.11213953 0.008019308 0.11438392 0.1296191 0.15869176 0.03948179 -0.103246205 -0.124018595 -0.06169373 -0.093293786 0.037119012 0.091034375 -0.043919317 -0.041965786 -0.11528775 0.048219506 -0.01875157 0.019356253 -0.10952072 0.095746 -0.059505325 -0.11309701 -0.020418426 0.05898758 0.17806205 0.014151693 -0.011041883 -0.12979788 -0.029010218 0.12212201 -0.05517668 -0.018659221 -0.0625335 0.13328944 -0.098167054 0.16749397 -0.057947524 -0.060426384 -0.038819905 0.0932465 0.08891734 -0.0379249 -0.23468035 -0.07072451 0.080457926 0.07315688 -0.04538797 0.042360257 -0.14423989 0.15716764 0.03704093 -0.11240967 -0.31257266 0.09743358 -0.1097304 0.057044435 -0.15700303 -0.1616486 0.08391459 -0.011252284 0.15840343 -0.12559287 0.10519968 0.028925145 -0.006949657 -0.031246783 -0.18228935 -0.03722408 -0.05021064 0.06602483 0.23315458 0.080714576 0.07192692 -0.15082802 -0.10679559 0.0662713 0.13774511 -0.055785354 0.056027357 -0.07850842 -0.024137072 0.031677123 -0.052240744 0.26138133 0.047083735 -0.061061703 0.24804285 0.16137947 0.06620755 -0.030171469 -0.07708668 0.2050846 0.07483628 0.26927724 -0.05184452 -0.024306819 0.070614904 0.2281298 -0.1445876 0.0043596933 -0.13897713 0.007831835 -0.05583033 0.20972118 0.034599178
107 -0.19753873 0.016342206 0.08853886 0.1738777 0.19802004 -0.040492047 0.022019714 0.034213603 -0.15532725 0.123483844 0.06963008 0.14373806 -0.039717663 0.08636676 0.17242968 -0.06771797 -0.29499468 -0.11187798 -0.15394646 -0.020239921 0.16984889 -0.085767135 -0.15425025 0.2096554 0.011319981 0.06760325 0.044720042 0.1202918 0.041043393 -0.174392 0.008452648 0.04609861 -0.010465999 0.06772504 0.03844773 -0.21334332 -0.10210234 -0.030630687 -0.059924576 -0.076888435 0.0063530644 -0.04999905 -0.019635232 -0.12175032 -0.15196478 -0.056254685 0.16726996 0.10463681 0.22157063 -0.06587893 0.017333493 -0.09497739 0.06655813 -0.13331956 0.028376736 -0.26012272 0.101853535 -0.08242215 0.24618374 -0.026963243 -0.15221196 -0.0045329826 -0.050758917 0.03031766 -0.016961051 -0.17550863 0.058531724 -0.08083414 -0.009367825 -0.17680562 0.108921416 -0.06366889 0.07625469 0.12137728 0.01908619 -0.27725473 0.09529509 -0.061510902 0.056190513 -0.116754785 -0.044016175 0.059687607 -0.12327891 0.1662319 -0.0020570455 0.15107624 -0.037502166 0.03431492 0.0089641865 -0.05619715 -0.026190367 -0.07094227 0.112676464 0.13058473 0.12674528 -0.024597779 -0.030277453 -0.17071378 0.10421488 0.104264654 -0.049533963 -0.080236755 -0.06582902 -0.058569234 -0.029728735 0.13184616 0.17071821 -0.024273442 0.02895204 0.15983294 0.030064704 0.14353463 -0.09580366 -0.0639127 0.26837525 0.039324597 0.16917782 -0.017915474 -0.119805574 0.09810515 0.11207189 -0.0823363 -0.06369174 -0.062254976 0.08505829 -0.018024096 0.079124115 -0.010825471
87 -0.14578784 0.044639226 0.02928662 0.11588085 0.13442011 -0.03778801 -0.03835523 -0.075659685 -0.15153597 0.08158322 0.044393882 0.11314309 0.019550223 0.08862053 0.15724862 -0.03902749 -0.21809255 -0.04146876 -0.22571215 -0.00663988 0.1131148 -0.09531901 -0.01739714 0.12318609 0.018162265 0.07440102 0.089292414 0.13097139 0.0459295 -0.18158877 -0.10299503 -0.078809045 -0.13733336 0.07126704 0.07862174 -0.13954395 -0.0418747 -0.089306265 -0.024199463 -0.02701486 -0.006596473 -0.088556446 0.05043084 -0.07134786 -0.1362239 -0.06961002 0.051431865 0.16818015 0.10056216 -0.03470988 -0.020014988 -0.02922806 0.07756094 -0.08145581 -0.0024251326 -0.17825486 0.14594267 -0.070383474 0.1666491 -0.12024005 -0.06464909 0.01901534 0.018989222 0.10827979 -0.004636442 -0.19330083 0.021999208 -0.020047558 0.03661563 -0.09114364 0.0694419 -0.13289927 0.07008972 0.028118387 -0.096347325 -0.24683008 0.088373765 -0.07938639 0.047336496 -0.16642214 -0.085087165 0.098820314 -0.031108461 0.18025938 -0.021069318 0.11744502 0.009459977 0.0023286608 0.016256904 -0.14693622 -0.052868858 -0.051223155 0.07444337 0.15860689 0.10190571 0.025592983 -0.11805416 -0.14876679 0.125666 0.073904954 -0.106358945 0.01505552 -0.10687926 -0.028899333 -0.01053625 0.046188332 0.16685334 0.015316432 -0.0045140823 0.2122588 0.08309615 0.076690756 -0.08538589 -0.07768902 0.22261691 0.022295337 0.19666834 -0.061647616 -0.0068963133 0.11161594 0.09072867 -0.098580934 -0.0034272315 -0.1175606 -0.006445009 -0.004764975 0.1795768 -0.030296512
41 -0.036311097 -0.005585667 0.04042539 0.090608455 0.049832433 0.06831021 -0.048698254 -0.1194386 -0.09104494 -0.040930133 0.04952368 0.07806177 -0.09905224 0.025671422 0.16542007 -0.0013249832 -0.09099983 -0.03532498 -0.22754298 0.054023318 0.021265317 -0.12417399 -0.00695428 0.15928797 0.025691262 0.06883273 0.18004675 0.16718395 0.1168431 -0.1541457 -0.14704712 -0.13734049 -0.20264079 0.06686365 0.05011545 -0.051504806 -0.06242437 -0.11724532 0.09567161 -0.014716913 0.06419656 -0.13104609 0.064648695 -0.053930122 -0.18666898 0.034612402 0.052311596 0.20910244 -0.00363439 -0.012522238 -0.15017614 0.052163586 0.13071243 0.0049476554 -0.058685757 -0.013223108 0.19178283 0.008138134 0.09902733 -0.05782204 -0.038505394 -0.018599067 0.06667332 0.10892037 -0.03211137 -0.2501576 -0.11633345 0.12955447 0.14533843 -0.027290799 0.062008996 -0.14822645 0.08731557 -0.02263918 -0.12662008 -0.27457863 0.12298886 -0.16220923 0.0719434 -0.13724564 -0.14886874 0.12750967 0.04372101 0.17383145 -0.08773854 0.11364167 0.06574187 -0.012816289 -0.10497919 -0.18703677 0.0065238434 -0.050193015 0.05300998 0.2531555 0.0510492 0.099177875 -0.18843983 -0.054623798 0.11116667 0.14611132 -0.0454416 0.07818629 -0.08146275 -0.08153542 0.035163656 -0.043914463 0.22590855 0.0847111 -0.02371803 0.27984667 0.15937887 -0.0043877424 -0.025716433 -0.10834563 0.12965254 0.092734456 0.24143064 -0.09002823 0.02965471 0.06826055 0.22166303 -0.11253421 0.02390419 -0.1347877 0.038669813 -0.06526486 0.19381465 0.01622218
7 -0.31793505 -0.23068982 0.15938842 0.2805758 0.24358523 0.008566803 -0.17366368 0.06727632 0.00728538 0.37650722 0.2160012 0.42375764 0.17174712 0.15355663 0.18893975 0.23825154 -0.40205204 0.09255112 -0.44303054 -0.07787869 0.1443641 -0.030616445 -0.04470438 0.34780738 0.13410117 0.113202125 0.07492622 -0.105797514 -0.19102225 -0.23116045 0.077571295 -0.06956435 -0.30857447 -0.054304294 0.2023038 -0.08111811 -0.16572268 0.19286802 -0.02528877 -0.026375217 0.09134355 -0.06953166 0.26729038 0.10425446 -0.008897895 -0.42157716 0.23760141 0.3325655 -0.12487288 -0.08484331 0.22811048 0.18724646 -0.0011900755 -0.15291049 0.19582178 -0.23420466 -0.18203266 -0.25615928 0.15719353 -0.14374073 0.025959078 -0.04561503 -0.33400425 -0.087011516 0.15037699 -0.28627458 0.49384993 -0.2765288 -0.13159478 -0.10355271 0.048404023 0.17873639 0.0025709618 0.38850158 -0.1952242 -0.4666018 0.16982396 0.038777437 0.012939964 -0.100456506 -0.16095898 -0.13750902 0.03799225 0.4149015 0.2754488 0.20049724 -0.09508429 -0.1744162 0.28997532 -0.1908473 -0.46349493 -0.06349249 0.30442977 0.15991879 0.22312734 -0.10621788 -0.06396229 -0.44179302 0.07191202 0.17055245 -0.20281512 0.09411965 -0.06240845 0.22498132 -0.2419848 0.021139242 0.3670133 -0.19364813 -0.1141222 0.11037317 -0.06666243 0.12316944 -0.20359789 0.11283386 0.32495773 0.044156473 0.12946802 0.06398508 0.11981661 0.15355666 0.28810105 -0.21264109 -0.105105884 -0.11284846 -0.084943555 -0.20457886 0.17169383 0.095514596
122 -0.07971838 0.008426288 0.018350542 0.10883146 0.05319269 0.024672367 -0.09901224 -0.16423023 -0.10733678 -0.028864468 0.007431081 0.08684672 0.0018623271 0.044984177 0.17319325 0.010200469 -0.09654055 -0.015397139 -0.254508 0.04686465 0.031695776 -0.11851831 0.058871526 0.1427072 0.03859898 0.08425326 0.123409726 0.12564012 0.10491799 -0.1814792 -0.18743789 -0.21774948 -0.26189715 0.08979482 0.069917664 -0.046466857 0.0065423883 -0.116826065 0.018543815 0.021131894 0.023747915 -0.10558205 0.09781591 -0.04460632 -0.1556162 -0.027205981 -0.010800402 0.1950631 0.002444081 -0.025615718 -0.12403093 0.10424301 0.08271582 0.007537162 -0.021931807 -0.02472515 0.16979833 -0.008101526 0.092115834 -0.15464574 0.022758957 0.009845391 0.08335161 0.17140752 -0.025717668 -0.22012259 -0.0507995 0.10199881 0.12113069 -0.022119688 0.06977884 -0.17203924 0.04142086 -0.01945458 -0.178171 -0.23969506 0.11845585 -0.12898701 0.048680756 -0.13355936 -0.14044513 0.1531052 0.088625096 0.16628167 -0.029466907 0.10452807 0.06514573 -0.044969045 -0.0299526 -0.21792634 -0.036193036 -0.008393509 0.03244944 0.20157158 0.0484957 0.07590163 -0.1906332 -0.06257086 0.13918807 0.10656575 -0.10225616 0.1407554 -0.08561735 -0.06798085 0.00067625544 -0.04446697 0.17587896 0.069978 -0.033284467 0.26172152 0.13822557 -0.012070513 -0.065109424 -0.07864868 0.12873913 0.059717122 0.22331737 -0.104942806 0.07719783 0.092865385 0.1534724 -0.11420241 0.04082196 -0.15494317 -0.0127505865 -0.058567215 0.21776937 -0.002810431
30 -0.13873295 0.13361908 -0.046084113 0.09877243 0.062258527 -0.114802375 -0.13095279 -0.19314957 -0.19800882 0.04496258 -0.031795375 0.08573303 0.13955477 0.14017281 0.18591353 -0.0781234 -0.16115871 0.03863701 -0.30688033 -0.0006791543 0.057609104 -0.09263392 0.14649071 -0.017598467 -0.007957694 0.120527886 0.091110274 0.0903536 0.042473868 -0.20598109 -0.2476516 -0.23144113 -0.25449133 0.09844895 0.13927819 -0.091729976 0.056674793 -0.17309794 -0.03391224 0.059034187 -0.05443279 -0.09793597 0.11450829 -0.027975628 -0.11072886 -0.11958886 -0.13672034 0.2070389 0.051290408 0.0037799145 -0.04519503 9.636642e-05 0.04284919 -0.068635255 -0.005124278 -0.18547852 0.25056294 -0.103272416 0.14501017 -0.2800438 0.053602178 0.06330245 0.13795014 0.25763482 -0.021205572 -0.15220463 0.023552928 0.013381883 0.061370935 -0.0119508635 -0.010803407 -0.269732 0.073197074 -0.0884837 -0.21907222 -0.16718745 0.03445149 -0.06198953 0.015510442 -0.22368209 -0.09301472 0.17889324 0.075367704 0.16295801 -0.029455662 0.050688602 0.048416793 -0.06484925 0.07064793 -0.24430466 -0.061902896 -0.013866578 -0.03534191 0.11313522 0.044931926 0.06364801 -0.20381832 -0.13623017 0.1919849 -0.03590291 -0.19717246 0.1514584 -0.13998859 0.0124095455 -0.0046990877 -0.033727575 0.08966695 0.06567505 -0.041542538 0.28673595 0.14110231 0.015208636 -0.09272461 -0.08169944 0.19571735 -0.036815085 0.20348157 -0.117081255 0.062010787 0.11846114 -0.04053292 -0.10242713 0.111679845 -0.17930596 -0.1434662 0.06550724 0.28588936 -0.08979449
125 -0.18856713 0.010767595 0.10280847 0.16995104 0.19583179 -0.020348128 0.06373497 0.055435974 -0.15473796 0.12177082 0.081096984 0.12984762 -0.09308261 0.07654437 0.16730173 -0.085323244 -0.29723114 -0.13768248 -0.124905884 -0.0242749 0.18332024 -0.081615135 -0.20169693 0.2335898 0.0048753307 0.07118488 0.05345148 0.14447086 0.049424622 -0.15288794 0.029157115 0.093269154 0.02767533 0.06680499 0.015404125 -0.22772269 -0.121985644 -0.031114537 -0.05185622 -0.094214596 0.015055779 -0.053991523 -0.040862985 -0.1380133 -0.16570425 -0.031248813 0.19909291 0.08775713 0.24532844 -0.07332077 0.0051534353 -0.12873481 0.08258133 -0.13436988 0.024744345 -0.2562729 0.09358304 -0.08656217 0.26783928 0.017918942 -0.19059736 -0.012167226 -0.04970734 0.0123781925 -0.023460153 -0.19519101 0.025919704 -0.07288746 -0.005884149 -0.1957584 0.11823342 -0.06379151 0.10579709 0.13118902 0.046216406 -0.31577152 0.10816762 -0.076264635 0.062436312 -0.10994886 -0.05158508 0.05837497 -0.15827817 0.16381465 -0.031527266 0.16199328 -0.036094043 0.059445933 -0.019684391 -0.053527355 -0.0047844234 -0.07778988 0.1299295 0.16066507 0.1434917 -0.018123066 -0.025737299 -0.17560339 0.09226173 0.14026442 -0.031368293 -0.11112468 -0.072117016 -0.080890596 -0.014123551 0.14592907 0.20221154 -0.023160055 0.026561946 0.17678744 0.034941964 0.15983899 -0.082393266 -0.07769702 0.28858185 0.053746905 0.1862772 -0.020600809 -0.15240203 0.095969334 0.14463641 -0.09022476 -0.07827012 -0.0616473 0.121712305 -0.02732908 0.061846174 0.0060549555
18 -0.3319138 -0.25604102 0.15678379 0.3189351 0.22713065 0.029964872 -0.25461796 0.00046487164 0.012678901 0.3475888 0.20488556 0.45951462 0.20610711 0.15264684 0.22465707 0.2949144 -0.38876697 0.12618972 -0.5223712 -0.053428695 0.12108197 -0.06385986 0.02069564 0.38767788 0.16226724 0.14092323 0.09837193 -0.10614823 -0.16554165 -0.28674224 0.0053171273 -0.19102542 -0.42731583 -0.04752162 0.22344247 -0.035251323 -0.13828276 0.17766154 -0.032132268 -0.0031794151 0.10112762 -0.07684045 0.33133334 0.12161481 -0.029071791 -0.46172282 0.20132184 0.3882773 -0.18802986 -0.0876096 0.17066486 0.30607936 0.0064549255 -0.10956129 0.1979657 -0.1767599 -0.17770612 -0.24721847 0.137182 -0.2188991 0.113904074 -0.041825075 -0.31202316 -0.025667407 0.15300065 -0.3388353 0.5096433 -0.23237951 -0.08716733 -0.070521146 0.061250187 0.15665343 -0.024206443 0.3902753 -0.28535223 -0.5083189 0.19188131 0.014469473 0.0143999215 -0.097501226 -0.21167828 -0.09220623 0.13440065 0.45874962 0.30496946 0.2101098 -0.07702002 -0.21778846 0.30468717 -0.26165205 -0.50306326 -0.024669852 0.3036931 0.18803294 0.21385518 -0.08766602 -0.12266297 -0.43960494 0.09344907 0.20151691 -0.23968327 0.18879397 -0.06745483 0.22522022 -0.25172752 -0.027555654 0.39503187 -0.18407784 -0.14540298 0.16240816 -0.046106193 0.06943505 -0.20946781 0.12758522 0.3005912 0.06057364 0.14873439 0.04425939 0.20037837 0.17966776 0.32334274 -0.23504765 -0.080404796 -0.15234888 -0.10382122 -0.24964784 0.22815563 0.10965905
78 -0.12364837 0.013484877 0.04676403 0.088838734 0.19505914 0.01195795 0.02397683 0.0013325405 -0.16416441 0.09684503 0.11645283 0.113978006 -0.06658788 0.10757136 0.16379891 -0.07368307 -0.28502053 -0.11450758 -0.17911129 0.01191596 0.121702656 -0.10709068 -0.1149699 0.15179148 0.0014546483 0.02518412 0.14614485 0.15922835 0.084568195 -0.18368709 -0.030212332 0.04987703 -0.069117 0.083543114 0.04011063 -0.25688925 -0.14317507 -0.057655662 0.082326055 -0.11322193 0.04189722 -0.10642081 -0.029565055 -0.1131901 -0.23137331 0.024752583 0.16021226 0.13680866 0.19552463 -0.034741227 0.034823958 -0.12600452 0.14138491 -0.12361259 -0.053802 -0.2535713 0.19362625 -0.04741419 0.20514685 -0.013611733 -0.21074945 0.008663045 -0.056776635 0.03646107 0.00011057151 -0.21019746 -0.017751653 -0.057059854 0.036645416 -0.17149433 0.091471344 -0.11121636 0.08012346 0.024024582 0.04504803 -0.28731748 0.10338734 -0.15008904 0.09613322 -0.18598951 -0.014205332 0.04070554 -0.14474067 0.20369224 -0.03316508 0.12181899 -0.0018224368 0.042466413 -0.06717015 -0.06383916 -0.0065750903 -0.140083 0.11322028 0.20392387 0.13422444 0.054388676 -0.09433526 -0.15825976 0.12286415 0.09832814 -0.06099671 -0.13367862 -0.0946769 -0.05911211 0.0069402223 0.13823998 0.19392586 0.023782056 0.06147001 0.20694448 0.09645628 0.09458578 -0.08046212 -0.12960266 0.26506066 0.045483496 0.20436583 -0.049459554 -0.10591093 0.08720493 0.12660645 -0.07444504 -0.040152196 -0.06225092 0.07764036 0.02862643 0.11338261 -0.04992044
113 -0.09791854 -0.019895485 0.035195734 0.1457269 0.039191928 0.043571122 -0.11647485 -0.1797753 -0.08213445 -0.04112261 -0.0071844305 0.098006144 -0.007401183 0.026833894 0.18076539 0.03741184 -0.07683768 -0.01562148 -0.26734272 0.061902978 0.020766726 -0.13019963 0.057282437 0.20065016 0.058440752 0.10174909 0.124534465 0.11282165 0.120245196 -0.19397295 -0.20290391 -0.2536134 -0.2971565 0.080032125 0.072774455 -0.007850133 0.019270843 -0.10430192 0.0022214584 0.028784104 0.040594336 -0.086465925 0.1276908 -0.039492417 -0.15173784 -0.04108179 -0.0027594008 0.20443322 -0.027439432 -0.032253254 -0.17453326 0.17720522 0.0856133 0.030761734 -0.009828838 0.036386095 0.13902564 -0.0088749705 0.0852083 -0.1584629 0.06637517 -0.00028048048 0.087303065 0.18352586 -0.02988375 -0.23072578 -0.04763776 0.12359687 0.13386168 -0.008780102 0.0745874 -0.14617229 0.03329494 0.026244953 -0.19831549 -0.2576265 0.12635092 -0.13705336 0.04425642 -0.09774352 -0.17302458 0.16598192 0.13967338 0.16507627 -0.0061168666 0.114778236 0.07338816 -0.057041753 -0.018908001 -0.24034467 -0.0531522 0.02566253 0.038147222 0.20539248 0.036812004 0.07315604 -0.19086576 -0.03790952 0.11895551 0.14435503 -0.09708587 0.18387088 -0.07016271 -0.06714755 -0.0041041393 -0.069811136 0.19084261 0.067703046 -0.053391445 0.2675605 0.13169675 -0.034376338 -0.059518587 -0.044543743 0.100490786 0.08652232 0.22273289 -0.10306821 0.09703818 0.09504591 0.1950337 -0.13190345 0.030510128 -0.1558013 0.0049977284 -0.103065304 0.20735073 0.025484418
